{"learner":{"attributes":{"best_iteration":"510","best_score":"0.2106165434892921","scikit_learn":"{\"_estimator_type\": \"regressor\"}"},"feature_names":[],"feature_types":[],"gradient_booster":{"model":{"cats":{"enc":[],"feature_segments":[],"sorted_idx":[]},"gbtree_model_param":{"num_parallel_tree":"1","num_trees":"631"},"iteration_indptr":[0,1,2,3,4,5,6,7,8,9,10,11,12,13,14,15,16,17,18,19,20,21,22,23,24,25,26,27,28,29,30,31,32,33,34,35,36,37,38,39,40,41,42,43,44,45,46,47,48,49,50,51,52,53,54,55,56,57,58,59,60,61,62,63,64,65,66,67,68,69,70,71,72,73,74,75,76,77,78,79,80,81,82,83,84,85,86,87,88,89,90,91,92,93,94,95,96,97,98,99,100,101,102,103,104,105,106,107,108,109,110,111,112,113,114,115,116,117,118,119,120,121,122,123,124,125,126,127,128,129,130,131,132,133,134,135,136,137,138,139,140,141,142,143,144,145,146,147,148,149,150,151,152,153,154,155,156,157,158,159,160,161,162,163,164,165,166,167,168,169,170,171,172,173,174,175,176,177,178,179,180,181,182,183,184,185,186,187,188,189,190,191,192,193,194,195,196,197,198,199,200,201,202,203,204,205,206,207,208,209,210,211,212,213,214,215,216,217,218,219,220,221,222,223,224,225,226,227,228,229,230,231,232,233,234,235,236,237,238,239,240,241,242,243,244,245,246,247,248,249,250,251,252,253,254,255,256,257,258,259,260,261,262,263,264,265,266,267,268,269,270,271,272,273,274,275,276,277,278,279,280,281,282,283,284,285,286,287,288,289,290,291,292,293,294,295,296,297,298,299,300,301,302,303,304,305,306,307,308,309,310,311,312,313,314,315,316,317,318,319,320,321,322,323,324,325,326,327,328,329,330,331,332,333,334,335,336,337,338,339,340,341,342,343,344,345,346,347,348,349,350,351,352,353,354,355,356,357,358,359,360,361,362,363,364,365,366,367,368,369,370,371,372,373,374,375,376,377,378,379,380,381,382,383,384,385,386,387,388,389,390,391,392,393,394,395,396,397,398,399,400,401,402,403,404,405,406,407,408,409,410,411,412,413,414,415,416,417,418,419,420,421,422,423,424,425,426,427,428,429,430,431,432,433,434,435,436,437,438,439,440,441,442,443,444,445,446,447,448,449,450,451,452,453,454,455,456,457,458,459,460,461,462,463,464,465,466,467,468,469,470,471,472,473,474,475,476,477,478,479,480,481,482,483,484,485,486,487,488,489,490,491,492,493,494,495,496,497,498,499,500,501,502,503,504,505,506,507,508,509,510,511,512,513,514,515,516,517,518,519,520,521,522,523,524,525,526,527,528,529,530,531,532,533,534,535,536,537,538,539,540,541,542,543,544,545,546,547,548,549,550,551,552,553,554,555,556,557,558,559,560,561,562,563,564,565,566,567,568,569,570,571,572,573,574,575,576,577,578,579,580,581,582,583,584,585,586,587,588,589,590,591,592,593,594,595,596,597,598,599,600,601,602,603,604,605,606,607,608,609,610,611,612,613,614,615,616,617,618,619,620,621,622,623,624,625,626,627,628,629,630,631],"tree_info":[0,0,0,0,0,0,0,0,0,0,0,0,0,0,0,0,0,0,0,0,0,0,0,0,0,0,0,0,0,0,0,0,0,0,0,0,0,0,0,0,0,0,0,0,0,0,0,0,0,0,0,0,0,0,0,0,0,0,0,0,0,0,0,0,0,0,0,0,0,0,0,0,0,0,0,0,0,0,0,0,0,0,0,0,0,0,0,0,0,0,0,0,0,0,0,0,0,0,0,0,0,0,0,0,0,0,0,0,0,0,0,0,0,0,0,0,0,0,0,0,0,0,0,0,0,0,0,0,0,0,0,0,0,0,0,0,0,0,0,0,0,0,0,0,0,0,0,0,0,0,0,0,0,0,0,0,0,0,0,0,0,0,0,0,0,0,0,0,0,0,0,0,0,0,0,0,0,0,0,0,0,0,0,0,0,0,0,0,0,0,0,0,0,0,0,0,0,0,0,0,0,0,0,0,0,0,0,0,0,0,0,0,0,0,0,0,0,0,0,0,0,0,0,0,0,0,0,0,0,0,0,0,0,0,0,0,0,0,0,0,0,0,0,0,0,0,0,0,0,0,0,0,0,0,0,0,0,0,0,0,0,0,0,0,0,0,0,0,0,0,0,0,0,0,0,0,0,0,0,0,0,0,0,0,0,0,0,0,0,0,0,0,0,0,0,0,0,0,0,0,0,0,0,0,0,0,0,0,0,0,0,0,0,0,0,0,0,0,0,0,0,0,0,0,0,0,0,0,0,0,0,0,0,0,0,0,0,0,0,0,0,0,0,0,0,0,0,0,0,0,0,0,0,0,0,0,0,0,0,0,0,0,0,0,0,0,0,0,0,0,0,0,0,0,0,0,0,0,0,0,0,0,0,0,0,0,0,0,0,0,0,0,0,0,0,0,0,0,0,0,0,0,0,0,0,0,0,0,0,0,0,0,0,0,0,0,0,0,0,0,0,0,0,0,0,0,0,0,0,0,0,0,0,0,0,0,0,0,0,0,0,0,0,0,0,0,0,0,0,0,0,0,0,0,0,0,0,0,0,0,0,0,0,0,0,0,0,0,0,0,0,0,0,0,0,0,0,0,0,0,0,0,0,0,0,0,0,0,0,0,0,0,0,0,0,0,0,0,0,0,0,0,0,0,0,0,0,0,0,0,0,0,0,0,0,0,0,0,0,0,0,0,0,0,0,0,0,0,0,0,0,0,0,0,0,0,0,0,0,0,0,0,0,0,0,0,0,0,0,0,0,0,0,0,0,0,0,0,0,0,0,0,0,0,0,0,0,0,0,0,0,0,0,0,0,0,0,0,0,0,0,0,0,0,0,0,0,0,0,0,0,0,0,0,0,0,0,0,0,0,0,0,0,0,0,0,0,0,0,0,0,0,0,0,0,0,0,0,0,0,0,0,0,0,0,0,0,0,0,0,0],"trees":[{"base_weights":[-1.2530722E-3,-2.6963183E-1,4.046839E-1,3.9346203E-2,-3.600644E-1,8.0523384E-1,2.8958505E-1,4.055289E-1,-2.3330468E-1,-4.8384303E-1,-1.6842206E-1,6.258994E-1,2.35609E-2,1.7443432E-1,4.554449E-1,5.9233826E-1,1.8767424E-1,-2.55159E-2,-2.0547888E-1,-2.1285106E-1,-5.418712E-1,-2.337187E-1,-5.8184545E-2,-1.5798945E-2,6.9286644E-1,2.1606117E-1,-2.130019E-1,3.03034E-1,6.5283215E-1,4.5222193E-1,7.1427566E-1,1.2223099E-2,4.4897804E-1,-3.4050086E-1,-7.581436E-2,-3.1808814E-1,5.997538E-1,-8.153293E-1,-4.7002304E-1,2.2146566E-1,-2.5188437E-1,-1.3094619E-2,-3.4253007E-1,4.3787098E-1,7.613013E-1,1.0579288E-1,2.7547765E-1,1.5057058E-2,-3.2283345E-1,1.6850998E-1,3.8195834E-1,6.8299073E-1,-6.623978E-4,6.5537607E-3,1.2693049E-2,3.2980263E-3,1.5309006E-2,1.3770951E-3,-6.4734737E-3,1.4043429E-2,5.3097503E-3,-8.4248587E-4,-7.035918E-3,-1.8900806E-3,2.39086E-3,-2.803439E-3,-1.2565771E-2,3.084563E-3,1.7751556E-2,-1.0728406E-2,-1.755324E-2,-8.862116E-3,-2.0317761E-2,-3.1938988E-3,8.760309E-3,-1.8269889E-2,-4.6878187E-3,6.103919E-3,-7.6885935E-4,3.8344826E-4,-8.333435E-3,4.368033E-3,9.5671965E-3,1.7962871E-2,1.4141117E-2,2.3863777E-3,-6.492465E-3,6.25499E-3,8.6775824E-4,-2.9031509E-3,7.71054E-3,-2.0348567E-3,-1.057381E-2,3.9692377E-3,4.114893E-4,8.049222E-3,-3.2103597E-3,1.1591955E-2,1.5461771E-2],"categories":[],"categories_nodes":[],"categories_segments":[],"categories_sizes":[],"default_left":[0,0,0,0,0,0,0,0,0,0,0,0,0,0,0,0,0,0,0,0,0,0,0,0,0,0,0,0,0,0,0,0,0,0,0,0,0,0,0,0,0,0,0,0,0,0,0,0,0,0,0,0,0,0,0,0,0,0,0,0,0,0,0,0,0,0,0,0,0,0,0,0,0,0,0,0,0,0,0,0,0,0,0,0,0,0,0,0,0,0,0,0,0,0,0,0,0,0,0],"id":0,"left_children":[1,3,5,7,9,11,13,15,17,19,21,23,-1,25,27,29,31,-1,33,35,37,39,41,-1,43,45,47,49,51,53,55,57,59,61,63,65,67,69,71,73,75,77,79,81,83,85,87,89,91,93,95,97,-1,-1,-1,-1,-1,-1,-1,-1,-1,-1,-1,-1,-1,-1,-1,-1,-1,-1,-1,-1,-1,-1,-1,-1,-1,-1,-1,-1,-1,-1,-1,-1,-1,-1,-1,-1,-1,-1,-1,-1,-1,-1,-1,-1,-1,-1,-1],"loss_changes":[7.254372E2,1.1211063E2,1.2148721E2,9.0978264E1,7.3289795E1,3.7610718E1,3.9097015E1,1.5452915E1,1.4321693E1,2.9228882E1,8.703354E0,3.9285736E1,0E0,1.9784634E1,2.4773956E1,2.674446E0,8.286612E0,0E0,8.81147E0,2.905865E1,2.94104E1,6.443226E0,5.7919765E0,0E0,5.829376E0,7.0985947E0,3.0519962E0,4.8574486E0,7.7261047E0,1.7316303E0,2.569683E0,2.1241171E0,2.8251085E0,7.3075294E-1,9.8149455E-1,1.6171883E1,4.5189466E0,4.321457E0,1.6909912E1,2.6717691E0,7.872101E0,3.1812346E0,1.7581463E0,4.247856E-1,6.4323425E-1,2.3127346E0,6.086685E0,2.5341861E0,3.4528913E0,7.544594E-1,3.514267E0,2.0937195E0,0E0,0E0,0E0,0E0,0E0,0E0,0E0,0E0,0E0,0E0,0E0,0E0,0E0,0E0,0E0,0E0,0E0,0E0,0E0,0E0,0E0,0E0,0E0,0E0,0E0,0E0,0E0,0E0,0E0,0E0,0E0,0E0,0E0,0E0,0E0,0E0,0E0,0E0,0E0,0E0,0E0,0E0,0E0,0E0,0E0,0E0,0E0],"parents":[2147483647,0,0,1,1,2,2,3,3,4,4,5,5,6,6,7,7,8,8,9,9,10,10,11,11,13,13,14,14,15,15,16,16,18,18,19,19,20,20,21,21,22,22,24,24,25,25,26,26,27,27,28,28,29,29,30,30,31,31,32,32,33,33,34,34,35,35,36,36,37,37,38,38,39,39,40,40,41,41,42,42,43,43,44,44,45,45,46,46,47,47,48,48,49,49,50,50,51,51],"right_children":[2,4,6,8,10,12,14,16,18,20,22,24,-1,26,28,30,32,-1,34,36,38,40,42,-1,44,46,48,50,52,54,56,58,60,62,64,66,68,70,72,74,76,78,80,82,84,86,88,90,92,94,96,98,-1,-1,-1,-1,-1,-1,-1,-1,-1,-1,-1,-1,-1,-1,-1,-1,-1,-1,-1,-1,-1,-1,-1,-1,-1,-1,-1,-1,-1,-1,-1,-1,-1,-1,-1,-1,-1,-1,-1,-1,-1,-1,-1,-1,-1,-1,-1],"split_conditions":[5.8114984E2,-5E-1,2.3E0,2E0,3.9697003E2,1.5768907E3,7.06991E2,9E0,4.0535383E-2,2.5145939E1,4.9642612E2,2.5298207E2,2.35609E-2,1.3866667E1,1.00491986E3,7.06991E2,2.321108E1,-2.55159E-2,4.2880252E2,8.2488824E2,1.5540843E1,2E0,1.1003333E1,-1.5798945E-2,8.6980225E2,6.95979E2,3.1128576E1,7.134661E2,1.2366667E1,1.4302638E1,-9.659258E-1,1.4773334E1,3E0,2.3533305E2,1.4312223E3,7.0710677E-1,5E-1,-5E-1,2.4962662E1,1.3657473E1,1.5600833E1,2.2968122E1,0E0,-8.660254E-1,2.03E1,2.2192842E1,3.6334538E1,6E0,7.0381007E0,1E0,3.829535E1,1.221389E3,-6.623978E-4,6.5537607E-3,1.2693049E-2,3.2980263E-3,1.5309006E-2,1.3770951E-3,-6.4734737E-3,1.4043429E-2,5.3097503E-3,-8.4248587E-4,-7.035918E-3,-1.8900806E-3,2.39086E-3,-2.803439E-3,-1.2565771E-2,3.084563E-3,1.7751556E-2,-1.0728406E-2,-1.755324E-2,-8.862116E-3,-2.0317761E-2,-3.1938988E-3,8.760309E-3,-1.8269889E-2,-4.6878187E-3,6.103919E-3,-7.6885935E-4,3.8344826E-4,-8.333435E-3,4.368033E-3,9.5671965E-3,1.7962871E-2,1.4141117E-2,2.3863777E-3,-6.492465E-3,6.25499E-3,8.6775824E-4,-2.9031509E-3,7.71054E-3,-2.0348567E-3,-1.057381E-2,3.9692377E-3,4.114893E-4,8.049222E-3,-3.2103597E-3,1.1591955E-2,1.5461771E-2],"split_indices":[13,7,1,29,13,13,14,1,23,18,13,14,0,1,13,14,13,0,13,14,24,29,1,0,13,13,22,13,1,4,7,1,11,13,15,7,7,9,24,24,15,24,7,8,3,3,22,29,4,10,21,13,0,0,0,0,0,0,0,0,0,0,0,0,0,0,0,0,0,0,0,0,0,0,0,0,0,0,0,0,0,0,0,0,0,0,0,0,0,0,0,0,0,0,0,0,0,0,0],"split_type":[0,0,0,0,0,0,0,0,0,0,0,0,0,0,0,0,0,0,0,0,0,0,0,0,0,0,0,0,0,0,0,0,0,0,0,0,0,0,0,0,0,0,0,0,0,0,0,0,0,0,0,0,0,0,0,0,0,0,0,0,0,0,0,0,0,0,0,0,0,0,0,0,0,0,0,0,0,0,0,0,0,0,0,0,0,0,0,0,0,0,0,0,0,0,0,0,0,0,0],"sum_hessian":[6.655E3,4.007E3,2.648E3,9.07E2,3.1E3,5.88E2,2.06E3,3.87E2,5.2E2,1.881E3,1.219E3,4.01E2,1.87E2,1.219E3,8.41E2,2.06E2,1.81E2,1.1E1,5.09E2,3.34E2,1.547E3,7.63E2,4.56E2,1.7E1,3.84E2,1.102E3,1.17E2,4.78E2,3.63E2,1.01E2,1.05E2,1.1E2,7.1E1,2.47E2,2.62E2,2.97E2,3.7E1,3.17E2,1.23E3,2.8E1,7.35E2,3.96E2,6E1,8.5E1,2.99E2,3.89E2,7.13E2,3.8E1,7.9E1,1.8E2,2.98E2,3.48E2,1.5E1,6.4E1,3.7E1,1E1,9.5E1,9.6E1,1.4E1,2.7E1,4.4E1,1E1,2.37E2,2.41E2,2.1E1,1.91E2,1.06E2,1.6E1,2.1E1,6.2E1,2.55E2,1.176E3,5.4E1,1E1,1.8E1,1.6E1,7.19E2,2.7E1,3.69E2,1E1,5E1,1.6E1,6.9E1,7.5E1,2.24E2,3.79E2,1E1,6.13E2,1E2,2.7E1,1.1E1,4E1,3.9E1,1.48E2,3.2E1,2.88E2,1E1,1.7E2,1.78E2],"tree_param":{"num_deleted":"0","num_feature":"35","num_nodes":"99","size_leaf_vector":"1"}},{"base_weights":[2.1123532E-3,-2.2451855E-1,4.6187913E-1,-5.7886895E-2,-3.934641E-1,9.035041E-1,3.5374275E-1,3.6636624E-1,-1.4318472E-1,-1.4954166E-1,-4.723608E-1,7.4019176E-1,1.1590098E0,3.9904633E-1,-1.9757257E-1,1.7094819E-1,6.329006E-1,-2.7046007E-1,1.9294128E-2,-4.569745E-2,-4.4659016E-1,-6.2899345E-1,-3.3307812E-1,-4.3589133E-3,7.7918893E-1,2.7325727E-2,9.928814E-1,2.8227288E-1,5.32744E-1,7.4376605E-2,-4.0774894E-1,4.2509723E-1,2.6990833E-2,3.9716002E-1,8.740973E-1,-6.4665633E-1,-2.0563973E-1,3.1896446E-2,-1.6652282E-2,-1.770958E-1,2.0700997E-1,-7.2901344E-1,-2.7507722E-1,-8.0263984E-1,-5.2802E-1,-2.7699855E-1,-5.563109E-1,1.1401814E-2,8.513726E-1,9.214064E-3,2.0791044E-2,3.152837E-1,1.0463732E-2,4.0124366E-1,7.4295443E-1,-2.285612E-2,9.837724E-3,-4.8617575E-1,8.7593775E-4,-3.866695E-4,1.0297844E-2,6.310525E-3,-2.7795157E-3,1.1188977E-2,2.0293107E-3,7.2560147E-3,1.8731903E-2,-2.3431959E-2,-6.4806156E-3,1.2542199E-2,-4.6738638E-3,-1.6062714E-3,2.0195756E-3,1.7256908E-4,-7.5731184E-3,8.250999E-3,-2.921167E-3,-1.8867036E-2,-4.9383E-3,-2.075532E-3,-9.053761E-3,-1.7196087E-2,-9.051277E-3,-1.0219703E-2,-1.8477159E-2,-6.252339E-3,6.4038606E-5,-8.904916E-3,-1.7592864E-2,1.7454283E-2,9.953874E-3,4.8120096E-3,9.725278E-3,-1.2977696E-2,2.0275342E-3,5.4616504E-3,9.442891E-3,1.5534087E-2,9.713013E-3,2.2059225E-3,-8.096015E-3,-5.7122326E-3,-1.2559028E-2],"categories":[],"categories_nodes":[],"categories_segments":[],"categories_sizes":[],"default_left":[0,0,0,0,0,0,0,0,0,0,0,0,0,0,0,0,0,0,0,0,0,0,0,0,0,0,0,0,0,0,0,0,0,0,0,0,0,0,0,0,0,0,0,0,0,0,0,0,0,0,0,0,0,0,0,0,0,0,0,0,0,0,0,0,0,0,0,0,0,0,0,0,0,0,0,0,0,0,0,0,0,0,0,0,0,0,0,0,0,0,0,0,0,0,0,0,0,0,0,0,0,0,0],"id":1,"left_children":[1,3,5,7,9,11,13,15,17,19,21,23,25,27,29,31,33,35,37,39,41,43,45,-1,47,-1,49,51,53,55,57,59,61,63,65,67,69,71,-1,73,75,77,79,81,83,85,87,-1,89,-1,-1,91,93,95,97,99,-1,101,-1,-1,-1,-1,-1,-1,-1,-1,-1,-1,-1,-1,-1,-1,-1,-1,-1,-1,-1,-1,-1,-1,-1,-1,-1,-1,-1,-1,-1,-1,-1,-1,-1,-1,-1,-1,-1,-1,-1,-1,-1,-1,-1,-1,-1],"loss_changes":[7.021283E2,1.2691269E2,1.0536578E2,8.238769E1,4.2842407E1,1.6097473E1,4.4930954E1,1.9467464E1,3.926911E1,1.6857296E1,3.6279785E1,1.0615082E1,2.5311737E0,2.5390259E1,7.9578757E0,8.045451E0,8.14901E0,2.55094E1,8.846811E0,1.3714732E1,6.2764835E0,1.2790466E1,1.0792061E1,0E0,2.6994781E0,0E0,1.2258224E0,7.90493E0,2.043222E1,2.592623E0,2.8933E0,3.311634E0,7.0666614E0,3.8332605E0,1.5210571E0,2.519233E1,2.1496765E1,6.4077783E0,0E0,1.02627535E1,1.0406135E1,4.669365E0,2.5938358E0,4.7026978E0,2.194336E0,7.2896194E0,5.343849E0,0E0,2.9135132E-1,0E0,0E0,9.733963E0,5.9564533E0,3.9365387E0,1.5375214E0,2.741893E0,0E0,1.3637409E0,0E0,0E0,0E0,0E0,0E0,0E0,0E0,0E0,0E0,0E0,0E0,0E0,0E0,0E0,0E0,0E0,0E0,0E0,0E0,0E0,0E0,0E0,0E0,0E0,0E0,0E0,0E0,0E0,0E0,0E0,0E0,0E0,0E0,0E0,0E0,0E0,0E0,0E0,0E0,0E0,0E0,0E0,0E0,0E0,0E0],"parents":[2147483647,0,0,1,1,2,2,3,3,4,4,5,5,6,6,7,7,8,8,9,9,10,10,11,11,12,12,13,13,14,14,15,15,16,16,17,17,18,18,19,19,20,20,21,21,22,22,24,24,26,26,27,27,28,28,29,29,30,30,31,31,32,32,33,33,34,34,35,35,36,36,37,37,39,39,40,40,41,41,42,42,43,43,44,44,45,45,46,46,48,48,51,51,52,52,53,53,54,54,55,55,57,57],"right_children":[2,4,6,8,10,12,14,16,18,20,22,24,26,28,30,32,34,36,38,40,42,44,46,-1,48,-1,50,52,54,56,58,60,62,64,66,68,70,72,-1,74,76,78,80,82,84,86,88,-1,90,-1,-1,92,94,96,98,100,-1,102,-1,-1,-1,-1,-1,-1,-1,-1,-1,-1,-1,-1,-1,-1,-1,-1,-1,-1,-1,-1,-1,-1,-1,-1,-1,-1,-1,-1,-1,-1,-1,-1,-1,-1,-1,-1,-1,-1,-1,-1,-1,-1,-1,-1,-1],"split_conditions":[6.704143E2,1.01E1,1.58E0,5.9177776E1,3.621821E1,1.5768907E3,1.39E1,7.06991E2,4.9106284E2,8.4611225E0,3.545059E2,3.4765527E2,2.401917E0,7.3240924E2,3.4736332E1,2.0613508E1,1.6828852E1,1.4540869E2,3.1672606E1,7.5290474E1,3.172377E2,1.5540843E1,2.2230251E1,-4.3589133E-3,1.1114874E1,2.7325727E-2,-8.660254E-1,3.6334538E1,1.0675647E3,3.314131E1,6E0,1.0798E1,2.3538828E1,2.7783361E1,-5E-1,6.4133334E0,2.4073223E1,5.408535E2,-1.6652282E-2,1.49E1,6.7662554E0,3.378266E2,2.1602E1,5E-1,1.2631829E3,5.165765E2,1.46E1,1.1401814E-2,1.94E0,9.214064E-3,2.0791044E-2,1.0253129E3,3.1672606E1,8.025913E2,9.74E0,3.1955462E1,9.837724E-3,2.23E1,8.7593775E-4,-3.866695E-4,1.0297844E-2,6.310525E-3,-2.7795157E-3,1.1188977E-2,2.0293107E-3,7.2560147E-3,1.8731903E-2,-2.3431959E-2,-6.4806156E-3,1.2542199E-2,-4.6738638E-3,-1.6062714E-3,2.0195756E-3,1.7256908E-4,-7.5731184E-3,8.250999E-3,-2.921167E-3,-1.8867036E-2,-4.9383E-3,-2.075532E-3,-9.053761E-3,-1.7196087E-2,-9.051277E-3,-1.0219703E-2,-1.8477159E-2,-6.252339E-3,6.4038606E-5,-8.904916E-3,-1.7592864E-2,1.7454283E-2,9.953874E-3,4.8120096E-3,9.725278E-3,-1.2977696E-2,2.0275342E-3,5.4616504E-3,9.442891E-3,1.5534087E-2,9.713013E-3,2.2059225E-3,-8.096015E-3,-5.7122326E-3,-1.2559028E-2],"split_indices":[13,0,1,18,18,13,0,14,13,26,13,14,30,14,22,3,18,14,24,13,13,24,3,0,26,0,8,22,13,22,11,4,14,22,9,1,22,13,0,1,26,14,3,10,18,13,0,0,0,0,0,13,24,13,0,22,0,3,0,0,0,0,0,0,0,0,0,0,0,0,0,0,0,0,0,0,0,0,0,0,0,0,0,0,0,0,0,0,0,0,0,0,0,0,0,0,0,0,0,0,0,0,0],"split_type":[0,0,0,0,0,0,0,0,0,0,0,0,0,0,0,0,0,0,0,0,0,0,0,0,0,0,0,0,0,0,0,0,0,0,0,0,0,0,0,0,0,0,0,0,0,0,0,0,0,0,0,0,0,0,0,0,0,0,0,0,0,0,0,0,0,0,0,0,0,0,0,0,0,0,0,0,0,0,0,0,0,0,0,0,0,0,0,0,0,0,0,0,0,0,0,0,0,0,0,0,0,0,0],"sum_hessian":[6.734E3,4.511E3,2.223E3,2.273E3,2.238E3,4.34E2,1.789E3,3.79E2,1.894E3,5.49E2,1.689E3,2.7E2,1.64E2,1.654E3,1.35E2,2.21E2,1.58E2,1.062E3,8.32E2,4.09E2,1.4E2,7.91E2,8.98E2,1E1,2.6E2,6.6E1,9.8E1,8.87E2,7.67E2,5.9E1,7.6E1,7.8E1,1.43E2,8.3E1,7.5E1,1.53E2,9.09E2,8.22E2,1E1,2.7E2,1.39E2,5E1,9E1,2.85E2,5.06E2,7.22E2,1.76E2,7.2E1,1.88E2,1E1,8.8E1,7.9E2,9.7E1,4.76E2,2.91E2,4.9E1,1E1,6.5E1,1.1E1,1.3E1,6.5E1,5.2E1,9.1E1,5.2E1,3.1E1,1E1,6.5E1,5.6E1,9.7E1,2.8E1,8.81E2,3.12E2,5.1E2,1.41E2,1.29E2,8.8E1,5.1E1,3.3E1,1.7E1,4.8E1,4.2E1,2.42E2,4.3E1,4.9E2,1.6E1,6.41E2,8.1E1,1.35E2,4.1E1,1.74E2,1.4E1,5.54E2,2.36E2,1E1,8.7E1,1.74E2,3.02E2,2.53E2,3.8E1,3.7E1,1.2E1,3E1,3.5E1],"tree_param":{"num_deleted":"0","num_feature":"35","num_nodes":"103","size_leaf_vector":"1"}},{"base_weights":[-5.401978E-3,-2.2160837E-1,4.5445412E-1,-3.3959597E-1,-3.4300413E-2,2.5597027E-1,6.705144E-1,-4.2916965E-1,-8.385263E-2,3.812294E-1,-1.07994795E-1,-2.9140136E-1,2.94433E-1,9.753775E-1,5.250672E-1,-1.0534834E-2,-4.7499022E-1,4.5816275E-1,-1.1624698E-1,-7.31875E-3,5.5041045E-1,-2.6564726E-1,-3.0730418E-3,-7.876481E-2,-4.943749E-1,3.0249644E-2,3.426065E-1,8.0697155E-1,1.1239644E0,3.926431E-1,6.4245653E-1,-1.0567577E-1,1.2412695E-2,-6.723373E-1,-4.084312E-1,1.4889472E-2,7.5505837E-4,-4.9314988E-1,-9.723118E-2,3.12158E-1,-2.8831774E-1,3.6867043E-1,7.0218635E-1,-5.765657E-2,-3.3660954E-1,-8.6857714E-2,1.03707194E-1,5.592285E-3,-2.6616398E-1,-1.856364E-2,-2.57544E-1,1.9888997E-1,-3.5820588E-1,2.859372E-1,5.2054256E-1,1.7966216E-2,5.8901006E-1,1.5745293E-2,2.3628892E-2,2.93879E-1,4.6833923E-1,-2.0903416E-3,6.66823E-1,1.8915797E-3,-6.936196E-3,-7.970906E-3,-1.7432792E-2,9.625992E-3,-8.404854E-3,-2.0907022E-2,-1.8964102E-3,-2.9066098E-3,8.88828E-4,5.308236E-4,8.306518E-3,-6.4309855E-4,-1.2498905E-2,9.664837E-5,9.700206E-3,8.768107E-3,1.7026016E-2,-2.9464057E-3,1.0379801E-2,-8.697492E-3,-5.1499177E-3,9.340374E-3,-2.3587702E-3,8.780241E-3,1.8265399E-3,-9.289926E-3,8.500168E-4,-9.009571E-3,8.407454E-4,6.5079425E-3,-4.6962234E-3,-8.625937E-3,-1.3687952E-3,-2.339097E-3,6.1332523E-3,1.3973521E-2,5.4009096E-3,5.859669E-3,1.292919E-2,6.494025E-3,-2.0119082E-3,5.858919E-3,1.0489282E-2,1.4254759E-2,9.840103E-3],"categories":[],"categories_nodes":[],"categories_segments":[],"categories_sizes":[],"default_left":[0,0,0,0,0,0,0,0,0,0,0,0,0,0,0,0,0,0,0,0,0,0,0,0,0,0,0,0,0,0,0,0,0,0,0,0,0,0,0,0,0,0,0,0,0,0,0,0,0,0,0,0,0,0,0,0,0,0,0,0,0,0,0,0,0,0,0,0,0,0,0,0,0,0,0,0,0,0,0,0,0,0,0,0,0,0,0,0,0,0,0,0,0,0,0,0,0,0,0,0,0,0,0,0,0,0,0,0,0],"id":2,"left_children":[1,3,5,7,9,11,13,15,17,19,21,23,25,27,29,31,33,35,37,39,41,43,45,47,49,51,53,55,57,59,61,63,-1,65,67,-1,-1,69,71,73,75,77,79,81,83,85,87,-1,89,-1,91,93,95,97,99,-1,101,-1,-1,103,105,-1,107,-1,-1,-1,-1,-1,-1,-1,-1,-1,-1,-1,-1,-1,-1,-1,-1,-1,-1,-1,-1,-1,-1,-1,-1,-1,-1,-1,-1,-1,-1,-1,-1,-1,-1,-1,-1,-1,-1,-1,-1,-1,-1,-1,-1,-1,-1],"loss_changes":[6.641072E2,1.0032442E2,9.107266E1,6.3669678E1,5.389217E1,2.3688866E1,4.3948273E1,3.9465515E1,1.2785419E1,1.7536446E1,2.4690216E1,3.0013041E0,1.3204041E1,5.9823E0,1.0107895E1,1.2398495E1,2.3653015E1,4.7224274E0,4.709832E0,7.53659E0,4.371071E0,8.693748E0,8.075484E0,2.765394E0,3.0860987E0,1.0854144E1,8.444756E0,1.8495636E0,9.974518E-1,2.0618172E0,6.8952637E0,8.85622E0,0E0,2.4425003E1,1.5062912E1,0E0,0E0,6.6123796E0,4.5101247E0,1.0387733E0,3.7088063E0,3.6646147E0,2.850315E0,8.092744E0,3.0892754E0,8.7683115E0,1.4575968E0,0E0,1.776774E0,0E0,1.6801506E0,6.5354223E0,8.99982E-1,5.746002E0,8.799511E0,0E0,3.516636E-1,0E0,0E0,1.9460926E0,1.340519E0,0E0,1.8991852E0,0E0,0E0,0E0,0E0,0E0,0E0,0E0,0E0,0E0,0E0,0E0,0E0,0E0,0E0,0E0,0E0,0E0,0E0,0E0,0E0,0E0,0E0,0E0,0E0,0E0,0E0,0E0,0E0,0E0,0E0,0E0,0E0,0E0,0E0,0E0,0E0,0E0,0E0,0E0,0E0,0E0,0E0,0E0,0E0,0E0,0E0],"parents":[2147483647,0,0,1,1,2,2,3,3,4,4,5,5,6,6,7,7,8,8,9,9,10,10,11,11,12,12,13,13,14,14,15,15,16,16,17,17,18,18,19,19,20,20,21,21,22,22,23,23,24,24,25,25,26,26,27,27,28,28,29,29,30,30,31,31,33,33,34,34,37,37,38,38,39,39,40,40,41,41,42,42,43,43,44,44,45,45,46,46,48,48,50,50,51,51,52,52,53,53,54,54,56,56,59,59,60,60,62,62],"right_children":[2,4,6,8,10,12,14,16,18,20,22,24,26,28,30,32,34,36,38,40,42,44,46,48,50,52,54,56,58,60,62,64,-1,66,68,-1,-1,70,72,74,76,78,80,82,84,86,88,-1,90,-1,92,94,96,98,100,-1,102,-1,-1,104,106,-1,108,-1,-1,-1,-1,-1,-1,-1,-1,-1,-1,-1,-1,-1,-1,-1,-1,-1,-1,-1,-1,-1,-1,-1,-1,-1,-1,-1,-1,-1,-1,-1,-1,-1,-1,-1,-1,-1,-1,-1,-1,-1,-1,-1,-1,-1,-1],"split_conditions":[6.764417E2,4.4503052E2,7.6699524E2,4.2880252E2,2.8236946E1,1E0,3.102287E0,1.1419865E-3,9.7831947E-1,7.7180365E2,2.3247452E1,2.122764E1,1.1610001E1,1.654235E3,9.9591876E2,1.3593018E1,1.584181E1,3E0,-9.659258E-1,-5E-1,4.724376E2,4.533043E0,5.408535E2,1.6047058E1,2.37086E1,3.5962715E1,1.2378829E3,2.5881904E-1,5.5812607E1,8.025913E2,8.965E0,2.3105883E1,1.2412695E-2,2E0,1.9839497E1,1.4889472E-2,7.5505837E-4,4.184492E0,1.4985E1,1.5700672E1,2.438154E1,1.2073753E1,2.2906145E1,1.476942E3,3.8459583E2,2E0,2.786259E1,5.592285E-3,8.660254E-1,-1.856364E-2,2.2931284E1,5.112427E0,4.713589E2,-9.659258E-1,3.5062607E1,1.7966216E-2,3.1531093E0,1.5745293E-2,2.3628892E-2,4.710436E0,4.041226E0,-2.0903416E-3,3.8899336E0,1.8915797E-3,-6.936196E-3,-7.970906E-3,-1.7432792E-2,9.625992E-3,-8.404854E-3,-2.0907022E-2,-1.8964102E-3,-2.9066098E-3,8.88828E-4,5.308236E-4,8.306518E-3,-6.4309855E-4,-1.2498905E-2,9.664837E-5,9.700206E-3,8.768107E-3,1.7026016E-2,-2.9464057E-3,1.0379801E-2,-8.697492E-3,-5.1499177E-3,9.340374E-3,-2.3587702E-3,8.780241E-3,1.8265399E-3,-9.289926E-3,8.500168E-4,-9.009571E-3,8.407454E-4,6.5079425E-3,-4.6962234E-3,-8.625937E-3,-1.3687952E-3,-2.339097E-3,6.1332523E-3,1.3973521E-2,5.4009096E-3,5.859669E-3,1.292919E-2,6.494025E-3,-2.0119082E-3,5.858919E-3,1.0489282E-2,1.4254759E-2,9.840103E-3],"split_indices":[13,14,14,13,21,12,30,23,23,14,24,24,4,13,13,4,24,11,8,7,15,30,13,19,24,22,13,7,20,13,4,14,0,29,3,0,0,30,4,24,22,24,20,14,13,29,22,0,7,0,20,30,19,8,22,0,23,0,0,30,23,0,30,0,0,0,0,0,0,0,0,0,0,0,0,0,0,0,0,0,0,0,0,0,0,0,0,0,0,0,0,0,0,0,0,0,0,0,0,0,0,0,0,0,0,0,0,0,0],"split_type":[0,0,0,0,0,0,0,0,0,0,0,0,0,0,0,0,0,0,0,0,0,0,0,0,0,0,0,0,0,0,0,0,0,0,0,0,0,0,0,0,0,0,0,0,0,0,0,0,0,0,0,0,0,0,0,0,0,0,0,0,0,0,0,0,0,0,0,0,0,0,0,0,0,0,0,0,0,0,0,0,0,0,0,0,0,0,0,0,0,0,0,0,0,0,0,0,0,0,0,0,0,0,0,0,0,0,0,0,0],"sum_hessian":[6.676E3,4.542E3,2.134E3,2.785E3,1.757E3,1.115E3,1.019E3,2.061E3,7.24E2,2.63E2,1.494E3,7.2E1,1.043E3,3.25E2,6.94E2,2.04E2,1.857E3,3.9E1,6.85E2,8E1,1.83E2,5.95E2,8.99E2,3.7E1,3.5E1,1.62E2,8.81E2,1.59E2,1.66E2,3.31E2,3.63E2,1.79E2,2.5E1,4.63E2,1.394E3,2.2E1,1.7E1,3E1,6.55E2,3.7E1,4.3E1,8.7E1,9.6E1,1.53E2,4.42E2,5.05E2,3.94E2,1.2E1,2.5E1,1E1,2.5E1,1.14E2,4.8E1,6.73E2,2.08E2,1.07E2,5.2E1,2.9E1,1.37E2,1.49E2,1.82E2,1.1E1,3.52E2,9.8E1,8.1E1,1.98E2,2.65E2,1.7E1,1.377E3,1.1E1,1.9E1,4.9E2,1.65E2,1.1E1,2.6E1,2.6E1,1.7E1,2.2E1,6.5E1,3.8E1,5.8E1,1.34E2,1.9E1,1.92E2,2.5E2,2.5E1,4.8E2,1.1E1,3.83E2,1.5E1,1E1,1.5E1,1E1,8.9E1,2.5E1,3.7E1,1.1E1,3.2E1,6.41E2,1.19E2,8.9E1,1.1E1,4.1E1,1.39E2,1E1,4.8E1,1.34E2,2.73E2,7.9E1],"tree_param":{"num_deleted":"0","num_feature":"35","num_nodes":"109","size_leaf_vector":"1"}},{"base_weights":[-7.454672E-3,-1.5828665E-1,4.160222E-1,-7.620588E-3,-3.1669086E-1,9.578013E-1,3.4075978E-1,5.0844616E-1,-4.4794418E-2,-3.8644084E-1,-1.10638015E-1,5.2482104E-1,1.0663399E0,3.7370145E-1,-2.7015042E-1,2.1167132E-1,7.001849E-1,-3.8840166E-1,8.793021E-4,-5.2817423E-2,-4.604975E-1,-8.620615E-2,-1.994898E-2,-4.0105744E-3,1.4742125E-2,1.1443008E-2,1.0924021E0,1.9048391E-1,5.128916E-1,4.3467827E-2,-5.6073207E-1,-2.0556112E-3,3.3677223E-1,4.0927777E-1,8.128548E-1,2.8370214E-1,-5.012864E-1,2.3156911E-1,-8.5233875E-2,6.314434E-2,-4.004425E-1,-6.714755E-1,-3.5267344E-1,-2.0485775E-1,1.5462281E-2,2.7154738E-2,2.0023052E-2,-2.8960705E-1,2.4258922E-1,2.34324E-1,5.643927E-1,-1.19373605E-1,7.544534E-3,-4.700004E-3,-6.686914E-1,9.988717E-3,3.2067767E-3,4.296223E-4,1.3644704E-2,1.9011881E-2,1.1091429E-2,1.5102562E-3,1.1741178E-2,-5.548791E-3,-1.7814957E-2,5.601368E-3,-7.7111265E-3,-3.3369206E-3,3.8300764E-3,-6.4266305E-3,2.6911586E-3,-1.1788978E-2,-4.2038984E-3,-9.464985E-3,-1.4963693E-2,-6.8113133E-3,-1.5569826E-2,-2.7967894E-3,-5.3011305E-3,3.7285094E-3,-8.876541E-4,1.3182983E-3,-2.2607714E-2,5.195461E-3,-4.551796E-3,-9.846722E-3,7.7527645E-3,1.1902022E-2,5.1617823E-3,-6.772019E-3,1.4974406E-3,-1.7599178E-2,-8.379241E-3],"categories":[],"categories_nodes":[],"categories_segments":[],"categories_sizes":[],"default_left":[0,0,0,0,0,0,0,0,0,0,0,0,0,0,0,0,0,0,0,0,0,0,0,0,0,0,0,0,0,0,0,0,0,0,0,0,0,0,0,0,0,0,0,0,0,0,0,0,0,0,0,0,0,0,0,0,0,0,0,0,0,0,0,0,0,0,0,0,0,0,0,0,0,0,0,0,0,0,0,0,0,0,0,0,0,0,0,0,0,0,0,0,0],"id":3,"left_children":[1,3,5,7,9,11,13,15,17,19,21,23,25,27,29,31,33,35,37,39,41,43,-1,-1,-1,-1,45,47,49,51,53,-1,55,57,59,61,63,65,67,69,71,73,75,77,79,-1,-1,81,83,85,87,89,-1,-1,91,-1,-1,-1,-1,-1,-1,-1,-1,-1,-1,-1,-1,-1,-1,-1,-1,-1,-1,-1,-1,-1,-1,-1,-1,-1,-1,-1,-1,-1,-1,-1,-1,-1,-1,-1,-1,-1,-1],"loss_changes":[4.275879E2,1.1775744E2,7.077106E1,4.8546345E1,3.4394547E1,8.572433E0,3.1355072E1,9.194763E0,3.719407E1,4.4222565E1,1.287116E1,7.640049E0,5.808563E-1,3.712648E1,7.442736E0,2.8697007E0,2.4334068E0,2.1419884E1,4.156763E1,1.3380423E1,3.2739105E1,7.257961E0,0E0,0E0,0E0,0E0,6.1083984E-1,1.609086E1,1.1526413E1,2.3156235E0,9.8194027E-1,0E0,1.1715517E0,3.323062E0,1.1705017E0,2.3682058E0,2.0108051E1,1.722512E1,3.4433586E1,6.8584085E0,2.576789E0,6.559204E0,4.283058E0,9.290743E-1,3.3496633E0,0E0,0E0,1.9193577E1,4.786537E0,1.528934E1,6.1158752E0,1.2958001E0,0E0,0E0,5.8566856E-1,0E0,0E0,0E0,0E0,0E0,0E0,0E0,0E0,0E0,0E0,0E0,0E0,0E0,0E0,0E0,0E0,0E0,0E0,0E0,0E0,0E0,0E0,0E0,0E0,0E0,0E0,0E0,0E0,0E0,0E0,0E0,0E0,0E0,0E0,0E0,0E0,0E0,0E0],"parents":[2147483647,0,0,1,1,2,2,3,3,4,4,5,5,6,6,7,7,8,8,9,9,10,10,11,11,12,12,13,13,14,14,15,15,16,16,17,17,18,18,19,19,20,20,21,21,26,26,27,27,28,28,29,29,30,30,32,32,33,33,34,34,35,35,36,36,37,37,38,38,39,39,40,40,41,41,42,42,43,43,44,44,47,47,48,48,49,49,50,50,51,51,54,54],"right_children":[2,4,6,8,10,12,14,16,18,20,22,24,26,28,30,32,34,36,38,40,42,44,-1,-1,-1,-1,46,48,50,52,54,-1,56,58,60,62,64,66,68,70,72,74,76,78,80,-1,-1,82,84,86,88,90,-1,-1,92,-1,-1,-1,-1,-1,-1,-1,-1,-1,-1,-1,-1,-1,-1,-1,-1,-1,-1,-1,-1,-1,-1,-1,-1,-1,-1,-1,-1,-1,-1,-1,-1,-1,-1,-1,-1,-1,-1],"split_conditions":[2.871717E1,2.13E1,-1.3333334E-1,1.9680672E1,2.2706135E1,1.3587217E1,1.088E1,1.2921321E1,1.3128347E1,5.5420727E1,1.566E1,4.3429723E0,2.9587674E0,1.028469E1,2.1428333E1,1.8723263E1,1.8723263E1,-2.5396636E-1,1.5089223E2,2E0,1.7922241E1,2.8799692E1,-1.994898E-2,-4.0105744E-3,1.4742125E-2,1.1443008E-2,1.2029999E1,4.507871E0,3.635042E0,9.31242E2,1.3977031E1,-2.0556112E-3,2.5267222E0,2.0095568E1,2.5540337E1,1E0,3.554E1,1.3866667E1,3.3845238E1,-8.660254E-1,2.7461383E2,1.2246469E-16,1.51E1,7.53E0,3.756925E2,2.7154738E-2,2.0023052E-2,9.438585E2,3.314131E1,1.3131561E1,2.13E1,4.1586273E1,7.544534E-3,-4.700004E-3,4.3429723E0,9.988717E-3,3.2067767E-3,4.296223E-4,1.3644704E-2,1.9011881E-2,1.1091429E-2,1.5102562E-3,1.1741178E-2,-5.548791E-3,-1.7814957E-2,5.601368E-3,-7.7111265E-3,-3.3369206E-3,3.8300764E-3,-6.4266305E-3,2.6911586E-3,-1.1788978E-2,-4.2038984E-3,-9.464985E-3,-1.4963693E-2,-6.8113133E-3,-1.5569826E-2,-2.7967894E-3,-5.3011305E-3,3.7285094E-3,-8.876541E-4,1.3182983E-3,-2.2607714E-2,5.195461E-3,-4.551796E-3,-9.846722E-3,7.7527645E-3,1.1902022E-2,5.1617823E-3,-6.772019E-3,1.4974406E-3,-1.7599178E-2,-8.379241E-3],"split_indices":[24,3,1,3,24,26,0,4,24,18,1,23,23,26,3,3,3,23,18,29,24,22,0,0,0,0,4,23,23,18,15,0,23,26,21,27,19,1,21,10,15,9,1,0,19,0,0,18,22,26,3,22,0,0,23,0,0,0,0,0,0,0,0,0,0,0,0,0,0,0,0,0,0,0,0,0,0,0,0,0,0,0,0,0,0,0,0,0,0,0,0,0,0],"split_type":[0,0,0,0,0,0,0,0,0,0,0,0,0,0,0,0,0,0,0,0,0,0,0,0,0,0,0,0,0,0,0,0,0,0,0,0,0,0,0,0,0,0,0,0,0,0,0,0,0,0,0,0,0,0,0,0,0,0,0,0,0,0,0,0,0,0,0,0,0,0,0,0,0,0,0,0,0,0,0,0,0,0,0,0,0,0,0,0,0,0,0,0,0],"sum_hessian":[6.691E3,4.935E3,1.756E3,2.531E3,2.404E3,2.11E2,1.545E3,1.68E2,2.363E3,1.794E3,6.1E2,4.5E1,1.66E2,1.467E3,7.8E1,6.8E1,1E2,2.76E2,2.087E3,3.27E2,1.467E3,5.96E2,1.4E1,1E1,3.5E1,1.1E1,1.55E2,6.36E2,8.31E2,3.8E1,4E1,1.9E1,4.9E1,3.1E1,6.9E1,3.9E1,2.37E2,5.67E2,1.52E3,2.46E2,8.1E1,4.92E2,9.75E2,2.75E2,3.21E2,3.2E1,1.23E2,6.1E1,5.75E2,1.32E2,6.99E2,2.6E1,1.2E1,1.2E1,2.8E1,2.3E1,2.6E1,1.4E1,1.7E1,4.1E1,2.8E1,2.5E1,1.4E1,1.53E2,8.4E1,5.27E2,4E1,1.175E3,3.45E2,3.7E1,2.09E2,3.8E1,4.3E1,1.42E2,3.5E2,9.52E2,2.3E1,1.37E2,1.38E2,8.3E1,2.38E2,4.4E1,1.7E1,5.56E2,1.9E1,2.2E1,1.1E2,6.33E2,6.6E1,1.2E1,1.4E1,1.2E1,1.6E1],"tree_param":{"num_deleted":"0","num_feature":"35","num_nodes":"93","size_leaf_vector":"1"}},{"base_weights":[8.847323E-4,-2.0654343E-1,4.3523696E-1,-3.674325E-1,-5.0749697E-2,2.3793462E-1,6.389386E-1,-1.1419399E-1,-4.465317E-1,3.8883004E-1,-1.2655082E-1,2.931531E-1,-2.3212847E-1,4.168734E-1,8.4230256E-1,3.6857117E-2,-3.3509728E-1,-6.002613E-1,-3.1041068E-1,4.8636445E-1,-7.704663E-1,-2.5978205E-1,2.9114513E-2,3.2254127E-1,5.7330944E-2,2.4139363E-2,-5.2552634E-1,2.6323652E-1,4.9201685E-1,8.7226903E-1,6.592287E-2,3.3697507E-1,-7.070111E-2,-4.5856136E-1,7.282887E-2,-7.506283E-1,-4.9124065E-1,-3.5236928E-1,-1.6771908E-1,2.7347118E-1,7.215417E-1,-2.4627194E-2,-0E0,-5.838516E-1,-2.0960541E-1,-5.6855652E-2,8.182606E-2,2.81353E-1,8.53659E-1,-9.606938E-2,4.948098E-1,-1.5285784E-1,2.169402E-1,-2.8278747E-1,-6.6415304E-1,2.8817526E-1,-2.095977E-3,-8.412767E-4,5.1910096E-1,1.181821E0,8.103025E-1,6.1783483E-3,-3.0627432E-3,1.1210471E-3,1.0013999E-2,-7.5815176E-3,-3.1702511E-4,-1.0656304E-2,1.1577496E-2,-2.5787845E-3,5.8441535E-3,-1.4068712E-4,-1.5560306E-2,-1.8034108E-2,-9.310471E-3,-6.78376E-3,-1.5543918E-2,-8.47466E-3,-2.2874237E-3,-1.27124E-2,6.921479E-3,1.0661999E-2,1.6926276E-2,-2.510138E-2,-5.2336673E-3,1.4263683E-2,-4.532069E-3,1.9168305E-3,-1.4412076E-3,1.9074776E-3,-1.0879793E-2,5.9843324E-3,-5.1613045E-3,1.8638894E-2,9.41542E-3,2.8617363E-3,-6.5993774E-3,1.3469404E-2,4.8359632E-3,7.106679E-4,-1.0416614E-2,1.3180898E-3,6.613776E-3,7.003062E-4,-1.1449382E-2,-1.6971523E-2,-6.327372E-3,7.558836E-3,4.2926697E-3,2.9909392E-3,1.0681677E-2,2.4990177E-2,1.3810452E-2,1.4883669E-2,1.8400082E-2],"categories":[],"categories_nodes":[],"categories_segments":[],"categories_sizes":[],"default_left":[0,0,0,0,0,0,0,0,0,0,0,0,0,0,0,0,0,0,0,0,0,0,0,0,0,0,0,0,0,0,0,0,0,0,0,0,0,0,0,0,0,0,0,0,0,0,0,0,0,0,0,0,0,0,0,0,0,0,0,0,0,0,0,0,0,0,0,0,0,0,0,0,0,0,0,0,0,0,0,0,0,0,0,0,0,0,0,0,0,0,0,0,0,0,0,0,0,0,0,0,0,0,0,0,0,0,0,0,0,0,0,0,0,0,0],"id":4,"left_children":[1,3,5,7,9,11,13,15,17,19,21,23,25,27,29,31,33,35,37,39,41,43,45,47,49,51,53,55,57,59,61,63,65,67,69,71,73,75,77,79,81,-1,-1,83,85,87,89,91,93,95,97,99,101,103,105,107,-1,-1,109,111,113,-1,-1,-1,-1,-1,-1,-1,-1,-1,-1,-1,-1,-1,-1,-1,-1,-1,-1,-1,-1,-1,-1,-1,-1,-1,-1,-1,-1,-1,-1,-1,-1,-1,-1,-1,-1,-1,-1,-1,-1,-1,-1,-1,-1,-1,-1,-1,-1,-1,-1,-1,-1,-1,-1],"loss_changes":[6.048657E2,1.1375169E2,8.673459E1,4.4535034E1,7.704994E1,2.885582E1,4.7186523E1,1.793606E1,3.504001E1,3.9136875E1,4.0980263E1,6.7550583E0,8.922697E0,5.523941E0,1.2586334E1,1.0398273E1,1.1123341E1,1.206308E1,5.20813E0,1.5177673E1,9.748499E0,1.6897957E1,4.1426053E0,1.8543358E1,7.758182E0,2.2631516E0,1.285739E0,1.694107E0,5.086136E0,7.9102783E0,1.3500686E0,3.742013E0,3.9007745E0,1.3549309E1,2.4097173E0,6.552414E0,3.827217E0,3.1581192E0,2.677249E0,1.15364685E1,2.3015976E0,0E0,0E0,2.953032E1,1.4735088E1,8.123716E-1,4.821317E0,8.064163E0,7.0041656E-1,4.886578E0,8.4735394E-1,2.4910507E0,4.2685688E-1,2.3570604E0,1.3466883E0,8.0190754E-1,0E0,0E0,1.5085907E0,6.797867E-1,1.5691223E0,0E0,0E0,0E0,0E0,0E0,0E0,0E0,0E0,0E0,0E0,0E0,0E0,0E0,0E0,0E0,0E0,0E0,0E0,0E0,0E0,0E0,0E0,0E0,0E0,0E0,0E0,0E0,0E0,0E0,0E0,0E0,0E0,0E0,0E0,0E0,0E0,0E0,0E0,0E0,0E0,0E0,0E0,0E0,0E0,0E0,0E0,0E0,0E0,0E0,0E0,0E0,0E0,0E0,0E0],"parents":[2147483647,0,0,1,1,2,2,3,3,4,4,5,5,6,6,7,7,8,8,9,9,10,10,11,11,12,12,13,13,14,14,15,15,16,16,17,17,18,18,19,19,20,20,21,21,22,22,23,23,24,24,25,25,26,26,27,27,28,28,29,29,30,30,31,31,32,32,33,33,34,34,35,35,36,36,37,37,38,38,39,39,40,40,43,43,44,44,45,45,46,46,47,47,48,48,49,49,50,50,51,51,52,52,53,53,54,54,55,55,58,58,59,59,60,60],"right_children":[2,4,6,8,10,12,14,16,18,20,22,24,26,28,30,32,34,36,38,40,42,44,46,48,50,52,54,56,58,60,62,64,66,68,70,72,74,76,78,80,82,-1,-1,84,86,88,90,92,94,96,98,100,102,104,106,108,-1,-1,110,112,114,-1,-1,-1,-1,-1,-1,-1,-1,-1,-1,-1,-1,-1,-1,-1,-1,-1,-1,-1,-1,-1,-1,-1,-1,-1,-1,-1,-1,-1,-1,-1,-1,-1,-1,-1,-1,-1,-1,-1,-1,-1,-1,-1,-1,-1,-1,-1,-1,-1,-1,-1,-1,-1,-1],"split_conditions":[6.764417E2,5.3999996E0,7.383454E2,2.5145939E1,7.866919E1,1.39E1,1.0675647E3,1.2246469E-16,3.545059E2,8.660254E-1,4.9106284E2,3.5962715E1,3.9892857E1,8.1168085E2,1.12E1,4.0144696E0,1.815E1,1.621154E1,4.475616E2,7.196422E2,2.5151676E1,1.4540869E2,5.457337E2,1.6118011E3,2.3027502E3,2.561257E0,2.2986275E1,4.6722445E0,1.07432785E1,2.4715333E0,4.2503094E1,1.169961E1,-8.660254E-1,7.7180365E2,-5E-1,2.2240028E1,6.8925E0,6.0292454E0,3.083186E2,1.2073753E1,1.6828852E1,-2.4627194E-2,-0E0,5.383333E0,1.8329083E2,4.0983276E2,3.1672606E1,1E0,3.4634007E1,1.1E1,4.9266667E0,2.3245099E0,2.0578223E2,3.871336E2,2.6720972E2,2.9804678E1,-2.095977E-3,-8.412767E-4,1.617199E1,2.22E0,1.654235E3,6.1783483E-3,-3.0627432E-3,1.1210471E-3,1.0013999E-2,-7.5815176E-3,-3.1702511E-4,-1.0656304E-2,1.1577496E-2,-2.5787845E-3,5.8441535E-3,-1.4068712E-4,-1.5560306E-2,-1.8034108E-2,-9.310471E-3,-6.78376E-3,-1.5543918E-2,-8.47466E-3,-2.2874237E-3,-1.27124E-2,6.921479E-3,1.0661999E-2,1.6926276E-2,-2.510138E-2,-5.2336673E-3,1.4263683E-2,-4.532069E-3,1.9168305E-3,-1.4412076E-3,1.9074776E-3,-1.0879793E-2,5.9843324E-3,-5.1613045E-3,1.8638894E-2,9.41542E-3,2.8617363E-3,-6.5993774E-3,1.3469404E-2,4.8359632E-3,7.106679E-4,-1.0416614E-2,1.3180898E-3,6.613776E-3,7.003062E-4,-1.1449382E-2,-1.6971523E-2,-6.327372E-3,7.558836E-3,4.2926697E-3,2.9909392E-3,1.0681677E-2,2.4990177E-2,1.3810452E-2,1.4883669E-2,1.8400082E-2],"split_indices":[13,2,14,18,17,0,13,7,13,7,13,22,21,13,0,30,0,24,13,14,13,14,13,13,13,23,15,30,4,30,21,24,10,14,10,21,4,30,18,24,18,0,0,1,17,18,24,7,22,29,1,23,17,17,14,24,0,0,18,1,13,0,0,0,0,0,0,0,0,0,0,0,0,0,0,0,0,0,0,0,0,0,0,0,0,0,0,0,0,0,0,0,0,0,0,0,0,0,0,0,0,0,0,0,0,0,0,0,0,0,0,0,0,0,0],"split_type":[0,0,0,0,0,0,0,0,0,0,0,0,0,0,0,0,0,0,0,0,0,0,0,0,0,0,0,0,0,0,0,0,0,0,0,0,0,0,0,0,0,0,0,0,0,0,0,0,0,0,0,0,0,0,0,0,0,0,0,0,0,0,0,0,0,0,0,0,0,0,0,0,0,0,0,0,0,0,0,0,0,0,0,0,0,0,0,0,0,0,0,0,0,0,0,0,0,0,0,0,0,0,0,0,0,0,0,0,0,0,0,0,0,0,0],"sum_hessian":[6.709E3,4.541E3,2.168E3,2.232E3,2.309E3,1.104E3,1.064E3,5.33E2,1.699E3,3.38E2,1.971E3,9.89E2,1.15E2,5.12E2,5.52E2,3.17E2,2.16E2,7.94E2,9.05E2,3.13E2,2.5E1,1.062E3,9.09E2,8.78E2,1.11E2,6.2E1,5.3E1,1.72E2,3.4E2,5.31E2,2.1E1,8.3E1,2.34E2,1.66E2,5E1,3.28E2,4.66E2,6.96E2,2.09E2,1.67E2,1.46E2,1.5E1,1E1,1.39E2,9.23E2,3.44E2,5.65E2,8.18E2,6E1,8.3E1,2.8E1,3.2E1,3E1,2.2E1,3.1E1,1.62E2,1E1,1.6E1,3.24E2,8.2E1,4.49E2,1E1,1.1E1,3.2E1,5.1E1,3.3E1,2.01E2,1.56E2,1E1,2.6E1,2.4E1,1.2E1,3.16E2,2.3E1,4.43E2,6.79E2,1.7E1,3.3E1,1.76E2,1.1E1,1.56E2,6.3E1,8.3E1,4.3E1,9.6E1,1.5E1,9.08E2,2.9E1,3.15E2,5.55E2,1E1,7.93E2,2.5E1,4.7E1,1.3E1,4.1E1,4.2E1,1.4E1,1.4E1,2.2E1,1E1,1.5E1,1.5E1,1.1E1,1.1E1,1.8E1,1.3E1,6.8E1,9.4E1,1.4E1,3.1E2,6.9E1,1.3E1,2.91E2,1.58E2],"tree_param":{"num_deleted":"0","num_feature":"35","num_nodes":"115","size_leaf_vector":"1"}},{"base_weights":[-1.6572145E-3,-2.0501536E-1,3.520514E-1,-4.7854386E-2,-3.686367E-1,5.9449255E-1,5.126368E-2,1.3450068E-1,-1.3215362E-1,-7.856823E-2,-4.2443174E-1,9.6146756E-1,5.132317E-1,2.1048689E-1,-1.9172986E-1,-1.1150701E0,1.8505535E-1,7.3043564E-3,-2.0364891E-1,2.0117587E-1,-2.3715787E-1,-6.084593E-1,-3.217373E-1,1.0526385E-2,1.0166162E0,5.760743E-1,1.6651398E-1,1.640383E-1,4.536257E-1,-6.651263E-2,-3.6465377E-1,-2.7664874E-2,-1.3083196E-2,-7.9510796E-1,2.3898205E-1,3.2434443E-1,-2.5233591E-2,-3.0050245E-1,-1.2846328E-1,4.0489933E-1,-1.23090625E-1,-3.1754035E-1,1.4499414E-1,1.9178732E-3,-6.2995625E-1,-2.48468E-1,-4.3973285E-1,2.6273003E-2,9.385509E-1,6.881448E-1,4.469005E-1,2.6119497E-1,-7.001219E-2,9.2850834E-2,2.7164742E-1,6.4774185E-1,1.7214015E-1,-1.5677422E-1,2.184513E-2,-2.9854974E-1,-7.3062015E-1,-3.392663E-2,8.0885674E-4,1.2356579E-2,3.235757E-3,-1.732581E-4,8.584405E-3,8.926837E-4,-2.108992E-3,1.0879192E-3,-6.8972036E-3,-4.404463E-3,-1.4039174E-3,2.8048022E-4,1.1551933E-2,-1.1209528E-2,2.7610068E-3,-3.7573918E-3,-1.1306356E-2,-5.4290188E-3,7.6357964E-3,-8.04229E-3,-1.4008604E-2,-5.695015E-3,4.020584E-4,-3.8515313E-3,-9.342027E-3,1.9986305E-2,1.4804734E-2,9.585303E-3,1.5175547E-2,1.1537126E-2,7.2699315E-3,-9.9666184E-5,5.821111E-3,2.6208397E-3,-7.1208393E-3,4.528299E-3,-1.4838367E-4,1.8612047E-3,6.1286218E-3,7.817674E-3,1.5976883E-2,5.2941483E-3,-2.3517E-3,1.6437405E-3,-3.834386E-3,3.0189103E-3,-1.6692761E-4,-0E0,-6.438663E-3,-1.883574E-2,-8.015866E-3],"categories":[],"categories_nodes":[],"categories_segments":[],"categories_sizes":[],"default_left":[0,0,0,0,0,0,0,0,0,0,0,0,0,0,0,0,0,0,0,0,0,0,0,0,0,0,0,0,0,0,0,0,0,0,0,0,0,0,0,0,0,0,0,0,0,0,0,0,0,0,0,0,0,0,0,0,0,0,0,0,0,0,0,0,0,0,0,0,0,0,0,0,0,0,0,0,0,0,0,0,0,0,0,0,0,0,0,0,0,0,0,0,0,0,0,0,0,0,0,0,0,0,0,0,0,0,0,0,0,0,0,0,0],"id":5,"left_children":[1,3,5,7,9,11,13,15,17,19,21,23,25,27,29,31,33,35,37,39,41,43,45,-1,47,49,51,53,55,57,59,-1,-1,61,63,65,67,69,71,73,75,77,79,-1,81,83,85,-1,87,89,91,93,95,97,99,101,103,105,107,109,111,-1,-1,-1,-1,-1,-1,-1,-1,-1,-1,-1,-1,-1,-1,-1,-1,-1,-1,-1,-1,-1,-1,-1,-1,-1,-1,-1,-1,-1,-1,-1,-1,-1,-1,-1,-1,-1,-1,-1,-1,-1,-1,-1,-1,-1,-1,-1,-1,-1,-1,-1,-1],"loss_changes":[4.8456033E2,1.0988971E2,1.791283E2,3.3623756E1,3.3738983E1,3.930414E1,4.2643696E1,4.3878304E1,1.4958242E1,1.5230916E1,3.2608368E1,4.4767456E0,2.4041168E1,7.2490807E0,9.305986E0,1.1200981E0,3.5471554E1,5.3166347E0,7.046173E0,8.347565E0,6.8539066E0,9.706192E0,9.430504E0,0E0,2.045929E0,1.2852753E1,3.9938536E0,4.189473E0,5.350313E0,2.0755153E0,3.7608318E0,0E0,0E0,2.6824015E1,1.8156109E1,1.7679205E0,2.610862E0,6.8648834E0,2.9157934E0,5.063217E0,5.835981E0,5.484516E0,4.0752263E0,0E0,8.978775E0,6.9245033E0,2.5967941E0,0E0,3.0555725E-1,6.4314423E0,4.226677E0,1.061594E0,3.0711942E0,4.6407785E0,1.2421131E0,1.5050659E0,1.3253528E0,1.1222863E0,5.377451E-1,1.1523771E0,7.874203E-1,0E0,0E0,0E0,0E0,0E0,0E0,0E0,0E0,0E0,0E0,0E0,0E0,0E0,0E0,0E0,0E0,0E0,0E0,0E0,0E0,0E0,0E0,0E0,0E0,0E0,0E0,0E0,0E0,0E0,0E0,0E0,0E0,0E0,0E0,0E0,0E0,0E0,0E0,0E0,0E0,0E0,0E0,0E0,0E0,0E0,0E0,0E0,0E0,0E0,0E0,0E0,0E0],"parents":[2147483647,0,0,1,1,2,2,3,3,4,4,5,5,6,6,7,7,8,8,9,9,10,10,11,11,12,12,13,13,14,14,15,15,16,16,17,17,18,18,19,19,20,20,21,21,22,22,24,24,25,25,26,26,27,27,28,28,29,29,30,30,33,33,34,34,35,35,36,36,37,37,38,38,39,39,40,40,41,41,42,42,44,44,45,45,46,46,48,48,49,49,50,50,51,51,52,52,53,53,54,54,55,55,56,56,57,57,58,58,59,59,60,60],"right_children":[2,4,6,8,10,12,14,16,18,20,22,24,26,28,30,32,34,36,38,40,42,44,46,-1,48,50,52,54,56,58,60,-1,-1,62,64,66,68,70,72,74,76,78,80,-1,82,84,86,-1,88,90,92,94,96,98,100,102,104,106,108,110,112,-1,-1,-1,-1,-1,-1,-1,-1,-1,-1,-1,-1,-1,-1,-1,-1,-1,-1,-1,-1,-1,-1,-1,-1,-1,-1,-1,-1,-1,-1,-1,-1,-1,-1,-1,-1,-1,-1,-1,-1,-1,-1,-1,-1,-1,-1,-1,-1,-1,-1,-1,-1],"split_conditions":[5.848042E2,1.03E1,4.082483E0,4.235539E0,2.3070028E1,4E-1,4.6213837E0,1.6757486E1,2.0983898E1,4.315941E0,1.7281345E1,1.1242911E1,1.08E1,1E0,1.019E1,-5E-1,-9.659258E-1,2.01E1,4.1963193E2,8.4611225E0,2.2696667E1,-4.2694685E-1,2.2040447E1,1.0526385E-2,1.8698E1,3.5722144E0,1.36E1,2.9285654E1,4.172381E2,4.9915097E2,2.254322E1,-2.7664874E-2,-1.3083196E-2,2.0585E1,2.03E1,1.8723263E1,7.06E0,3.621821E1,2.4265795E1,1.9298613E0,1.3718979E0,1.57E1,1.1077289E1,1.9178732E-3,-5E-1,2.3305407E1,1.2611765E1,2.6273003E-2,-6.8E-1,8.057103E2,6E0,6.369171E2,5E-1,9.349888E1,7.871415E0,1.00542633E3,7.6194916E2,6.9E0,2.0146507E1,2.6599468E1,3.347944E2,-3.392663E-2,8.0885674E-4,1.2356579E-2,3.235757E-3,-1.732581E-4,8.584405E-3,8.926837E-4,-2.108992E-3,1.0879192E-3,-6.8972036E-3,-4.404463E-3,-1.4039174E-3,2.8048022E-4,1.1551933E-2,-1.1209528E-2,2.7610068E-3,-3.7573918E-3,-1.1306356E-2,-5.4290188E-3,7.6357964E-3,-8.04229E-3,-1.4008604E-2,-5.695015E-3,4.020584E-4,-3.8515313E-3,-9.342027E-3,1.9986305E-2,1.4804734E-2,9.585303E-3,1.5175547E-2,1.1537126E-2,7.2699315E-3,-9.9666184E-5,5.821111E-3,2.6208397E-3,-7.1208393E-3,4.528299E-3,-1.4838367E-4,1.8612047E-3,6.1286218E-3,7.817674E-3,1.5976883E-2,5.2941483E-3,-2.3517E-3,1.6437405E-3,-3.834386E-3,3.0189103E-3,-1.6692761E-4,-0E0,-6.438663E-3,-1.883574E-2,-8.015866E-3],"split_indices":[14,0,30,30,17,0,30,22,3,30,24,26,0,10,0,8,8,3,17,26,3,23,3,0,4,30,0,24,19,17,3,0,0,3,3,3,0,18,24,30,23,0,24,0,9,24,14,0,0,14,29,14,10,20,26,14,15,0,3,22,17,0,0,0,0,0,0,0,0,0,0,0,0,0,0,0,0,0,0,0,0,0,0,0,0,0,0,0,0,0,0,0,0,0,0,0,0,0,0,0,0,0,0,0,0,0,0,0,0,0,0,0,0],"split_type":[0,0,0,0,0,0,0,0,0,0,0,0,0,0,0,0,0,0,0,0,0,0,0,0,0,0,0,0,0,0,0,0,0,0,0,0,0,0,0,0,0,0,0,0,0,0,0,0,0,0,0,0,0,0,0,0,0,0,0,0,0,0,0,0,0,0,0,0,0,0,0,0,0,0,0,0,0,0,0,0,0,0,0,0,0,0,0,0,0,0,0,0,0,0,0,0,0,0,0,0,0,0,0,0,0,0,0,0,0,0,0,0,0],"sum_hessian":[6.733E3,4.276E3,2.457E3,2.183E3,2.093E3,1.359E3,1.098E3,6.89E2,1.494E3,3.39E2,1.754E3,2.42E2,1.117E3,6.64E2,4.34E2,2.5E1,6.64E2,5.06E2,9.88E2,1.22E2,2.17E2,6.24E2,1.13E3,3E1,2.12E2,9.44E2,1.73E2,5.61E2,1.03E2,2.54E2,1.8E2,1.3E1,1.2E1,3.3E1,6.31E2,4.6E1,4.6E2,4.28E2,5.6E2,7.5E1,4.7E1,1.8E2,3.7E1,1.8E1,6.06E2,7.02E2,4.28E2,3.7E1,1.75E2,5E2,4.44E2,1.24E2,4.9E1,3.41E2,2.2E2,5.9E1,4.4E1,1.26E2,1.28E2,1.56E2,2.4E1,1.5E1,1.8E1,1.04E2,5.27E2,1.1E1,3.5E1,2.45E2,2.15E2,4.7E1,3.81E2,2.14E2,3.46E2,2.4E1,5.1E1,1.7E1,3E1,1.21E2,5.9E1,1.3E1,2.4E1,1.47E2,4.59E2,6.19E2,8.3E1,4.5E1,3.83E2,1.27E2,4.8E1,1.31E2,3.69E2,1.68E2,2.76E2,1.2E1,1.12E2,2.9E1,2E1,1.46E2,1.95E2,3.8E1,1.82E2,2.5E1,3.4E1,3.4E1,1E1,1.5E1,1.11E2,2.4E1,1.04E2,1.1E1,1.45E2,1.2E1,1.2E1],"tree_param":{"num_deleted":"0","num_feature":"35","num_nodes":"113","size_leaf_vector":"1"}},{"base_weights":[4.321496E-3,-2.0087078E-1,4.2816573E-1,-3.5903907E-1,-4.6187703E-2,3.60767E-1,9.5888305E-1,-1.477644E-1,-4.494221E-1,3.7914586E-1,-1.1242442E-1,4.1474184E-1,2.800639E-2,8.3973616E-1,2.4348157E-2,1.1242943E-1,-2.977929E-1,-5.9601593E-1,-3.4845167E-1,4.607879E-1,-1.9434992E-2,-2.3337333E-1,3.5052467E-2,2.7735093E-1,5.3196985E-1,1.7368154E-1,-2.50964E-1,8.799438E-1,2.6721894E-3,4.7778317E-1,-4.9150467E-2,-3.4162417E-1,-4.5330845E-2,-4.9916778E-2,-6.4046353E-1,-7.800615E-2,-3.9015952E-1,3.503686E-1,7.093488E-1,-2.3942864E-2,-2.1191332E-1,-6.0275037E-2,8.860963E-2,2.906329E-1,-1.0325426E-1,4.4246393E-1,6.984911E-1,2.1231991E-1,-5.3778463E-3,-0E0,-3.965325E-1,1.0226464E-2,1.8285122E-2,-3.9084748E-4,1.1495348E-2,-7.097073E-3,2.2577598E-4,-1.2597347E-4,-7.030545E-3,4.718028E-3,-2.2758378E-3,-4.2342413E-3,5.5459803E-3,-1.4112815E-2,-7.4557327E-3,8.759081E-3,-2.626022E-3,-7.371582E-3,-1.4053341E-2,-6.493751E-4,8.445961E-3,1.0290716E-2,1.878783E-2,1.5169412E-2,-4.5673326E-3,1.4429825E-3,-1.4532907E-3,2.1878576E-3,-7.520959E-4,6.295746E-3,8.2533224E-4,7.5729024E-3,-1.391721E-2,5.114983E-3,1.01156E-2,2.064522E-3,1.4592197E-2,1.3866875E-2,3.3029402E-3,-3.2369262E-3,6.9577536E-3,-8.8913686E-4,-9.605541E-3],"categories":[],"categories_nodes":[],"categories_segments":[],"categories_sizes":[],"default_left":[0,0,0,0,0,0,0,0,0,0,0,0,0,0,0,0,0,0,0,0,0,0,0,0,0,0,0,0,0,0,0,0,0,0,0,0,0,0,0,0,0,0,0,0,0,0,0,0,0,0,0,0,0,0,0,0,0,0,0,0,0,0,0,0,0,0,0,0,0,0,0,0,0,0,0,0,0,0,0,0,0,0,0,0,0,0,0,0,0,0,0,0,0],"id":6,"left_children":[1,3,5,7,9,11,13,15,17,19,21,23,25,27,-1,29,31,33,35,37,-1,39,41,43,45,47,49,51,-1,53,55,57,59,61,63,65,67,69,71,-1,73,75,77,79,81,83,85,87,-1,89,91,-1,-1,-1,-1,-1,-1,-1,-1,-1,-1,-1,-1,-1,-1,-1,-1,-1,-1,-1,-1,-1,-1,-1,-1,-1,-1,-1,-1,-1,-1,-1,-1,-1,-1,-1,-1,-1,-1,-1,-1,-1,-1],"loss_changes":[5.8091327E2,1.09982605E2,7.698633E1,4.221649E1,6.420931E1,3.4678116E1,5.0597534E0,2.6258486E1,2.2427063E1,3.4652325E1,3.5248764E1,2.6375763E1,1.1166182E1,4.5022964E0,0E0,1.4655014E1,4.6056366E0,1.5114136E1,1.0301773E1,7.2777557E0,0E0,2.1651333E1,4.5602174E0,4.000103E0,1.250824E1,3.198028E0,3.356648E0,8.542404E-1,0E0,3.7991962E0,3.254679E0,1.1261215E0,1.2999934E0,2.7513967E0,9.429474E0,3.5459337E0,4.676483E0,5.7780704E0,2.6414528E0,0E0,1.7228264E1,5.3560245E-1,1.523026E0,4.40221E0,8.30098E0,6.552185E0,5.4066772E0,3.4114318E0,0E0,2.1595545E0,1.5919313E0,0E0,0E0,0E0,0E0,0E0,0E0,0E0,0E0,0E0,0E0,0E0,0E0,0E0,0E0,0E0,0E0,0E0,0E0,0E0,0E0,0E0,0E0,0E0,0E0,0E0,0E0,0E0,0E0,0E0,0E0,0E0,0E0,0E0,0E0,0E0,0E0,0E0,0E0,0E0,0E0,0E0,0E0],"parents":[2147483647,0,0,1,1,2,2,3,3,4,4,5,5,6,6,7,7,8,8,9,9,10,10,11,11,12,12,13,13,15,15,16,16,17,17,18,18,19,19,21,21,22,22,23,23,24,24,25,25,26,26,27,27,29,29,30,30,31,31,32,32,33,33,34,34,35,35,36,36,37,37,38,38,40,40,41,41,42,42,43,43,44,44,45,45,46,46,47,47,49,49,50,50],"right_children":[2,4,6,8,10,12,14,16,18,20,22,24,26,28,-1,30,32,34,36,38,-1,40,42,44,46,48,50,52,-1,54,56,58,60,62,64,66,68,70,72,-1,74,76,78,80,82,84,86,88,-1,90,92,-1,-1,-1,-1,-1,-1,-1,-1,-1,-1,-1,-1,-1,-1,-1,-1,-1,-1,-1,-1,-1,-1,-1,-1,-1,-1,-1,-1,-1,-1,-1,-1,-1,-1,-1,-1,-1,-1,-1,-1,-1,-1],"split_conditions":[6.764417E2,5.3999996E0,1.539E1,0E0,5.6145657E1,1.159E1,1.9727605E3,3.8525555E1,3.2708722E2,8.660254E-1,4.9106284E2,9.655684E2,3.888423E1,2.1204166E1,2.4348157E-2,4.3338695E0,4.475616E2,-2.5396636E-1,1.6747899E0,9.330622E2,-1.9434992E-2,1.023805E1,5.408535E2,1E0,1.19E1,4.9042063E0,2.155279E1,1.0792183E3,2.6721894E-3,-8.660254E-1,-8.660254E-1,7.7777314E0,3.1063278E1,4E0,5E-1,1.2705293E1,5.956675E0,1.4575001E0,2.3085434E1,-2.3942864E-2,2.0006676E1,4.0983276E2,8.2436224E2,4.6354766E0,8.588535E2,8.660254E-1,-8.660254E-1,2.1248816E1,-5.3778463E-3,7.95591E2,8.501028E1,1.0226464E-2,1.8285122E-2,-3.9084748E-4,1.1495348E-2,-7.097073E-3,2.2577598E-4,-1.2597347E-4,-7.030545E-3,4.718028E-3,-2.2758378E-3,-4.2342413E-3,5.5459803E-3,-1.4112815E-2,-7.4557327E-3,8.759081E-3,-2.626022E-3,-7.371582E-3,-1.4053341E-2,-6.493751E-4,8.445961E-3,1.0290716E-2,1.878783E-2,1.5169412E-2,-4.5673326E-3,1.4429825E-3,-1.4532907E-3,2.1878576E-3,-7.520959E-4,6.295746E-3,8.2533224E-4,7.5729024E-3,-1.391721E-2,5.114983E-3,1.01156E-2,2.064522E-3,1.4592197E-2,1.3866875E-2,3.3029402E-3,-3.2369262E-3,6.9577536E-3,-8.8913686E-4,-9.605541E-3],"split_indices":[13,2,2,7,17,0,13,17,13,7,13,13,21,3,0,30,13,23,23,15,0,24,13,7,2,30,3,13,0,10,10,24,21,11,10,15,30,5,18,0,21,18,17,30,18,10,8,3,0,17,17,0,0,0,0,0,0,0,0,0,0,0,0,0,0,0,0,0,0,0,0,0,0,0,0,0,0,0,0,0,0,0,0,0,0,0,0,0,0,0,0,0,0],"split_type":[0,0,0,0,0,0,0,0,0,0,0,0,0,0,0,0,0,0,0,0,0,0,0,0,0,0,0,0,0,0,0,0,0,0,0,0,0,0,0,0,0,0,0,0,0,0,0,0,0,0,0,0,0,0,0,0,0,0,0,0,0,0,0,0,0,0,0,0,0,0,0,0,0,0,0,0,0,0,0,0,0,0,0,0,0,0,0,0,0,0,0,0,0],"sum_hessian":[6.675E3,4.498E3,2.177E3,2.222E3,2.276E3,1.935E3,2.42E2,6.68E2,1.554E3,3.05E2,1.971E3,1.664E3,2.71E2,1.72E2,7E1,2.44E2,4.24E2,6.29E2,9.25E2,2.89E2,1.6E1,1.083E3,8.88E2,7.7E2,8.94E2,1.79E2,9.2E1,1.62E2,1E1,7.4E1,1.7E2,3.6E2,6.4E1,4.8E1,5.81E2,1.25E2,8E2,2.04E2,8.5E1,2.1E1,1.062E3,3.18E2,5.7E2,7.45E2,2.5E1,5.87E2,3.07E2,1.66E2,1.3E1,3.5E1,5.7E1,1.7E1,1.45E2,1.2E1,6.2E1,2.7E1,1.43E2,1.1E1,3.49E2,1.1E1,5.3E1,3.3E1,1.5E1,4.64E2,1.17E2,1E1,1.15E2,7.53E2,4.7E1,3.2E1,1.72E2,5E1,3.5E1,1.6E1,1.046E3,2.5E1,2.93E2,4.91E2,7.9E1,6.78E2,6.7E1,1.4E1,1.1E1,1.52E2,4.35E2,1.6E1,2.91E2,1.2E1,1.54E2,2.5E1,1E1,1.2E1,4.5E1],"tree_param":{"num_deleted":"0","num_feature":"35","num_nodes":"93","size_leaf_vector":"1"}},{"base_weights":[-9.515271E-3,-2.1549615E-1,4.1351599E-1,-3.6039197E-1,-7.153596E-2,7.394693E-1,2.9917234E-1,-1.5228935E-1,-4.5026144E-1,3.182947E-1,-1.4552738E-1,5.91521E-1,1.0227685E0,1.746833E-1,4.4721663E-1,1.03911646E-1,-3.0243847E-1,-5.9628415E-1,-3.358297E-1,1.3153873E-1,6.077273E-1,-3.4040165E-1,-4.4137016E-2,-1.1326606E-2,6.3628805E-1,1.2682591E-2,1.0619098E0,2.2819246E-1,-2.110693E-1,3.3614755E-1,6.514064E-1,4.210094E-1,-3.0765733E-2,-3.3701384E-1,-1.0837603E-1,-3.8884506E-1,-6.882636E-1,-2.3103574E-1,-4.2167878E-1,-1.5354143E-2,1.8638365E-1,4.0649545E-1,8.030273E-1,-6.8803436E-1,-2.5164318E-1,-1.234583E-1,6.669998E-2,4.4992828E-1,7.4297553E-1,1.8776322E-2,2.4439424E-2,2.4375935E-1,-4.3665855E-3,-0E0,-4.613263E-1,-1.7477445E-3,3.5229865E-1,6.90143E-1,2.4348699E-1,1.3537698E-2,3.037543E-3,-1.0025016E-2,1.0164552E-3,-8.753359E-3,-5.959771E-3,-3.5430791E-3,3.4568994E-3,-8.881701E-3,2.5910344E-3,-2.4129509E-3,-1.4170026E-2,1.840009E-4,-5.4550515E-3,-7.365923E-3,-1.33532025E-2,5.6862757E-3,-2.2872416E-3,1.0857447E-2,3.010802E-3,9.053878E-3,1.7442102E-2,-5.0909757E-3,-2.1830533E-2,1.2635198E-2,-5.9412876E-3,-1.4589767E-2,-2.2562204E-3,1.7549966E-3,-1.662279E-2,5.864867E-3,1.0529916E-2,1.5422776E-2,8.869429E-3,4.388763E-3,1.0038472E-2,2.354675E-3,-5.820285E-3,-1.7443316E-2,-6.2001627E-3,4.4586477E-3,8.130018E-3,6.5520583E-3,1.4184792E-2,7.879308E-3,3.4027727E-4],"categories":[],"categories_nodes":[],"categories_segments":[],"categories_sizes":[],"default_left":[0,0,0,0,0,0,0,0,0,0,0,0,0,0,0,0,0,0,0,0,0,0,0,0,0,0,0,0,0,0,0,0,0,0,0,0,0,0,0,0,0,0,0,0,0,0,0,0,0,0,0,0,0,0,0,0,0,0,0,0,0,0,0,0,0,0,0,0,0,0,0,0,0,0,0,0,0,0,0,0,0,0,0,0,0,0,0,0,0,0,0,0,0,0,0,0,0,0,0,0,0,0,0,0,0],"id":7,"left_children":[1,3,5,7,9,11,13,15,17,19,21,23,25,27,29,31,33,35,37,39,41,43,45,-1,47,-1,49,51,53,55,57,59,61,63,65,67,69,71,73,-1,75,77,79,81,83,85,87,89,91,-1,-1,93,-1,95,97,-1,99,101,103,-1,-1,-1,-1,-1,-1,-1,-1,-1,-1,-1,-1,-1,-1,-1,-1,-1,-1,-1,-1,-1,-1,-1,-1,-1,-1,-1,-1,-1,-1,-1,-1,-1,-1,-1,-1,-1,-1,-1,-1,-1,-1,-1,-1,-1,-1],"loss_changes":[5.849107E2,9.404149E1,8.127078E1,4.1803345E1,6.547657E1,2.231601E1,2.9778519E1,2.6337975E1,2.5630463E1,1.9259544E1,3.7592026E1,2.0379608E1,1.2346954E0,1.8470507E1,1.621518E1,1.0908545E1,2.729786E0,1.2338303E1,7.6364746E0,1.116806E1,4.6466255E0,1.9583473E1,1.1087821E1,0E0,6.369751E0,0E0,6.425781E-1,5.554119E0,5.785122E0,3.4390678E0,3.5697556E0,4.8623323E0,7.01216E0,1.021843E0,1.3966863E0,6.3633995E0,5.08519E0,4.1065693E0,5.6433563E0,0E0,6.3428597E0,2.280943E0,6.152611E-1,2.208805E1,2.1293919E1,4.4095917E0,9.919364E0,1.194849E0,1.0047531E0,0E0,0E0,4.394821E0,0E0,2.1481628E0,2.3311815E0,0E0,2.981472E0,9.5490265E-1,7.9046106E-1,0E0,0E0,0E0,0E0,0E0,0E0,0E0,0E0,0E0,0E0,0E0,0E0,0E0,0E0,0E0,0E0,0E0,0E0,0E0,0E0,0E0,0E0,0E0,0E0,0E0,0E0,0E0,0E0,0E0,0E0,0E0,0E0,0E0,0E0,0E0,0E0,0E0,0E0,0E0,0E0,0E0,0E0,0E0,0E0,0E0,0E0],"parents":[2147483647,0,0,1,1,2,2,3,3,4,4,5,5,6,6,7,7,8,8,9,9,10,10,11,11,12,12,13,13,14,14,15,15,16,16,17,17,18,18,19,19,20,20,21,21,22,22,24,24,26,26,27,27,28,28,29,29,30,30,31,31,32,32,33,33,34,34,35,35,36,36,37,37,38,38,40,40,41,41,42,42,43,43,44,44,45,45,46,46,47,47,48,48,51,51,53,53,54,54,56,56,57,57,58,58],"right_children":[2,4,6,8,10,12,14,16,18,20,22,24,26,28,30,32,34,36,38,40,42,44,46,-1,48,-1,50,52,54,56,58,60,62,64,66,68,70,72,74,-1,76,78,80,82,84,86,88,90,92,-1,-1,94,-1,96,98,-1,100,102,104,-1,-1,-1,-1,-1,-1,-1,-1,-1,-1,-1,-1,-1,-1,-1,-1,-1,-1,-1,-1,-1,-1,-1,-1,-1,-1,-1,-1,-1,-1,-1,-1,-1,-1,-1,-1,-1,-1,-1,-1,-1,-1,-1,-1,-1,-1],"split_conditions":[6.704143E2,5.3999996E0,2.22E0,0E0,5.9177776E1,1.5768907E3,7.06991E2,5.1138657E1,3.3256564E2,7.196422E2,4.2880252E2,3.4097424E2,5.6032494E1,1.39E1,1.0675647E3,4.3338695E0,4.475616E2,1.2246469E-16,5.079131E0,1.6849415E1,1.6828852E1,1.4540869E2,5.362023E2,-1.1326606E-2,1.0893265E1,1.2682591E-2,2.1404093E1,5.112427E0,3.9892857E1,9.77025E0,1.116E1,3E0,-8.660254E-1,3.9591316E1,1.0155572E3,1.9533333E1,1.4553501E1,2.9822886E1,1.46E1,-1.5354143E-2,5.6145657E1,2.794874E1,2.3683754E1,1.6436134E1,2.3506891E1,1.5600833E1,3.9713411E0,8.3030084E2,2.26E0,1.8776322E-2,2.4439424E-2,1.3955095E3,-4.3665855E-3,4.3400778E2,3.1402743E0,-1.7477445E-3,7.7045264E2,-8.660254E-1,8.110028E1,1.3537698E-2,3.037543E-3,-1.0025016E-2,1.0164552E-3,-8.753359E-3,-5.959771E-3,-3.5430791E-3,3.4568994E-3,-8.881701E-3,2.5910344E-3,-2.4129509E-3,-1.4170026E-2,1.840009E-4,-5.4550515E-3,-7.365923E-3,-1.33532025E-2,5.6862757E-3,-2.2872416E-3,1.0857447E-2,3.010802E-3,9.053878E-3,1.7442102E-2,-5.0909757E-3,-2.1830533E-2,1.2635198E-2,-5.9412876E-3,-1.4589767E-2,-2.2562204E-3,1.7549966E-3,-1.662279E-2,5.864867E-3,1.0529916E-2,1.5422776E-2,8.869429E-3,4.388763E-3,1.0038472E-2,2.354675E-3,-5.820285E-3,-1.7443316E-2,-6.2001627E-3,4.4586477E-3,8.130018E-3,6.5520583E-3,1.4184792E-2,7.879308E-3,3.4027727E-4],"split_indices":[13,2,1,7,18,13,14,17,13,14,13,14,18,0,13,30,13,9,30,21,18,14,13,0,26,0,26,30,21,4,0,11,10,15,15,1,20,21,0,0,17,21,15,14,21,15,25,13,0,0,0,15,0,17,25,0,13,7,18,0,0,0,0,0,0,0,0,0,0,0,0,0,0,0,0,0,0,0,0,0,0,0,0,0,0,0,0,0,0,0,0,0,0,0,0,0,0,0,0,0,0,0,0,0,0],"split_type":[0,0,0,0,0,0,0,0,0,0,0,0,0,0,0,0,0,0,0,0,0,0,0,0,0,0,0,0,0,0,0,0,0,0,0,0,0,0,0,0,0,0,0,0,0,0,0,0,0,0,0,0,0,0,0,0,0,0,0,0,0,0,0,0,0,0,0,0,0,0,0,0,0,0,0,0,0,0,0,0,0,0,0,0,0,0,0,0,0,0,0,0,0,0,0,0,0,0,0,0,0,0,0,0,0],"sum_hessian":[6.709E3,4.513E3,2.196E3,2.247E3,2.266E3,5.67E2,1.629E3,6.8E2,1.567E3,3.6E2,1.906E3,3.77E2,1.9E2,8.88E2,7.41E2,2.51E2,4.29E2,6.84E2,8.83E2,2.21E2,1.39E2,6.5E2,1.256E3,1.3E1,3.64E2,2.1E1,1.69E2,7.81E2,1.07E2,4.84E2,2.57E2,7.4E1,1.77E2,3.62E2,6.7E1,2.14E2,4.7E2,4.02E2,4.81E2,1.1E1,2.1E2,7.2E1,6.7E1,1.29E2,5.21E2,7.33E2,5.23E2,1.37E2,2.27E2,1.04E2,6.5E1,7.56E2,2.5E1,5.9E1,4.8E1,1.7E1,4.67E2,2.33E2,2.4E1,3.6E1,3.8E1,2.5E1,1.52E2,9.4E1,2.68E2,5.5E1,1.2E1,1.94E2,2E1,1.7E1,4.53E2,5.9E1,3.43E2,4E2,8.1E1,1.59E2,5.1E1,4.5E1,2.7E1,1.4E1,5.3E1,6.4E1,6.5E1,2.4E1,4.97E2,1E1,7.23E2,5.13E2,1E1,4.9E1,8.8E1,2.04E2,2.3E1,6.95E2,6.1E1,4.3E1,1.6E1,1E1,3.8E1,1.42E2,3.25E2,1.4E1,2.19E2,1.3E1,1.1E1],"tree_param":{"num_deleted":"0","num_feature":"35","num_nodes":"105","size_leaf_vector":"1"}},{"base_weights":[1.3593545E-3,-1.946431E-1,4.0751857E-1,-6.132167E-2,-3.5843104E-1,7.1861404E-1,3.0001643E-1,3.0161774E-1,-1.2912995E-1,-6.471696E-2,-4.4556653E-1,4.85389E-1,8.752542E-1,3.4222397E-1,-1.2908706E-1,3.8758466E-1,-8.881983E-1,-2.4762109E-1,2.5943436E-2,1.2902562E-1,-2.3992005E-1,-6.5833366E-1,-3.4879324E-1,-2.342075E-3,5.2944297E-1,7.795612E-1,1.054891E0,2.5383627E-1,4.483937E-1,8.969814E-2,-3.500427E-1,-7.2311424E-3,4.2863214E-1,-3.0672422E-2,5.485891E-4,-9.8414767E-1,-2.1962292E-1,3.5874117E-2,-1.3064548E-2,5.1020193E-1,-3.9943703E-2,-4.4317263E-1,-1.5758185E-2,-7.2770584E-1,-3.869399E-1,-3.705997E-1,-4.776051E-2,2.6793244E-1,5.81429E-1,3.5121784E-1,8.2621694E-1,2.625538E-2,1.852182E-2,2.7097577E-1,-4.46171E-3,2.3221217E-1,5.342904E-1,9.160479E-3,9.1401385E-3,-2.2083706E-1,-1.3805732E-2,1.3811385E-2,5.535184E-3,-2.6670715E-2,-1.0406388E-2,1.005733E-2,-4.6292986E-3,-1.9303932E-4,2.376829E-3,6.914763E-4,1.17251E-2,-7.149065E-3,3.2054636E-4,1.9059709E-3,-1.2064705E-2,1.7478162E-3,-1.3255315E-2,-1.4927763E-2,-3.0804556E-3,2.3966872E-4,-9.240329E-3,-6.471796E-3,-9.8564355E-3,1.2256233E-3,-3.9923945E-3,2.3649533E-3,6.329879E-3,1.8075319E-2,1.0783817E-2,-2.5264062E-3,1.463177E-2,9.164921E-3,1.7349826E-2,-2.1999734E-3,5.649018E-3,8.129671E-3,-2.0668806E-4,2.509195E-3,1.1232691E-2,6.0792374E-3,-1.9521012E-3,5.5591355E-4,-8.461372E-3],"categories":[],"categories_nodes":[],"categories_segments":[],"categories_sizes":[],"default_left":[0,0,0,0,0,0,0,0,0,0,0,0,0,0,0,0,0,0,0,0,0,0,0,0,0,0,0,0,0,0,0,0,0,0,0,0,0,0,0,0,0,0,0,0,0,0,0,0,0,0,0,0,0,0,0,0,0,0,0,0,0,0,0,0,0,0,0,0,0,0,0,0,0,0,0,0,0,0,0,0,0,0,0,0,0,0,0,0,0,0,0,0,0,0,0,0,0,0,0,0,0,0,0],"id":8,"left_children":[1,3,5,7,9,11,13,15,17,19,21,23,25,27,29,31,33,35,37,39,41,43,45,-1,47,49,51,53,55,57,59,-1,61,-1,-1,63,65,67,-1,69,71,73,75,77,79,81,83,85,87,89,91,-1,-1,93,-1,95,97,99,-1,101,-1,-1,-1,-1,-1,-1,-1,-1,-1,-1,-1,-1,-1,-1,-1,-1,-1,-1,-1,-1,-1,-1,-1,-1,-1,-1,-1,-1,-1,-1,-1,-1,-1,-1,-1,-1,-1,-1,-1,-1,-1,-1,-1],"loss_changes":[5.3508875E2,9.885666E1,7.253931E1,6.161836E1,5.1870697E1,1.9336334E1,2.9652557E1,4.0888607E1,3.8828056E1,1.5970024E1,3.1604156E1,6.3111763E0,3.6954956E0,1.3567291E1,7.2211127E0,1.1670258E1,1.634148E1,2.401078E1,6.094733E0,1.4497595E1,1.1147931E1,8.382721E0,6.983673E0,0E0,2.4414635E0,3.6806946E0,7.4113464E-1,6.8006287E0,1.2058563E1,2.1170583E0,2.7660408E0,0E0,1.3387482E1,0E0,0E0,5.2099113E0,1.0068939E1,3.438701E0,0E0,2.3312302E0,2.8520713E0,1.1334959E1,8.239495E0,3.7163544E0,3.2158604E0,5.309372E0,1.3106164E0,1.2895918E-1,1.1466484E0,5.0285616E0,1.9925537E0,0E0,0E0,3.545929E0,0E0,8.330073E0,5.065277E0,2.114984E0,0E0,2.9686127E0,0E0,0E0,0E0,0E0,0E0,0E0,0E0,0E0,0E0,0E0,0E0,0E0,0E0,0E0,0E0,0E0,0E0,0E0,0E0,0E0,0E0,0E0,0E0,0E0,0E0,0E0,0E0,0E0,0E0,0E0,0E0,0E0,0E0,0E0,0E0,0E0,0E0,0E0,0E0,0E0,0E0,0E0,0E0],"parents":[2147483647,0,0,1,1,2,2,3,3,4,4,5,5,6,6,7,7,8,8,9,9,10,10,11,11,12,12,13,13,14,14,15,15,16,16,17,17,18,18,19,19,20,20,21,21,22,22,24,24,25,25,26,26,27,27,28,28,29,29,30,30,32,32,35,35,36,36,37,37,39,39,40,40,41,41,42,42,43,43,44,44,45,45,46,46,47,47,48,48,49,49,50,50,53,53,55,55,56,56,57,57,59,59],"right_children":[2,4,6,8,10,12,14,16,18,20,22,24,26,28,30,32,34,36,38,40,42,44,46,-1,48,50,52,54,56,58,60,-1,62,-1,-1,64,66,68,-1,70,72,74,76,78,80,82,84,86,88,90,92,-1,-1,94,-1,96,98,100,-1,102,-1,-1,-1,-1,-1,-1,-1,-1,-1,-1,-1,-1,-1,-1,-1,-1,-1,-1,-1,-1,-1,-1,-1,-1,-1,-1,-1,-1,-1,-1,-1,-1,-1,-1,-1,-1,-1,-1,-1,-1,-1,-1,-1],"split_conditions":[8.4555216E-2,1.0366667E1,2.22E0,2E0,3.8525555E1,1.4366527E-1,1.39E1,9.5924677E2,6.1382856E-2,0E0,4.0885903E-2,5.554902E1,1.8804274E1,1.2561499E-1,3.570378E1,1.023805E1,1.1110844E3,1.2775919E-1,3.202573E1,4.3338695E0,-5E-1,5E-1,2.0776983E1,-2.342075E-3,9.143495E0,-8.660254E-1,1.2029999E1,5.112427E0,8.660254E-1,6E0,1.8226667E1,-7.2311424E-3,4.0701637E0,-3.0672422E-2,5.485891E-4,1E0,3.2284229E0,2.8174986E1,-1.3064548E-2,-8.660254E-1,-8.660254E-1,-2.5396636E-1,6.866415E2,1.94E1,6.4411573E0,1.37E1,2.4955639E1,8.918326E-2,3.2487255E1,2.0660967E1,1.37E1,2.625538E-2,1.852182E-2,-9.659258E-1,-4.46171E-3,3.3748318E1,-8.660254E-1,2.2943136E1,9.1401385E-3,3.371857E2,-1.3805732E-2,1.3811385E-2,5.535184E-3,-2.6670715E-2,-1.0406388E-2,1.005733E-2,-4.6292986E-3,-1.9303932E-4,2.376829E-3,6.914763E-4,1.17251E-2,-7.149065E-3,3.2054636E-4,1.9059709E-3,-1.2064705E-2,1.7478162E-3,-1.3255315E-2,-1.4927763E-2,-3.0804556E-3,2.3966872E-4,-9.240329E-3,-6.471796E-3,-9.8564355E-3,1.2256233E-3,-3.9923945E-3,2.3649533E-3,6.329879E-3,1.8075319E-2,1.0783817E-2,-2.5264062E-3,1.463177E-2,9.164921E-3,1.7349826E-2,-2.1999734E-3,5.649018E-3,8.129671E-3,-2.0668806E-4,2.509195E-3,1.1232691E-2,6.0792374E-3,-1.9521012E-3,5.5591355E-4,-8.461372E-3],"split_indices":[16,1,1,29,17,16,0,19,16,7,16,15,26,16,22,24,19,23,24,30,10,10,26,0,26,8,4,30,10,29,1,0,30,0,0,28,30,24,0,10,10,23,19,0,26,0,26,16,24,4,2,0,0,8,0,22,8,17,0,17,0,0,0,0,0,0,0,0,0,0,0,0,0,0,0,0,0,0,0,0,0,0,0,0,0,0,0,0,0,0,0,0,0,0,0,0,0,0,0,0,0,0,0],"split_type":[0,0,0,0,0,0,0,0,0,0,0,0,0,0,0,0,0,0,0,0,0,0,0,0,0,0,0,0,0,0,0,0,0,0,0,0,0,0,0,0,0,0,0,0,0,0,0,0,0,0,0,0,0,0,0,0,0,0,0,0,0,0,0,0,0,0,0,0,0,0,0,0,0,0,0,0,0,0,0,0,0,0,0,0,0,0,0,0,0,0,0,0,0,0,0,0,0,0,0,0,0,0,0],"sum_hessian":[6.717E3,4.531E3,2.186E3,2.5E3,2.031E3,5.58E2,1.628E3,3.92E2,2.108E3,4.66E2,1.565E3,2.28E2,3.3E2,1.483E3,1.45E2,3.67E2,2.5E1,1.195E3,9.13E2,2.21E2,2.45E2,4.85E2,1.08E3,1.5E1,2.13E2,2.23E2,1.07E2,8.14E2,6.69E2,7.3E1,7.2E1,1.8E1,3.49E2,1.4E1,1.1E1,4.1E1,1.154E3,9.02E2,1.1E1,6.7E1,1.54E2,1.27E2,1.18E2,3.83E2,1.02E2,1.006E3,7.4E1,3.8E1,1.75E2,2.4E1,1.99E2,2.9E1,7.8E1,7.87E2,2.7E1,1.93E2,4.76E2,6.2E1,1.1E1,5.5E1,1.7E1,1.25E2,2.24E2,2.1E1,2E1,1.7E1,1.137E3,5.82E2,3.2E2,1E1,5.7E1,2.2E1,1.32E2,2.9E1,9.8E1,1.03E2,1.5E1,3.7E2,1.3E1,1.6E1,8.6E1,7.33E2,2.73E2,4.3E1,3.1E1,1.2E1,2.6E1,1.5E1,1.6E2,1.1E1,1.3E1,2.3E1,1.76E2,2.2E1,7.65E2,1.12E2,8.1E1,3.1E1,4.45E2,1.6E1,4.6E1,2.5E1,3E1],"tree_param":{"num_deleted":"0","num_feature":"35","num_nodes":"103","size_leaf_vector":"1"}},{"base_weights":[-4.1592764E-3,-1.948309E-1,3.9527965E-1,-5.1489096E-2,-3.4570962E-1,6.872359E-1,2.8811976E-1,3.321003E-1,-1.2550275E-1,-1.3943294E-1,-4.3357474E-1,4.9357405E-1,9.0074086E-1,3.5623425E-1,-3.5122525E-2,3.8909394E-1,-5.677668E-1,-1.0696557E0,-1.0399957E-1,3.0985957E-1,-2.1895489E-1,-5.286005E-1,-3.0164194E-1,-4.288139E-3,5.2440035E-1,2.231328E-2,8.215074E-1,2.7463138E-1,5.135253E-1,1.486398E-1,-3.5527632E-1,-1.1995058E-2,4.2776936E-1,-2.2341354E-2,2.1054074E-3,-1.2150922E0,-9.495252E-3,-2.1118823E-1,1.6165307E-2,4.5133242E-1,-2.2366531E-1,-7.887824E-2,-3.0166996E-1,-1.7507875E-2,-5.598853E-1,-8.41997E-2,-3.4605885E-1,2.0906746E-2,4.8844048E-1,1.6873559E-2,6.9094547E-3,2.9868117E-1,-0E0,5.493447E-1,-7.297049E-2,-1.2436972E-2,2.7782023E-1,-4.2091656E-1,7.530907E-4,1.3456558E-2,5.4189297E-3,-2.8222904E-2,-1.3619766E-2,-5.720473E-3,-2.8977068E-3,5.20446E-4,-1.4034878E-2,5.9252423E-3,1.4220314E-2,-9.756722E-3,1.2223271E-3,1.4299253E-3,-3.228026E-3,-5.2387607E-3,-8.785825E-3,-7.939372E-3,2.1010167E-3,-1.2631938E-2,-8.895118E-3,4.690475E-3,-2.8612637E-3,-6.404701E-3,-1.4859125E-2,-3.4857786E-3,1.0298394E-2,9.813505E-4,6.446108E-3,-1.950135E-3,6.6051716E-3,1.1715493E-2,3.6005178E-3,-3.6135758E-3,1.108704E-3,9.610991E-4,-5.0806236E-3,2.8133406E-3,8.0520725E-3,-4.733002E-3,-1.291308E-2],"categories":[],"categories_nodes":[],"categories_segments":[],"categories_sizes":[],"default_left":[0,0,0,0,0,0,0,0,0,0,0,0,0,0,0,0,0,0,0,0,0,0,0,0,0,0,0,0,0,0,0,0,0,0,0,0,0,0,0,0,0,0,0,0,0,0,0,0,0,0,0,0,0,0,0,0,0,0,0,0,0,0,0,0,0,0,0,0,0,0,0,0,0,0,0,0,0,0,0,0,0,0,0,0,0,0,0,0,0,0,0,0,0,0,0,0,0,0,0],"id":9,"left_children":[1,3,5,7,9,11,13,15,17,19,21,23,25,27,29,31,33,35,37,39,41,43,45,-1,47,-1,49,51,53,55,57,-1,59,-1,-1,61,-1,63,65,67,69,71,73,75,77,79,81,-1,83,-1,-1,85,87,89,91,93,95,97,-1,-1,-1,-1,-1,-1,-1,-1,-1,-1,-1,-1,-1,-1,-1,-1,-1,-1,-1,-1,-1,-1,-1,-1,-1,-1,-1,-1,-1,-1,-1,-1,-1,-1,-1,-1,-1,-1,-1,-1,-1],"loss_changes":[5.0917853E2,9.7769775E1,6.6986664E1,6.6022385E1,3.9710968E1,2.2730988E1,3.496492E1,1.9689896E1,3.9132256E1,2.376986E1,1.8872192E1,7.0087967E0,2.4114227E0,1.6361862E1,1.6443462E1,1.4055359E1,8.940647E0,2.2285957E0,2.463435E1,7.7953587E0,6.4110546E0,1.415947E1,6.1527557E0,0E0,4.2169952E0,0E0,1.3639069E0,5.709511E0,9.502968E0,3.7429972E0,2.7391434E0,0E0,1.2628403E1,0E0,0E0,1.1151428E0,0E0,4.8423576E0,6.2772374E0,2.5987835E0,1.8000556E0,2.6842551E0,1.5598106E0,2.6531234E0,6.1745605E0,2.187585E0,4.8461914E0,0E0,5.1787643E0,0E0,0E0,4.5939484E0,2.3961337E0,5.273262E0,4.1850036E-1,1.2347699E0,1.4724097E0,3.1621714E0,0E0,0E0,0E0,0E0,0E0,0E0,0E0,0E0,0E0,0E0,0E0,0E0,0E0,0E0,0E0,0E0,0E0,0E0,0E0,0E0,0E0,0E0,0E0,0E0,0E0,0E0,0E0,0E0,0E0,0E0,0E0,0E0,0E0,0E0,0E0,0E0,0E0,0E0,0E0,0E0,0E0],"parents":[2147483647,0,0,1,1,2,2,3,3,4,4,5,5,6,6,7,7,8,8,9,9,10,10,11,11,12,12,13,13,14,14,15,15,16,16,17,17,18,18,19,19,20,20,21,21,22,22,24,24,26,26,27,27,28,28,29,29,30,30,32,32,35,35,37,37,38,38,39,39,40,40,41,41,42,42,43,43,44,44,45,45,46,46,48,48,51,51,52,52,53,53,54,54,55,55,56,56,57,57],"right_children":[2,4,6,8,10,12,14,16,18,20,22,24,26,28,30,32,34,36,38,40,42,44,46,-1,48,-1,50,52,54,56,58,-1,60,-1,-1,62,-1,64,66,68,70,72,74,76,78,80,82,-1,84,-1,-1,86,88,90,92,94,96,98,-1,-1,-1,-1,-1,-1,-1,-1,-1,-1,-1,-1,-1,-1,-1,-1,-1,-1,-1,-1,-1,-1,-1,-1,-1,-1,-1,-1,-1,-1,-1,-1,-1,-1,-1,-1,-1,-1,-1,-1,-1],"split_conditions":[6.764417E2,1.015E1,2.3E0,2E0,0E0,1.307037E3,1.159E1,9.5924677E2,1.2775919E-1,4.0144696E0,3.545059E2,-9.659258E-1,2.401917E0,1.0675647E3,3.570378E1,1.2797563E0,1.2331642E3,7.0710677E-1,4.9106284E2,5.1138657E1,4.717399E0,-2.5396636E-1,1.6747899E0,-4.288139E-3,3.1798319E1,2.231328E-2,2.2746284E3,4.6213837E0,2.1618488E1,2.315814E1,6E0,-1.1995058E-2,4.0701637E0,-2.2341354E-2,2.1054074E-3,4.0535383E-2,-9.495252E-3,4.126661E2,4.0032163E0,3.1587727E0,3.4247562E2,1.6068068E1,2.2255924E1,1.2705293E1,2.1601682E0,2.3571428E1,5.956675E0,2.0906746E-2,2.3683754E1,1.6873559E-2,6.9094547E-3,-8.660254E-1,4.1568627E0,4.4165604E1,3.756925E2,4.8972015E0,8.4084E2,2.2410833E1,7.530907E-4,1.3456558E-2,5.4189297E-3,-2.8222904E-2,-1.3619766E-2,-5.720473E-3,-2.8977068E-3,5.20446E-4,-1.4034878E-2,5.9252423E-3,1.4220314E-2,-9.756722E-3,1.2223271E-3,1.4299253E-3,-3.228026E-3,-5.2387607E-3,-8.785825E-3,-7.939372E-3,2.1010167E-3,-1.2631938E-2,-8.895118E-3,4.690475E-3,-2.8612637E-3,-6.404701E-3,-1.4859125E-2,-3.4857786E-3,1.0298394E-2,9.813505E-4,6.446108E-3,-1.950135E-3,6.6051716E-3,1.1715493E-2,3.6005178E-3,-3.6135758E-3,1.108704E-3,9.610991E-4,-5.0806236E-3,2.8133406E-3,8.0520725E-3,-4.733002E-3,-1.291308E-2],"split_indices":[13,0,1,29,7,13,0,19,23,30,13,8,30,13,22,25,19,7,13,17,30,23,23,0,21,0,19,30,3,19,11,0,30,0,0,23,0,13,25,30,15,19,3,15,25,17,30,0,15,0,0,8,23,21,19,30,13,3,0,0,0,0,0,0,0,0,0,0,0,0,0,0,0,0,0,0,0,0,0,0,0,0,0,0,0,0,0,0,0,0,0,0,0,0,0,0,0,0,0],"split_type":[0,0,0,0,0,0,0,0,0,0,0,0,0,0,0,0,0,0,0,0,0,0,0,0,0,0,0,0,0,0,0,0,0,0,0,0,0,0,0,0,0,0,0,0,0,0,0,0,0,0,0,0,0,0,0,0,0,0,0,0,0,0,0,0,0,0,0,0,0,0,0,0,0,0,0,0,0,0,0,0,0,0,0,0,0,0,0,0,0,0,0,0,0,0,0,0,0,0,0],"sum_hessian":[6.682E3,4.524E3,2.158E3,2.322E3,2.202E3,5.76E2,1.582E3,3.74E2,1.948E3,6.6E2,1.542E3,3.06E2,2.7E2,1.307E3,2.75E2,3.53E2,2.1E1,4.1E1,1.907E3,9.8E1,5.62E2,8.92E2,6.5E2,1.2E1,2.94E2,6.5E1,2.05E2,8.65E2,4.42E2,1.75E2,1E2,1.2E1,3.41E2,1.1E1,1E1,3.1E1,1E1,1.008E3,8.99E2,7.8E1,2E1,2.11E2,3.51E2,5.2E1,8.4E2,1.12E2,5.38E2,1.5E1,2.79E2,1.94E2,1.1E1,7.95E2,7E1,4.17E2,2.5E1,7.8E1,9.7E1,8.6E1,1.4E1,1.3E2,2.11E2,2E1,1.1E1,4.69E2,5.39E2,8.89E2,1E1,5.2E1,2.6E1,1E1,1E1,7.4E1,1.37E2,2.78E2,7.3E1,1.2E1,4E1,5.11E2,3.29E2,1.6E1,9.6E1,5.09E2,2.9E1,1E1,2.69E2,7E1,7.25E2,5.5E1,1.5E1,3.78E2,3.9E1,1.4E1,1.1E1,6.3E1,1.5E1,4.9E1,4.8E1,5E1,3.6E1],"tree_param":{"num_deleted":"0","num_feature":"35","num_nodes":"99","size_leaf_vector":"1"}},{"base_weights":[-1.3288993E-3,-1.846695E-1,3.9782858E-1,-4.240534E-2,-3.3098555E-1,2.179704E-1,5.733457E-1,3.2336327E-1,-1.128699E-1,-1.19548306E-1,-3.9958394E-1,2.8224823E-1,-1.2931547E-1,4.3373823E-1,8.311292E-1,4.1069856E-1,-5.13879E-1,-9.767745E-1,-9.218493E-2,8.983325E-2,-2.1481872E-1,-6.376519E-1,-3.151993E-1,2.045529E-1,5.2921486E-1,1.1441316E-1,-3.7530136E-1,6.180181E-1,3.6601534E-1,8.905748E-1,4.122432E-1,6.36775E-1,2.4310894E-1,-9.335351E-1,3.6955504E-3,-2.5500966E-2,7.863955E-4,-1.9605014E-1,2.0784102E-2,2.2465605E-1,-1.140365E-1,-4.0131977E-1,5.476593E-5,-6.9495076E-1,-2.5464442E-1,-3.3837587E-1,-3.239073E-2,-2.7762169E-2,2.5155613E-1,6.5026814E-1,1.3719867E-1,-7.3879636E-3,2.0136762E-1,-4.7137937E-1,-1.24411866E-1,4.544608E-1,6.893666E-1,2.8804296E-1,4.5082545E-1,8.4418374E-1,2.391242E-2,1.03559205E-2,-0E0,-3.4334396E-3,1.4299578E-2,1.2300329E-3,8.322478E-3,-7.7827177E-3,-2.5541041E-2,1.0571309E-2,-4.2301556E-3,-7.7053136E-3,6.761978E-4,1.9332592E-3,8.52023E-3,-8.79725E-3,-2.6598395E-4,-9.830751E-3,-1.9596622E-3,1.6789337E-3,-6.6458154E-3,-1.4797867E-2,-8.907907E-3,-1.4517454E-2,-1.5827003E-3,-6.4095748E-3,-1.1583525E-2,-7.923328E-3,1.3695819E-3,2.8214734E-3,-2.536343E-2,1.0162772E-3,5.871518E-3,5.4652137E-3,1.4179384E-2,4.5849965E-3,-2.6223757E-3,1.4132592E-3,8.668786E-3,-1.5371277E-2,-5.385052E-3,1.4388539E-3,-6.944383E-3,4.4470085E-3,9.837653E-3,1.899217E-2,1.24196E-2,-2.058698E-3,6.311835E-3,1.3097062E-3,9.357799E-3,1.7181147E-2,7.685801E-3],"categories":[],"categories_nodes":[],"categories_segments":[],"categories_sizes":[],"default_left":[0,0,0,0,0,0,0,0,0,0,0,0,0,0,0,0,0,0,0,0,0,0,0,0,0,0,0,0,0,0,0,0,0,0,0,0,0,0,0,0,0,0,0,0,0,0,0,0,0,0,0,0,0,0,0,0,0,0,0,0,0,0,0,0,0,0,0,0,0,0,0,0,0,0,0,0,0,0,0,0,0,0,0,0,0,0,0,0,0,0,0,0,0,0,0,0,0,0,0,0,0,0,0,0,0,0,0,0,0,0,0,0,0],"id":10,"left_children":[1,3,5,7,9,11,13,15,17,19,21,23,25,27,29,31,33,35,37,39,41,43,45,47,49,51,53,55,57,59,61,63,65,67,-1,-1,-1,69,71,73,75,77,79,81,83,85,87,89,91,93,95,-1,97,99,101,103,105,107,109,111,-1,-1,-1,-1,-1,-1,-1,-1,-1,-1,-1,-1,-1,-1,-1,-1,-1,-1,-1,-1,-1,-1,-1,-1,-1,-1,-1,-1,-1,-1,-1,-1,-1,-1,-1,-1,-1,-1,-1,-1,-1,-1,-1,-1,-1,-1,-1,-1,-1,-1,-1,-1,-1],"loss_changes":[4.869095E2,9.4816055E1,6.569559E1,5.9697075E1,3.2391693E1,2.3274632E1,3.71019E1,2.7748642E1,3.4327225E1,1.111471E1,3.34588E1,1.6464752E1,9.910526E0,7.974457E0,8.193619E0,1.2396351E1,1.1049781E1,1.3985756E1,2.2336952E1,4.855976E0,1.5388617E1,9.134262E0,8.136429E0,7.3857517E0,9.534676E0,3.6069365E0,1.7401581E0,1.2685165E0,2.971672E0,2.1159973E0,2.2272863E0,9.395134E0,6.1060247E0,2.9741058E0,0E0,0E0,0E0,1.126022E1,4.774149E0,2.5449486E0,2.1952662E0,5.395874E0,4.996839E0,3.3882446E0,4.7691197E0,4.4480133E0,3.7158067E0,2.4457747E1,4.6165314E0,2.9127502E0,1.3640889E0,0E0,2.0218885E0,2.8625612E0,1.2424951E0,1.7694473E-1,6.777458E-1,3.0479794E0,1.4101982E0,1.047409E0,0E0,0E0,0E0,0E0,0E0,0E0,0E0,0E0,0E0,0E0,0E0,0E0,0E0,0E0,0E0,0E0,0E0,0E0,0E0,0E0,0E0,0E0,0E0,0E0,0E0,0E0,0E0,0E0,0E0,0E0,0E0,0E0,0E0,0E0,0E0,0E0,0E0,0E0,0E0,0E0,0E0,0E0,0E0,0E0,0E0,0E0,0E0,0E0,0E0,0E0,0E0,0E0,0E0],"parents":[2147483647,0,0,1,1,2,2,3,3,4,4,5,5,6,6,7,7,8,8,9,9,10,10,11,11,12,12,13,13,14,14,15,15,16,16,17,17,18,18,19,19,20,20,21,21,22,22,23,23,24,24,25,25,26,26,27,27,28,28,29,29,30,30,31,31,32,32,33,33,37,37,38,38,39,39,40,40,41,41,42,42,43,43,44,44,45,45,46,46,47,47,48,48,49,49,50,50,52,52,53,53,54,54,55,55,56,56,57,57,58,58,59,59],"right_children":[2,4,6,8,10,12,14,16,18,20,22,24,26,28,30,32,34,36,38,40,42,44,46,48,50,52,54,56,58,60,62,64,66,68,-1,-1,-1,70,72,74,76,78,80,82,84,86,88,90,92,94,96,-1,98,100,102,104,106,108,110,112,-1,-1,-1,-1,-1,-1,-1,-1,-1,-1,-1,-1,-1,-1,-1,-1,-1,-1,-1,-1,-1,-1,-1,-1,-1,-1,-1,-1,-1,-1,-1,-1,-1,-1,-1,-1,-1,-1,-1,-1,-1,-1,-1,-1,-1,-1,-1,-1,-1,-1,-1,-1,-1],"split_conditions":[6.8700476E2,1.01E1,7.383454E2,2E0,3.621821E1,3.6334538E1,1.2817778E3,3.6486713E2,1.2775919E-1,2.2988827E1,1.648107E1,1.1744308E3,1.007E1,2.17E0,7.5E0,4.235539E0,-2.5881904E-1,1.05168625E2,4.9314062E2,5.217367E-1,3.503969E2,3.6505237E2,5.165765E2,1.05168625E2,9.51E0,-7.0710677E-1,9.659258E-1,1.0432244E1,9.655684E2,2.5876577E3,1.12E1,1.2942347E1,2.5881904E-1,6.08837E2,3.6955504E-3,-2.5500966E-2,7.863955E-4,3.476135E0,-9.659258E-1,2.3086275E1,1.24285995E2,9.659258E-1,4.9760847E0,5E-1,2.2977731E2,1.48E1,6.123234E-17,3.2934734E1,5.0081566E1,2.375042E1,3.5293724E1,-7.3879636E-3,2.3027502E3,2.2931284E1,1.3711359E3,7.7045264E2,2.9872662E1,1.0798E1,1.595042E1,4.4165604E1,2.391242E-2,1.03559205E-2,-0E0,-3.4334396E-3,1.4299578E-2,1.2300329E-3,8.322478E-3,-7.7827177E-3,-2.5541041E-2,1.0571309E-2,-4.2301556E-3,-7.7053136E-3,6.761978E-4,1.9332592E-3,8.52023E-3,-8.79725E-3,-2.6598395E-4,-9.830751E-3,-1.9596622E-3,1.6789337E-3,-6.6458154E-3,-1.4797867E-2,-8.907907E-3,-1.4517454E-2,-1.5827003E-3,-6.4095748E-3,-1.1583525E-2,-7.923328E-3,1.3695819E-3,2.8214734E-3,-2.536343E-2,1.0162772E-3,5.871518E-3,5.4652137E-3,1.4179384E-2,4.5849965E-3,-2.6223757E-3,1.4132592E-3,8.668786E-3,-1.5371277E-2,-5.385052E-3,1.4388539E-3,-6.944383E-3,4.4470085E-3,9.837653E-3,1.899217E-2,1.24196E-2,-2.058698E-3,6.311835E-3,1.3097062E-3,9.357799E-3,1.7181147E-2,7.685801E-3],"split_indices":[13,0,14,29,18,22,13,18,23,14,24,13,0,0,0,30,8,14,13,23,14,13,13,14,0,8,8,26,13,13,0,24,8,20,0,0,0,30,8,13,13,8,30,10,18,0,10,24,18,18,22,0,13,20,13,13,22,4,20,21,0,0,0,0,0,0,0,0,0,0,0,0,0,0,0,0,0,0,0,0,0,0,0,0,0,0,0,0,0,0,0,0,0,0,0,0,0,0,0,0,0,0,0,0,0,0,0,0,0,0,0,0,0],"split_type":[0,0,0,0,0,0,0,0,0,0,0,0,0,0,0,0,0,0,0,0,0,0,0,0,0,0,0,0,0,0,0,0,0,0,0,0,0,0,0,0,0,0,0,0,0,0,0,0,0,0,0,0,0,0,0,0,0,0,0,0,0,0,0,0,0,0,0,0,0,0,0,0,0,0,0,0,0,0,0,0,0,0,0,0,0,0,0,0,0,0,0,0,0,0,0,0,0,0,0,0,0,0,0,0,0,0,0,0,0,0,0,0,0],"sum_hessian":[6.65E3,4.558E3,2.092E3,2.313E3,2.245E3,1.036E3,1.056E3,3.72E2,1.941E3,5.52E2,1.693E3,8.75E2,1.61E2,6.89E2,3.67E2,3.38E2,3.4E1,4.3E1,1.898E3,1.72E2,3.8E2,4.39E2,1.254E3,6.69E2,2.06E2,8.1E1,8E1,1.8E2,5.09E2,3.19E2,4.8E1,1.41E2,1.97E2,2.1E1,1.3E1,3.3E1,1E1,9.89E2,9.09E2,1.04E2,6.8E1,2.03E2,1.77E2,3.8E2,5.9E1,1.158E3,9.6E1,1.12E2,5.57E2,1.56E2,5E1,1.1E1,7E1,5.6E1,2.4E1,6E1,1.2E2,2.71E2,2.38E2,2.84E2,3.5E1,3.8E1,1E1,1.2E1,1.29E2,9.8E1,9.9E1,1E1,1.1E1,1.9E1,9.7E2,2.6E1,8.83E2,6.6E1,3.8E1,1.4E1,5.4E1,1.55E2,4.8E1,1.43E2,3.4E1,3.18E2,6.2E1,1.4E1,4.5E1,1.083E3,7.5E1,2E1,7.6E1,1E2,1.2E1,9.8E1,4.59E2,2.3E1,1.33E2,3.8E1,1.2E1,4.7E1,2.3E1,2E1,3.6E1,1.3E1,1.1E1,1.1E1,4.9E1,1.9E1,1.01E2,1.7E1,2.54E2,1.1E1,2.27E2,2.73E2,1.1E1],"tree_param":{"num_deleted":"0","num_feature":"35","num_nodes":"113","size_leaf_vector":"1"}},{"base_weights":[4.4121025E-3,-1.8678956E-1,3.715226E-1,-3.2622376E-1,-5.3426843E-2,6.577959E-1,2.7001747E-1,-9.217344E-2,-3.9127216E-1,3.7136927E-1,-1.2674662E-1,5.179528E-1,9.577945E-1,-1.9147107E-1,3.0909428E-1,9.946147E-2,-2.6829192E-1,-6.3132054E-1,-3.2082602E-1,4.5621905E-1,-1.9673334E-2,-2.282823E-1,8.206832E-3,-1.0820764E-2,5.695871E-1,2.2952484E-2,8.310125E-1,1.5107932E-3,-4.3695718E-1,2.1387227E-1,4.1108802E-1,3.9664227E-1,-2.6833637E-2,1.4345194E-1,-3.7581283E-1,-7.198354E-1,-3.6168963E-1,-3.5742936E-1,-8.3009124E-2,2.7651203E-1,6.2998515E-1,-2.2039285E-2,-2.1063711E-1,1.7242124E-2,-1.0868388E-2,3.7774295E-1,6.7041403E-1,8.685164E-1,7.4664764E-3,-1.8931508E-1,1.2488068E-1,-5.689985E-1,-0E0,1.9498788E-1,7.6279694E-1,3.2700348E-1,6.33868E-1,-1.450028E-3,1.0066676E-2,-9.906332E-3,9.1479754E-4,-4.3185125E-3,6.124452E-3,-9.072209E-3,4.802188E-3,-1.692738E-2,-1.0612217E-2,5.8264867E-3,-9.596851E-3,-6.187136E-3,-9.768279E-3,7.870598E-3,-3.0000347E-3,-7.545497E-3,7.0353243E-3,9.221374E-3,1.8291995E-2,-3.8490596E-3,-1.6952088E-2,-1.3113606E-3,1.2496451E-3,2.0309908E-3,8.197418E-3,1.909063E-2,1.2690715E-2,1.1036186E-2,1.825737E-2,1.8149037E-3,-1.1697863E-2,-0E0,6.326663E-3,-1.4055216E-2,-3.8887828E-3,1.1823523E-2,3.5501393E-3,1.938551E-2,6.873856E-3,4.093066E-3,7.818389E-3,8.013352E-3,1.3878964E-2],"categories":[],"categories_nodes":[],"categories_segments":[],"categories_sizes":[],"default_left":[0,0,0,0,0,0,0,0,0,0,0,0,0,0,0,0,0,0,0,0,0,0,0,0,0,0,0,0,0,0,0,0,0,0,0,0,0,0,0,0,0,0,0,0,0,0,0,0,0,0,0,0,0,0,0,0,0,0,0,0,0,0,0,0,0,0,0,0,0,0,0,0,0,0,0,0,0,0,0,0,0,0,0,0,0,0,0,0,0,0,0,0,0,0,0,0,0,0,0,0,0],"id":11,"left_children":[1,3,5,7,9,11,13,15,17,19,21,23,25,27,29,31,33,35,37,39,-1,41,43,-1,45,-1,47,49,51,53,55,57,59,61,63,65,67,69,71,73,75,-1,77,79,-1,81,83,85,-1,87,89,91,-1,93,95,97,99,-1,-1,-1,-1,-1,-1,-1,-1,-1,-1,-1,-1,-1,-1,-1,-1,-1,-1,-1,-1,-1,-1,-1,-1,-1,-1,-1,-1,-1,-1,-1,-1,-1,-1,-1,-1,-1,-1,-1,-1,-1,-1,-1,-1],"loss_changes":[4.6891882E2,8.1559875E1,6.59444E1,3.250319E1,7.006133E1,2.3758423E1,3.0672577E1,1.5949846E1,2.7780243E1,3.8848606E1,2.6343035E1,2.3150307E1,2.1974182E0,6.389201E0,1.4869385E1,8.577589E0,1.1044977E1,8.284454E0,1.1186325E1,9.244354E0,0E0,1.6169514E1,4.02539E0,0E0,6.905052E0,0E0,1.1629791E0,1.8236012E0,3.304206E0,7.9386177E0,1.3461281E1,3.5628014E0,5.5751395E0,3.1921005E0,9.652321E0,5.57843E0,7.87852E0,6.6347046E0,5.7200074E0,8.033959E0,6.4294243E0,0E0,1.19403E1,3.0570989E0,0E0,1.0656395E0,1.070198E0,2.3069E-1,0E0,3.528553E0,1.1526977E0,1.801858E0,0E0,5.100786E0,1.3210754E0,4.0219536E0,2.069168E0,0E0,0E0,0E0,0E0,0E0,0E0,0E0,0E0,0E0,0E0,0E0,0E0,0E0,0E0,0E0,0E0,0E0,0E0,0E0,0E0,0E0,0E0,0E0,0E0,0E0,0E0,0E0,0E0,0E0,0E0,0E0,0E0,0E0,0E0,0E0,0E0,0E0,0E0,0E0,0E0,0E0,0E0,0E0,0E0],"parents":[2147483647,0,0,1,1,2,2,3,3,4,4,5,5,6,6,7,7,8,8,9,9,10,10,11,11,12,12,13,13,14,14,15,15,16,16,17,17,18,18,19,19,21,21,22,22,24,24,26,26,27,27,28,28,29,29,30,30,31,31,32,32,33,33,34,34,35,35,36,36,37,37,38,38,39,39,40,40,42,42,43,43,45,45,46,46,47,47,49,49,50,50,51,51,53,53,54,54,55,55,56,56],"right_children":[2,4,6,8,10,12,14,16,18,20,22,24,26,28,30,32,34,36,38,40,-1,42,44,-1,46,-1,48,50,52,54,56,58,60,62,64,66,68,70,72,74,76,-1,78,80,-1,82,84,86,-1,88,90,92,-1,94,96,98,100,-1,-1,-1,-1,-1,-1,-1,-1,-1,-1,-1,-1,-1,-1,-1,-1,-1,-1,-1,-1,-1,-1,-1,-1,-1,-1,-1,-1,-1,-1,-1,-1,-1,-1,-1,-1,-1,-1,-1,-1,-1,-1,-1,-1],"split_conditions":[8.221E-2,5.3599997E0,2.3E0,3.8525555E1,5.6145657E1,1.9711134E-1,1.5E0,0E0,3.848224E-2,8.660254E-1,6.1382856E-2,3.4097424E2,2.401917E0,3.7584316E1,7.0233136E2,4.1728344E0,1.5781793E1,3.838939E2,5.5945203E-2,2.901385E-3,-1.9673334E-2,1.3827059E1,3.177073E1,-1.0820764E-2,1.0814254E1,2.2952484E-2,1.9863866E3,2.442801E1,2.1648404E2,2.090291E3,1.4366527E-1,9.743583E-1,-8.660254E-1,1.7091667E-3,5.848042E2,3.0002026E2,9.41131E-3,2.2363625E1,2.7459831E1,5.8E0,7.744732E2,-2.2039285E-2,2.7886639E1,6.702528E-2,-1.0868388E-2,1.32E1,2.966944E1,5.5915405E1,7.4664764E-3,2.308639E1,2.1578735E1,5.1019244E2,-0E0,1.9839497E1,7.239605E2,9.831089E-2,6.2E0,-1.450028E-3,1.0066676E-2,-9.906332E-3,9.1479754E-4,-4.3185125E-3,6.124452E-3,-9.072209E-3,4.802188E-3,-1.692738E-2,-1.0612217E-2,5.8264867E-3,-9.596851E-3,-6.187136E-3,-9.768279E-3,7.870598E-3,-3.0000347E-3,-7.545497E-3,7.0353243E-3,9.221374E-3,1.8291995E-2,-3.8490596E-3,-1.6952088E-2,-1.3113606E-3,1.2496451E-3,2.0309908E-3,8.197418E-3,1.909063E-2,1.2690715E-2,1.1036186E-2,1.825737E-2,1.8149037E-3,-1.1697863E-2,-0E0,6.326663E-3,-1.4055216E-2,-3.8887828E-3,1.1823523E-2,3.5501393E-3,1.938551E-2,6.873856E-3,4.093066E-3,7.818389E-3,8.013352E-3,1.3878964E-2],"split_indices":[16,2,1,17,17,16,2,7,16,7,16,14,30,22,14,30,14,15,16,16,0,22,24,0,26,0,19,14,20,15,16,30,10,16,14,17,16,3,22,2,15,0,24,16,0,2,22,19,0,19,3,17,0,3,17,16,2,0,0,0,0,0,0,0,0,0,0,0,0,0,0,0,0,0,0,0,0,0,0,0,0,0,0,0,0,0,0,0,0,0,0,0,0,0,0,0,0,0,0,0,0],"split_type":[0,0,0,0,0,0,0,0,0,0,0,0,0,0,0,0,0,0,0,0,0,0,0,0,0,0,0,0,0,0,0,0,0,0,0,0,0,0,0,0,0,0,0,0,0,0,0,0,0,0,0,0,0,0,0,0,0,0,0,0,0,0,0,0,0,0,0,0,0,0,0,0,0,0,0,0,0,0,0,0,0,0,0,0,0,0,0,0,0,0,0,0,0,0,0,0,0,0,0,0,0],"sum_hessian":[6.676E3,4.39E3,2.286E3,2.144E3,2.246E3,5.95E2,1.691E3,4.68E2,1.676E3,3.29E2,1.917E3,4.1E2,1.85E2,1.31E2,1.56E3,2.24E2,2.44E2,3.76E2,1.3E3,3.11E2,1.8E1,1.094E3,8.23E2,1.8E1,3.92E2,6.7E1,1.18E2,7.4E1,5.7E1,8.11E2,7.49E2,6.6E1,1.58E2,5E1,1.94E2,2.8E2,9.6E1,1.125E3,1.75E2,1.56E2,1.55E2,1.9E1,1.075E3,8.12E2,1.1E1,1.39E2,2.53E2,1.07E2,1.1E1,2.8E1,4.6E1,4.3E1,1.4E1,7.87E2,2.4E1,5.48E2,2.01E2,1.2E1,5.4E1,2E1,1.38E2,1.5E1,3.5E1,1.73E2,2.1E1,1.63E2,1.17E2,1.4E1,8.2E1,8.29E2,2.96E2,2E1,1.55E2,1.5E1,1.41E2,1.01E2,5.4E1,1.048E3,2.7E1,2.85E2,5.27E2,1.6E1,1.23E2,2.2E1,2.31E2,1.7E1,9E1,1.7E1,1.1E1,2.9E1,1.7E1,3E1,1.3E1,3E1,7.57E2,1.4E1,1E1,1.92E2,3.56E2,4.5E1,1.56E2],"tree_param":{"num_deleted":"0","num_feature":"35","num_nodes":"101","size_leaf_vector":"1"}},{"base_weights":[-2.1067036E-3,-1.9741651E-1,3.5864374E-1,-7.85979E-2,-3.5297883E-1,2.0340571E-1,5.4790384E-1,3.0755982E-1,-1.5010855E-1,-1.3472131E-1,-4.3685034E-1,2.5847366E-1,-8.478027E-2,3.4319627E-1,7.350274E-1,1.2195802E-1,5.6145424E-1,-2.8699127E-1,-5.527105E-2,2.577055E-1,-2.1845981E-1,-5.2580816E-1,-2.6884753E-1,2.2491929E-1,5.4283446E-1,5.4206688E-2,-3.372158E-1,1.9818684E-1,4.2460176E-1,2.0413356E-2,6.651461E-1,-1.2002085E-2,1.8363994E-1,3.4000888E-1,7.566056E-1,-2.4371107E-1,-7.327287E-1,-1.07494354E-1,3.7800156E-2,4.0985155E-1,-1.8091986E-1,-4.6804864E-2,-2.95555E-1,-6.249205E-1,-3.9332494E-1,1.3264064E-1,-3.0382547E-1,-6.0463436E-2,2.5884092E-1,6.7564774E-1,3.9014435E-1,-4.6871338E-2,2.0840783E-1,-5.591295E-2,-4.8011476E-1,2.2377364E-1,-2.2683495E-3,1.2109479E-2,4.5245034E-1,6.9056E-1,1.0001786E-1,9.268494E-3,1.9210525E-3,2.1951657E-3,1.00214835E-2,1.2474333E-2,1.941379E-2,1.3215373E-2,-5.268698E-3,-4.1559734E-3,-2.804924E-2,9.914607E-3,-2.3344005E-3,-9.088403E-3,1.080794E-3,1.00861555E-2,-2.2814318E-3,-6.0076E-3,-0E0,-8.613826E-3,3.257924E-4,-6.5129697E-3,-1.5861497E-4,-6.706237E-3,-1.4734732E-2,9.2162733E-4,-8.313446E-3,6.15816E-3,-5.9272447E-3,-8.365207E-3,-4.222778E-3,-1.1490274E-2,2.9634908E-3,1.1543868E-2,4.4940272E-3,1.6771588E-2,1.0392007E-2,1.2926371E-2,4.9504E-3,2.2358238E-3,-7.832748E-3,7.892099E-3,2.6688192E-3,2.1073981E-3,-6.103701E-3,-1.294008E-2,-8.5060275E-4,1.2415199E-2,3.8195476E-3,-1.4029258E-3,2.3173662E-3,1.5686125E-2,8.35129E-3,1.432919E-2,1.0150888E-2,6.2728296E-3,-2.2721747E-3],"categories":[],"categories_nodes":[],"categories_segments":[],"categories_sizes":[],"default_left":[0,0,0,0,0,0,0,0,0,0,0,0,0,0,0,0,0,0,0,0,0,0,0,0,0,0,0,0,0,0,0,0,0,0,0,0,0,0,0,0,0,0,0,0,0,0,0,0,0,0,0,0,0,0,0,0,0,0,0,0,0,0,0,0,0,0,0,0,0,0,0,0,0,0,0,0,0,0,0,0,0,0,0,0,0,0,0,0,0,0,0,0,0,0,0,0,0,0,0,0,0,0,0,0,0,0,0,0,0,0,0,0,0,0,0,0,0],"id":12,"left_children":[1,3,5,7,9,11,13,15,17,19,21,23,25,27,29,31,33,35,37,39,41,43,45,47,49,51,53,55,57,-1,59,-1,61,63,65,67,69,71,73,75,77,79,81,83,85,87,89,91,93,95,97,99,101,103,105,107,-1,109,111,113,115,-1,-1,-1,-1,-1,-1,-1,-1,-1,-1,-1,-1,-1,-1,-1,-1,-1,-1,-1,-1,-1,-1,-1,-1,-1,-1,-1,-1,-1,-1,-1,-1,-1,-1,-1,-1,-1,-1,-1,-1,-1,-1,-1,-1,-1,-1,-1,-1,-1,-1,-1,-1,-1,-1,-1,-1],"loss_changes":[4.7224905E2,8.0243805E1,6.878824E1,6.824076E1,3.4219086E1,2.0661709E1,3.984546E1,1.7915947E1,2.6966488E1,1.7389755E1,1.9853882E1,1.0002541E1,7.4259768E0,5.7274666E0,9.303497E0,1.0202745E1,6.267063E0,1.5884018E1,6.024765E0,6.4004526E0,5.660555E0,1.092543E1,6.7853775E0,9.548332E0,1.5512009E0,2.171587E0,2.8539467E0,1.5717473E0,3.6180267E0,0E0,6.152313E0,0E0,4.945254E0,2.7346706E0,8.599968E-1,1.4183723E1,2.511076E1,4.4530916E0,3.518122E0,3.6572485E0,5.3512263E-1,3.4394262E0,2.5161476E0,1.554776E1,3.8927612E0,3.1172318E0,4.343178E0,1.1516818E1,9.100952E0,3.06139E-1,1.6204062E0,4.6837535E0,5.568023E-1,1.2299705E0,3.3854399E0,1.878993E0,0E0,2.216994E-1,2.6124763E0,1.0613861E0,1.1152565E0,0E0,0E0,0E0,0E0,0E0,0E0,0E0,0E0,0E0,0E0,0E0,0E0,0E0,0E0,0E0,0E0,0E0,0E0,0E0,0E0,0E0,0E0,0E0,0E0,0E0,0E0,0E0,0E0,0E0,0E0,0E0,0E0,0E0,0E0,0E0,0E0,0E0,0E0,0E0,0E0,0E0,0E0,0E0,0E0,0E0,0E0,0E0,0E0,0E0,0E0,0E0,0E0,0E0,0E0,0E0,0E0],"parents":[2147483647,0,0,1,1,2,2,3,3,4,4,5,5,6,6,7,7,8,8,9,9,10,10,11,11,12,12,13,13,14,14,15,15,16,16,17,17,18,18,19,19,20,20,21,21,22,22,23,23,24,24,25,25,26,26,27,27,28,28,30,30,32,32,33,33,34,34,35,35,36,36,37,37,38,38,39,39,40,40,41,41,42,42,43,43,44,44,45,45,46,46,47,47,48,48,49,49,50,50,51,51,52,52,53,53,54,54,55,55,57,57,58,58,59,59,60,60],"right_children":[2,4,6,8,10,12,14,16,18,20,22,24,26,28,30,32,34,36,38,40,42,44,46,48,50,52,54,56,58,-1,60,-1,62,64,66,68,70,72,74,76,78,80,82,84,86,88,90,92,94,96,98,100,102,104,106,108,-1,110,112,114,116,-1,-1,-1,-1,-1,-1,-1,-1,-1,-1,-1,-1,-1,-1,-1,-1,-1,-1,-1,-1,-1,-1,-1,-1,-1,-1,-1,-1,-1,-1,-1,-1,-1,-1,-1,-1,-1,-1,-1,-1,-1,-1,-1,-1,-1,-1,-1,-1,-1,-1,-1,-1,-1,-1,-1,-1],"split_conditions":[6.3136414E2,1.08E1,7.7985486E2,5.9177776E1,0E0,1.181E1,1.0675647E3,7.196422E2,4.2880252E2,4.3338695E0,5E-1,1.28885E3,3.875084E1,8.025913E2,2.535045E0,1.2797563E0,1.6828852E1,9.320969E2,5.317882E2,8.904832E0,3.8525555E1,3.2708722E2,2.0578223E2,-8.660254E-1,3.7457085E0,3.8000806E2,2.3078772E1,4.710436E0,1.6828852E1,2.0413356E-2,1.134E1,-1.2002085E-2,3.7862844E0,1.286322E1,2.4803395E0,2.63E0,3.1203327E0,3.7457085E0,-9.659258E-1,1E0,4.4509634E2,-8.660254E-1,4.4509634E2,2.3216248E1,1.58597765E1,2.9309973E1,3.5623724E2,2.6720972E2,2.00575E1,7.455089E2,3.6181755E0,1.628094E1,5.7738434E2,3.7255847E0,1.6118011E3,3.233142E1,-2.2683495E-3,2.766271E0,3.415789E1,7.35E0,3.637209E1,9.268494E-3,1.9210525E-3,2.1951657E-3,1.00214835E-2,1.2474333E-2,1.941379E-2,1.3215373E-2,-5.268698E-3,-4.1559734E-3,-2.804924E-2,9.914607E-3,-2.3344005E-3,-9.088403E-3,1.080794E-3,1.00861555E-2,-2.2814318E-3,-6.0076E-3,-0E0,-8.613826E-3,3.257924E-4,-6.5129697E-3,-1.5861497E-4,-6.706237E-3,-1.4734732E-2,9.2162733E-4,-8.313446E-3,6.15816E-3,-5.9272447E-3,-8.365207E-3,-4.222778E-3,-1.1490274E-2,2.9634908E-3,1.1543868E-2,4.4940272E-3,1.6771588E-2,1.0392007E-2,1.2926371E-2,4.9504E-3,2.2358238E-3,-7.832748E-3,7.892099E-3,2.6688192E-3,2.1073981E-3,-6.103701E-3,-1.294008E-2,-8.5060275E-4,1.2415199E-2,3.8195476E-3,-1.4029258E-3,2.3173662E-3,1.5686125E-2,8.35129E-3,1.432919E-2,1.0150888E-2,6.2728296E-3,-2.2721747E-3],"split_indices":[13,0,14,18,7,0,13,14,13,30,10,15,21,13,30,25,18,19,13,26,17,13,17,8,30,18,15,30,18,0,0,0,30,4,25,0,25,30,8,31,13,10,13,19,19,21,13,14,3,17,25,26,17,25,13,21,0,25,21,0,21,0,0,0,0,0,0,0,0,0,0,0,0,0,0,0,0,0,0,0,0,0,0,0,0,0,0,0,0,0,0,0,0,0,0,0,0,0,0,0,0,0,0,0,0,0,0,0,0,0,0,0,0,0,0,0,0],"split_type":[0,0,0,0,0,0,0,0,0,0,0,0,0,0,0,0,0,0,0,0,0,0,0,0,0,0,0,0,0,0,0,0,0,0,0,0,0,0,0,0,0,0,0,0,0,0,0,0,0,0,0,0,0,0,0,0,0,0,0,0,0,0,0,0,0,0,0,0,0,0,0,0,0,0,0,0,0,0,0,0,0,0,0,0,0,0,0,0,0,0,0,0,0,0,0,0,0,0,0,0,0,0,0,0,0,0,0,0,0,0,0,0,0,0,0,0,0],"sum_hessian":[6.699E3,4.347E3,2.352E3,2.467E3,1.88E3,1.295E3,1.057E3,3.84E2,2.083E3,5.24E2,1.356E3,1.088E3,2.07E2,5.08E2,5.49E2,2.24E2,1.6E2,8.5E2,1.233E3,9.1E1,4.33E2,8.83E2,4.73E2,9.77E2,1.11E2,1.34E2,7.3E1,1.86E2,3.22E2,1.02E2,4.47E2,1.6E1,2.08E2,7.8E1,8.2E1,7.78E2,7.2E1,7.91E2,4.42E2,6.8E1,2.3E1,1.36E2,2.97E2,5E2,3.83E2,3.7E1,4.36E2,1.03E2,8.74E2,5.5E1,5.6E1,8.1E1,5.3E1,2.6E1,4.7E1,1.73E2,1.3E1,2.1E1,3.01E2,4.27E2,2E1,4.7E1,1.61E2,3.4E1,4.4E1,5.6E1,2.6E1,1.5E1,7.63E2,4.2E1,3E1,1E1,7.81E2,1.2E1,4.3E2,5.8E1,1E1,1.3E1,1E1,1.8E1,1.18E2,2.68E2,2.9E1,1.42E2,3.58E2,1.8E1,3.65E2,2.7E1,1E1,1.91E2,2.45E2,2.9E1,7.4E1,8.1E1,7.93E2,2.2E1,3.3E1,1.7E1,3.9E1,5.6E1,2.5E1,1.2E1,4.1E1,1.6E1,1E1,3.3E1,1.4E1,1E1,1.63E2,1.1E1,1E1,2.4E1,2.77E2,3.68E2,5.9E1,1E1,1E1],"tree_param":{"num_deleted":"0","num_feature":"35","num_nodes":"117","size_leaf_vector":"1"}},{"base_weights":[-1.8090811E-4,-1.7306909E-1,3.802098E-1,-3.8322294E-1,-9.333746E-2,2.064228E-1,5.4298013E-1,-1.6713497E-1,-4.7613525E-1,2.6606455E-1,-1.5226454E-1,2.562354E-1,-2.2060278E-1,3.7350234E-1,7.351263E-1,-6.252761E-2,-6.5000963E-1,-7.157894E-1,-4.0240893E-1,1.1387192E-1,5.195945E-1,-3.026533E-1,-2.98391E-2,-3.9589617E-2,2.9052934E-1,1.4785741E-1,-3.218009E-1,5.287962E-1,3.252856E-1,6.310289E-1,9.275582E-1,-1.11414105E-1,3.3480358E-1,-7.8528017E-1,1.9093207E-3,-8.1334734E-1,-3.4896284E-1,-4.1579902E-1,3.1706695E-3,1.734405E-1,-1.7588038E-2,2.700281E-1,6.662082E-1,-9.954097E-1,-2.861223E-1,-9.925293E-2,5.729529E-2,1.10512204E-1,-1.4268422E-2,5.9062564E-1,2.5435334E-1,-1.2371433E-3,6.4155203E-3,-1.4434391E-1,-5.092228E-1,1.8217616E-2,4.777741E-1,2.5946864E-1,4.1167536E-1,-0E0,6.521733E-1,1.6977007E-2,2.3443699E-2,-4.7654277E-3,1.3275264E-3,5.05142E-4,1.1645786E-2,-1.8684782E-2,-2.2107868E-3,-1.9558327E-2,-1.1645305E-2,-1.6604147E-3,-1.1367003E-2,-1.4740272E-3,-8.661148E-3,-8.759927E-3,4.4805766E-3,8.987906E-3,1.2878325E-3,9.613855E-3,1.6420925E-2,-2.4220128E-2,-9.429601E-3,7.6114135E-3,-5.8656E-3,9.898183E-3,-2.1890386E-3,-8.570739E-3,1.5045924E-3,-4.6841255E-3,4.5768223E-3,3.2888753E-3,1.3322975E-2,5.395749E-3,-2.6619306E-3,5.988656E-4,-7.084211E-3,-1.343605E-2,-1.9406301E-3,5.558738E-3,1.023681E-2,-3.3880626E-3,5.6460206E-3,4.7417143E-3,8.70776E-3,1.1799899E-2,1.5822178E-2],"categories":[],"categories_nodes":[],"categories_segments":[],"categories_sizes":[],"default_left":[0,0,0,0,0,0,0,0,0,0,0,0,0,0,0,0,0,0,0,0,0,0,0,0,0,0,0,0,0,0,0,0,0,0,0,0,0,0,0,0,0,0,0,0,0,0,0,0,0,0,0,0,0,0,0,0,0,0,0,0,0,0,0,0,0,0,0,0,0,0,0,0,0,0,0,0,0,0,0,0,0,0,0,0,0,0,0,0,0,0,0,0,0,0,0,0,0,0,0,0,0,0,0,0,0,0,0],"id":13,"left_children":[1,3,5,7,9,11,13,15,17,19,21,23,25,27,29,31,33,35,37,39,41,43,45,47,49,51,53,55,57,59,61,63,65,67,-1,69,71,73,-1,75,-1,77,79,81,83,85,87,89,-1,91,93,-1,-1,95,97,-1,99,101,103,-1,105,-1,-1,-1,-1,-1,-1,-1,-1,-1,-1,-1,-1,-1,-1,-1,-1,-1,-1,-1,-1,-1,-1,-1,-1,-1,-1,-1,-1,-1,-1,-1,-1,-1,-1,-1,-1,-1,-1,-1,-1,-1,-1,-1,-1,-1,-1],"loss_changes":[4.413737E2,7.716167E1,5.894458E1,2.517012E1,7.098509E1,2.1774307E1,3.4431335E1,1.922342E1,1.4837189E1,1.7967278E1,5.2921898E1,9.335579E0,4.11971E0,3.820572E0,8.613617E0,6.226223E0,7.145075E0,6.536186E0,5.3058395E0,1.7795897E1,5.8927727E0,1.3958595E1,9.636613E0,9.988026E0,8.421837E0,9.6179354E-1,2.549324E0,1.4446793E0,2.1994286E0,4.383621E0,9.1748047E-1,6.5164566E0,2.5303695E0,5.414009E0,0E0,4.6337814E0,2.51754E0,3.7728271E0,0E0,8.907087E0,0E0,2.3843946E0,2.0813255E0,1.7973385E0,6.237587E0,5.4063406E0,6.1365356E0,3.369332E0,0E0,2.3828373E0,4.4944077E0,0E0,0E0,1.8051882E0,2.3964186E0,0E0,3.8806915E-1,2.6739807E0,4.4151306E-1,0E0,1.5805969E0,0E0,0E0,0E0,0E0,0E0,0E0,0E0,0E0,0E0,0E0,0E0,0E0,0E0,0E0,0E0,0E0,0E0,0E0,0E0,0E0,0E0,0E0,0E0,0E0,0E0,0E0,0E0,0E0,0E0,0E0,0E0,0E0,0E0,0E0,0E0,0E0,0E0,0E0,0E0,0E0,0E0,0E0,0E0,0E0,0E0,0E0],"parents":[2147483647,0,0,1,1,2,2,3,3,4,4,5,5,6,6,7,7,8,8,9,9,10,10,11,11,12,12,13,13,14,14,15,15,16,16,17,17,18,18,19,19,20,20,21,21,22,22,23,23,24,24,25,25,26,26,27,27,28,28,29,29,30,30,31,31,32,32,33,33,35,35,36,36,37,37,39,39,41,41,42,42,43,43,44,44,45,45,46,46,47,47,49,49,50,50,53,53,54,54,56,56,57,57,58,58,60,60],"right_children":[2,4,6,8,10,12,14,16,18,20,22,24,26,28,30,32,34,36,38,40,42,44,46,48,50,52,54,56,58,60,62,64,66,68,-1,70,72,74,-1,76,-1,78,80,82,84,86,88,90,-1,92,94,-1,-1,96,98,-1,100,102,104,-1,106,-1,-1,-1,-1,-1,-1,-1,-1,-1,-1,-1,-1,-1,-1,-1,-1,-1,-1,-1,-1,-1,-1,-1,-1,-1,-1,-1,-1,-1,-1,-1,-1,-1,-1,-1,-1,-1,-1,-1,-1,-1,-1,-1,-1,-1,-1],"split_conditions":[6.95979E2,3.1999998E0,7.383454E2,5.55325E1,7.866919E1,1.4E1,1.1274163E3,8.731014E1,3.0002026E2,7.4735876E2,4.2880252E2,-8.660254E-1,3.1128576E1,2.17E0,1.56E1,2.3339594E1,5E-1,3.838939E2,6.5768E2,2.4819635E1,1.6591316E1,1.3657473E1,5.362023E2,3.5062607E1,2.00575E1,2.8587912E1,-5E-1,3.1798319E1,9.655684E2,9.030001E0,2.3027502E3,-5E-1,1.5953502E1,1.7592736E0,1.9093207E-3,2.8283783E2,1.0357487E1,5.523747E0,3.1706695E-3,1.0638659E1,-1.7588038E-2,7.35E0,8.1389886E2,3.4247562E2,1.9839497E1,2.6837912E1,-9.659258E-1,5.4247337E1,-1.4268422E-2,2.2581512E1,1E0,-1.2371433E-3,6.4155203E-3,2.23E1,1.307037E3,1.8217616E-2,8.2011426E2,9.77025E0,2.6596016E1,-0E0,1.8391835E3,1.6977007E-2,2.3443699E-2,-4.7654277E-3,1.3275264E-3,5.05142E-4,1.1645786E-2,-1.8684782E-2,-2.2107868E-3,-1.9558327E-2,-1.1645305E-2,-1.6604147E-3,-1.1367003E-2,-1.4740272E-3,-8.661148E-3,-8.759927E-3,4.4805766E-3,8.987906E-3,1.2878325E-3,9.613855E-3,1.6420925E-2,-2.4220128E-2,-9.429601E-3,7.6114135E-3,-5.8656E-3,9.898183E-3,-2.1890386E-3,-8.570739E-3,1.5045924E-3,-4.6841255E-3,4.5768223E-3,3.2888753E-3,1.3322975E-2,5.395749E-3,-2.6619306E-3,5.988656E-4,-7.084211E-3,-1.343605E-2,-1.9406301E-3,5.558738E-3,1.023681E-2,-3.3880626E-3,5.6460206E-3,4.7417143E-3,8.70776E-3,1.1799899E-2,1.5822178E-2],"split_indices":[13,2,14,17,17,0,13,20,17,14,13,8,22,0,2,3,10,15,13,24,17,24,13,22,3,22,10,21,13,4,13,10,13,23,0,14,26,26,0,24,0,0,15,15,3,22,8,15,0,17,7,0,0,3,13,0,13,4,24,0,13,0,0,0,0,0,0,0,0,0,0,0,0,0,0,0,0,0,0,0,0,0,0,0,0,0,0,0,0,0,0,0,0,0,0,0,0,0,0,0,0,0,0,0,0,0,0],"split_type":[0,0,0,0,0,0,0,0,0,0,0,0,0,0,0,0,0,0,0,0,0,0,0,0,0,0,0,0,0,0,0,0,0,0,0,0,0,0,0,0,0,0,0,0,0,0,0,0,0,0,0,0,0,0,0,0,0,0,0,0,0,0,0,0,0,0,0,0,0,0,0,0,0,0,0,0,0,0,0,0,0,0,0,0,0,0,0,0,0,0,0,0,0,0,0,0,0,0,0,0,0,0,0,0,0,0,0],"sum_hessian":[6.708E3,4.613E3,2.095E3,1.266E3,3.347E3,1.016E3,1.079E3,3.83E2,8.83E2,4.7E2,2.877E3,9.11E2,1.05E2,5.77E2,5.02E2,3.17E2,6.6E1,2.03E2,6.8E2,2.96E2,1.74E2,1.289E3,1.588E3,9.4E1,8.17E2,2.2E1,8.3E1,1.31E2,4.46E2,3.32E2,1.7E2,2.84E2,3.3E1,5.6E1,1E1,1.58E2,4.5E1,6.65E2,1.5E1,2.81E2,1.5E1,6.7E1,1.07E2,2.7E1,1.262E3,8.85E2,7.03E2,7.8E1,1.6E1,8.4E1,7.33E2,1E1,1.2E1,4.5E1,3.8E1,1.1E1,1.2E2,2.59E2,1.87E2,1.1E1,3.21E2,1.36E2,3.4E1,1.66E2,1.18E2,1.6E1,1.7E1,4.5E1,1.1E1,8.8E1,7E1,2.2E1,2.3E1,3.3E1,6.32E2,2E1,2.61E2,3.4E1,3.3E1,5.3E1,5.4E1,1.7E1,1E1,1.2E1,1.25E3,1.3E1,8.72E2,2.3E1,6.8E2,1.9E1,5.9E1,1.4E1,7E1,7.06E2,2.7E1,2.5E1,2E1,2.6E1,1.2E1,2.1E1,9.9E1,1.2E1,2.47E2,2.6E1,1.61E2,2.3E2,9.1E1],"tree_param":{"num_deleted":"0","num_feature":"35","num_nodes":"107","size_leaf_vector":"1"}},{"base_weights":[-1.293512E-3,-1.7605273E-1,3.5896423E-1,-3.051094E-1,-5.0714083E-2,6.4488745E-1,2.6108006E-1,-1.0051523E-1,-3.758079E-1,2.9165912E-1,-1.1684302E-1,4.935662E-1,9.3491054E-1,2.956052E-1,-1.748229E-1,4.11855E-2,-2.9959464E-1,-6.284359E-1,-3.0584985E-1,3.8223213E-1,-9.0772554E-2,-2.2200376E-1,1.1258859E-2,-2.849561E-3,5.252124E-1,2.1440791E-2,1.6323928E-2,2.4017094E-1,4.6407923E-1,1.0525379E-1,-3.8178653E-1,2.8754833E-1,-4.766466E-2,3.05897E-2,-3.9133552E-1,-6.762481E-1,-3.0832317E-2,-1.3489524E-1,-3.4297785E-1,5.922527E-1,2.5073043E-1,-8.803606E-3,-4.3257778E-3,-5.0754565E-1,-1.9157678E-1,2.214933E-2,-1.5215748E-2,2.9442385E-1,5.83795E-1,1.18280925E-1,2.9184908E-1,4.012298E-1,7.389749E-1,-4.576157E-3,1.9823593E-1,-4.782012E-1,3.1057163E-3,8.034822E-3,-4.1818693E-3,-6.0517173E-3,-5.260673E-5,-7.0846323E-3,3.0031884E-3,-1.0236901E-2,-1.1348237E-3,-1.9038273E-2,-1.2253866E-2,6.1964635E-3,-1.0263006E-2,3.7497377E-3,-3.1831695E-3,-5.8544404E-3,-9.794391E-3,1.1781539E-3,1.30260885E-2,1.6339655E-3,8.354332E-3,-2.420935E-3,1.072759E-3,-1.429353E-2,6.8012998E-3,1.3653876E-2,-4.139281E-3,-1.131862E-3,1.5161253E-3,2.277413E-3,7.0898607E-3,1.9417966E-2,1.0953713E-2,2.8691604E-3,-1.0782724E-2,2.0372164E-3,6.796496E-3,1.0869702E-3,8.609444E-3,1.6069839E-2,9.259145E-3,-1.1895653E-3,6.1657033E-3,-1.2618123E-2,-3.637444E-3],"categories":[],"categories_nodes":[],"categories_segments":[],"categories_sizes":[],"default_left":[0,0,0,0,0,0,0,0,0,0,0,0,0,0,0,0,0,0,0,0,0,0,0,0,0,0,0,0,0,0,0,0,0,0,0,0,0,0,0,0,0,0,0,0,0,0,0,0,0,0,0,0,0,0,0,0,0,0,0,0,0,0,0,0,0,0,0,0,0,0,0,0,0,0,0,0,0,0,0,0,0,0,0,0,0,0,0,0,0,0,0,0,0,0,0,0,0,0,0,0,0],"id":14,"left_children":[1,3,5,7,9,11,13,15,17,19,21,23,25,27,29,31,33,35,37,39,41,43,45,-1,47,-1,-1,49,51,53,55,57,59,61,63,65,67,69,71,73,75,-1,77,79,81,83,-1,85,87,89,91,93,95,-1,97,99,-1,-1,-1,-1,-1,-1,-1,-1,-1,-1,-1,-1,-1,-1,-1,-1,-1,-1,-1,-1,-1,-1,-1,-1,-1,-1,-1,-1,-1,-1,-1,-1,-1,-1,-1,-1,-1,-1,-1,-1,-1,-1,-1,-1,-1],"loss_changes":[4.2619205E2,7.364331E1,6.136209E1,3.2301987E1,5.2469234E1,2.3455734E1,2.4974442E1,1.6437986E1,2.8890228E1,1.3116926E1,2.622186E1,7.7542343E0,9.654083E-1,1.3934586E1,7.2074904E0,7.517777E0,7.426609E0,1.0074493E1,8.126747E0,7.9303055E0,2.1122684E0,8.944679E0,7.2597437E0,0E0,4.3072968E0,0E0,0E0,7.13694E0,5.675125E0,1.7308748E0,3.889596E0,5.3674064E0,2.818896E0,2.550269E0,7.4893417E0,4.337204E0,5.1234612E0,1.9156604E0,7.4771576E0,3.403141E0,5.223036E0,0E0,4.391677E-1,1.8293196E1,1.3223038E1,3.6755652E0,0E0,6.607127E-1,2.5746002E0,5.8521504E0,7.2254333E0,3.0109177E0,1.9587326E-1,0E0,1.3059682E0,2.3682613E0,0E0,0E0,0E0,0E0,0E0,0E0,0E0,0E0,0E0,0E0,0E0,0E0,0E0,0E0,0E0,0E0,0E0,0E0,0E0,0E0,0E0,0E0,0E0,0E0,0E0,0E0,0E0,0E0,0E0,0E0,0E0,0E0,0E0,0E0,0E0,0E0,0E0,0E0,0E0,0E0,0E0,0E0,0E0,0E0,0E0],"parents":[2147483647,0,0,1,1,2,2,3,3,4,4,5,5,6,6,7,7,8,8,9,9,10,10,11,11,12,12,13,13,14,14,15,15,16,16,17,17,18,18,19,19,20,20,21,21,22,22,24,24,27,27,28,28,29,29,30,30,31,31,32,32,33,33,34,34,35,35,36,36,37,37,38,38,39,39,40,40,42,42,43,43,44,44,45,45,47,47,48,48,49,49,50,50,51,51,52,52,54,54,55,55],"right_children":[2,4,6,8,10,12,14,16,18,20,22,24,26,28,30,32,34,36,38,40,42,44,46,-1,48,-1,-1,50,52,54,56,58,60,62,64,66,68,70,72,74,76,-1,78,80,82,84,-1,86,88,90,92,94,96,-1,98,100,-1,-1,-1,-1,-1,-1,-1,-1,-1,-1,-1,-1,-1,-1,-1,-1,-1,-1,-1,-1,-1,-1,-1,-1,-1,-1,-1,-1,-1,-1,-1,-1,-1,-1,-1,-1,-1,-1,-1,-1,-1,-1,-1,-1,-1],"split_conditions":[6.704143E2,5.3999996E0,2.22E0,5.5420727E1,5.9177776E1,1.5768907E3,1.4E1,1.2246469E-16,3.022978E2,2E0,4.8647528E2,5.4247337E1,2.4715333E0,9.7552045E2,3.4736332E1,4.0017796E0,-7.014216E-2,6.3827094E2,4.726515E0,4.0405865E0,2.7881653E1,1.0337647E2,3.9713411E0,-2.849561E-3,9.894229E0,2.1440791E-2,1.6323928E-2,7.7045264E2,1.654235E3,1.8191243E0,6E0,9.3814745E0,-8.660254E-1,1.3153221E1,-1.8369701E-16,3.758219E-1,4.691345E0,6.4411573E0,1.37E1,1.6177933E0,2.5881904E-1,-8.803606E-3,5E-1,6.123234E-17,2.544608E1,5.408535E2,-1.5215748E-2,7.605238E2,2.966944E1,4.1323357E0,5E-1,1.6828852E1,6.86E0,-4.576157E-3,8.2011426E2,2.2931284E1,3.1057163E-3,8.034822E-3,-4.1818693E-3,-6.0517173E-3,-5.260673E-5,-7.0846323E-3,3.0031884E-3,-1.0236901E-2,-1.1348237E-3,-1.9038273E-2,-1.2253866E-2,6.1964635E-3,-1.0263006E-2,3.7497377E-3,-3.1831695E-3,-5.8544404E-3,-9.794391E-3,1.1781539E-3,1.30260885E-2,1.6339655E-3,8.354332E-3,-2.420935E-3,1.072759E-3,-1.429353E-2,6.8012998E-3,1.3653876E-2,-4.139281E-3,-1.131862E-3,1.5161253E-3,2.277413E-3,7.0898607E-3,1.9417966E-2,1.0953713E-2,2.8691604E-3,-1.0782724E-2,2.0372164E-3,6.796496E-3,1.0869702E-3,8.609444E-3,1.6069839E-2,9.259145E-3,-1.1895653E-3,6.1657033E-3,-1.2618123E-2,-3.637444E-3],"split_indices":[13,2,1,18,18,13,0,7,13,29,13,15,30,15,22,30,23,15,30,30,22,13,25,0,26,0,0,13,13,23,11,26,10,15,10,23,30,26,0,25,8,0,8,8,22,13,0,13,22,25,10,18,1,0,13,20,0,0,0,0,0,0,0,0,0,0,0,0,0,0,0,0,0,0,0,0,0,0,0,0,0,0,0,0,0,0,0,0,0,0,0,0,0,0,0,0,0,0,0,0,0],"split_type":[0,0,0,0,0,0,0,0,0,0,0,0,0,0,0,0,0,0,0,0,0,0,0,0,0,0,0,0,0,0,0,0,0,0,0,0,0,0,0,0,0,0,0,0,0,0,0,0,0,0,0,0,0,0,0,0,0,0,0,0,0,0,0,0,0,0,0,0,0,0,0,0,0,0,0,0,0,0,0,0,0,0,0,0,0,0,0,0,0,0,0,0,0,0,0,0,0,0,0,0,0],"sum_hessian":[6.766E3,4.557E3,2.209E3,2.243E3,2.314E3,5.6E2,1.649E3,5.78E2,1.665E3,3.73E2,1.941E3,3.72E2,1.88E2,1.529E3,1.2E2,3.38E2,2.4E2,3.57E2,1.308E3,3.02E2,7.1E1,1.066E3,8.75E2,1.7E1,3.55E2,7.9E1,1.09E2,1.155E3,3.74E2,5.1E1,6.9E1,8.9E1,2.49E2,5.2E1,1.88E2,3.3E2,2.7E1,2.36E2,1.072E3,1.13E2,1.89E2,1.2E1,5.9E1,9.9E1,9.67E2,8.65E2,1E1,7.5E1,2.8E2,3.47E2,8.08E2,3.09E2,6.5E1,1E1,4.1E1,5.9E1,1E1,7.3E1,1.6E1,3.5E1,2.14E2,1.1E1,4.1E1,1.37E2,5.1E1,5.6E1,2.74E2,1.6E1,1.1E1,1.5E1,2.21E2,8.04E2,2.68E2,1.2E1,1.01E2,9.6E1,9.3E1,2E1,3.9E1,8E1,1.9E1,1.5E1,9.52E2,3.49E2,5.16E2,2.1E1,5.4E1,1.9E1,2.61E2,3.36E2,1.1E1,1.65E2,6.43E2,2.5E1,2.84E2,4.9E1,1.6E1,1.2E1,2.9E1,3.7E1,2.2E1],"tree_param":{"num_deleted":"0","num_feature":"35","num_nodes":"101","size_leaf_vector":"1"}},{"base_weights":[1.0950457E-3,-2.103688E-1,2.7543953E-1,6.373684E-2,-2.8790236E-1,5.7128114E-1,1.8447281E-1,2.4153022E-1,-1.7663182E-1,-4.7489774E-1,-1.9990712E-1,3.6969146E-1,7.3134446E-1,2.1581076E-1,-1.8588977E-1,3.1948185E-1,-1.2496276E-1,-1.22462325E-2,-3.986996E-1,-6.621213E-1,-3.8301608E-1,-2.752761E-1,-1.0770034E-1,1.8478477E-2,3.2586476E-1,2.618816E-1,7.7427614E-1,1.08827464E-1,3.170072E-1,-1.1343027E-1,-3.9027327E-1,1.6535698E-1,4.906405E-1,7.911676E-3,-2.241097E-1,1.8529221E-1,-9.1644056E-2,-5.1633763E-1,1.9436936E-1,-4.0267363E-1,-7.2286296E-1,5.974833E-1,-4.2387992E-1,-5.031571E-1,-2.571496E-1,9.787589E-3,-1.1569761E-1,-7.011872E-3,3.6124852E-1,-7.667554E-3,1.3742291E-2,2.0402504E-2,6.925315E-1,1.3083191E-1,-1.8026839E-1,1.2611401E-1,3.52774E-1,-1.6251065E-1,6.1835465E-3,-9.913652E-4,-6.146407E-1,7.98743E-3,1.2841424E-3,-1.5001895E-3,1.1066586E-2,-2.0560224E-2,-1.2139279E-3,8.611496E-3,-3.494761E-3,-5.416857E-4,-8.34605E-3,-1.303199E-2,-0E0,7.1939244E-3,-2.1821579E-4,-2.5854271E-3,-9.71981E-3,-1.8554542E-2,-1.3133468E-2,3.6730196E-3,1.7262802E-2,-1.8550333E-2,-7.5637093E-3,-5.7958257E-3,-1.571017E-2,-4.6814865E-4,-5.2456795E-3,-1.9178839E-3,-6.7946333E-3,-2.9343935E-3,7.7279513E-3,1.5882228E-2,1.22253E-2,2.7782514E-3,-8.9278985E-3,-5.243578E-3,1.2195836E-3,5.330646E-3,-4.1611865E-3,4.9173227E-3,8.322579E-3,-1.9252863E-3,-8.222812E-3,-1.617464E-2,-6.3691577E-3],"categories":[],"categories_nodes":[],"categories_segments":[],"categories_sizes":[],"default_left":[0,0,0,0,0,0,0,0,0,0,0,0,0,0,0,0,0,0,0,0,0,0,0,0,0,0,0,0,0,0,0,0,0,0,0,0,0,0,0,0,0,0,0,0,0,0,0,0,0,0,0,0,0,0,0,0,0,0,0,0,0,0,0,0,0,0,0,0,0,0,0,0,0,0,0,0,0,0,0,0,0,0,0,0,0,0,0,0,0,0,0,0,0,0,0,0,0,0,0,0,0,0,0,0,0],"id":15,"left_children":[1,3,5,7,9,11,13,15,17,19,21,23,25,27,29,31,33,35,37,39,41,43,45,-1,47,49,51,53,55,57,59,61,63,-1,65,67,69,71,73,75,77,79,81,83,85,-1,87,-1,89,-1,-1,-1,91,93,95,97,99,101,-1,-1,103,-1,-1,-1,-1,-1,-1,-1,-1,-1,-1,-1,-1,-1,-1,-1,-1,-1,-1,-1,-1,-1,-1,-1,-1,-1,-1,-1,-1,-1,-1,-1,-1,-1,-1,-1,-1,-1,-1,-1,-1,-1,-1,-1,-1],"loss_changes":[3.8673376E2,8.007553E1,7.773596E1,3.5611885E1,4.796971E1,2.1212936E1,2.5887253E1,1.3803169E1,1.2830726E1,1.5402435E1,1.3763176E1,6.5806885E0,6.985611E0,2.2050652E1,2.387579E0,1.0152946E1,4.5299134E0,3.2461615E0,1.0730236E1,3.9993134E0,2.5874275E1,4.1246567E0,4.35511E0,0E0,7.12496E0,1.0191092E1,5.157852E0,6.40504E0,6.9979095E0,2.8090663E0,3.1697216E0,4.8741527E0,6.7742157E0,0E0,9.247345E0,5.4118824E0,3.0211592E0,8.866016E0,9.600028E-1,1.1863766E0,1.7733002E0,2.3319798E0,1.307547E1,4.028715E0,1.1570969E0,0E0,3.8140717E0,0E0,3.6616516E0,0E0,0E0,0E0,9.3569183E-1,4.4097157E0,1.4752254E0,8.099691E0,5.6504364E0,1.7958612E0,0E0,0E0,7.5411606E-1,0E0,0E0,0E0,0E0,0E0,0E0,0E0,0E0,0E0,0E0,0E0,0E0,0E0,0E0,0E0,0E0,0E0,0E0,0E0,0E0,0E0,0E0,0E0,0E0,0E0,0E0,0E0,0E0,0E0,0E0,0E0,0E0,0E0,0E0,0E0,0E0,0E0,0E0,0E0,0E0,0E0,0E0,0E0,0E0],"parents":[2147483647,0,0,1,1,2,2,3,3,4,4,5,5,6,6,7,7,8,8,9,9,10,10,11,11,12,12,13,13,14,14,15,15,16,16,17,17,18,18,19,19,20,20,21,21,22,22,24,24,25,25,26,26,27,27,28,28,29,29,30,30,31,31,32,32,34,34,35,35,36,36,37,37,38,38,39,39,40,40,41,41,42,42,43,43,44,44,46,46,48,48,52,52,53,53,54,54,55,55,56,56,57,57,60,60],"right_children":[2,4,6,8,10,12,14,16,18,20,22,24,26,28,30,32,34,36,38,40,42,44,46,-1,48,50,52,54,56,58,60,62,64,-1,66,68,70,72,74,76,78,80,82,84,86,-1,88,-1,90,-1,-1,-1,92,94,96,98,100,102,-1,-1,104,-1,-1,-1,-1,-1,-1,-1,-1,-1,-1,-1,-1,-1,-1,-1,-1,-1,-1,-1,-1,-1,-1,-1,-1,-1,-1,-1,-1,-1,-1,-1,-1,-1,-1,-1,-1,-1,-1,-1,-1,-1,-1,-1,-1],"split_conditions":[5.408535E2,5.9177776E1,2.74E0,1.28E1,3.545059E2,1.1274163E3,1.3666667E1,5.6145657E1,5E-1,1.5700672E1,4.2880252E2,3.1798319E1,-8.660254E-1,7.7045264E2,1.1744308E3,2.321108E1,6.6720726E1,4.0701637E0,2.2722584E1,-5E-1,2.2924593E1,8.126401E0,2.8150028E1,1.8478477E-2,-2.4492937E-16,7.686095E2,2.4715333E0,5.0459228E0,1.1991526E1,1.0792183E3,2.2040447E1,7.116667E0,1.1361624E1,7.911676E-3,3.4550665E2,4E0,2.315814E1,1.848E1,5E-1,3.000514E2,9.349888E1,8.68729E1,6.67E0,2.2279661E1,1.74907E1,9.787589E-3,6.692499E2,-7.011872E-3,-9.659258E-1,-7.667554E-3,1.3742291E-2,2.0402504E-2,2.0397131E1,3.340591E1,4.435462E0,4.0054592E1,1.00491986E3,4.0796387E1,6.1835465E-3,-9.913652E-4,3.8175633E0,7.98743E-3,1.2841424E-3,-1.5001895E-3,1.1066586E-2,-2.0560224E-2,-1.2139279E-3,8.611496E-3,-3.494761E-3,-5.416857E-4,-8.34605E-3,-1.303199E-2,-0E0,7.1939244E-3,-2.1821579E-4,-2.5854271E-3,-9.71981E-3,-1.8554542E-2,-1.3133468E-2,3.6730196E-3,1.7262802E-2,-1.8550333E-2,-7.5637093E-3,-5.7958257E-3,-1.571017E-2,-4.6814865E-4,-5.2456795E-3,-1.9178839E-3,-6.7946333E-3,-2.9343935E-3,7.7279513E-3,1.5882228E-2,1.22253E-2,2.7782514E-3,-8.9278985E-3,-5.243578E-3,1.2195836E-3,5.330646E-3,-4.1611865E-3,4.9173227E-3,8.322579E-3,-1.9252863E-3,-8.222812E-3,-1.617464E-2,-6.3691577E-3],"split_indices":[13,18,1,1,13,13,1,17,7,24,13,21,8,13,13,13,13,30,3,9,21,4,21,0,9,20,30,30,4,13,3,1,24,0,13,11,19,0,8,18,19,13,0,3,24,0,17,0,8,0,0,0,3,24,23,21,13,21,0,0,23,0,0,0,0,0,0,0,0,0,0,0,0,0,0,0,0,0,0,0,0,0,0,0,0,0,0,0,0,0,0,0,0,0,0,0,0,0,0,0,0,0,0,0,0],"split_type":[0,0,0,0,0,0,