{"learner":{"attributes":{"best_iteration":"519","best_score":"0.2298056455699522","scikit_learn":"{\"_estimator_type\": \"regressor\"}"},"feature_names":[],"feature_types":[],"gradient_booster":{"model":{"cats":{"enc":[],"feature_segments":[],"sorted_idx":[]},"gbtree_model_param":{"num_parallel_tree":"1","num_trees":"670"},"iteration_indptr":[0,1,2,3,4,5,6,7,8,9,10,11,12,13,14,15,16,17,18,19,20,21,22,23,24,25,26,27,28,29,30,31,32,33,34,35,36,37,38,39,40,41,42,43,44,45,46,47,48,49,50,51,52,53,54,55,56,57,58,59,60,61,62,63,64,65,66,67,68,69,70,71,72,73,74,75,76,77,78,79,80,81,82,83,84,85,86,87,88,89,90,91,92,93,94,95,96,97,98,99,100,101,102,103,104,105,106,107,108,109,110,111,112,113,114,115,116,117,118,119,120,121,122,123,124,125,126,127,128,129,130,131,132,133,134,135,136,137,138,139,140,141,142,143,144,145,146,147,148,149,150,151,152,153,154,155,156,157,158,159,160,161,162,163,164,165,166,167,168,169,170,171,172,173,174,175,176,177,178,179,180,181,182,183,184,185,186,187,188,189,190,191,192,193,194,195,196,197,198,199,200,201,202,203,204,205,206,207,208,209,210,211,212,213,214,215,216,217,218,219,220,221,222,223,224,225,226,227,228,229,230,231,232,233,234,235,236,237,238,239,240,241,242,243,244,245,246,247,248,249,250,251,252,253,254,255,256,257,258,259,260,261,262,263,264,265,266,267,268,269,270,271,272,273,274,275,276,277,278,279,280,281,282,283,284,285,286,287,288,289,290,291,292,293,294,295,296,297,298,299,300,301,302,303,304,305,306,307,308,309,310,311,312,313,314,315,316,317,318,319,320,321,322,323,324,325,326,327,328,329,330,331,332,333,334,335,336,337,338,339,340,341,342,343,344,345,346,347,348,349,350,351,352,353,354,355,356,357,358,359,360,361,362,363,364,365,366,367,368,369,370,371,372,373,374,375,376,377,378,379,380,381,382,383,384,385,386,387,388,389,390,391,392,393,394,395,396,397,398,399,400,401,402,403,404,405,406,407,408,409,410,411,412,413,414,415,416,417,418,419,420,421,422,423,424,425,426,427,428,429,430,431,432,433,434,435,436,437,438,439,440,441,442,443,444,445,446,447,448,449,450,451,452,453,454,455,456,457,458,459,460,461,462,463,464,465,466,467,468,469,470,471,472,473,474,475,476,477,478,479,480,481,482,483,484,485,486,487,488,489,490,491,492,493,494,495,496,497,498,499,500,501,502,503,504,505,506,507,508,509,510,511,512,513,514,515,516,517,518,519,520,521,522,523,524,525,526,527,528,529,530,531,532,533,534,535,536,537,538,539,540,541,542,543,544,545,546,547,548,549,550,551,552,553,554,555,556,557,558,559,560,561,562,563,564,565,566,567,568,569,570,571,572,573,574,575,576,577,578,579,580,581,582,583,584,585,586,587,588,589,590,591,592,593,594,595,596,597,598,599,600,601,602,603,604,605,606,607,608,609,610,611,612,613,614,615,616,617,618,619,620,621,622,623,624,625,626,627,628,629,630,631,632,633,634,635,636,637,638,639,640,641,642,643,644,645,646,647,648,649,650,651,652,653,654,655,656,657,658,659,660,661,662,663,664,665,666,667,668,669,670],"tree_info":[0,0,0,0,0,0,0,0,0,0,0,0,0,0,0,0,0,0,0,0,0,0,0,0,0,0,0,0,0,0,0,0,0,0,0,0,0,0,0,0,0,0,0,0,0,0,0,0,0,0,0,0,0,0,0,0,0,0,0,0,0,0,0,0,0,0,0,0,0,0,0,0,0,0,0,0,0,0,0,0,0,0,0,0,0,0,0,0,0,0,0,0,0,0,0,0,0,0,0,0,0,0,0,0,0,0,0,0,0,0,0,0,0,0,0,0,0,0,0,0,0,0,0,0,0,0,0,0,0,0,0,0,0,0,0,0,0,0,0,0,0,0,0,0,0,0,0,0,0,0,0,0,0,0,0,0,0,0,0,0,0,0,0,0,0,0,0,0,0,0,0,0,0,0,0,0,0,0,0,0,0,0,0,0,0,0,0,0,0,0,0,0,0,0,0,0,0,0,0,0,0,0,0,0,0,0,0,0,0,0,0,0,0,0,0,0,0,0,0,0,0,0,0,0,0,0,0,0,0,0,0,0,0,0,0,0,0,0,0,0,0,0,0,0,0,0,0,0,0,0,0,0,0,0,0,0,0,0,0,0,0,0,0,0,0,0,0,0,0,0,0,0,0,0,0,0,0,0,0,0,0,0,0,0,0,0,0,0,0,0,0,0,0,0,0,0,0,0,0,0,0,0,0,0,0,0,0,0,0,0,0,0,0,0,0,0,0,0,0,0,0,0,0,0,0,0,0,0,0,0,0,0,0,0,0,0,0,0,0,0,0,0,0,0,0,0,0,0,0,0,0,0,0,0,0,0,0,0,0,0,0,0,0,0,0,0,0,0,0,0,0,0,0,0,0,0,0,0,0,0,0,0,0,0,0,0,0,0,0,0,0,0,0,0,0,0,0,0,0,0,0,0,0,0,0,0,0,0,0,0,0,0,0,0,0,0,0,0,0,0,0,0,0,0,0,0,0,0,0,0,0,0,0,0,0,0,0,0,0,0,0,0,0,0,0,0,0,0,0,0,0,0,0,0,0,0,0,0,0,0,0,0,0,0,0,0,0,0,0,0,0,0,0,0,0,0,0,0,0,0,0,0,0,0,0,0,0,0,0,0,0,0,0,0,0,0,0,0,0,0,0,0,0,0,0,0,0,0,0,0,0,0,0,0,0,0,0,0,0,0,0,0,0,0,0,0,0,0,0,0,0,0,0,0,0,0,0,0,0,0,0,0,0,0,0,0,0,0,0,0,0,0,0,0,0,0,0,0,0,0,0,0,0,0,0,0,0,0,0,0,0,0,0,0,0,0,0,0,0,0,0,0,0,0,0,0,0,0,0,0,0,0,0,0,0,0,0,0,0,0,0,0,0,0,0,0,0,0,0,0,0,0,0,0,0,0,0,0,0,0,0,0,0,0,0,0,0,0,0,0,0,0,0,0,0,0,0,0,0,0,0,0,0,0,0,0,0,0,0,0,0,0,0,0,0,0,0,0,0,0,0,0,0,0,0,0,0,0,0,0],"trees":[{"base_weights":[5.557135E-4,-3.6908665E-1,2.3585379E-1,-9.1334593E-1,-1.9541678E-1,3.3963595E-2,4.6184662E-1,-5.3235847E-1,-1.8542778E0,-1.3104872E0,-1.5436909E-1,3.4108856E-1,-1.943772E-2,3.604347E-1,6.170488E-1,-3.8493663E-1,-1.6983918E0,-2.8962798E0,-7.2008294E-1,-4.015293E0,-1.6878368E-1,-8.596808E-2,-4.5317194E-1,1.24471836E-1,7.5003433E-1,-2.4357034E-1,6.178607E-2,3.6876827E-1,-4.1819243E-3,6.406139E-1,-1.3346215E-1,2.4936607E-1,-5.743089E-1,-7.336785E-1,-3.0050657E0,-1.2734041E0,-3.3035839E0,-1.0181266E0,-5.0101376E-1,-2.7663823E-2,-7.539097E-2,-3.8449565E-1,-3.8199674E-2,-2.1350867E-1,4.5257974E-2,-4.2158377E-1,-2.3130488E-2,1.8530379E-1,-1.8415963E-2,7.849644E-1,4.665017E-3,-1.4260837E0,-2.0063645E-1,-4.1253855E-3,1.6393003E-1,2.8474596E-1,4.1880992E-1,4.527629E-1,7.039436E-1,-7.236736E-3,6.655492E-2,-3.795938E-3,3.3196613E-1,-1.1238503E-1,-8.2925576E-1,4.364118E-3,-1.08935E0,-5.6290336E-2,-2.085202E-2,-6.1465683E-3,-2.663922E-2,-1.6156713E-2,-3.5295575E0,-5.4656744E-1,-2.4091974E-2,-6.228595E-1,-1.9644732E-3,-7.015239E-4,-1.0654818E-2,6.923941E-2,-5.192455E-3,-1.8565247E-2,-2.0076801E-1,6.7212485E-2,-2.1646516E-2,-5.5479175E-1,-1.869028E-1,3.6665574E-1,-1.8620959E-1,6.346785E-1,1.34307705E-2,-8.844857E-3,-2.9855585E-2,-1.7715877E-1,-7.2454756E-1,5.8753383E-3,-1.0593499E-2,1.7318983E-1,-5.688733E-3,2.9906186E-1,-1.0749976E-2,4.561156E-1,3.092664E-1,3.8348293E-1,1.0269513E-2,1.27967615E-2,6.530778E-1,-9.344413E-4,2.9007844E-3,8.20464E-3,1.5154599E-3,8.0432504E-4,-7.0996885E-3,-2.1520589E-2,-8.974565E-3,-2.0796986E-2,-8.130744E-3,-5.8201935E-2,-2.8245484E-2,-1.5312189E-2,-1.9089822E-3,-1.0370255E-2,-3.8255998E-3,3.1722866E-3,-1.1200681E-3,9.438346E-3,-3.202288E-3,-3.7306748E-4,3.8122812E-3,-4.6472354E-3,-1.0329974E-2,-1.4641454E-3,-8.932827E-3,6.210356E-3,-5.3480626E-3,-1.3752057E-2,-1.0074853E-3,1.0135519E-2,5.35601E-3,-6.896802E-3,-2.0923677E-3,-2.8107031E-3,-1.5391715E-2,-2.649741E-4,4.795209E-3,1.8853301E-3,3.2393904E-3,-0E0,4.5687775E-3,8.2181994E-4,-8.9394103E-4,5.6820684E-3,7.702496E-3,7.1929744E-3,3.7362396E-3,7.4772933E-3,3.6931525E-3,7.999535E-3,1.0284835E-2],"categories":[],"categories_nodes":[],"categories_segments":[],"categories_sizes":[],"default_left":[0,0,0,0,0,0,0,0,0,0,0,0,0,0,0,0,0,0,0,0,0,0,0,0,0,0,0,0,0,0,0,0,0,0,0,0,0,0,0,0,0,0,0,0,0,0,0,0,0,0,0,0,0,0,0,0,0,0,0,0,0,0,0,0,0,0,0,0,0,0,0,0,0,0,0,0,0,0,0,0,0,0,0,0,0,0,0,0,0,0,0,0,0,0,0,0,0,0,0,0,0,0,0,0,0,0,0,0,0,0,0,0,0,0,0,0,0,0,0,0,0,0,0,0,0,0,0,0,0,0,0,0,0,0,0,0,0,0,0,0,0,0,0,0,0,0,0,0,0,0,0,0,0,0,0,0,0,0,0],"id":0,"left_children":[1,3,5,7,9,11,13,15,17,19,21,23,25,27,29,31,33,35,37,39,41,43,45,47,49,51,53,55,-1,57,59,61,63,65,67,69,71,73,75,-1,-1,77,79,81,83,85,-1,87,-1,89,-1,91,93,95,97,99,101,103,105,-1,107,-1,109,111,113,-1,115,-1,-1,-1,-1,-1,117,119,-1,121,-1,-1,-1,123,-1,-1,125,127,-1,129,131,133,135,137,-1,-1,-1,139,141,-1,143,145,-1,147,149,151,153,155,-1,-1,157,-1,-1,-1,-1,-1,-1,-1,-1,-1,-1,-1,-1,-1,-1,-1,-1,-1,-1,-1,-1,-1,-1,-1,-1,-1,-1,-1,-1,-1,-1,-1,-1,-1,-1,-1,-1,-1,-1,-1,-1,-1,-1,-1,-1,-1,-1,-1,-1,-1,-1,-1,-1],"loss_changes":[6.151342E2,2.5957745E2,1.9710748E2,2.3630414E2,9.505022E1,3.7516823E1,3.159134E1,8.040431E1,2.2137811E2,2.2626251E2,4.1075726E1,2.9756924E1,3.5504776E1,6.7878723E0,1.4402832E1,5.131697E1,6.221544E1,5.7277283E1,5.054325E0,3.0466553E1,1.4467599E0,2.7529182E1,1.1524757E1,1.8714409E1,1.2421646E0,2.5661726E1,9.649998E0,4.8563995E0,0E0,8.575653E0,1.9003125E0,4.2593665E0,3.834179E1,1.2603567E1,1.6416016E1,8.367016E0,3.1839111E1,8.685738E0,2.3839235E0,0E0,0E0,2.0432906E0,1.255363E0,1.0288837E1,2.6530863E1,1.1205864E1,0E0,1.4680393E1,0E0,5.963974E-1,0E0,6.0308037E0,5.863329E0,2.1987588E0,2.9233246E0,1.9924011E0,2.7827148E0,2.6623306E0,3.2383423E0,0E0,3.2568616E-1,0E0,4.095992E0,7.2057204E0,2.7727676E1,0E0,2.487156E0,0E0,0E0,0E0,0E0,0E0,2.65625E1,4.3840213E0,0E0,6.662121E-1,0E0,0E0,0E0,6.111941E-1,0E0,0E0,8.917118E0,1.38193445E1,0E0,7.1509476E0,4.780971E0,5.266014E0,6.0354095E0,5.235672E-2,0E0,0E0,0E0,4.9751215E0,2.901988E0,0E0,1.9857025E0,1.042078E0,0E0,7.308502E-1,7.934711E-2,2.0618973E0,1.759531E0,2.2273426E0,0E0,0E0,9.360199E-1,0E0,0E0,0E0,0E0,0E0,0E0,0E0,0E0,0E0,0E0,0E0,0E0,0E0,0E0,0E0,0E0,0E0,0E0,0E0,0E0,0E0,0E0,0E0,0E0,0E0,0E0,0E0,0E0,0E0,0E0,0E0,0E0,0E0,0E0,0E0,0E0,0E0,0E0,0E0,0E0,0E0,0E0,0E0,0E0,0E0,0E0,0E0,0E0,0E0,0E0,0E0,0E0],"parents":[2147483647,0,0,1,1,2,2,3,3,4,4,5,5,6,6,7,7,8,8,9,9,10,10,11,11,12,12,13,13,14,14,15,15,16,16,17,17,18,18,19,19,20,20,21,21,22,22,23,23,24,24,25,25,26,26,27,27,29,29,30,30,31,31,32,32,33,33,34,34,35,35,36,36,37,37,38,38,41,41,42,42,43,43,44,44,45,45,47,47,49,49,51,51,52,52,53,53,54,54,55,55,56,56,57,57,58,58,60,60,62,62,63,63,64,64,66,66,72,72,73,73,75,75,79,79,82,82,83,83,85,85,86,86,87,87,88,88,89,89,93,93,94,94,96,96,97,97,99,99,100,100,101,101,102,102,103,103,106,106],"right_children":[2,4,6,8,10,12,14,16,18,20,22,24,26,28,30,32,34,36,38,40,42,44,46,48,50,52,54,56,-1,58,60,62,64,66,68,70,72,74,76,-1,-1,78,80,82,84,86,-1,88,-1,90,-1,92,94,96,98,100,102,104,106,-1,108,-1,110,112,114,-1,116,-1,-1,-1,-1,-1,118,120,-1,122,-1,-1,-1,124,-1,-1,126,128,-1,130,132,134,136,138,-1,-1,-1,140,142,-1,144,146,-1,148,150,152,154,156,-1,-1,158,-1,-1,-1,-1,-1,-1,-1,-1,-1,-1,-1,-1,-1,-1,-1,-1,-1,-1,-1,-1,-1,-1,-1,-1,-1,-1,-1,-1,-1,-1,-1,-1,-1,-1,-1,-1,-1,-1,-1,-1,-1,-1,-1,-1,-1,-1,-1,-1,-1,-1,-1,-1],"split_conditions":[1.9117646E3,2.4774034E2,2.7014006E3,2E0,-9.659258E-1,8.501028E1,1.0675647E3,5.5491095E2,3.369098E0,2.0585E1,1.4283333E1,2.7655461E3,3.8297702E2,1.4283333E1,1.3E1,2.0983898E1,2.0167076E1,-5E-1,8.2150836E2,1.0893265E1,2.1277252E1,4.183136E2,2.4160807E1,6.655347E2,3.0246162E1,4.77E0,2.3492957E3,7.4019525E2,-4.1819243E-3,2.9849583E3,2.9933E2,1.5787778E1,2.2733614E1,1.2296667E1,7.5E0,1.5833333E1,2.1E1,1.2260808E1,1.5540843E1,-2.7663823E-2,-7.539097E-2,2.1185835E1,3.872871E2,1.3657473E1,2.156643E3,-1.8369701E-16,-2.3130488E-2,1.225E1,-1.8415963E-2,2.2753073E1,4.665017E-3,2.0578223E2,2.3164656E1,1.4478992E3,2.2279661E1,3.4412256E3,1.3587217E1,3.8333333E3,2.64488E0,-7.236736E-3,4.8535015E3,-3.795938E-3,1.6179552E1,1.6068068E1,-2.5881904E-1,4.364118E-3,2.3468908E1,-5.6290336E-2,-2.085202E-2,-6.1465683E-3,-2.663922E-2,-1.6156713E-2,2.273355E1,6.902101E1,-2.4091974E-2,4.4285492E2,-1.9644732E-3,-7.015239E-4,-1.0654818E-2,9.440001E0,-5.192455E-3,-1.8565247E-2,5.55325E1,3.1089636E3,-2.1646516E-2,1.6436134E1,3.5790783E1,2.1618488E1,2.2924593E1,4.7331475E3,1.34307705E-2,-8.844857E-3,-2.9855585E-2,1.5540843E1,4.096796E2,5.8753383E-3,7.134661E2,5.457337E2,-5.688733E-3,-9.659258E-1,1.0833333E1,3.020168E3,5.5E0,2.090735E1,1.0269513E-2,1.27967615E-2,6.123234E-17,-9.344413E-4,2.9007844E-3,8.20464E-3,1.5154599E-3,8.0432504E-4,-7.0996885E-3,-2.1520589E-2,-8.974565E-3,-2.0796986E-2,-8.130744E-3,-5.8201935E-2,-2.8245484E-2,-1.5312189E-2,-1.9089822E-3,-1.0370255E-2,-3.8255998E-3,3.1722866E-3,-1.1200681E-3,9.438346E-3,-3.202288E-3,-3.7306748E-4,3.8122812E-3,-4.6472354E-3,-1.0329974E-2,-1.4641454E-3,-8.932827E-3,6.210356E-3,-5.3480626E-3,-1.3752057E-2,-1.0074853E-3,1.0135519E-2,5.35601E-3,-6.896802E-3,-2.0923677E-3,-2.8107031E-3,-1.5391715E-2,-2.649741E-4,4.795209E-3,1.8853301E-3,3.2393904E-3,-0E0,4.5687775E-3,8.2181994E-4,-8.9394103E-4,5.6820684E-3,7.702496E-3,7.1929744E-3,3.7362396E-3,7.4772933E-3,3.6931525E-3,7.999535E-3,1.0284835E-2],"split_indices":[33,13,32,29,8,17,13,19,30,3,1,34,13,1,0,3,24,10,32,26,3,13,26,15,21,0,32,13,0,33,15,20,20,1,0,1,3,26,24,0,0,3,14,24,19,10,0,0,0,19,0,17,3,32,3,32,26,34,30,0,32,0,14,19,8,0,15,0,0,0,0,0,26,15,0,15,0,0,0,1,0,0,17,32,0,15,21,3,21,34,0,0,0,24,14,0,13,13,0,8,1,33,0,3,0,0,8,0,0,0,0,0,0,0,0,0,0,0,0,0,0,0,0,0,0,0,0,0,0,0,0,0,0,0,0,0,0,0,0,0,0,0,0,0,0,0,0,0,0,0,0,0,0,0,0,0,0,0,0],"split_type":[0,0,0,0,0,0,0,0,0,0,0,0,0,0,0,0,0,0,0,0,0,0,0,0,0,0,0,0,0,0,0,0,0,0,0,0,0,0,0,0,0,0,0,0,0,0,0,0,0,0,0,0,0,0,0,0,0,0,0,0,0,0,0,0,0,0,0,0,0,0,0,0,0,0,0,0,0,0,0,0,0,0,0,0,0,0,0,0,0,0,0,0,0,0,0,0,0,0,0,0,0,0,0,0,0,0,0,0,0,0,0,0,0,0,0,0,0,0,0,0,0,0,0,0,0,0,0,0,0,0,0,0,0,0,0,0,0,0,0,0,0,0,0,0,0,0,0,0,0,0,0,0,0,0,0,0,0,0,0],"sum_hessian":[7.069E3,2.749E3,4.32E3,6.63E2,2.086E3,2.283E3,2.037E3,4.74E2,1.89E2,7.2E1,2.014E3,3.37E2,1.946E3,1.236E3,8.01E2,4.23E2,5.1E1,9.7E1,9.2E1,2E1,5.2E1,1.641E3,3.73E2,2.22E2,1.15E2,5.17E2,1.429E3,1.221E3,1.5E1,7.77E2,2.4E1,9.7E1,3.26E2,3.1E1,2E1,2.1E1,7.6E1,3.6E1,5.6E1,8E0,1.2E1,1.8E1,3.4E1,8.32E2,8.09E2,3.65E2,8E0,2.14E2,8E0,1.05E2,1E1,1.6E1,5.01E2,8.69E2,5.6E2,4.61E2,7.6E2,2E2,5.77E2,8E0,1.6E1,1.3E1,8.4E1,1.17E2,2.09E2,8E0,2.3E1,1.2E1,8E0,9E0,1.2E1,8E0,6.8E1,2.2E1,1.4E1,4.1E1,1.5E1,1E1,8E0,2.6E1,8E0,8E0,8.24E2,7.99E2,1E1,2.31E2,1.34E2,1.44E2,7E1,5E1,5.5E1,8E0,8E0,4.82E2,1.9E1,1.2E1,8.57E2,5.52E2,8E0,4.4E2,2.1E1,5.62E2,1.98E2,1.58E2,4.2E1,1.39E2,4.38E2,8E0,8E0,4.2E1,4.2E1,8.1E1,3.6E1,5.5E1,1.54E2,1.3E1,1E1,5.4E1,1.4E1,9E0,1.3E1,3.3E1,8E0,1.3E1,1.3E1,1.1E1,8.13E2,5.36E2,2.63E2,8.4E1,1.47E2,1.12E2,2.2E1,1.36E2,8E0,8E0,6.2E1,4.1E1,9E0,5.4E1,4.28E2,8E0,1.1E1,8.41E2,1.6E1,2.66E2,2.86E2,8E0,4.32E2,8E0,1.3E1,2.46E2,3.16E2,4.8E1,1.5E2,8.3E1,7.5E1,1.01E2,3.37E2],"tree_param":{"num_deleted":"0","num_feature":"38","num_nodes":"159","size_leaf_vector":"1"}},{"base_weights":[1.2074573E-3,-4.4740835E-1,1.9548513E-1,-5.804827E-2,-4.0726292E-1,2.6391871E-2,4.8053658E-1,-8.6604565E-1,-2.4524286E-1,1.1878507E-1,-1.2499606E-1,3.7721625E-1,5.989222E-1,-3.963234E-1,-1.7078323E0,-9.229253E-1,-1.9339728E-1,4.7870135E-1,7.071979E-2,-6.959464E-2,-2.7402273E-1,3.8728133E-1,-6.6477777E-3,6.416922E-1,2.1247765E-1,-3.074325E-1,-2.0675209E0,-1.3844646E0,-3.7756839E0,-1.7802167E0,1.6760942E-1,-3.3192053E-2,-3.642265E-1,3.642184E-2,6.143852E-1,-1.2221973E0,8.8056274E-2,2.3711227E-1,-1.09722964E-1,-1.30435275E-2,-2.4750166E-1,4.2645803E-1,2.8925163E-1,4.9180546E-1,6.9860685E-1,3.1552023E-1,-3.854801E-3,2.9663733E-1,-4.841466E-1,-4.4480916E-2,-1.1695414E-2,-2.6834688E0,-1.1551672E0,-6.988943E-2,-2.643955E-2,-3.1909091E0,-3.9697072E-1,5.3639686E-1,-5.061519E-1,-1.8852754E-1,1.0223735E-1,-3.3149484E-1,-1.2428535E0,2.5035134E-1,-8.69868E-3,-1.1046263E-3,6.620094E-1,-4.0523885E-3,-3.6379196E-2,-1.2892316E-2,2.175248E-1,4.0651634E-1,6.7917556E-3,-5.617688E-1,-8.012412E-2,-2.789425E-1,1.2507683E-2,3.4996828E-1,4.7756028E-1,5.0625056E-1,2.3008196E-1,5.6625694E-1,2.8785414E-1,6.3695353E-1,1.2128113E-2,7.49531E-2,5.151274E-1,-3.5766154E-3,6.010218E-3,-2.490442E-3,-1.1181264E-2,-1.8150695E-2,-5.539286E-2,-1.4708688E-2,-3.0917518E-2,-1.3129376E-2,-5.8948778E-2,3.672336E-4,-2.1657016E-2,3.9928323E-3,9.878538E-3,-1.654929E-2,3.520152E-3,9.654537E-3,-3.2062873E-3,1.0075553E-3,5.618717E-3,-3.8365142E-3,-9.4534075E-3,-2.4942204E-2,-7.7709225E-3,1.3980039E-3,6.2906593E-3,6.585072E-3,1.1685923E-2,-7.175273E-5,-1.1768356E-2,1.74704E-3,3.679572E-3,-3.0710388E-3,7.711764E-3,1.6146791E-3,-3.7900077E-3,-3.5841835E-3,-2.5897484E-2,-1.5472311E-3,3.4056967E-3,-3.768823E-3,-1.0976599E-2,3.0117878E-3,-3.0716897E-3,5.412457E-3,-2.1352267E-4,1.1351086E-2,6.917547E-3,1.0593564E-2,5.921676E-3,3.9045305E-3,6.661174E-4,7.264417E-3,1.1485414E-2,-1.7111833E-4,6.306344E-3,1.04036685E-2,8.650891E-3,3.5272783E-3,-2.9103478E-4,3.9921147E-3,8.3933445E-3],"categories":[],"categories_nodes":[],"categories_segments":[],"categories_sizes":[],"default_left":[0,0,0,0,0,0,0,0,0,0,0,0,0,0,0,0,0,0,0,0,0,0,0,0,0,0,0,0,0,0,0,0,0,0,0,0,0,0,0,0,0,0,0,0,0,0,0,0,0,0,0,0,0,0,0,0,0,0,0,0,0,0,0,0,0,0,0,0,0,0,0,0,0,0,0,0,0,0,0,0,0,0,0,0,0,0,0,0,0,0,0,0,0,0,0,0,0,0,0,0,0,0,0,0,0,0,0,0,0,0,0,0,0,0,0,0,0,0,0,0,0,0,0,0,0,0,0,0,0,0,0,0,0,0,0,0,0,0,0,0,0,0,0,0,0,0,0,0,0],"id":1,"left_children":[1,3,5,-1,7,9,11,13,15,17,19,21,23,25,27,29,31,33,35,37,39,41,-1,43,45,47,49,51,53,55,57,59,61,63,65,67,69,71,73,-1,75,77,79,81,83,85,-1,87,89,-1,-1,91,93,-1,-1,95,97,99,101,103,105,107,109,111,-1,-1,113,-1,-1,115,117,119,121,123,125,127,129,131,133,135,137,139,141,143,-1,145,147,-1,-1,-1,-1,-1,-1,-1,-1,-1,-1,-1,-1,-1,-1,-1,-1,-1,-1,-1,-1,-1,-1,-1,-1,-1,-1,-1,-1,-1,-1,-1,-1,-1,-1,-1,-1,-1,-1,-1,-1,-1,-1,-1,-1,-1,-1,-1,-1,-1,-1,-1,-1,-1,-1,-1,-1,-1,-1,-1,-1,-1,-1],"loss_changes":[6.229318E2,2.934849E2,2.4033984E2,0E0,1.5833923E2,4.384525E1,2.2207397E1,2.1873318E2,5.514337E1,3.3562737E1,9.738132E0,8.534332E0,1.3913208E1,5.2068203E1,1.2300775E2,1.0522085E2,4.0218327E1,1.36249695E1,3.8628994E1,1.0726963E1,4.5677776E0,3.4923248E0,0E0,5.872162E0,4.4474893E0,3.6977108E1,1.6045952E1,4.610202E1,3.0466858E1,1.1990495E2,1.3114239E1,1.6069304E1,1.9571571E1,7.5857124E0,5.874214E0,2.4665745E1,2.222826E1,3.8866377E0,1.0154741E1,0E0,2.5655098E0,2.3517838E0,3.4119854E0,2.9587364E0,2.702301E0,3.4152908E0,0E0,4.5751195E0,2.1861107E1,0E0,0E0,2.8350296E1,2.006903E1,0E0,0E0,4.60347E1,1.5117773E1,7.0778084E-1,8.869541E0,7.6733513E0,3.8051395E0,1.5203407E1,5.780033E0,1.0152674E0,0E0,0E0,3.538269E0,0E0,0E0,5.8950143E0,2.003292E0,4.0219965E0,1.2067522E0,1.6657774E1,5.155904E0,3.0412083E0,1.497293E0,1.182457E0,1.1435318E0,7.2116756E-1,1.2381487E0,1.8033295E0,2.5409865E0,4.0046692E-1,0E0,5.709268E-1,8.964729E-2,0E0,0E0,0E0,0E0,0E0,0E0,0E0,0E0,0E0,0E0,0E0,0E0,0E0,0E0,0E0,0E0,0E0,0E0,0E0,0E0,0E0,0E0,0E0,0E0,0E0,0E0,0E0,0E0,0E0,0E0,0E0,0E0,0E0,0E0,0E0,0E0,0E0,0E0,0E0,0E0,0E0,0E0,0E0,0E0,0E0,0E0,0E0,0E0,0E0,0E0,0E0,0E0,0E0,0E0,0E0,0E0,0E0,0E0,0E0,0E0,0E0,0E0],"parents":[2147483647,0,0,1,1,2,2,4,4,5,5,6,6,7,7,8,8,9,9,10,10,11,11,12,12,13,13,14,14,15,15,16,16,17,17,18,18,19,19,20,20,21,21,23,23,24,24,25,25,26,26,27,27,28,28,29,29,30,30,31,31,32,32,33,33,34,34,35,35,36,36,37,37,38,38,40,40,41,41,42,42,43,43,44,44,45,45,47,47,48,48,51,51,52,52,55,55,56,56,57,57,58,58,59,59,60,60,61,61,62,62,63,63,66,66,69,69,70,70,71,71,72,72,73,73,74,74,75,75,76,76,77,77,78,78,79,79,80,80,81,81,82,82,83,83,85,85,86,86],"right_children":[2,4,6,-1,8,10,12,14,16,18,20,22,24,26,28,30,32,34,36,38,40,42,-1,44,46,48,50,52,54,56,58,60,62,64,66,68,70,72,74,-1,76,78,80,82,84,86,-1,88,90,-1,-1,92,94,-1,-1,96,98,100,102,104,106,108,110,112,-1,-1,114,-1,-1,116,118,120,122,124,126,128,130,132,134,136,138,140,142,144,-1,146,148,-1,-1,-1,-1,-1,-1,-1,-1,-1,-1,-1,-1,-1,-1,-1,-1,-1,-1,-1,-1,-1,-1,-1,-1,-1,-1,-1,-1,-1,-1,-1,-1,-1,-1,-1,-1,-1,-1,-1,-1,-1,-1,-1,-1,-1,-1,-1,-1,-1,-1,-1,-1,-1,-1,-1,-1,-1,-1,-1,-1,-1,-1],"split_conditions":[1.771229E3,1.6849415E1,6.95979E2,-5.804827E-2,1.9802718E2,9.926666E0,1.0675647E3,5.9177776E1,4.7999997E0,8.501028E1,1.36E1,1.4666667E1,9.926666E0,2E0,1E0,3.0140056E3,1.16866665E1,2.7502778E3,9.307507E1,2.5145939E1,9.743583E-1,1.3667532E1,-6.6477777E-3,3.003621E3,1.5E1,2.1010834E1,3.3707864E0,1.0638659E1,9.722689E1,6.793417E1,3.3858543E1,4.2386023E2,1.0936631E3,2.1248816E1,1.5600557E1,5.226574E2,2.4156863E3,2.8467695E1,2.8340584E1,-1.30435275E-2,5.565807E2,8.1168085E2,5.5E0,3.5962715E1,1.7363297E3,6.639425E2,-3.854801E-3,1.5787778E1,-7.014216E-2,-4.4480916E-2,-1.1695414E-2,2.1720001E1,1.0339235E3,-6.988943E-2,-2.643955E-2,6.692499E2,2.998563E1,1.4758599E1,2.050087E3,5.55325E1,1.0339235E3,1.640935E1,2.8105322E1,2.1711484E3,-8.69868E-3,-1.1046263E-3,4.5093277E2,-4.0523885E-3,-3.6379196E-2,6.464961E2,5.362023E2,-5E-1,8.660254E-1,3.800045E2,2.4058823E3,1.0154692E3,2.8096835E2,2.335309E3,2.9242527E1,3.7253537E0,1.2233334E1,5.392997E3,4.32614E2,7.543432E2,1.2128113E-2,3.207112E2,3.0834734E3,-3.5766154E-3,6.010218E-3,-2.490442E-3,-1.1181264E-2,-1.8150695E-2,-5.539286E-2,-1.4708688E-2,-3.0917518E-2,-1.3129376E-2,-5.8948778E-2,3.672336E-4,-2.1657016E-2,3.9928323E-3,9.878538E-3,-1.654929E-2,3.520152E-3,9.654537E-3,-3.2062873E-3,1.0075553E-3,5.618717E-3,-3.8365142E-3,-9.4534075E-3,-2.4942204E-2,-7.7709225E-3,1.3980039E-3,6.2906593E-3,6.585072E-3,1.1685923E-2,-7.175273E-5,-1.1768356E-2,1.74704E-3,3.679572E-3,-3.0710388E-3,7.711764E-3,1.6146791E-3,-3.7900077E-3,-3.5841835E-3,-2.5897484E-2,-1.5472311E-3,3.4056967E-3,-3.768823E-3,-1.0976599E-2,3.0117878E-3,-3.0716897E-3,5.412457E-3,-2.1352267E-4,1.1351086E-2,6.917547E-3,1.0593564E-2,5.921676E-3,3.9045305E-3,6.661174E-4,7.264417E-3,1.1485414E-2,-1.7111833E-4,6.306344E-3,1.04036685E-2,8.650891E-3,3.5272783E-3,-2.9103478E-4,3.9921147E-3,8.3933445E-3],"split_indices":[33,21,13,0,13,1,13,18,1,17,0,1,1,29,10,32,1,33,13,18,30,26,0,33,0,3,33,24,17,14,22,13,18,3,20,19,32,21,21,0,15,13,0,22,13,14,0,20,23,0,0,3,19,0,0,17,22,26,13,17,19,26,15,33,0,0,15,0,0,13,13,10,9,19,32,19,18,20,22,30,1,32,19,20,0,20,33,0,0,0,0,0,0,0,0,0,0,0,0,0,0,0,0,0,0,0,0,0,0,0,0,0,0,0,0,0,0,0,0,0,0,0,0,0,0,0,0,0,0,0,0,0,0,0,0,0,0,0,0,0,0,0,0,0,0,0,0,0,0],"split_type":[0,0,0,0,0,0,0,0,0,0,0,0,0,0,0,0,0,0,0,0,0,0,0,0,0,0,0,0,0,0,0,0,0,0,0,0,0,0,0,0,0,0,0,0,0,0,0,0,0,0,0,0,0,0,0,0,0,0,0,0,0,0,0,0,0,0,0,0,0,0,0,0,0,0,0,0,0,0,0,0,0,0,0,0,0,0,0,0,0,0,0,0,0,0,0,0,0,0,0,0,0,0,0,0,0,0,0,0,0,0,0,0,0,0,0,0,0,0,0,0,0,0,0,0,0,0,0,0,0,0,0,0,0,0,0,0,0,0,0,0,0,0,0,0,0,0,0,0,0],"sum_hessian":[7.144E3,2.158E3,4.986E3,2.3E1,2.135E3,3.131E3,1.855E3,5.55E2,1.58E3,1.945E3,1.186E3,9.95E2,8.6E2,3.58E2,1.97E2,1.1E2,1.47E3,2.27E2,1.718E3,8.67E2,3.19E2,9.84E2,1.1E1,7.73E2,8.7E1,3.42E2,1.6E1,1.73E2,2.4E1,6.1E1,4.9E1,7.6E2,7.1E2,5.4E1,1.73E2,2.1E1,1.697E3,9.9E1,7.68E2,1.1E1,3.08E2,6.98E2,2.86E2,2.18E2,5.55E2,7.2E1,1.5E1,7.7E1,2.65E2,8E0,8E0,2.3E1,1.5E2,1.5E1,9E0,2.9E1,3.2E1,3.2E1,1.7E1,3.54E2,4.06E2,6.87E2,2.3E1,4.1E1,1.3E1,1.1E1,1.62E2,1.3E1,8E0,9.54E2,7.43E2,5.6E1,4.3E1,4.5E1,7.23E2,2.75E2,3.3E1,2.86E2,4.12E2,5.8E1,2.28E2,1.57E2,6.1E1,3.64E2,1.91E2,3.4E1,3.8E1,1.2E1,6.5E1,1.21E2,1.44E2,1.1E1,1.2E1,1.29E2,2.1E1,8E0,2.1E1,2.4E1,8E0,1.2E1,2E1,9E0,8E0,9E0,3.45E2,3.62E2,4.4E1,5.51E2,1.36E2,1.3E1,1E1,2.3E1,1.8E1,5.9E1,1.03E2,9.46E2,8E0,1.63E2,5.8E2,8E0,4.8E1,3.2E1,1.1E1,3.7E1,8E0,6.74E2,4.9E1,2.62E2,1.3E1,1.8E1,1.5E1,2.78E2,8E0,1.8E1,3.94E2,1.7E1,4.1E1,1.95E2,3.3E1,1.16E2,4.1E1,1.9E1,4.2E1,1.77E2,1.87E2,1.2E1,2.2E1,8E0,3E1],"tree_param":{"num_deleted":"0","num_feature":"38","num_nodes":"149","size_leaf_vector":"1"}},{"base_weights":[-6.725517E-3,-3.456959E-1,2.3846297E-1,-9.36155E-1,-1.8751797E-1,5.453452E-2,4.717609E-1,-5.6857336E-1,-2.4265049E0,-1.2328548E0,-1.5206496E-1,1.3969041E-1,-1.13818556E-1,3.6994484E-1,6.0561323E-1,-3.9407456E-1,-1.7675333E0,-3.3823335E0,-1.399534E0,-6.349604E-2,-2.508621E-1,-3.9219096E-2,-3.2299104E-1,5.30961E-1,8.081555E-2,5.310411E-2,-1.650287E-1,2.6654452E-1,4.127057E-1,-7.2300285E-3,6.2241155E-1,2.1847731E-1,-5.66331E-1,-9.807425E-1,-2.8540726E0,-4.164887E0,-2.1947083E0,-3.6140073E-2,-9.2784226E-1,-1.00727E-1,-1.48222875E-2,-1.8587743E-1,8.2787715E-2,-2.6108068E-1,-5.643989E-1,-0E0,6.2831134E-1,-2.1147246E-2,9.862622E-2,-9.3833745E-2,2.788193E-1,-4.4182938E-1,-1.078368E-1,3.9648786E-1,2.0134877E-1,3.4715846E-1,4.7683305E-1,4.3989858E-1,6.870775E-1,-4.8568947E-3,2.8723326E-1,-2.502981E-1,-8.688824E-1,-1.2954005E0,3.1533411E-3,-5.458794E-2,-1.3404156E-2,-7.071676E-2,-3.9998937E-2,-4.455576E-2,-1.43534215E-2,-4.170784E-1,-1.2908088E0,-2.5025344E-1,4.0966928E-2,-7.9237264E-1,-1.612106E-1,1.1856375E-1,-4.2308396E-1,-2.3823977E-1,-1.0076346E0,-9.103838E-1,-3.0755693E-1,3.0350035E-1,-1.1479224E-2,3.7106502E-1,7.780808E-1,-0E0,2.0939393E-1,2.7063333E-3,-4.752784E-1,4.9155238E-1,3.1447247E-2,-3.4193474E-1,-8.394825E-1,-9.297631E-2,-1.2239968E-2,5.166798E-1,2.677144E-1,2.741632E-1,8.919865E-2,3.5955486E-1,1.3658898E-1,3.905669E-1,5.325331E-1,4.9464893E-1,1.4083447E-1,1.2669908E-2,6.357549E-1,7.806413E-3,1.6290213E-3,-7.166229E-3,-9.908618E-4,6.1767423E-3,-1.4018413E-2,-2.427075E-2,-3.955321E-3,5.457336E-3,-1.3867139E-2,-2.942834E-2,-6.6617304E-3,-1.9868549E-4,-6.710596E-3,2.6079891E-3,-1.1017115E-3,1.3410699E-3,-2.0193283E-2,5.1728366E-3,-2.5644496E-3,6.960241E-4,4.9591307E-3,1.6279628E-3,-2.7469618E-2,1.4596572E-3,-4.25209E-3,-2.4413401E-2,-4.170954E-3,-7.4232374E-3,-2.0378424E-2,-3.0329486E-3,-1.4074053E-2,1.1457547E-4,7.966345E-3,-0E0,7.05876E-3,9.708522E-3,1.3384006E-2,1.918E-4,-1.1255736E-2,1.8283391E-3,3.6565613E-3,6.015101E-3,-1.0776024E-3,-1.2967631E-2,2.8444615E-3,4.274831E-3,9.367736E-3,-1.0698976E-3,4.9112574E-3,-7.549861E-3,-2.0735757E-3,-1.8754095E-2,-3.335697E-3,-1.6354843E-3,2.3472218E-3,8.724624E-3,3.15422E-3,6.1635156E-3,2.3221087E-3,2.2279727E-3,5.3236494E-3,-5.3957826E-4,4.299644E-3,3.0781545E-3,5.575148E-3,-2.0347754E-3,4.443232E-3,6.430434E-3,5.5245537E-4,3.4205846E-3,8.196949E-3,1.503031E-3,7.832558E-3,-2.678928E-3,4.911614E-3,9.6492795E-3,2.72386E-3],"categories":[],"categories_nodes":[],"categories_segments":[],"categories_sizes":[],"default_left":[0,0,0,0,0,0,0,0,0,0,0,0,0,0,0,0,0,0,0,0,0,0,0,0,0,0,0,0,0,0,0,0,0,0,0,0,0,0,0,0,0,0,0,0,0,0,0,0,0,0,0,0,0,0,0,0,0,0,0,0,0,0,0,0,0,0,0,0,0,0,0,0,0,0,0,0,0,0,0,0,0,0,0,0,0,0,0,0,0,0,0,0,0,0,0,0,0,0,0,0,0,0,0,0,0,0,0,0,0,0,0,0,0,0,0,0,0,0,0,0,0,0,0,0,0,0,0,0,0,0,0,0,0,0,0,0,0,0,0,0,0,0,0,0,0,0,0,0,0,0,0,0,0,0,0,0,0,0,0,0,0,0,0,0,0,0,0,0,0,0,0,0,0,0,0,0,0,0,0,0,0,0,0,0,0,0,0],"id":2,"left_children":[1,3,5,7,9,11,13,15,17,19,21,23,25,27,29,31,33,35,37,-1,39,41,43,45,47,49,51,53,55,-1,57,59,61,63,65,67,69,-1,71,73,-1,75,77,79,81,83,85,-1,87,89,91,93,95,97,99,101,103,105,107,-1,109,111,113,115,-1,-1,-1,-1,-1,-1,-1,117,119,121,123,125,127,129,131,133,135,137,139,141,-1,143,145,147,149,151,153,155,157,159,161,163,-1,165,167,169,171,173,175,177,179,181,183,-1,185,-1,-1,-1,-1,-1,-1,-1,-1,-1,-1,-1,-1,-1,-1,-1,-1,-1,-1,-1,-1,-1,-1,-1,-1,-1,-1,-1,-1,-1,-1,-1,-1,-1,-1,-1,-1,-1,-1,-1,-1,-1,-1,-1,-1,-1,-1,-1,-1,-1,-1,-1,-1,-1,-1,-1,-1,-1,-1,-1,-1,-1,-1,-1,-1,-1,-1,-1,-1,-1,-1,-1,-1,-1,-1,-1,-1,-1,-1],"loss_changes":[5.898196E2,2.7778445E2,1.7659634E2,3.4168958E2,8.668256E1,3.307341E1,2.4231842E1,1.04561264E2,1.1252435E2,2.2390747E2,4.385658E1,3.5148125E1,6.6500645E0,4.313858E0,1.4819366E1,4.7191032E1,4.9119415E1,4.1275818E1,2.5555084E1,0E0,6.3314037E0,2.4619846E1,1.3175034E1,1.0310516E1,3.553042E1,6.128355E0,9.259577E0,2.4125957E0,2.683052E0,0E0,8.428772E0,3.8474422E0,3.2751923E1,1.5513615E1,3.340457E1,6.111023E0,2.2143158E1,0E0,7.351021E0,1.1368687E0,0E0,9.021917E0,1.3647879E1,1.1785522E1,1.5618458E1,8.023817E0,5.8688583E0,0E0,1.4425465E1,4.166574E0,3.7509184E0,3.3692913E0,4.9796257E0,1.2327175E0,1.6329021E0,8.220558E-1,1.2765732E0,3.197174E0,3.4532166E0,0E0,3.534408E0,7.130106E0,1.5616013E1,9.629475E0,0E0,0E0,0E0,0E0,0E0,0E0,0E0,9.299238E0,1.2850597E1,1.1486187E0,4.5574236E-1,1.1965507E1,3.0638628E0,1.0688663E1,3.7811943E1,1.0765667E1,8.402237E0,1.2906048E1,6.708008E0,1.6087337E0,0E0,2.4111242E0,3.7234116E-1,6.7570524E0,1.780407E0,2.7807963E0,6.2632785E0,6.543436E-1,1.1566075E0,2.5654802E0,4.1180677E0,1.9757409E0,0E0,6.918802E-1,6.825371E-1,1.130928E0,2.1641061E0,4.519844E-1,1.1226565E0,1.9454594E0,6.093521E-1,1.73032E0,2.1944938E0,0E0,1.1908569E0,0E0,0E0,0E0,0E0,0E0,0E0,0E0,0E0,0E0,0E0,0E0,0E0,0E0,0E0,0E0,0E0,0E0,0E0,0E0,0E0,0E0,0E0,0E0,0E0,0E0,0E0,0E0,0E0,0E0,0E0,0E0,0E0,0E0,0E0,0E0,0E0,0E0,0E0,0E0,0E0,0E0,0E0,0E0,0E0,0E0,0E0,0E0,0E0,0E0,0E0,0E0,0E0,0E0,0E0,0E0,0E0,0E0,0E0,0E0,0E0,0E0,0E0,0E0,0E0,0E0,0E0,0E0,0E0,0E0,0E0,0E0,0E0,0E0,0E0,0E0,0E0,0E0,0E0],"parents":[2147483647,0,0,1,1,2,2,3,3,4,4,5,5,6,6,7,7,8,8,9,9,10,10,11,11,12,12,13,13,14,14,15,15,16,16,17,17,18,18,20,20,21,21,22,22,23,23,24,24,25,25,26,26,27,27,28,28,30,30,31,31,32,32,33,33,34,34,35,35,36,36,38,38,39,39,41,41,42,42,43,43,44,44,45,45,46,46,48,48,49,49,50,50,51,51,52,52,53,53,54,54,55,55,56,56,57,57,58,58,60,60,61,61,62,62,63,63,71,71,72,72,73,73,74,74,75,75,76,76,77,77,78,78,79,79,80,80,81,81,82,82,83,83,85,85,86,86,87,87,88,88,89,89,90,90,91,91,92,92,93,93,94,94,95,95,97,97,98,98,99,99,100,100,101,101,102,102,103,103,104,104,105,105,106,106,108,108],"right_children":[2,4,6,8,10,12,14,16,18,20,22,24,26,28,30,32,34,36,38,-1,40,42,44,46,48,50,52,54,56,-1,58,60,62,64,66,68,70,-1,72,74,-1,76,78,80,82,84,86,-1,88,90,92,94,96,98,100,102,104,106,108,-1,110,112,114,116,-1,-1,-1,-1,-1,-1,-1,118,120,122,124,126,128,130,132,134,136,138,140,142,-1,144,146,148,150,152,154,156,158,160,162,164,-1,166,168,170,172,174,176,178,180,182,184,-1,186,-1,-1,-1,-1,-1,-1,-1,-1,-1,-1,-1,-1,-1,-1,-1,-1,-1,-1,-1,-1,-1,-1,-1,-1,-1,-1,-1,-1,-1,-1,-1,-1,-1,-1,-1,-1,-1,-1,-1,-1,-1,-1,-1,-1,-1,-1,-1,-1,-1,-1,-1,-1,-1,-1,-1,-1,-1,-1,-1,-1,-1,-1,-1,-1,-1,-1,-1,-1,-1,-1,-1,-1,-1,-1,-1,-1,-1,-1],"split_conditions":[1.9551532E3,6.5770306E2,6.764417E2,2E0,-9.659258E-1,1.0033333E1,1.0675647E3,5.7799945E2,1.2775919E-1,2.0487597E1,1.16866665E1,8.501028E1,3.554E1,7.59E0,1E0,2.0983898E1,2.100661E1,5.133333E0,2.5540337E1,-6.349604E-2,8.13655E2,4.183136E2,1.6169064E1,2.7502778E3,1.8461528E-1,2.8999996E0,1.6998796E1,1.2702261E1,8.1168085E2,-7.2300285E-3,3.003621E3,1.5787778E1,2.2980953E1,1.8219445E3,-2.5881904E-1,4.0535383E-2,2.7461383E2,-3.6140073E-2,2.1692438E1,3.1866657E1,-1.48222875E-2,4.121129E0,3.516209E1,1.1584196E3,5.362023E2,4.821582E2,2.32465E3,-2.1147246E-2,2.3820728E3,6E0,2.412151E1,6.902381E2,2.3100893E1,5.384714E2,3.3456582E3,1E0,3.020168E3,9.633333E0,2.64488E0,-4.8568947E-3,1.6008078E1,2.1738655E1,4.99E0,1.7690722E1,3.1533411E-3,-5.458794E-2,-1.3404156E-2,-7.071676E-2,-3.9998937E-2,-4.455576E-2,-1.43534215E-2,3.344538E2,3.8076954E0,3.8552527E2,4.5837988E2,2.5110448E2,6.4411573E0,3.130447E3,1.0339235E3,2.3070028E1,3.212521E2,3.306269E2,1.8226667E1,2.240947E3,-1.1479224E-2,3.4619048E3,2.3216248E1,3.131224E1,5.408535E2,5E-1,2.155279E1,1.6033894E1,4.5386163E2,3.022978E2,2.8525E3,2.4058823E3,-1.2239968E-2,3.9892857E1,9.033334E0,3.4449467E1,4.0966665E3,2.2509805E3,2.9980393E3,1.6731023E3,1.593881E1,5.5803333E1,5E-1,1.2669908E-2,1.203E1,7.806413E-3,1.6290213E-3,-7.166229E-3,-9.908618E-4,6.1767423E-3,-1.4018413E-2,-2.427075E-2,-3.955321E-3,5.457336E-3,-1.3867139E-2,-2.942834E-2,-6.6617304E-3,-1.9868549E-4,-6.710596E-3,2.6079891E-3,-1.1017115E-3,1.3410699E-3,-2.0193283E-2,5.1728366E-3,-2.5644496E-3,6.960241E-4,4.9591307E-3,1.6279628E-3,-2.7469618E-2,1.4596572E-3,-4.25209E-3,-2.4413401E-2,-4.170954E-3,-7.4232374E-3,-2.0378424E-2,-3.0329486E-3,-1.4074053E-2,1.1457547E-4,7.966345E-3,-0E0,7.05876E-3,9.708522E-3,1.3384006E-2,1.918E-4,-1.1255736E-2,1.8283391E-3,3.6565613E-3,6.015101E-3,-1.0776024E-3,-1.2967631E-2,2.8444615E-3,4.274831E-3,9.367736E-3,-1.0698976E-3,4.9112574E-3,-7.549861E-3,-2.0735757E-3,-1.8754095E-2,-3.335697E-3,-1.6354843E-3,2.3472218E-3,8.724624E-3,3.15422E-3,6.1635156E-3,2.3221087E-3,2.2279727E-3,5.3236494E-3,-5.3957826E-4,4.299644E-3,3.0781545E-3,5.575148E-3,-2.0347754E-3,4.443232E-3,6.430434E-3,5.5245537E-4,3.4205846E-3,8.196949E-3,1.503031E-3,7.832558E-3,-2.678928E-3,4.911614E-3,9.6492795E-3,2.72386E-3],"split_indices":[33,32,13,29,8,1,13,19,23,3,1,17,19,2,12,3,24,1,21,0,17,13,26,33,23,2,24,26,13,0,33,20,18,34,8,23,15,0,3,21,0,30,24,18,13,15,34,0,32,11,17,20,3,19,32,8,33,1,30,0,18,3,1,24,0,0,0,0,0,0,0,32,30,17,33,15,26,32,19,17,19,20,1,33,0,33,19,24,13,8,3,18,13,13,33,32,0,21,1,21,32,33,32,17,18,17,8,0,1,0,0,0,0,0,0,0,0,0,0,0,0,0,0,0,0,0,0,0,0,0,0,0,0,0,0,0,0,0,0,0,0,0,0,0,0,0,0,0,0,0,0,0,0,0,0,0,0,0,0,0,0,0,0,0,0,0,0,0,0,0,0,0,0,0,0,0,0,0,0,0,0,0,0,0,0,0,0],"split_type":[0,0,0,0,0,0,0,0,0,0,0,0,0,0,0,0,0,0,0,0,0,0,0,0,0,0,0,0,0,0,0,0,0,0,0,0,0,0,0,0,0,0,0,0,0,0,0,0,0,0,0,0,0,0,0,0,0,0,0,0,0,0,0,0,0,0,0,0,0,0,0,0,0,0,0,0,0,0,0,0,0,0,0,0,0,0,0,0,0,0,0,0,0,0,0,0,0,0,0,0,0,0,0,0,0,0,0,0,0,0,0,0,0,0,0,0,0,0,0,0,0,0,0,0,0,0,0,0,0,0,0,0,0,0,0,0,0,0,0,0,0,0,0,0,0,0,0,0,0,0,0,0,0,0,0,0,0,0,0,0,0,0,0,0,0,0,0,0,0,0,0,0,0,0,0,0,0,0,0,0,0,0,0,0,0,0,0],"sum_hessian":[7.093E3,2.977E3,4.116E3,6.27E2,2.35E3,2.303E3,1.813E3,5.05E2,1.22E2,7.5E1,2.275E3,1.53E3,7.73E2,1.034E3,7.79E2,4.43E2,6.2E1,6.1E1,6.1E1,1.7E1,5.8E1,1.372E3,9.03E2,1.98E2,1.332E3,1.81E2,5.92E2,3.07E2,7.27E2,1.1E1,7.68E2,9.7E1,3.46E2,3.8E1,2.4E1,3.4E1,2.7E1,1.7E1,4.4E1,5E1,8E0,6.23E2,7.49E2,7.22E2,1.81E2,3.1E1,1.67E2,1.4E1,1.318E3,1.1E2,7.1E1,9.9E1,4.93E2,9.9E1,2.08E2,3.66E2,3.61E2,2.05E2,5.63E2,1E1,8.7E1,1.71E2,1.75E2,3E1,8E0,1.6E1,8E0,2.2E1,1.2E1,1.5E1,1.2E1,2E1,2.4E1,2.4E1,2.6E1,2.2E1,6.01E2,7.01E2,4.8E1,7.03E2,1.9E1,7.5E1,1.06E2,2.3E1,8E0,6.4E1,1.03E2,6.98E2,6.2E2,8.9E1,2.1E1,3.7E1,3.4E1,8.2E1,1.7E1,4.85E2,8E0,4.8E1,5.1E1,1.24E2,8.4E1,3.44E2,2.2E1,1.48E2,2.13E2,1.72E2,3.3E1,1.31E2,4.32E2,3.6E1,5.1E1,7.5E1,9.6E1,8E0,1.67E2,2.2E1,8E0,8E0,1.2E1,1.2E1,1.2E1,1.2E1,1.2E1,1.2E1,1.4E1,9E0,1.3E1,1E1,5.91E2,5.25E2,1.76E2,3.6E1,1.2E1,8.3E1,6.2E2,9E0,1E1,4.1E1,3.4E1,9.3E1,1.3E1,1.1E1,1.2E1,1.4E1,5E1,5.4E1,4.9E1,6.88E2,1E1,1.78E2,4.42E2,1.3E1,7.6E1,1.3E1,8E0,1.7E1,2E1,2.6E1,8E0,4.4E1,3.8E1,9E0,8E0,4.57E2,2.8E1,3.8E1,1E1,2E1,3.1E1,5.1E1,7.3E1,5.2E1,3.2E1,2.8E1,3.16E2,8E0,1.4E1,1.33E2,1.5E1,1.1E1,2.02E2,1.2E1,1.6E2,1.2E1,2.1E1,4.24E2,8E0],"tree_param":{"num_deleted":"0","num_feature":"38","num_nodes":"187","size_leaf_vector":"1"}},{"base_weights":[-8.616748E-3,-3.4558347E-1,2.3029372E-1,-1.6850114E0,-2.74389E-1,5.1308252E-2,4.6936423E-1,-5.3932023E-1,-2.50042E0,-6.188909E-1,-1.5758657E-1,1.3605851E-1,-1.1534285E-1,3.647528E-1,6.0437214E-1,-4.8296224E-2,-1.5454308E0,-1.3617579E0,-3.5340424E0,-2.3893207E-2,-8.522404E-1,-1.0728778E0,-1.2855692E-1,4.7788167E-1,8.7266885E-2,1.2010822E-1,-1.5984127E-1,3.8376E-1,-2.7750345E-2,6.218072E-1,-1.4724642E-1,2.1072327E-1,-9.0858145E-3,-4.3546785E-2,-8.787388E-4,-2.3316374E0,-1.8587257E-1,-1.881113E-2,-6.0839236E-2,5.6671284E-2,-4.279251E-1,-7.386029E-1,-2.2647443E0,-2.363903E0,2.739763E-1,-7.5044386E-2,-4.008946E-1,2.2508517E-1,7.587715E-1,-9.391848E-1,1.0292589E-1,3.0716455E-1,-1.07099E-1,-7.9247457E-1,-1.3412619E-1,3.210285E-1,4.323181E-1,1.1020263E-1,-8.896732E-3,4.4376618E-1,6.6826695E-1,-5.374337E-3,1.532587E-3,4.9672067E-1,-3.2979015E-3,-4.3123055E-2,-1.7840125E-2,2.3991156E-3,-8.610094E-3,-9.594918E-3,5.61264E-1,-7.2959885E-2,-1.4883262E-2,8.656354E-3,-7.98744E-1,-8.394802E-3,-5.080762E-2,-3.4693725E0,-2.1137113E-3,6.105056E-1,-9.266503E-3,-1.6986212E-1,6.2387943E-2,-3.667116E-1,-1.895217E-2,3.622073E-1,-1.5482853E-2,6.1566895E-1,1.3228986E-2,-1.4884889E-3,-2.5366805E-2,1.1467012E-2,2.0937262E-1,4.937598E-1,4.722802E-2,-9.739694E-3,1.2352599E-2,-2.0153023E-2,8.669589E-4,-7.452409E-2,-3.2320175E-1,3.3759135E-1,-2.5876595E-2,3.693015E-1,4.7177508E-1,-6.562417E-4,1.9155063E-1,5.489213E-1,3.0026534E-1,1.2925911E-2,6.308876E-1,1.0086407E-2,3.998242E-3,5.171504E-3,-1.7837633E-3,1.0683606E-2,3.9927387E-3,-7.624438E-3,4.0501193E-3,3.0407077E-3,-5.638433E-3,-1.5921988E-2,-7.533515E-3,-3.0826023E-2,-6.518964E-2,1.11871E-2,5.08805E-3,-4.216076E-2,-2.1519768E-3,-8.51897E-3,1.4191536E-3,-4.424964E-3,-1.0924934E-2,-2.833485E-4,7.0433416E-3,1.0203315E-2,3.3545333E-3,7.930019E-3,-7.661274E-6,3.228571E-3,-1.8177344E-3,8.8893855E-3,4.9496456E-3,2.7824317E-3,-3.1041733E-3,-4.307088E-3,1.8562224E-3,-1.5837558E-3,2.7435154E-3,-7.448699E-3,-3.0447769E-3,5.275986E-3,1.0090711E-3,4.867182E-3,-7.3340232E-3,1.008664E-2,5.173539E-3,7.2216736E-3,3.0980073E-3,1.002676E-3,4.16665E-3,9.374641E-3,4.4568577E-3,5.0936993E-3,-6.958766E-5,9.597857E-3,3.7402182E-3],"categories":[],"categories_nodes":[],"categories_segments":[],"categories_sizes":[],"default_left":[0,0,0,0,0,0,0,0,0,0,0,0,0,0,0,0,0,0,0,0,0,0,0,0,0,0,0,0,0,0,0,0,0,0,0,0,0,0,0,0,0,0,0,0,0,0,0,0,0,0,0,0,0,0,0,0,0,0,0,0,0,0,0,0,0,0,0,0,0,0,0,0,0,0,0,0,0,0,0,0,0,0,0,0,0,0,0,0,0,0,0,0,0,0,0,0,0,0,0,0,0,0,0,0,0,0,0,0,0,0,0,0,0,0,0,0,0,0,0,0,0,0,0,0,0,0,0,0,0,0,0,0,0,0,0,0,0,0,0,0,0,0,0,0,0,0,0,0,0,0,0,0,0,0,0,0,0,0,0,0,0,0,0,0,0,0,0],"id":3,"left_children":[1,3,5,7,9,11,13,15,17,19,21,23,25,27,29,31,33,35,37,39,41,43,45,47,49,51,53,55,57,59,61,63,-1,-1,-1,65,67,-1,-1,69,71,73,75,77,79,81,83,85,87,89,91,93,95,97,99,101,103,105,-1,107,109,-1,-1,111,-1,-1,-1,-1,-1,113,115,117,-1,119,121,-1,-1,123,-1,125,-1,127,129,131,-1,133,-1,135,-1,-1,-1,137,139,141,143,-1,145,-1,-1,147,149,151,153,155,157,-1,159,161,163,-1,165,-1,-1,-1,-1,-1,-1,-1,-1,-1,-1,-1,-1,-1,-1,-1,-1,-1,-1,-1,-1,-1,-1,-1,-1,-1,-1,-1,-1,-1,-1,-1,-1,-1,-1,-1,-1,-1,-1,-1,-1,-1,-1,-1,-1,-1,-1,-1,-1,-1,-1,-1,-1,-1,-1,-1,-1],"loss_changes":[5.6987164E2,2.7902463E2,1.7713281E2,1.3534439E2,1.1204486E2,3.351484E1,2.454419E1,3.1225037E1,9.1829956E1,9.78707E1,5.5079075E1,2.6099743E1,8.418194E0,7.543503E0,1.0313232E1,6.7376485E0,4.138616E1,4.8920616E1,4.2432312E1,6.6169434E0,7.803693E1,1.1231166E2,2.9406643E1,1.3497551E1,2.2252117E1,5.5107913E0,1.0677538E1,2.5924225E0,3.8940482E0,5.5902405E0,1.0811E0,4.1402965E0,0E0,0E0,0E0,8.207687E0,3.1326969E0,0E0,0E0,5.7091007E0,6.533457E0,2.1294617E1,6.662268E1,7.9363235E1,1.0521349E1,2.21148E1,8.786335E0,1.884591E1,4.9082565E-1,1.2655968E1,1.3211927E1,3.337934E0,3.8865104E0,1.2356966E1,7.239663E0,2.493431E0,9.2954254E-1,5.283075E-1,0E0,2.0599403E0,3.1661682E0,0E0,0E0,3.8424206E-1,0E0,0E0,0E0,0E0,0E0,5.893171E0,4.4299936E-1,3.67505E0,0E0,2.866047E0,3.2910583E1,0E0,0E0,1.0310883E1,0E0,3.4647942E-1,0E0,6.89543E1,1.4120386E1,7.8561783E0,0E0,4.0211515E0,0E0,8.7075424E-1,0E0,0E0,0E0,4.599127E0,1.2735691E0,2.1640301E-1,1.1845263E0,0E0,1.7090507E0,0E0,0E0,3.9992087E0,2.9750938E0,1.4705505E0,3.676501E0,1.0695229E0,5.7501984E-1,0E0,2.2029227E-1,1.3123932E0,9.08998E-1,0E0,1.3514252E0,0E0,0E0,0E0,0E0,0E0,0E0,0E0,0E0,0E0,0E0,0E0,0E0,0E0,0E0,0E0,0E0,0E0,0E0,0E0,0E0,0E0,0E0,0E0,0E0,0E0,0E0,0E0,0E0,0E0,0E0,0E0,0E0,0E0,0E0,0E0,0E0,0E0,0E0,0E0,0E0,0E0,0E0,0E0,0E0,0E0,0E0,0E0,0E0,0E0,0E0,0E0,0E0,0E0,0E0,0E0,0E0],"parents":[2147483647,0,0,1,1,2,2,3,3,4,4,5,5,6,6,7,7,8,8,9,9,10,10,11,11,12,12,13,13,14,14,15,15,16,16,17,17,18,18,19,19,20,20,21,21,22,22,23,23,24,24,25,25,26,26,27,27,28,28,29,29,30,30,31,31,35,35,36,36,39,39,40,40,41,41,42,42,43,43,44,44,45,45,46,46,47,47,48,48,49,49,50,50,51,51,52,52,53,53,54,54,55,55,56,56,57,57,59,59,60,60,63,63,69,69,70,70,71,71,73,73,74,74,77,77,79,79,81,81,82,82,83,83,85,85,87,87,91,91,92,92,93,93,94,94,96,96,99,99,100,100,101,101,102,102,103,103,104,104,106,106,107,107,108,108,110,110],"right_children":[2,4,6,8,10,12,14,16,18,20,22,24,26,28,30,32,34,36,38,40,42,44,46,48,50,52,54,56,58,60,62,64,-1,-1,-1,66,68,-1,-1,70,72,74,76,78,80,82,84,86,88,90,92,94,96,98,100,102,104,106,-1,108,110,-1,-1,112,-1,-1,-1,-1,-1,114,116,118,-1,120,122,-1,-1,124,-1,126,-1,128,130,132,-1,134,-1,136,-1,-1,-1,138,140,142,144,-1,146,-1,-1,148,150,152,154,156,158,-1,160,162,164,-1,166,-1,-1,-1,-1,-1,-1,-1,-1,-1,-1,-1,-1,-1,-1,-1,-1,-1,-1,-1,-1,-1,-1,-1,-1,-1,-1,-1,-1,-1,-1,-1,-1,-1,-1,-1,-1,-1,-1,-1,-1,-1,-1,-1,-1,-1,-1,-1,-1,-1,-1,-1,-1,-1,-1,-1,-1],"split_conditions":[1.9470588E3,1.3014712E0,6.8700476E2,5.6145657E1,3.022978E2,1.0033333E1,1.0675647E3,1.2246469E-16,8.660254E-1,1.6828852E1,2.94E0,8.501028E1,2.304958E1,1.2433333E1,1.3E1,1.2775919E-1,2.4073223E1,1.169961E1,1.3473259E-2,1.6233334E1,2.4962662E1,3.2238096E3,1.4283333E1,2.5450981E3,9.307507E1,1.36E1,2.369691E1,2.9529248E3,2.2567131E1,2.8179272E3,2.0578223E2,3.1391736E2,-9.0858145E-3,-4.3546785E-2,-8.787388E-4,2.7461383E2,1.06E1,-1.881113E-2,-6.0839236E-2,5.428571E2,1.553E1,-2.5396636E-1,8.660254E-1,9.34486E1,1.071667E3,2.1008403E3,1.0656757E3,5.041338E2,2.3216248E1,9.617033E2,2.4156863E3,2.8569609E1,-8.660254E-1,2.7461383E2,1.36E1,1.8783513E3,8.3529724E2,3E0,-8.896732E-3,2.1050833E1,2.4715333E0,-5.374337E-3,1.532587E-3,1.9134819E1,-3.2979015E-3,-4.3123055E-2,-1.7840125E-2,2.3991156E-3,-8.610094E-3,9.440001E0,7.5896746E-1,1.225E1,-1.4883262E-2,2.6233072E1,1.4716945E0,-8.394802E-3,-5.080762E-2,3.2284229E0,-2.1137113E-3,2.8868332E0,-9.266503E-3,5.0333333E0,2.8420436E0,1.785E1,-1.895217E-2,6.25E0,-1.5482853E-2,1.4137103E3,1.3228986E-2,-1.4884889E-3,-2.5366805E-2,1.2918767E3,2.213107E1,1.16866665E1,5E-1,-9.739694E-3,2.613441E-2,-2.0153023E-2,8.669589E-4,2.3036414E3,2.7146628E0,4.807365E0,9.344591E2,2.681553E1,2.1565315E1,-6.562417E-4,3.3315983E1,3.6334538E1,9.659258E-1,1.2925911E-2,1.134E1,1.0086407E-2,3.998242E-3,5.171504E-3,-1.7837633E-3,1.0683606E-2,3.9927387E-3,-7.624438E-3,4.0501193E-3,3.0407077E-3,-5.638433E-3,-1.5921988E-2,-7.533515E-3,-3.0826023E-2,-6.518964E-2,1.11871E-2,5.08805E-3,-4.216076E-2,-2.1519768E-3,-8.51897E-3,1.4191536E-3,-4.424964E-3,-1.0924934E-2,-2.833485E-4,7.0433416E-3,1.0203315E-2,3.3545333E-3,7.930019E-3,-7.661274E-6,3.228571E-3,-1.8177344E-3,8.8893855E-3,4.9496456E-3,2.7824317E-3,-3.1041733E-3,-4.307088E-3,1.8562224E-3,-1.5837558E-3,2.7435154E-3,-7.448699E-3,-3.0447769E-3,5.275986E-3,1.0090711E-3,4.867182E-3,-7.3340232E-3,1.008664E-2,5.173539E-3,7.2216736E-3,3.0980073E-3,1.002676E-3,4.16665E-3,9.374641E-3,4.4568577E-3,5.0936993E-3,-6.958766E-5,9.597857E-3,3.7402182E-3],"split_indices":[33,30,13,17,13,1,13,7,10,18,1,17,18,1,0,23,22,24,23,17,24,32,1,34,13,0,17,33,24,33,17,15,0,0,0,15,0,0,0,32,1,23,10,14,19,32,18,15,19,14,32,21,10,15,0,20,17,11,0,3,30,0,0,14,0,0,0,0,0,1,5,0,0,22,23,0,0,30,0,30,0,1,30,1,0,2,0,14,0,0,0,32,3,1,9,0,23,0,0,32,23,30,17,21,3,0,21,22,7,0,0,0,0,0,0,0,0,0,0,0,0,0,0,0,0,0,0,0,0,0,0,0,0,0,0,0,0,0,0,0,0,0,0,0,0,0,0,0,0,0,0,0,0,0,0,0,0,0,0,0,0,0,0,0,0,0,0],"split_type":[0,0,0,0,0,0,0,0,0,0,0,0,0,0,0,0,0,0,0,0,0,0,0,0,0,0,0,0,0,0,0,0,0,0,0,0,0,0,0,0,0,0,0,0,0,0,0,0,0,0,0,0,0,0,0,0,0,0,0,0,0,0,0,0,0,0,0,0,0,0,0,0,0,0,0,0,0,0,0,0,0,0,0,0,0,0,0,0,0,0,0,0,0,0,0,0,0,0,0,0,0,0,0,0,0,0,0,0,0,0,0,0,0,0,0,0,0,0,0,0,0,0,0,0,0,0,0,0,0,0,0,0,0,0,0,0,0,0,0,0,0,0,0,0,0,0,0,0,0,0,0,0,0,0,0,0,0,0,0,0,0,0,0,0,0,0,0],"sum_hessian":[7.075E3,2.935E3,4.14E3,1.46E2,2.789E3,2.369E3,1.771E3,6.2E1,8.4E1,7.04E2,2.085E3,1.571E3,7.98E2,1.002E3,7.69E2,4.3E1,1.9E1,4.2E1,4.2E1,1.99E2,5.05E2,6.2E1,2.023E3,1.94E2,1.377E3,1.26E2,6.72E2,9.56E2,4.6E1,7.52E2,1.7E1,3E1,1.3E1,9E0,1E1,2.2E1,2E1,9E0,3.3E1,1.67E2,3.2E1,4.7E2,3.5E1,3.1E1,3.1E1,1.693E3,3.3E2,1.04E2,9E1,1.9E1,1.358E3,6.9E1,5.7E1,2.4E1,6.48E2,4.24E2,5.32E2,3.8E1,8E0,1.6E2,5.92E2,9E0,8E0,1.8E1,1.2E1,1.3E1,9E0,1.1E1,9E0,1.49E2,1.8E1,2.1E1,1.1E1,3.5E1,4.35E2,1.5E1,2E1,2E1,1.1E1,2.3E1,8E0,1.002E3,6.91E2,3.2E2,1E1,9.5E1,9E0,4.7E1,4.3E1,1E1,9E0,7.32E2,6.26E2,3.9E1,3E1,9E0,4.8E1,1.4E1,1E1,4.95E2,1.53E2,4.05E2,1.9E1,2.13E2,3.19E2,1.3E1,2.5E1,8.9E1,7.1E1,8.9E1,5.03E2,8E0,1E1,3.4E1,1.15E2,1E1,8E0,9E0,1.2E1,2.4E1,1.1E1,2.28E2,2.07E2,1E1,1E1,1.3E1,1E1,8E0,9.94E2,3.2E1,6.59E2,2.7E2,5E1,2.1E1,7.4E1,3.9E1,8E0,1.5E1,7.17E2,6.16E2,1E1,2.1E1,1.8E1,2E1,1E1,1.2E1,3.6E1,4.43E2,5.2E1,6E1,9.3E1,3.84E2,2.1E1,1.1E1,8E0,1.2E1,2.01E2,3.06E2,1.3E1,1.2E1,1.3E1,6.6E1,2.3E1,6.3E1,8E0,4.9E2,1.3E1],"tree_param":{"num_deleted":"0","num_feature":"38","num_nodes":"167","size_leaf_vector":"1"}},{"base_weights":[3.8415396E-3,-3.7744388E-1,1.9365452E-1,-1.608242E0,-3.0347204E-1,4.878155E-3,4.163864E-1,-5.6533605E-1,-2.805194E0,-6.2364995E-1,-1.8401489E-1,2.9240835E-1,-4.411115E-2,3.15807E-1,5.837749E-1,5.202022E-2,-1.7929205E0,-5.9025753E-2,-1.5872388E0,-2.7717248E-1,-1.2056208E0,-1.267339E0,-1.4967926E-1,-6.038356E-2,5.003761E-1,-1.5581055E-1,8.156042E-2,3.3325133E-1,-7.4109554E-2,6.032171E-1,-2.9391873E-1,-8.480084E-3,2.5072777E-1,-4.547652E-2,-2.9601865E-3,-5.4114377E-3,-2.460712E0,-6.431202E-1,-7.955397E-2,-1.0058231E0,-2.212634E0,-2.9075665E0,5.7539493E-3,-7.730403E-2,-4.0153515E-1,1.0982555E-1,-2.0016124E-2,-1.2455336E-1,6.1402977E-1,-4.8282316E-1,-1.1462311E-1,1.4818355E-2,1.589164E-1,2.6926067E-1,4.0552503E-1,7.463326E-2,-8.803501E-3,4.0096924E-1,6.4863944E-1,-8.521955E-3,-0E0,8.308785E-3,2.3109928E-2,-4.7470573E-2,-2.1037884E-2,-3.6228645E-1,-1.5202563E0,1.3187185E-1,-2.8567874E-1,-1.2958814E0,-5.8603114E-1,-5.0673988E-2,-9.585437E-1,-6.3868016E-2,-6.9281217E-3,1.2534675E-1,-3.24409E-3,-1.3369675E-1,2.4948038E-1,-2.939027E-1,-6.279251E-1,3.2970393E-1,-1.573924E-1,-1.3267348E-2,2.4303555E-1,4.3201727E-1,1.1841554E-2,-3.4120163E-1,-2.30251E-2,-9.110987E-2,-3.0178115E-1,-1.0677778E-2,2.7856948E-2,1.6448686E-1,-1.9236954E-3,1.3459562E-1,2.9268405E-1,3.2437783E-1,4.5655963E-1,-3.3080097E-2,7.62866E-3,5.1392215E-1,1.4903629E-1,1.18889725E-2,6.027598E-1,-3.4769613E-3,5.2166036E-3,-7.2598606E-3,4.708075E-3,-3.047578E-2,-1.018362E-2,-2.1144598E-4,4.9025533E-3,2.2031432E-3,-7.196333E-3,-1.564332E-2,-3.7812527E-2,-1.0229432E-2,2.2354138E-3,-2.2828028E-2,-1.4098726E-3,5.2189035E-3,-8.2320836E-4,-1.5668235E-3,-2.0788124E-2,4.8285634E-3,-2.8091716E-3,-6.2517123E-3,-1.5454207E-3,-5.6991926E-3,-1.1748626E-2,-3.6288213E-6,6.8262895E-3,-1.3177783E-2,-1.1680583E-4,5.42226E-3,-0E0,2.68673E-3,7.320047E-3,-7.912977E-3,-1.4320331E-3,8.559011E-3,-1.5043293E-3,-3.4248892E-3,-1.4427209E-2,6.6535914E-4,-4.0662684E-3,7.4261865E-3,2.349713E-3,1.468955E-4,4.246104E-3,3.8272217E-3,5.445193E-3,5.335063E-3,2.9182195E-4,5.033134E-3,7.4115484E-3,1.7786566E-3,-4.24925E-3,6.1561475E-3,1.0828715E-2,-1.0798837E-3,4.392587E-3,7.543965E-3,9.675156E-3],"categories":[],"categories_nodes":[],"categories_segments":[],"categories_sizes":[],"default_left":[0,0,0,0,0,0,0,0,0,0,0,0,0,0,0,0,0,0,0,0,0,0,0,0,0,0,0,0,0,0,0,0,0,0,0,0,0,0,0,0,0,0,0,0,0,0,0,0,0,0,0,0,0,0,0,0,0,0,0,0,0,0,0,0,0,0,0,0,0,0,0,0,0,0,0,0,0,0,0,0,0,0,0,0,0,0,0,0,0,0,0,0,0,0,0,0,0,0,0,0,0,0,0,0,0,0,0,0,0,0,0,0,0,0,0,0,0,0,0,0,0,0,0,0,0,0,0,0,0,0,0,0,0,0,0,0,0,0,0,0,0,0,0,0,0,0,0,0,0,0,0,0,0,0,0,0,0,0,0,0,0,0,0,0,0],"id":4,"left_children":[1,3,5,7,9,11,13,15,17,19,21,23,25,27,29,31,33,-1,35,37,39,41,43,45,47,49,51,53,55,57,59,-1,61,-1,-1,-1,63,65,67,69,71,73,75,77,79,81,-1,83,85,87,89,91,93,95,97,99,-1,101,103,-1,-1,-1,105,-1,-1,107,109,111,113,115,117,-1,119,-1,-1,121,-1,123,125,127,129,131,133,-1,135,137,-1,139,-1,141,143,-1,145,147,-1,149,151,153,155,157,-1,159,161,-1,163,-1,-1,-1,-1,-1,-1,-1,-1,-1,-1,-1,-1,-1,-1,-1,-1,-1,-1,-1,-1,-1,-1,-1,-1,-1,-1,-1,-1,-1,-1,-1,-1,-1,-1,-1,-1,-1,-1,-1,-1,-1,-1,-1,-1,-1,-1,-1,-1,-1,-1,-1,-1,-1,-1,-1,-1,-1,-1,-1,-1],"loss_changes":[5.158281E2,2.1459625E2,2.0004515E2,1.63832E2,8.5264786E1,3.6358692E1,3.6327454E1,5.6271812E1,7.3249084E1,1.21605255E2,6.021428E1,2.7670582E1,3.0966003E1,9.373901E0,1.4288147E1,6.455518E0,4.7621643E1,0E0,3.32584E1,2.7518984E1,4.1102936E1,1.04310776E2,2.8765957E1,3.0918818E1,1.7005459E1,1.5569515E1,5.3364434E0,5.7936096E0,4.6912503E0,6.7743225E0,1.5390686E0,0E0,2.6659229E0,0E0,0E0,0E0,5.558983E0,3.1779247E1,1.101308E1,2.179921E1,4.607025E1,6.7980896E1,8.309768E-1,2.2766823E1,8.172268E0,7.5020742E0,0E0,1.1010289E1,5.674759E0,1.8211376E1,4.4870567E0,5.2712636E0,8.090973E-1,2.0969048E0,2.1848373E0,2.3120794E0,0E0,4.1155434E0,3.2922974E0,0E0,0E0,0E0,2.2091281E0,0E0,0E0,8.832294E0,1.0930214E1,3.591213E0,1.0888791E1,2.955893E1,6.0043488E0,0E0,9.224003E0,0E0,0E0,8.980671E-1,0E0,3.813973E1,5.8726273E0,5.5654373E0,3.6540222E0,2.9332576E0,6.134772E0,0E0,7.4296236E-1,1.2314911E0,0E0,5.195018E0,0E0,5.6850567E0,5.051524E0,0E0,2.720799E0,1.0179586E0,0E0,1.9633046E0,1.3416557E0,2.2668228E0,1.2987671E0,1.5871503E0,0E0,1.5882511E0,1.6429025E0,0E0,1.4135895E0,0E0,0E0,0E0,0E0,0E0,0E0,0E0,0E0,0E0,0E0,0E0,0E0,0E0,0E0,0E0,0E0,0E0,0E0,0E0,0E0,0E0,0E0,0E0,0E0,0E0,0E0,0E0,0E0,0E0,0E0,0E0,0E0,0E0,0E0,0E0,0E0,0E0,0E0,0E0,0E0,0E0,0E0,0E0,0E0,0E0,0E0,0E0,0E0,0E0,0E0,0E0,0E0,0E0,0E0,0E0,0E0,0E0,0E0,0E0,0E0],"parents":[2147483647,0,0,1,1,2,2,3,3,4,4,5,5,6,6,7,7,8,8,9,9,10,10,11,11,12,12,13,13,14,14,15,15,16,16,18,18,19,19,20,20,21,21,22,22,23,23,24,24,25,25,26,26,27,27,28,28,29,29,30,30,32,32,36,36,37,37,38,38,39,39,40,40,41,41,42,42,43,43,44,44,45,45,47,47,48,48,49,49,50,50,51,51,52,52,53,53,54,54,55,55,57,57,58,58,62,62,65,65,66,66,67,67,68,68,69,69,70,70,72,72,75,75,77,77,78,78,79,79,80,80,81,81,82,82,84,84,85,85,87,87,89,89,90,90,92,92,93,93,95,95,96,96,97,97,98,98,99,99,101,101,102,102,104,104],"right_children":[2,4,6,8,10,12,14,16,18,20,22,24,26,28,30,32,34,-1,36,38,40,42,44,46,48,50,52,54,56,58,60,-1,62,-1,-1,-1,64,66,68,70,72,74,76,78,80,82,-1,84,86,88,90,92,94,96,98,100,-1,102,104,-1,-1,-1,106,-1,-1,108,110,112,114,116,118,-1,120,-1,-1,122,-1,124,126,128,130,132,134,-1,136,138,-1,140,-1,142,144,-1,146,148,-1,150,152,154,156,158,-1,160,162,-1,164,-1,-1,-1,-1,-1,-1,-1,-1,-1,-1,-1,-1,-1,-1,-1,-1,-1,-1,-1,-1,-1,-1,-1,-1,-1,-1,-1,-1,-1,-1,-1,-1,-1,-1,-1,-1,-1,-1,-1,-1,-1,-1,-1,-1,-1,-1,-1,-1,-1,-1,-1,-1,-1,-1,-1,-1,-1,-1,-1,-1],"split_conditions":[3.6468668E2,1.3014712E0,2.6442578E3,2E0,1.3529412E3,8.501028E1,1.0675647E3,0E0,6.67E0,7.7305E1,-9.659258E-1,7.4735876E2,2.092157E3,1.2233334E1,1.5E1,-2.8011205E0,2.4073223E1,-5.9025753E-2,1E0,2.5246006E1,2.4962662E1,4.44E0,1.4283333E1,6.789972E2,2.88E0,3.0785794E2,2.3688203E3,7.864871E2,8.660254E-1,6.2085376E2,1.2429692E2,-8.480084E-3,2E0,-4.547652E-2,-2.9601865E-3,-5.4114377E-3,1.7399748E2,5.5684723E1,1.45E1,7.466667E2,3.4315853E1,2.5E3,2E1,3.5627778E3,1.5230986E1,-5E-1,-2.0016124E-2,-5E-1,2.6966387E3,6.8999274E2,1.3587217E1,-9.659258E-1,1.3033334E1,1.5813551E0,7.3240924E2,6E0,-8.803501E-3,4.0796387E1,2.64488E0,-8.521955E-3,-0E0,8.308785E-3,2.0095568E1,-4.7470573E-2,-2.1037884E-2,2.5145939E1,4.5658945E2,-1.8369701E-16,1.5958823E1,1.2260808E1,4.6957507E2,-5.0673988E-2,2.3683754E1,-6.3868016E-2,-6.9281217E-3,9.440001E0,-3.24409E-3,3.39585E1,3.7193203E1,-1.8369701E-16,2.3078772E1,2.5993826E1,1.5812325E1,-1.3267348E-2,1.1914846E0,1.4228749E0,1.1841554E-2,1.7101389E1,-2.30251E-2,3.2284229E0,1.136056E3,-1.0677778E-2,1.322E1,2.7397444E1,-1.9236954E-3,8.660254E-1,2.9980393E3,1.5053792E3,6.2E0,2.3011816E1,7.62866E-3,5.392997E3,3.5433575E1,1.18889725E-2,5E-1,-3.4769613E-3,5.2166036E-3,-7.2598606E-3,4.708075E-3,-3.047578E-2,-1.018362E-2,-2.1144598E-4,4.9025533E-3,2.2031432E-3,-7.196333E-3,-1.564332E-2,-3.7812527E-2,-1.0229432E-2,2.2354138E-3,-2.2828028E-2,-1.4098726E-3,5.2189035E-3,-8.2320836E-4,-1.5668235E-3,-2.0788124E-2,4.8285634E-3,-2.8091716E-3,-6.2517123E-3,-1.5454207E-3,-5.6991926E-3,-1.1748626E-2,-3.6288213E-6,6.8262895E-3,-1.3177783E-2,-1.1680583E-4,5.42226E-3,-0E0,2.68673E-3,7.320047E-3,-7.912977E-3,-1.4320331E-3,8.559011E-3,-1.5043293E-3,-3.4248892E-3,-1.4427209E-2,6.6535914E-4,-4.0662684E-3,7.4261865E-3,2.349713E-3,1.468955E-4,4.246104E-3,3.8272217E-3,5.445193E-3,5.335063E-3,2.9182195E-4,5.033134E-3,7.4115484E-3,1.7786566E-3,-4.24925E-3,6.1561475E-3,1.0828715E-2,-1.0798837E-3,4.392587E-3,7.543965E-3,9.675156E-3],"split_indices":[14,30,32,29,32,17,13,7,0,18,8,14,32,1,0,32,22,0,28,22,24,0,1,20,2,13,32,13,7,14,17,0,11,0,0,0,15,20,0,32,21,32,29,32,26,7,0,7,34,18,26,8,1,5,14,29,0,21,30,0,0,0,26,0,0,18,20,8,14,26,15,0,15,0,0,1,0,24,22,10,15,21,20,0,23,5,0,24,0,30,20,0,0,22,0,8,32,17,2,20,0,32,24,0,8,0,0,0,0,0,0,0,0,0,0,0,0,0,0,0,0,0,0,0,0,0,0,0,0,0,0,0,0,0,0,0,0,0,0,0,0,0,0,0,0,0,0,0,0,0,0,0,0,0,0,0,0,0,0,0,0,0,0,0,0],"split_type":[0,0,0,0,0,0,0,0,0,0,0,0,0,0,0,0,0,0,0,0,0,0,0,0,0,0,0,0,0,0,0,0,0,0,0,0,0,0,0,0,0,0,0,0,0,0,0,0,0,0,0,0,0,0,0,0,0,0,0,0,0,0,0,0,0,0,0,0,0,0,0,0,0,0,0,0,0,0,0,0,0,0,0,0,0,0,0,0,0,0,0,0,0,0,0,0,0,0,0,0,0,0,0,0,0,0,0,0,0,0,0,0,0,0,0,0,0,0,0,0,0,0,0,0,0,0,0,0,0,0,0,0,0,0,0,0,0,0,0,0,0,0,0,0,0,0,0,0,0,0,0,0,0,0,0,0,0,0,0,0,0,0,0,0,0],"sum_hessian":[7.124E3,2.367E3,4.757E3,1.32E2,2.235E3,2.576E3,2.181E3,7.2E1,6E1,6.05E2,1.63E3,3.74E2,2.202E3,1.366E3,8.15E2,4.9E1,2.3E1,2.9E1,3.1E1,3.81E2,2.24E2,4.8E1,1.582E3,1.39E2,2.35E2,1.166E3,1.036E3,1.308E3,5.8E1,7.98E2,1.7E1,1.1E1,3.8E1,1.2E1,1.1E1,1.4E1,1.7E1,1.32E2,2.49E2,1.9E2,3.4E1,2E1,2.8E1,1.231E3,3.51E2,1.24E2,1.5E1,3.6E1,1.99E2,1.28E2,1.038E3,5.58E2,4.78E2,6.99E2,6.09E2,4.6E1,1.2E1,1.5E2,6.48E2,8E0,9E0,1.5E1,2.3E1,8E0,9E0,1.02E2,3E1,1.23E2,1.26E2,1.1E2,8E1,1.6E1,1.8E1,1.2E1,8E0,1.9E1,9E0,1.051E3,1.8E2,2.41E2,1.1E2,6.8E1,5.6E1,1.1E1,2.5E1,1.01E2,9.8E1,1.15E2,1.3E1,9.25E2,1.13E2,8E0,5.5E2,4.7E2,8E0,1.06E2,5.93E2,2.41E2,3.68E2,3.8E1,8E0,1.02E2,4.8E1,1.49E2,4.99E2,1.3E1,1E1,8.7E1,1.5E1,1.7E1,1.3E1,7.1E1,5.2E1,3.9E1,8.7E1,9.4E1,1.6E1,7.1E1,9E0,1E1,8E0,8E0,1.1E1,1.029E3,2.2E1,1.55E2,2.5E1,1.45E2,9.6E1,4.5E1,6.5E1,1.9E1,4.9E1,8E0,4.8E1,1.6E1,9E0,2E1,8.1E1,6.4E1,5.1E1,1.1E1,9.14E2,1.04E2,9E0,5.23E2,2.7E1,8E0,4.62E2,5.9E1,4.7E1,3.93E2,2E2,2.18E2,2.3E1,9.2E1,2.76E2,2.4E1,1.4E1,7.2E1,3E1,1.9E1,2.9E1,1.56E2,3.43E2],"tree_param":{"num_deleted":"0","num_feature":"38","num_nodes":"165","size_leaf_vector":"1"}},{"base_weights":[-4.1766423E-3,-3.0342147E-1,2.5610876E-1,-8.457577E-1,-1.5436807E-1,8.4823E-2,4.6981516E-1,-4.106462E-1,-1.4751208E0,-9.375259E-1,-1.3111779E-1,1.706978E-1,-8.426488E-2,3.5712612E-1,6.0135424E-1,-1.5174754E-1,-9.1049E-1,-1.0640908E0,-2.9124167E0,-2.760915E0,-2.7043697E-1,-4.8219558E-2,-2.770565E-1,4.959937E-1,1.09337986E-1,7.855688E-2,-1.4655727E-1,3.6980733E-1,-2.807164E-1,6.180164E-1,-0E0,1.7614067E-1,-3.22488E-1,-1.8690702E0,-3.1932354E-1,-1.8704134E0,-7.843393E-1,-7.850119E-3,-3.2362623E0,-5.729412E-3,-6.4605385E-2,3.794265E-1,-1.7382822E0,-1.742474E-1,8.157827E-2,-1.3436115E-1,-3.719456E-1,1.686961E-2,5.6987005E-1,-7.570335E-1,1.2694207E-1,3.506564E-1,3.225691E-3,-1.0406507E-1,-5.161415E-1,2.4353208E-1,3.9607704E-1,2.4952015E-3,-9.73287E-3,4.823107E-1,6.6125435E-1,2.4899738E-3,-3.8085245E-3,-5.36766E-3,2.5949654E-1,-1.7825958E-1,-8.282842E-1,-2.9160597E0,-1.0037447E0,4.2051768E-1,-5.5087155E-1,3.4821348E-3,-2.2185721E0,-8.800115E-1,1.3750823E-1,-3.5862987E0,-1.3864832E-2,7.4473605E-3,9.222603E-3,-3.272068E-2,-1.4485575E-2,-3.722775E-2,-1.4023736E-1,-5.3558743E-1,1.01246834E-1,1.2765001E-1,-1.9342494E-1,-3.3410242E-1,-1.0842814E0,-1.6209125E-3,1.9751247E-3,4.7531557E-1,1.26664415E-2,5.659696E-3,-2.6891023E-2,3.2472674E-2,2.1370861E-1,6.341975E-4,4.6508545E-1,-2.9533857E-1,4.3759797E-2,-6.1817193E-1,-8.19876E-2,-1.384544E-3,-6.622135E-1,1.1192745E-2,2.0062996E-1,3.4635943E-1,4.4309506E-1,-1.9041544E-3,5.107709E-1,1.24816E-2,6.259496E-1,6.704389E-3,1.3731665E-3,1.1977563E-3,-4.751478E-3,-1.8659504E-2,-5.962795E-3,-5.0472353E-2,-2.470103E-2,-9.219424E-3,-2.5270378E-2,8.423716E-3,2.4138673E-3,2.4218315E-3,-1.1748252E-2,-1.8674579E-2,-3.915284E-2,-1.6707651E-2,-6.757755E-3,4.847024E-3,-9.4756554E-4,-2.5865756E-2,-5.82008E-2,-3.2122037E-3,3.5681676E-3,7.590674E-3,-2.598584E-3,5.8035227E-3,-1.533411E-2,5.1833456E-5,2.4862885E-3,5.1861424E-3,-2.6295236E-3,-7.5655566E-3,-2.21536E-3,-6.756353E-3,-1.4998964E-3,-6.5928185E-3,-2.320272E-2,8.153754E-3,2.885607E-3,1.1212888E-2,1.11912144E-4,3.3156471E-3,-1.8457344E-3,7.997789E-3,3.1652933E-3,-9.263115E-3,5.549125E-4,1.4637657E-3,-1.1575196E-3,1.1315717E-3,-1.730684E-2,2.952641E-3,-1.6092332E-3,-6.534597E-3,-1.5800504E-2,6.6334223E-3,2.4485548E-3,5.509337E-3,-0E0,4.3018726E-3,7.012269E-3,1.0490676E-2,6.4731506E-3,9.508295E-3,3.582175E-3],"categories":[],"categories_nodes":[],"categories_segments":[],"categories_sizes":[],"default_left":[0,0,0,0,0,0,0,0,0,0,0,0,0,0,0,0,0,0,0,0,0,0,0,0,0,0,0,0,0,0,0,0,0,0,0,0,0,0,0,0,0,0,0,0,0,0,0,0,0,0,0,0,0,0,0,0,0,0,0,0,0,0,0,0,0,0,0,0,0,0,0,0,0,0,0,0,0,0,0,0,0,0,0,0,0,0,0,0,0,0,0,0,0,0,0,0,0,0,0,0,0,0,0,0,0,0,0,0,0,0,0,0,0,0,0,0,0,0,0,0,0,0,0,0,0,0,0,0,0,0,0,0,0,0,0,0,0,0,0,0,0,0,0,0,0,0,0,0,0,0,0,0,0,0,0,0,0,0,0,0,0,0,0,0,0,0,0,0,0,0,0,0,0,0,0,0,0,0,0],"id":5,"left_children":[1,3,5,7,9,11,13,15,17,19,21,23,25,27,29,31,33,35,37,39,41,43,45,47,49,51,53,55,57,59,61,63,65,67,69,71,73,-1,75,-1,-1,77,79,81,83,85,87,89,91,93,95,97,99,101,103,105,107,-1,-1,109,111,-1,-1,-1,113,115,117,119,121,123,125,-1,127,129,131,133,-1,135,-1,-1,-1,-1,137,139,141,143,145,147,149,-1,-1,151,-1,-1,-1,153,155,-1,157,159,161,163,165,-1,167,-1,169,171,173,-1,175,-1,177,-1,-1,-1,-1,-1,-1,-1,-1,-1,-1,-1,-1,-1,-1,-1,-1,-1,-1,-1,-1,-1,-1,-1,-1,-1,-1,-1,-1,-1,-1,-1,-1,-1,-1,-1,-1,-1,-1,-1,-1,-1,-1,-1,-1,-1,-1,-1,-1,-1,-1,-1,-1,-1,-1,-1,-1,-1,-1,-1,-1,-1,-1,-1,-1,-1,-1],"loss_changes":[5.563348E2,2.682704E2,1.3969606E2,1.9473804E2,4.7174576E1,3.0858414E1,2.4698944E1,5.4747368E1,1.664112E2,8.933682E1,3.0621685E1,2.7961636E1,7.287565E0,7.6356735E0,7.842926E0,1.5949095E1,8.076217E1,4.892981E1,4.593689E1,6.9396805E1,5.5504543E1,2.6531769E1,1.2286644E1,7.810234E0,1.8225906E1,4.037494E0,7.988764E0,2.7571945E0,3.3366868E0,3.769806E0,1.0395873E0,4.5104647E0,1.3260672E1,4.3987534E1,1.6156153E1,4.3436615E1,1.5620392E1,0E0,3.8739075E1,0E0,0E0,3.502345E0,1.9868736E0,6.3686E1,9.750617E0,5.7738147E0,1.4027084E1,4.840709E-1,4.150799E0,2.9320393E1,9.518703E0,1.4241629E0,1.9078065E0,5.148371E0,3.0834236E0,3.1034632E0,1.3835373E0,0E0,0E0,3.4634743E0,2.359665E0,0E0,0E0,0E0,2.5738926E0,5.3530226E0,6.2514534E0,3.0822144E0,6.597183E0,5.9999466E-1,1.2007608E1,0E0,1.2752853E1,1.4788078E1,7.2581494E-1,1.3540344E1,0E0,1.0029715E0,0E0,0E0,0E0,0E0,1.7460182E1,1.1909756E1,4.875871E0,4.671865E0,4.1067896E0,1.4155174E1,6.570545E0,0E0,0E0,2.5930634E0,0E0,0E0,0E0,9.944265E0,1.5575275E0,0E0,2.5595903E-1,2.1122506E0,9.320477E-1,7.248887E0,3.2085066E0,0E0,2.4637527E0,0E0,1.1718535E0,2.7055092E0,1.1120529E0,0E0,2.0752106E0,0E0,1.1175537E0,0E0,0E0,0E0,0E0,0E0,0E0,0E0,0E0,0E0,0E0,0E0,0E0,0E0,0E0,0E0,0E0,0E0,0E0,0E0,0E0,0E0,0E0,0E0,0E0,0E0,0E0,0E0,0E0,0E0,0E0,0E0,0E0,0E0,0E0,0E0,0E0,0E0,0E0,0E0,0E0,0E0,0E0,0E0,0E0,0E0,0E0,0E0,0E0,0E0,0E0,0E0,0E0,0E0,0E0,0E0,0E0,0E0,0E0,0E0,0E0,0E0,0E0,0E0,0E0,0E0,0E0],"parents":[2147483647,0,0,1,1,2,2,3,3,4,4,5,5,6,6,7,7,8,8,9,9,10,10,11,11,12,12,13,13,14,14,15,15,16,16,17,17,18,18,19,19,20,20,21,21,22,22,23,23,24,24,25,25,26,26,27,27,28,28,29,29,30,30,31,31,32,32,33,33,34,34,35,35,36,36,38,38,41,41,42,42,43,43,44,44,45,45,46,46,47,47,48,48,49,49,50,50,51,51,52,52,53,53,54,54,55,55,56,56,59,59,60,60,64,64,65,65,66,66,67,67,68,68,69,69,70,70,72,72,73,73,74,74,75,75,77,77,82,82,83,83,84,84,85,85,86,86,87,87,88,88,91,91,95,95,96,96,98,98,99,99,100,100,101,101,102,102,104,104,106,106,107,107,108,108,110,110,112,112],"right_children":[2,4,6,8,10,12,14,16,18,20,22,24,26,28,30,32,34,36,38,40,42,44,46,48,50,52,54,56,58,60,62,64,66,68,70,72,74,-1,76,-1,-1,78,80,82,84,86,88,90,92,94,96,98,100,102,104,106,108,-1,-1,110,112,-1,-1,-1,114,116,118,120,122,124,126,-1,128,130,132,134,-1,136,-1,-1,-1,-1,138,140,142,144,146,148,150,-1,-1,152,-1,-1,-1,154,156,-1,158,160,162,164,166,-1,168,-1,170,172,174,-1,176,-1,178,-1,-1,-1,-1,-1,-1,-1,-1,-1,-1,-1,-1,-1,-1,-1,-1,-1,-1,-1,-1,-1,-1,-1,-1,-1,-1,-1,-1,-1,-1,-1,-1,-1,-1,-1,-1,-1,-1,-1,-1,-1,-1,-1,-1,-1,-1,-1,-1,-1,-1,-1,-1,-1,-1,-1,-1,-1,-1,-1,-1,-1,-1,-1,-1,-1,-1],"split_conditions":[2.035014E3,2.4774034E2,7.026606E2,6.701401E1,2.94E0,9.93E0,1.0675647E3,5E-1,8.660254E-1,2.514846E3,1.174E1,5.9177776E1,2.2960505E1,1.42E1,2.1595833E1,2.1010834E1,2.4073223E1,3.9564245E0,2.024109E1,3.233142E1,1.1872916E3,2.0388889E3,5E-1,2.3759104E3,7.5290474E1,2.8150028E1,1.49E1,2.474521E1,2.13E1,3.003621E3,1.35E1,1.5787778E1,2.315814E1,3.137694E0,1.49E1,1E1,6.3827094E2,-7.850119E-3,7.4E0,-5.729412E-3,-6.4605385E-2,1.0675647E3,4.4687953E0,4.44E0,2.7304735E0,2.3110056E1,1.9E1,3.1567451E1,1E0,5.7300195E2,2.4156863E3,-5E-1,-8.660254E-1,5.217367E-1,1.2400564E0,2.681553E1,3.0427375E3,2.4952015E-3,-9.73287E-3,2.199401E1,2.4715333E0,2.4899738E-3,-3.8085245E-3,-5.36766E-3,1.6008078E1,2.270056E1,5.4247337E1,1.45E1,6.0474373E1,3.6720056E2,1.575226E1,3.4821348E-3,5.4247337E1,1.2411765E3,5E-1,-1E-1,-1.3864832E-2,3.7789417E2,9.222603E-3,-3.272068E-2,-1.4485575E-2,-3.722775E-2,5.1138657E1,4.173333E0,5.1266425E2,3.0609468E1,2.1217089E0,3.7301116E0,2.2884357E1,-1.6209125E-3,1.9751247E-3,3.1690788E1,1.26664415E-2,5.659696E-3,-2.6891023E-2,9.202661E1,2.21E1,6.341975E-4,9.1058496E2,2.269888E0,5E0,1.0833333E1,2.0578223E2,-1.384544E-3,8.660254E-1,1.1192745E-2,1.3022865E1,1.8783513E3,9.199319E0,-1.9041544E-3,2.0370832E1,1.24816E-2,1.134E1,6.704389E-3,1.3731665E-3,1.1977563E-3,-4.751478E-3,-1.8659504E-2,-5.962795E-3,-5.0472353E-2,-2.470103E-2,-9.219424E-3,-2.5270378E-2,8.423716E-3,2.4138673E-3,2.4218315E-3,-1.1748252E-2,-1.8674579E-2,-3.915284E-2,-1.6707651E-2,-6.757755E-3,4.847024E-3,-9.4756554E-4,-2.5865756E-2,-5.82008E-2,-3.2122037E-3,3.5681676E-3,7.590674E-3,-2.598584E-3,5.8035227E-3,-1.533411E-2,5.1833456E-5,2.4862885E-3,5.1861424E-3,-2.6295236E-3,-7.5655566E-3,-2.21536E-3,-6.756353E-3,-1.4998964E-3,-6.5928185E-3,-2.320272E-2,8.153754E-3,2.885607E-3,1.1212888E-2,1.11912144E-4,3.3156471E-3,-1.8457344E-3,7.997789E-3,3.1652933E-3,-9.263115E-3,5.549125E-4,1.4637657E-3,-1.1575196E-3,1.1315717E-3,-1.730684E-2,2.952641E-3,-1.6092332E-3,-6.534597E-3,-1.5800504E-2,6.6334223E-3,2.4485548E-3,5.509337E-3,-0E0,4.3018726E-3,7.012269E-3,1.0490676E-2,6.4731506E-3,9.508295E-3,3.582175E-3],"split_indices":[33,13,13,18,1,0,13,7,10,32,1,18,20,1,3,3,22,30,3,21,19,32,7,33,13,21,1,24,3,33,0,20,19,30,1,0,15,0,0,0,0,13,23,0,30,17,0,21,10,20,32,10,10,23,23,21,33,0,0,24,30,0,0,0,18,15,15,0,20,15,20,0,15,33,9,0,0,15,0,0,0,0,17,1,13,22,23,23,15,0,0,21,0,0,0,17,3,0,32,23,11,1,17,0,7,0,26,20,26,0,3,0,0,0,0,0,0,0,0,0,0,0,0,0,0,0,0,0,0,0,0,0,0,0,0,0,0,0,0,0,0,0,0,0,0,0,0,0,0,0,0,0,0,0,0,0,0,0,0,0,0,0,0,0,0,0,0,0,0,0,0,0,0,0,0,0,0,0,0],"split_type":[0,0,0,0,0,0,0,0,0,0,0,0,0,0,0,0,0,0,0,0,0,0,0,0,0,0,0,0,0,0,0,0,0,0,0,0,0,0,0,0,0,0,0,0,0,0,0,0,0,0,0,0,0,0,0,0,0,0,0,0,0,0,0,0,0,0,0,0,0,0,0,0,0,0,0,0,0,0,0,0,0,0,0,0,0,0,0,0,0,0,0,0,0,0,0,0,0,0,0,0,0,0,0,0,0,0,0,0,0,0,0,0,0,0,0,0,0,0,0,0,0,0,0,0,0,0,0,0,0,0,0,0,0,0,0,0,0,0,0,0,0,0,0,0,0,0,0,0,0,0,0,0,0,0,0,0,0,0,0,0,0,0,0,0,0,0,0,0,0,0,0,0,0,0,0,0,0,0,0],"sum_hessian":[7.139E3,3.321E3,3.818E3,7.14E2,2.607E3,2.121E3,1.697E3,4.24E2,2.9E2,7.3E1,2.534E3,1.407E3,7.14E2,9.18E2,7.79E2,2.81E2,1.43E2,2.28E2,6.2E1,1.8E1,5.5E1,1.618E3,9.16E2,2.21E2,1.186E3,1.97E2,5.17E2,9.01E2,1.7E1,7.58E2,2.1E1,9.6E1,1.85E2,5.3E1,9E1,5.6E1,1.72E2,8E0,5.4E1,8E0,1E1,3.9E1,1.6E1,8.21E2,7.97E2,3.68E2,5.48E2,3E1,1.91E2,2.2E1,1.164E3,4.1E1,1.56E2,4.66E2,5.1E1,1.59E2,7.42E2,8E0,9E0,1.89E2,5.69E2,1.3E1,8E0,1.2E1,8.4E1,1.46E2,3.9E1,2.2E1,3.1E1,2.1E1,6.9E1,8E0,4.8E1,1.56E2,1.6E1,4.6E1,8E0,1.6E1,2.3E1,8E0,8E0,1E1,8.11E2,2.3E1,7.74E2,6.7E1,3.01E2,5.23E2,2.5E1,1.4E1,1.6E1,1.46E2,4.5E1,1.1E1,1.1E1,5.59E2,6.05E2,1.2E1,2.9E1,1.7E1,1.39E2,1.7E1,4.49E2,1.4E1,3.7E1,1E1,1.49E2,3.69E2,3.73E2,8E0,1.81E2,9E1,4.79E2,3.8E1,4.6E1,5.1E1,9.5E1,1.8E1,2.1E1,1.4E1,8E0,2.2E1,9E0,1.2E1,9E0,1.7E1,5.2E1,1.6E1,3.2E1,9.9E1,5.7E1,8E0,8E0,8E0,3.8E1,8E0,8E0,3.8E1,7.73E2,8E0,1.5E1,3.09E2,4.65E2,3.9E1,2.8E1,3.6E1,2.65E2,3.48E2,1.75E2,1.2E1,1.3E1,1.16E2,3E1,1.7E1,5.42E2,5.93E2,1.2E1,2.1E1,8E0,8E0,9E0,9.7E1,4.2E1,8E0,9E0,3.6E1,4.13E2,2.6E1,1.1E1,1.7E1,1.32E2,3.48E2,2.1E1,5.4E1,3.19E2,4.9E1,1.32E2,4.68E2,1.1E1],"tree_param":{"num_deleted":"0","num_feature":"38","num_nodes":"179","size_leaf_vector":"1"}},{"base_weights":[5.700227E-3,-3.0959296E-1,2.2882578E-1,-8.2138526E-1,-1.464453E-1,6.6636816E-2,4.5465127E-1,-4.039413E-1,-1.3843657E0,-8.968736E-1,-1.2209241E-1,1.4992045E-1,-1.04808904E-1,3.489371E-1,5.7545596E-1,-4.869797E-2,-6.801811E-1,-9.916536E-1,-2.8789597E0,-3.0769885E0,-8.815145E-2,-3.2093875E-2,-2.7171132E-1,4.896298E-1,9.960377E-2,1.0484686E-1,-1.5297881E-1,3.6038628E-1,-2.697837E-1,-7.6039676E-3,5.902922E-1,-2.770198E-1,2.616376E-1,-5.334753E-1,-1.6341281E0,-1.6592818E0,-6.903819E-1,-7.7539952E-3,-3.2110367E0,-2.2518313E-2,-6.357275E-2,1.0593909E-1,-3.0253652E-1,-1.7430311E-1,7.690661E-2,-1.6606697E-1,-3.893397E-1,2.4685702E-1,7.3702615E-1,-2.1223487E-2,1.818575E-1,-1.621213E-1,2.2067146E-1,-1.1524602E-1,-4.5995075E-1,4.0153855E-1,2.5555667E-1,1.1392679E-3,-8.642559E-3,6.198578E-1,3.050968E-1,-1.22887835E-1,-1.0209757E0,-4.6540495E-2,3.788121E-1,-1.2377052E0,-3.9285246E-1,-3.8340263E-2,-8.4468037E-1,-2.349998E0,-7.137599E-1,-9.78324E-2,-8.1046593E-1,-3.4794242E0,-2.035124E-2,6.180818E-3,-9.102118E-2,-9.298666E-3,-1.3738595E-3,-1.443394E-2,-1.5752414E-1,1.1211387E-1,-4.0178663E-1,1.9945666E-1,-2.0662884E-1,-4.647718E-1,5.6566235E-2,4.0304977E-1,-1.4601824E-2,1.6795794E-3,7.865924E-1,-1.5518939E-2,-1.7392663E-3,-8.43982E-3,1.9207223E-1,-8.638914E-3,9.1488436E-2,4.2630032E-1,1.0046826E-1,-1.3421862E-2,-9.70992E-2,-3.699973E-1,-1.39878495E-2,5.575916E-1,3.794106E-1,3.742515E-1,1.9776441E-1,7.5832E-1,5.78383E-1,3.746726E-1,1.1177413E-1,-6.55825E-3,1.5031962E-3,-8.157228E-3,-1.950609E-2,-6.166073E-3,5.2126176E-3,7.6361587E-3,2.7434854E-3,-4.104434E-2,-8.274857E-3,-7.1499175E-3,4.332151E-3,-1.5423687E-3,-2.2453293E-2,-1.907638E-2,-4.1306186E-2,-1.5702007E-2,-3.1314266E-3,2.3063554E-3,-1.0130967E-2,-2.157249E-2,-1.0073896E-2,-4.0070884E-2,-6.438857E-2,-0E0,-2.464993E-3,4.951448E-3,-2.4836173E-3,7.6814434E-3,1.3512338E-3,2.5361793E-3,-3.0666023E-2,5.495232E-3,-7.8346784E-4,-2.7974143E-3,-1.031035E-2,-6.407263E-3,-1.9840773E-2,3.523871E-3,-1.247658E-2,-8.5937144E-4,7.140244E-3,9.314423E-3,1.3207992E-2,-2.5256426E-4,5.3515467E-3,2.9902866E-3,-4.460726E-3,-2.2621902E-3,4.945439E-3,7.905017E-3,2.9843152E-3,6.433946E-3,6.43595E-4,3.6593736E-3,-1.64869E-3,-4.1192258E-4,-7.7784928E-3,4.255642E-3,8.708434E-3,4.9452893E-3,6.369589E-3,7.3792776E-3,3.7468665E-3,3.2587033E-3,-2.6080704E-3,4.6425844E-3,1.1664662E-2,8.887321E-3,4.4531818E-3,4.4409498E-3,7.34405E-3,-9.7052805E-5,3.083231E-3],"categories":[],"categories_nodes":[],"categories_segments":[],"categories_sizes":[],"default_left":[0,0,0,0,0,0,0,0,0,0,0,0,0,0,0,0,0,0,0,0,0,0,0,0,0,0,0,0,0,0,0,0,0,0,0,0,0,0,0,0,0,0,0,0,0,0,0,0,0,0,0,0,0,0,0,0,0,0,0,0,0,0,0,0,0,0,0,0,0,0,0,0,0,0,0,0,0,0,0,0,0,0,0,0,0,0,0,0,0,0,0,0,0,0,0,0,0,0,0,0,0,0,0,0,0,0,0,0,0,0,0,0,0,0,0,0,0,0,0,0,0,0,0,0,0,0,0,0,0,0,0,0,0,0,0,0,0,0,0,0,0,0,0,0,0,0,0,0,0,0,0,0,0,0,0,0,0,0,0,0,0,0,0,0,0,0,0,0,0,0,0,0,0,0,0,0,0,0,0,0,0,0,0,0,0],"id":6,"left_children":[1,3,5,7,9,11,13,15,17,19,21,23,25,27,29,31,33,35,37,39,41,43,45,47,49,51,53,55,57,-1,59,61,63,65,67,69,71,-1,73,-1,-1,75,77,79,81,83,85,87,89,91,93,95,97,99,101,103,105,-1,-1,107,109,111,113,115,117,119,121,-1,123,125,127,129,131,133,-1,-1,135,-1,-1,-1,137,139,141,143,145,147,149,151,-1,-1,153,-1,155,-1,157,-1,159,161,163,-1,165,167,-1,169,171,173,175,177,179,181,183,-1,-1,-1,-1,-1,-1,-1,-1,-1,-1,-1,-1,-1,-1,-1,-1,-1,-1,-1,-1,-1,-1,-1,-1,-1,-1,-1,-1,-1,-1,-1,-1,-1,-1,-1,-1,-1,-1,-1,-1,-1,-1,-1,-1,-1,-1,-1,-1,-1,-1,-1,-1,-1,-1,-1,-1,-1,-1,-1,-1,-1,-1,-1,-1,-1,-1,-1,-1,-1,-1,-1,-1,-1,-1],"loss_changes":[4.9959012E2,2.4540378E2,1.5221518E2,1.658617E2,4.0523914E1,3.4627037E1,2.1739197E1,4.0180252E1,1.7161407E2,1.2226014E2,2.9117466E1,2.7745724E1,8.040249E0,6.7847824E0,1.3519043E1,1.3013691E1,3.0514427E1,4.633812E1,4.511377E1,2.2373383E1,2.2743645E0,2.1034454E1,9.928555E0,1.2174938E1,1.4173436E1,4.6713667E0,7.3273067E0,3.7003174E0,2.014321E0,0E0,6.2941284E0,1.1791586E1,2.8743677E0,1.9045162E1,1.7461655E1,4.4872253E1,1.1848694E1,0E0,1.779364E1,0E0,0E0,1.83604E0,1.55393E0,7.3997917E0,1.2992218E1,6.4769077E0,1.2963863E1,2.138689E1,2.9365158E0,1.1301657E1,6.6049786E0,4.9497824E0,2.4605975E0,7.918128E0,2.2158575E0,1.7831573E0,1.6191483E0,0E0,0E0,3.216156E0,9.358802E-1,6.409977E0,9.159813E-1,3.5385444E0,1.2127771E0,3.0675812E1,1.008139E1,0E0,8.65922E0,1.1490768E1,5.1657352E0,4.7146173E0,1.0324074E1,8.755615E0,0E0,0E0,1.3590184E-1,0E0,0E0,0E0,2.3540182E0,6.1733723E0,5.032091E1,1.9056616E0,3.4548454E0,9.388329E0,9.291587E0,3.3760138E0,0E0,0E0,3.406906E-1,0E0,3.0556748E0,0E0,3.0822678E0,0E0,1.8273835E0,6.040664E-1,1.2204828E0,0E0,2.5118499E0,3.0647764E0,0E0,1.0026169E-1,9.7428894E-1,9.322214E-1,1.3886309E0,8.4399414E-1,1.8291016E0,1.7368317E-1,2.8620362E-1,0E0,0E0,0E0,0E0,0E0,0E0,0E0,0E0,0E0,0E0,0E0,0E0,0E0,0E0,0E0,0E0,0E0,0E0,0E0,0E0,0E0,0E0,0E0,0E0,0E0,0E0,0E0,0E0,0E0,0E0,0E0,0E0,0E0,0E0,0E0,0E0,0E0,0E0,0E0,0E0,0E0,0E0,0E0,0E0,0E0,0E0,0E0,0E0,0E0,0E0,0E0,0E0,0E0,0E0,0E0,0E0,0E0,0E0,0E0,0E0,0E0,0E0,0E0,0E0,0E0,0E0,0E0,0E0,0E0,0E0,0E0,0E0,0E0,0E0],"parents":[2147483647,0,0,1,1,2,2,3,3,4,4,5,5,6,6,7,7,8,8,9,9,10,10,11,11,12,12,13,13,14,14,15,15,16,16,17,17,18,18,19,19,20,20,21,21,22,22,23,23,24,24,25,25,26,26,27,27,28,28,30,30,31,31,32,32,33,33,34,34,35,35,36,36,38,38,41,41,42,42,43,43,44,44,45,45,46,46,47,47,48,48,49,49,50,50,51,51,52,52,53,53,54,54,55,55,56,56,59,59,60,60,61,61,62,62,63,63,64,64,65,65,66,66,68,68,69,69,70,70,71,71,72,72,73,73,76,76,80,80,81,81,82,82,83,83,84,84,85,85,86,86,87,87,90,90,92,92,94,94,96,96,97,97,98,98,100,100,101,101,103,103,104,104,105,105,106,106,107,107,108,108,109,109,110,110],"right_children":[2,4,6,8,10,12,14,16,18,20,22,24,26,28,30,32,34,36,38,40,42,44,46,48,50,52,54,56,58,-1,60,62,64,66,68,70,72,-1,74,-1,-1,76,78,80,82,84,86,88,90,92,94,96,98,100,102,104,106,-1,-1,108,110,112,114,116,118,120,122,-1,124,126,128,130,132,134,-1,-1,136,-1,-1,-1,138,140,142,144,146,148,150,152,-1,-1,154,-1,156,-1,158,-1,160,162,164,-1,166,168,-1,170,172,174,176,178,180,182,184,-1,-1,-1,-1,-1,-1,-1,-1,-1,-1,-1,-1,-1,-1,-1,-1,-1,-1,-1,-1,-1,-1,-1,-1,-1,-1,-1,-1,-1,-1,-1,-1,-1,-1,-1,-1,-1,-1,-1,-1,-1,-1,-1,-1,-1,-1,-1,-1,-1,-1,-1,-1,-1,-1,-1,-1,-1,-1,-1,-1,-1,-1,-1,-1,-1,-1,-1,-1,-1,-1,-1,-1,-1,-1],"split_conditions":[1.9470588E3,2.6691415E2,7.026606E2,5.9177776E1,-9.659258E-1,1.0033333E1,1.0675647E3,1.6233334E1,8.660254E-1,2.0585E1,1.174E1,9.202661E1,2.2827171E1,1.4283333E1,1E0,8.470083E0,1.8447899E2,1.2384639E1,2.024109E1,1.0893265E1,9.440001E0,4.183136E2,9.427236E0,2.6016807E3,4.8875854E2,-5E-1,1.49E1,8E0,1.4884536E1,-7.6039676E-3,2.13E1,1.6108683E1,-2.4492937E-16,-5E-1,1.2384639E1,4.630812E-1,1.057E1,-7.7539952E-3,7.4E0,-2.2518313E-2,-6.357275E-2,4.5837988E2,1.03E1,1.6361092E1,3.473936E1,2.3023098E1,3.8175633E0,5.2462354E2,2.6929973E3,1.7794554E0,3.6204107E0,4.0277753E0,1.0394397E0,9.74E0,4.2880252E2,2.00575E1,1.3022865E1,1.1392679E-3,-8.642559E-3,2.64488E0,2.1618488E1,3E0,1.6087744E1,1.589888E1,8.660254E-1,1.1077289E1,1.3699161E1,-3.8340263E-2,7.417686E2,5E-1,4.56928E0,2.077143E0,4.2931757E0,4E0,-2.035124E-2,6.180818E-3,1E0,-9.298666E-3,-1.3738595E-3,-1.443394E-2,6.9320116E0,1.9900951E1,1.0262694E3,2.8105322E1,4.8647528E2,1.2357709E3,2.2855461E1,1.1328974E1,-1.4601824E-2,1.6795794E-3,2.2814285E1,-1.5518939E-2,8.6471234E2,-8.43982E-3,2.2316666E1,-8.638914E-3,2.1582632E3,5E0,2.0442577E3,-1.3421862E-2,2.5151676E1,1.4716945E0,-1.39878495E-2,1.5843417E1,2.9849583E3,4.460801E2,4.6605557E3,1.1969479E1,1.017E1,3.2212886E3,3.6232913E2,-6.55825E-3,1.5031962E-3,-8.157228E-3,-1.950609E-2,-6.166073E-3,5.2126176E-3,7.6361587E-3,2.7434854E-3,-4.104434E-2,-8.274857E-3,-7.1499175E-3,4.332151E-3,-1.5423687E-3,-2.2453293E-2,-1.907638E-2,-4.1306186E-2,-1.5702007E-2,-3.1314266E-3,2.3063554E-3,-1.0130967E-2,-2.157249E-2,-1.0073896E-2,-4.0070884E-2,-6.438857E-2,-0E0,-2.464993E-3,4.951448E-3,-2.4836173E-3,7.6814434E-3,1.3512338E-3,2.5361793E-3,-3.0666023E-2,5.495232E-3,-7.8346784E-4,-2.7974143E-3,-1.031035E-2,-6.407263E-3,-1.9840773E-2,3.523871E-3,-1.247658E-2,-8.5937144E-4,7.140244E-3,9.314423E-3,1.3207992E-2,-2.5256426E-4,5.3515467E-3,2.9902866E-3,-4.460726E-3,-2.2621902E-3,4.945439E-3,7.905017E-3,2.9843152E-3,6.433946E-3,6.43595E-4,3.6593736E-3,-1.64869E-3,-4.1192258E-4,-7.7784928E-3,4.255642E-3,8.708434E-3,4.9452893E-3,6.369589E-3,7.3792776E-3,3.7468665E-3,3.2587033E-3,-2.6080704E-3,4.6425844E-3,1.1664662E-2,8.887321E-3,4.4531818E-3,4.4409498E-3,7.34405E-3,-9.7052805E-5,3.083231E-3],"split_indices":[33,13,13,18,8,1,13,17,10,3,1,17,19,1,12,4,19,24,3,26,1,13,26,34,13,10,1,0,26,0,3,19,9,8,24,23,1,0,0,0,0,33,0,24,24,17,23,15,33,30,30,26,23,0,13,3,26,0,0,30,3,11,18,13,9,24,4,0,19,9,30,23,30,1,0,0,9,0,0,0,26,3,19,15,13,18,3,4,0,0,18,0,17,0,3,0,33,11,33,0,13,23,0,19,33,19,34,26,1,33,19,0,0,0,0,0,0,0,0,0,0,0,0,0,0,0,0,0,0,0,0,0,0,0,0,0,0,0,0,0,0,0,0,0,0,0,0,0,0,0,0,0,0,0,0,0,0,0,0,0,0,0,0,0,0,0,0,0,0,0,0,0,0,0,0,0,0,0,0,0,0,0,0,0,0],"split_type":[0,0,0,0,0,0,0,0,0,0,0,0,0,0,0,0,0,0,0,0,0,0,0,0,0,0,0,0,0,0,0,0,0,0,0,0,0,0,0,0,0,0,0,0,0,0,0,0,0,0,0,0,0,0,0,0,0,0,0,0,0,0,0,0,0,0,0,0,0,0,0,0,0,0,0,0,0,0,0,0,0,0,0,0,0,0,0,0,0,0,0,0,0,0,0,0,0,0,0,0,0,0,0,0,0,0,0,0,0,0,0,0,0,0,0,0,0,0,0,0,0,0,0,0,0,0,0,0,0,0,0,0,0,0,0,0,0,0,0,0,0,0,0,0,0,0,0,0,0,0,0,0,0,0,0,0,0,0,0,0,0,0,0,0,0,0,0,0,0,0,0,0,0,0,0,0,0,0,0,0,0,0,0,0,0],"sum_hessian":[7.098E3,2.941E3,4.157E3,7.09E2,2.232E3,2.421E3,1.736E3,4.09E2,3E2,6.8E1,2.164E3,1.63E3,7.91E2,9.3E2,8.06E2,1.8E2,2.29E2,2.4E2,6E1,1.7E1,5.1E1,1.353E3,8.11E2,2.08E2,1.422E3,1.47E2,6.44E2,9.14E2,1.6E1,1E1,7.96E2,1.04E2,7.6E1,2.01E2,2.8E1,7.2E1,1.68E2,8E0,5.2E1,9E0,8E0,2.7E1,2.4E1,5.87E2,7.66E2,4.3E2,3.81E2,1.07E2,1.01E2,5.76E2,8.46E2,4.4E1,1.03E2,5.76E2,6.8E1,6.52E2,2.62E2,8E0,8E0,7.19E2,7.7E1,8.8E1,1.6E1,2.1E1,5.5E1,3.1E1,1.7E2,1.1E1,1.7E1,4E1,3.2E1,2.9E1,1.39E2,4.4E1,8E0,1E1,1.7E1,8E0,1.6E1,1E1,5.77E2,7.15E2,5.1E1,4.2E1,3.88E2,3.26E2,5.5E1,9.6E1,1.1E1,8E0,9.3E1,9E0,5.67E2,1E1,8.36E2,1.6E1,2.8E1,3.6E1,6.7E1,1.1E1,5.65E2,6E1,8E0,7.5E1,5.77E2,8.2E1,1.8E2,1.58E2,5.61E2,5.5E1,2.2E1,3.6E1,5.2E1,8E0,8E0,1.1E1,1E1,3.1E1,2.4E1,8E0,2.3E1,1.52E2,1.8E1,9E0,8E0,1.3E1,2.7E1,1.8E1,1.4E1,2.1E1,8E0,2.2E1,1.17E2,2.6E1,1.8E1,8E0,9E0,8E0,5.69E2,3.5E1,6.8E2,3.9E1,1.2E1,2.5E1,1.7E1,3.75E2,1.3E1,3.15E2,1.1E1,4.7E1,8E0,1.3E1,8.3E1,3.9E1,5.4E1,5.46E2,2.1E1,8.25E2,1.1E1,1.4E1,1.4E1,2.3E1,1.3E1,8E0,5.9E1,1.9E1,5.46E2,1.9E1,4.1E1,8E0,6.7E1,2.83E2,2.94E2,3.9E1,4.3E1,1.72E2,8E0,8E0,1.5E2,5.32E2,2.9E1,3.7E1,1.8E1,1E1,1.2E1],"tree_param":{"num_deleted":"0","num_feature":"38","num_nodes":"185","size_leaf_vector":"1"}},{"base_weights":[-1.6827099E-2,-4.523365E-1,1.6045116E-1,-4.899611E-2,-4.1061312E-1,-2.1935662E-3,4.197122E-1,-7.9935485E-1,-2.1349145E-1,9.245869E-2,-1.3254564E-1,4.564101E-1,1.0406877E-1,-5.61236E-1,-2.179245E0,-1.4736992E0,-1.609172E-1,4.46605E-1,4.6455506E-2,-8.64633E-1,-1.1875291E-1,3.566551E-1,5.78876E-1,1.6307662E-1,-5.300331E-1,-8.2455434E-2,-8.248718E-1,-1.4857503E0,-5.6888558E-2,-3.4960299E0,-8.791611E-2,-9.7502194E-2,-4.6927708E-1,1.3554326E-3,5.733403E-1,-1.331108E0,6.5499276E-2,-9.494831E-4,-2.1447107E-2,8.262595E-3,-1.8035856E-1,2.966477E-1,4.1686785E-1,3.6983916E-1,6.3194025E-1,-4.391249E-3,1.8923475E-1,-9.556386E-5,-1.4192073E-2,4.0028015E-1,-2.0456837E-1,-1.7967831E0,-5.558483E-1,-1.8185331E0,-6.5887153E-1,-1.9449921E-2,-6.891975E-2,1.1464517E-1,-6.055249E-3,2.0476246E-1,-1.4601447E-1,-3.6968443E-1,-1.0167768E0,2.6952603E-1,-1.2741476E-2,-3.4283404E-3,6.242525E-1,-4.7273994E-3,-3.7605528E-2,-4.5018326E-2,1.5776479E-1,3.598657E-1,-2.0057596E-2,-4.6582538E-1,-1.3506375E-1,3.170901E-1,4.0689755E-2,3.156062E-1,4.5941186E-1,-2.250192E-2,4.2577282E-1,8.0529803E-1,5.9191376E-1,2.6372352E-1,8.9933E-2,9.414055E-3,6.700656E-4,-1.9092567E-3,-1.5731571E-2,-3.5699755E-2,-1.628773E-2,3.4663621E-3,-1.0414632E-2,-8.413882E-3,-3.1493586E-2,-6.8811164E-4,-1.6347637E-2,4.330766E-3,-2.1199593E-3,4.5235334E-3,-4.895224E-3,-3.0564694E-3,1.8360257E-3,-4.6641845E-3,-1.6065186E-2,-6.2206364E-3,-2.2148734E-2,1.7830638E-3,7.236573E-3,6.2224567E-3,1.1508943E-2,1.0319393E-2,-8.429657E-4,-1.0316493E-2,2.508983E-3,8.324536E-3,-0E0,6.005772E-3,-6.7322305E-4,-1.8462131E-3,-1.0453754E-2,-1.3968524E-3,-4.90168E-3,1.8714357E-3,5.04577E-3,-6.691094E-3,2.9465635E-3,5.088267E-3,1.3379194E-3,2.6137247E-3,7.14565E-3,6.621728E-3,-5.3442805E-3,7.151614E-3,3.5993727E-3,1.2488373E-2,6.0730455E-3,9.040696E-3,5.424957E-3,2.4941864E-3,6.08233E-3,-7.0441384E-3,2.46609E-3],"categories":[],"categories_nodes":[],"categories_segments":[],"categories_sizes":[],"default_left":[0,0,0,0,0,0,0,0,0,0,0,0,0,0,0,0,0,0,0,0,0,0,0,0,0,0,0,0,0,0,0,0,0,0,0,0,0,0,0,0,0,0,0,0,0,0,0,0,0,0,0,0,0,0,0,0,0,0,0,0,0,0,0,0,0,0,0,0,0,0,0,0,0,0,0,0,0,0,0,0,0,0,0,0,0,0,0,0,0,0,0,0,0,0,0,0,0,0,0,0,0,0,0,0,0,0,0,0,0,0,0,0,0,0,0,0,0,0,0,0,0,0,0,0,0,0,0,0,0,0,0,0,0,0,0,0,0,0,0,0,0,0,0],"id":7,"left_children":[1,3,5,-1,7,9,11,13,15,17,19,21,23,25,27,29,31,33,35,37,39,41,43,45,47,49,51,53,-1,55,57,59,61,63,65,67,69,-1,-1,71,73,75,77,79,81,-1,83,-1,-1,85,87,89,91,93,95,-1,-1,97,-1,99,101,103,105,107,-1,-1,109,-1,-1,111,113,115,117,119,121,123,125,127,129,131,133,135,137,139,141,-1,-1,-1,-1,-1,-1,-1,-1,-1,-1,-1,-1,-1,-1,-1,-1,-1,-1,-1,-1,-1,-1,-1,-1,-1,-1,-1,-1,-1,-1,-1,-1,-1,-1,-1,-1,-1,-1,-1,-1,-1,-1,-1,-1,-1,-1,-1,-1,-1,-1,-1,-1,-1,-1,-1,-1,-1,-1],"loss_changes":[5.4969916E2,2.390643E2,2.1340218E2,0E0,1.5528723E2,3.840748E1,2.2455475E1,2.2187729E2,8.890625E1,2.9284306E1,1.29425125E1,2.0874756E1,7.8193054E0,7.360246E1,1.00989044E2,1.4986353E2,2.5258533E1,1.1610615E1,4.194707E1,1.046664E1,1.0096767E1,3.2029266E0,8.140076E0,2.3524585E0,3.7724924E0,1.2495166E1,9.648776E1,1.762799E1,0E0,4.1361664E1,2.2741308E0,1.58816395E1,1.1224308E1,1.1259972E1,6.8612556E0,2.4339615E1,1.6112831E1,0E0,0E0,4.247032E0,1.1047459E1,2.5142899E0,1.7199097E0,3.63023E0,3.3029938E0,0E0,1.2592964E0,0E0,0E0,3.3421893E0,1.0655279E1,2.8502747E1,3.2783417E1,1.556871E1,6.0840187E0,0E0,0E0,1.0595595E0,0E0,7.8766284E0,1.4496939E1,7.0811996E0,7.7887955E0,1.0491273E0,0E0,0E0,3.855217E0,0E0,0E0,5.896436E0,7.0699673E0,2.2880006E0,4.086027E0,9.0939865E0,5.9481363E0,1.5660553E0,3.0742764E0,6.928282E-1,1.390686E0,3.6505167E0,1.0756874E0,4.7898865E-1,7.8134155E-1,1.2277479E0,3.4754508E0,0E0,0E0,0E0,0E0,0E0,0E0,0E0,0E0,0E0,0E0,0E0,0E0,0E0,0E0,0E0,0E0,0E0,0E0,0E0,0E0,0E0,0E0,0E0,0E0,0E0,0E0,0E0,0E0,0E0,0E0,0E0,0E0,0E0,0E0,0E0,0E0,0E0,0E0,0E0,0E0,0E0,0E0,0E0,0E0,0E0,0E0,0E0,0E0,0E0,0E0,0E0,0E0,0E0,0E0,0E0,0E0,0E0,0E0],"parents":[2147483647,0,0,1,1,2,2,4,4,5,5,6,6,7,7,8,8,9,9,10,10,11,11,12,12,13,13,14,14,15,15,16,16,17,17,18,18,19,19,20,20,21,21,22,22,23,23,24,24,25,25,26,26,27,27,29,29,30,30,31,31,32,32,33,33,34,34,35,35,36,36,39,39,40,40,41,41,42,42,43,43,44,44,46,46,49,49,50,50,51,51,52,52,53,53,54,54,57,57,59,59,60,60,61,61,62,62,63,63,66,66,69,69,70,70,71,71,72,72,73,73,74,74,75,75,76,76,77,77,78,78,79,79,80,80,81,81,82,82,83,83,84,84],"right_children":[2,4,6,-1,8,10,12,14,16,18,20,22,24,26,28,30,32,34,36,38,40,42,44,46,48,50,52,54,-1,56,58,60,62,64,66,68,70,-1,-1,72,74,76,78,80,82,-1,84,-1,-1,86,88,90,92,94,96,-1,-1,98,-1,100,102,104,106,108,-1,-1,110,-1,-1,112,114,116,118,120,122,124,126,128,130,132,134,136,138,140,142,-1,-1,-1,-1,-1,-1,-1,-1,-1,-1,-1,-1,-1,-1,-1,-1,-1,-1,-1,-1,-1,-1,-1,-1,-1,-1,-1,-1,-1,-1,-1,-1,-1,-1,-1,-1,-1,-1,-1,-1,-1,-1,-1,-1,-1,-1,-1,-1,-1,-1,-1,-1,-1,-1,-1,-1,-1,-1],"split_conditions":[1.7252101E3,1.6849415E1,6.764417E2,-4.899611E-2,2.899703E2,9.76E0,1.0766666E1,5.926003E2,-9.659258E-1,8.501028E1,1.7794554E0,1.0675647E3,1.566E1,1.3473259E-2,1E0,2.0585E1,1.51E1,2.7502778E3,9.307507E1,1.8447899E2,0E0,3.003621E3,2.6759104E3,1.6235376E1,1.8804274E1,8.566667E0,3.3216069E0,1.397493E3,-5.6888558E-2,1.0893265E1,1.6881592E2,9.202661E1,6.483174E2,2.1248816E1,1.5600557E1,4.32614E2,4.837223E2,-9.494831E-4,-2.1447107E-2,4.1975803E0,2.9641232E2,1.5053792E3,7.7875604E2,5.8599997E0,2.535045E0,-4.391249E-3,3.6506805E2,-9.556386E-5,-1.4192073E-2,6.902101E1,7.5127174E1,2.4282541E1,1.6216667E1,2.3830925E1,2.8000002E0,-1.9449921E-2,-6.891975E-2,9.440001E0,-6.055249E-3,8.660254E-1,4.507871E0,4.7143238E1,2.3019382E1,2.3016807E3,-1.2741476E-2,-3.4283404E-3,2.4328691E3,-4.7273994E-3,-3.7605528E-2,3.476135E0,3.7088237E0,7.6528373E0,2.0370832E1,3.5662997E2,2.2410833E1,5.1138657E1,1.8883334E3,5.3030815E0,2.2581512E1,1.3762078E0,1.5053792E3,3.1333334E0,2.13E1,8.660254E-1,3.386586E2,9.414055E-3,6.700656E-4,-1.9092567E-3,-1.5731571E-2,-3.5699755E-2,-1.628773E-2,3.4663621E-3,-1.0414632E-2,-8.413882E-3,-3.1493586E-2,-6.8811164E-4,-1.6347637E-2,4.330766E-3,-2.1199593E-3,4.5235334E-3,-4.895224E-3,-3.0564694E-3,1.8360257E-3,-4.6641845E-3,-1.6065186E-2,-6.2206364E-3,-2.2148734E-2,1.7830638E-3,7.236573E-3,6.2224567E-3,1.1508943E-2,1.0319393E-2,-8.429657E-4,-1.0316493E-2,2.508983E-3,8.324536E-3,-0E0,6.005772E-3,-6.7322305E-4,-1.8462131E-3,-1.0453754E-2,-1.3968524E-3,-4.90168E-3,1.8714357E-3,5.04577E-3,-6.691094E-3,2.9465635E-3,5.088267E-3,1.3379194E-3,2.6137247E-3,7.14565E-3,6.621728E-3,-5.3442805E-3,7.151614E-3,3.5993727E-3,1.2488373E-2,6.0730455E-3,9.040696E-3,5.424957E-3,2.4941864E-3,6.08233E-3,-7.0441384E-3,2.46609E-3],"split_indices":[33,21,13,0,13,1,1,19,8,17,30,13,1,23,10,3,1,33,13,19,7,33,33,15,26,1,30,34,0,26,14,17,17,3,20,19,13,0,0,30,13,17,13,2,30,0,20,0,0,15,19,21,18,21,2,0,0,1,0,8,23,21,19,33,0,0,34,0,0,30,30,26,3,20,3,17,34,23,17,5,17,1,3,10,19,0,0,0,0,0,0,0,0,0,0,0,0,0,0,0,0,0,0,0,0,0,0,0,0,0,0,0,0,0,0,0,0,0,0,0,0,0,0,0,0,0,0,0,0,0,0,0,0,0,0,0,0,0,0,0,0,0,0],"split_type":[0,0,0,0,0,0,0,0,0,0,0,0,0,0,0,0,0,0,0,0,0,0,0,0,0,0,0,0,0,0,0,0,0,0,0,0,0,0,0,0,0,0,0,0,0,0,0,0,0,0,0,0,0,0,0,0,0,0,0,0,0,0,0,0,0,0,0,0,0,0,0,0,0,0,0,0,0,0,0,0,0,0,0,0,0,0,0,0,0,0,0,0,0,0,0,0,0,0,0,0,0,0,0,0,0,0,0,0,0,0,0,0,0,0,0,0,0,0,0,0,0,0,0,0,0,0,0,0,0,0,0,0,0,0,0,0,0,0,0,0,0,0,0],"sum_hessian":[7.116E3,2.058E3,5.058E3,2.8E1,2.03E3,3.109E3,1.949E3,6.81E2,1.349E3,1.801E3,1.308E3,1.745E3,2.04E2,5.83E2,9.8E1,5.2E1,1.297E3,2.05E2,1.596E3,2.2E1,1.286E3,9.66E2,7.79E2,1.88E2,1.6E1,2.08E2,3.75E2,7.1E1,2.7E1,2E1,3.2E1,1.078E3,2.19E2,4.6E1,1.59E2,2E1,1.576E3,1E1,1.2E1,4.2E2,8.66E2,4.9E2,4.76E2,1.61E2,6.18E2,9E0,1.79E2,8E0,8E0,4.1E1,1.67E2,7.9E1,2.96E2,4.9E1,2.2E1,8E0,1.2E1,2E1,1.2E1,1.48E2,9.3E2,1.88E2,3.1E1,3.6E1,1E1,9E0,1.5E2,1.2E1,8E0,7.17E2,8.59E2,3E1,3.9E2,1.16E2,7.5E2,4.53E2,3.7E1,1.46E2,3.3E2,2E1,1.41E2,1.09E2,5.09E2,1E2,7.9E1,2.4E1,1.7E1,1.55E2,1.2E1,4.1E1,3.8E1,4.4E1,2.52E2,1E1,3.9E1,1E1,1.2E1,1.2E1,8E0,1.26E2,2.2E1,7.66E2,1.64E2,1.76E2,1.2E1,1.5E1,1.6E1,2.3E1,1.3E1,6.4E1,8.6E1,9E0,7.08E2,8E0,8.51E2,1.9E1,1.1E1,2E1,3.7E2,4.8E1,6.8E1,6.18E2,1.32E2,4.3E1,4.1E2,8E0,2.9E1,1.31E2,1.5E1,2E1,3.1E2,8E0,1.2E1,1.08E2,3.3E1,1E2,9E0,4.83E2,2.6E1,6.2E1,3.8E1,8E0,7.1E1],"tree_param":{"num_deleted":"0","num_feature":"38","num_nodes":"143","size_leaf_vector":"1"}},{"base_weights":[-4.116788E-4,-2.8283593E-1,2.390293E-1,-3.2505696E0,-2.5727713E-1,6.3807674E-2,4.4088584E-1,-5.4258205E-2,-2.8538262E-2,-6.44973E-1,-1.20201565E-1,3.6080483E-1,1.9455006E-2,3.4574673E-1,5.5899376E-1,-4.639152E-1,-1.9792604E0,-8.024255E-2,-4.7018966E-1,6.1953753E-1,2.0032832E-1,-4.4337396E-2,1.7793001E-1,3.5707262E-1,-2.4223989E-1,-5.514436E-3,5.717228E-1,-7.272928E-2,-6.365621E-1,-1.3143295E0,-5.7249382E-2,-7.495716E-1,-5.7471287E-2,-3.272854E-1,-7.1508664E-1,1.3759007E-1,1.0580387E-2,3.0582416E-1,1.0254021E-1,2.0530099E-1,-9.313603E-2,-1.5014555E-1,1.8910637E-1,3.9101526E-1,2.6498613E-1,2.4935738E-3,-8.295108E-3,4.1478974E-1,6.2547135E-1,-2.0175661E-1,4.4293776E-1,-1.4576635E0,-4.5361418E-1,-9.6726364E-1,-1.9678116E0,-5.3057842E-2,-1.2865628E-1,-1.4638568E-1,5.890174E-2,5.2053746E-2,-4.1714466E-1,-1.6990161E-4,-8.130426E-1,4.1983225E-3,-2.9663392E-4,3.9403927E-1,1.4722054E-1,-1.3703211E-3,1.2446772E-1,9.128081E-2,6.5996855E-1,-8.1049305E-1,-6.257287E-2,9.1220706E-4,-5.1559685E-3,1.4772947E-1,2.4071579E-1,3.0594102E-1,4.3698126E-1,3.857003E-1,2.0548686E-1,5.400514E-1,2.874652E-1,1.1580337E-2,5.801063E-1,-1.6317659E-3,-2.163731E-2,8.116633E-3,2.4385107E-4,-2.6620353E-2,-4.8890724E-3,1.012447E-3,-7.990483E-3,-1.786618E-2,3.6927834E-3,-3.8313527E-2,-1.1590014E-2,-2.0465956E-4,-9.584073E-3,4.71094E-3,-2.604875E-3,1.1690164E-3,-1.7634375E-2,3.2605215E-3,-5.2317115E-3,-7.7310265E-3,-1.658584E-3,-1.5652351E-2,-7.0717065E-3,8.410743E-3,4.3547945E-3,6.250248E-4,2.7181546E-3,2.0179406E-3,3.8563728E-4,3.7758993E-3,-1.645439E-3,5.994586E-3,1.3251141E-2,-2.3579681E-2,-7.1247364E-4,-2.9360625E-4,-3.6137945E-3,1.721961E-3,3.8889402E-3,1.2590791E-3,3.6817796E-3,-2.4923362E-4,4.752521E-3,9.6170595E-3,6.3191247E-3,9.163003E-3,4.829294E-3,4.0063546E-3,1.5283292E-3,3.216214E-3,8.733767E-3,2.3279965E-3,5.611418E-3,9.257489E-3,6.7996355E-3],"categories":[],"categories_nodes":[],"categories_segments":[],"categories_sizes":[],"default_left":[0,0,0,0,0,0,0,0,0,0,0,0,0,0,0,0,0,0,0,0,0,0,0,0,0,0,0,0,0,0,0,0,0,0,0,0,0,0,0,0,0,0,0,0,0,0,0,0,0,0,0,0,0,0,0,0,0,0,0,0,0,0,0,0,0,0,0,0,0,0,0,0,0,0,0,0,0,0,0,0,0,0,0,0,0,0,0,0,0,0,0,0,0,0,0,0,0,0,0,0,0,0,0,0,0,0,0,0,0,0,0,0,0,0,0,0,0,0,0,0,0,0,0,0,0,0,0,0,0,0,0,0,0,0,0,0,0,0,0,0,0],"id":8,"left_children":[1,3,5,7,9,11,13,-1,-1,15,17,19,21,23,25,27,29,31,33,35,37,39,41,43,45,-1,47,49,51,53,-1,55,57,59,61,63,-1,65,67,69,71,73,75,77,79,-1,-1,81,83,85,87,89,91,93,95,-1,97,99,101,103,105,-1,107,-1,-1,109,111,-1,113,115,117,119,121,-1,-1,123,125,127,129,131,133,135,137,-1,139,-1,-1,-1,-1,-1,-1,-1,-1,-1,-1,-1,-1,-1,-1,-1,-1,-1,-1,-1,-1,-1,-1,-1,-1,-1,-1,-1,-1,-1,-1,-1,-1,-1,-1,-1,-1,-1,-1,-1,-1,-1,-1,-1,-1,-1,-1,-1,-1,-1,-1,-1,-1,-1,-1,-1,-1],"loss_changes":[4.830827E2,2.4677057E2,1.3663084E2,8.005066E-1,1.7259642E2,2.7240368E1,1.9740479E1,0E0,0E0,2.0315863E2,3.35086E1,1.0855324E1,1.8273188E1,6.8253326E0,9.808823E0,5.0485E1,1.13607025E2,3.277552E1,8.076714E0,3.9516144E0,1.6440973E0,1.5711197E1,1.957283E0,2.8166656E0,2.7175975E0,0E0,6.0740356E0,1.5559585E1,7.670244E1,1.3698746E1,0E0,1.2136019E2,2.166862E1,5.4886303E0,6.022629E0,4.345666E-1,0E0,9.579563E-1,4.0982687E-1,1.0744581E1,2.347377E1,7.928473E-1,9.7084427E-1,2.4724884E0,1.7432137E0,0E0,0E0,2.9360352E0,2.9332733E0,2.1110447E1,1.8887758E0,3.240297E1,1.7741669E1,1.5233734E1,1.3496216E1,0E0,3.428634E0,1.4987547E1,2.1361649E1,2.2305093E0,3.714651E0,0E0,5.0874023E0,0E0,0E0,4.8280525E-1,7.820958E-2,0E0,6.0026884E-2,5.5715027E0,1.6676464E0,2.5151876E1,7.9164267E0,0E0,0E0,9.550977E-1,9.318352E-2,9.4185257E-1,8.755417E-1,7.986193E-1,1.099895E0,1.0945282E0,1.0662842E0,0E0,1.5171051E0,0E0,0E0,0E0,0E0,0E0,0E0,0E0,0E0,0E0,0E0,0E0,0E0,0E0,0E0,0E0,0E0,0E0,0E0,0E0,0E0,0E0,0E0,0E0,0E0,0E0,0E0,0E0,0E0,0E0,0E0,0E0,0E0,0E0,0E0,0E0,0E0,0E0,0E0,0E0,0E0,0E0,0E0,0E0,0E0,0E0,0E0,0E0,0E0,0E0,0E0,0E0,0E0,0E0,0E0,0E0,0E0],"parents":[2147483647,0,0,1,1,2,2,3,3,4,4,5,5,6,6,9,9,10,10,11,11,12,12,13,13,14,14,15,15,16,16,17,17,18,18,19,19,20,20,21,21,22,22,23,23,24,24,26,26,27,27,28,28,29,29,31,31,32,32,33,33,34,34,35,35,37,37,38,38,39,39,40,40,41,41,42,42,43,43,44,44,47,47,48,48,49,49,50,50,51,51,52,52,53,53,54,54,56,56,57,57,58,58,59,59,60,60,62,62,65,65,66,66,68,68,69,69,70,70,71,71,72,72,75,75,76,76,77,77,78,78,79,79,80,80,81,81,82,82,84,84],"right_children":[2,4,6,8,10,12,14,-1,-1,16,18,20,22,24,26,28,30,32,34,36,38,40,42,44,46,-1,48,50,52,54,-1,56,58,60,62,64,-1,66,68,70,72,74,76,78,80,-1,-1,82,84,86,88,90,92,94,96,-1,98,100,102,104,106,-1,108,-1,-1,110,112,-1,114,116,118,120,122,-1,-1,124,126,128,130,132,134,136,138,-1,140,-1,-1,-1,-1,-1,-1,-1,-1,-1,-1,-1,-1,-1,-1,-1,-1,-1,-1,-1,-1,-1,-1,-1,-1,-1,-1,-1,-1,-1,-1,-1,-1,-1,-1,-1,-1,-1,-1,-1,-1,-1,-1,-1,-1,-1,-1,-1,-1,-1,-1,-1,-1,-1,-1,-1,-1],"split_conditions":[2.035014E3,1.6849415E1,6.818188E2,2.6183844E1,3.022978E2,2.05E1,1.0675647E3,-5.4258205E-2,-2.8538262E-2,6.9889606E2,1.51E1,1.397493E3,2.4156863E3,1.3666667E1,1E0,2.613441E-2,1E0,-9.659258E-1,1.5230986E1,1.8723263E1,9E0,2.5145939E1,3.0082186E1,1.3748571E1,2.13E1,-5.514436E-3,3.003621E3,5.5794678E1,3.369098E0,1.3206888E3,-5.7249382E-2,2.0487597E1,2.092157E3,1.595098E1,1.5826891E1,5.6278057E1,1.0580387E-2,8.4800005E0,1.9481793E3,1.476942E3,6.1281338E1,-7.0710677E-1,2.8174986E1,7.864871E2,6.6666665E0,2.4935738E-3,-8.295108E-3,2.0892262E1,2.64488E0,8.110028E1,5E-1,2.8802416E1,1.6828852E1,1.2E1,7.0710677E-1,-5.3057842E-2,3.0267788E1,2E0,2.2746284E3,1.943181E1,1.2442824E1,-1.6990161E-4,-1.8369701E-16,4.1983225E-3,-2.9663392E-4,2.5737759E1,2.100661E1,-1.3703211E-3,5.137144E0,1.1093333E1,1E0,6.123234E-17,1.1866667E1,9.1220706E-4,-5.1559685E-3,8.660254E-1,4.1420584E2,2.6747898E3,2.9242527E1,3.7253537E0,3.3456582E3,2E0,4.7873154E2,1.1580337E-2,2.5881904E-1,-1.6317659E-3,-2.163731E-2,8.116633E-3,2.4385107E-4,-2.6620353E-2,-4.8890724E-3,1.012447E-3,-7.990483E-3,-1.786618E-2,3.6927834E-3,-3.8313527E-2,-1.1590014E-2,-2.0465956E-4,-9.584073E-3,4.71094E-3,-2.604875E-3,1.1690164E-3,-1.7634375E-2,3.2605215E-3,-5.2317115E-3,-7.7310265E-3,-1.658584E-3,-1.5652351E-2,-7.0717065E-3,8.410743E-3,4.3547945E-3,6.250248E-4,2.7181546E-3,2.0179406E-3,3.8563728E-4,3.7758993E-3,-1.645439E-3,5.994586E-3,1.3251141E-2,-2.3579681E-2,-7.1247364E-4,-2.9360625E-4,-3.6137945E-3,1.721961E-3,3.8889402E-3,1.2590791E-3,3.6817796E-3,-2.4923362E-4,4.752521E-3,9.6170595E-3,6.3191247E-3,9.163003E-3,4.829294E-3,4.0063546E-3,1.5283292E-3,3.216214E-3,8.733767E-3,2.3279965E-3,5.611418E-3,9.257489E-3,6.7996355E-3],"split_indices":[33,21,13,32,13,3,13,0,0,19,1,32,32,1,12,23,10,8,26,3,29,18,21,26,3,0,33,13,30,19,0,3,32,19,19,15,0,1,32,14,32,7,24,13,1,0,0,3,30,18,7,21,18,2,8,0,24,29,19,24,26,0,10,0,0,24,24,0,30,1,10,8,1,0,0,7,14,32,22,30,32,29,15,0,7,0,0,0,0,0,0,0,0,0,0,0,0,0,0,0,0,0,0,0,0,0,0,0,0,0,0,0,0,0,0,0,0,0,0,0,0,0,0,0,0,0,0,0,0,0,0,0,0,0,0,0,0,0,0,0,0],"split_type":[0,0,0,0,0,0,0,0,0,0,0,0,0,0,0,0,0,0,0,0,0,0,0,0,0,0,0,0,0,0,0,0,0,0,0,0,0,0,0,0,0,0,0,0,0,0,0,0,0,0,0,0,0,0,0,0,0,0,0,0,0,0,0,0,0,0,0,0,0,0,0,0,0,0,0,0,0,0,0,0,0,0,0,0,0,0,0,0,0,0,0,0,0,0,0,0,0,0,0,0,0,0,0,0,0,0,0,0,0,0,0,0,0,0,0,0,0,0,0,0,0,0,0,0,0,0,0,0,0,0,0,0,0,0,0,0,0,0,0,0,0],"sum_hessian":[7.14E3,3.276E3,3.864E3,2.6E1,3.25E3,2.07E3,1.794E3,1.8E1,8E0,8.47E2,2.403E3,2.67E2,1.803E3,9.98E2,7.96E2,7.48E2,9.9E1,2.159E3,2.44E2,1E2,1.67E2,1.286E3,5.17E2,9.8E2,1.8E1,1E1,7.86E2,2.3E2,5.18E2,7.5E1,2.4E1,6.9E1,2.09E3,1.57E2,8.7E1,1.6E1,8.4E1,7.8E1,8.9E1,2.09E2,1.077E3,1.6E1,5.01E2,7.11E2,2.69E2,8E0,1E1,2.05E2,5.81E2,1.85E2,4.5E1,9.2E1,4.26E2,5.2E1,2.3E1,1.1E1,5.8E1,1.185E3,9.05E2,3E1,1.27E2,1.1E1,7.6E1,8E0,8E0,4.8E1,3E1,8E0,8.1E1,1.69E2,4E1,4.2E1,1.035E3,8E0,8E0,2.83E2,2.18E2,2.55E2,4.56E2,8.5E1,1.84E2,1E2,1.05E2,1.3E2,4.51E2,1.74E2,1.1E1,3.6E1,9E0,7.1E1,2.1E1,5.6E1,3.7E2,4.4E1,8E0,1.4E1,9E0,4.9E1,9E0,6.5E1,1.12E3,8.93E2,1.2E1,2.2E1,8E0,9.5E1,3.2E1,4.3E1,3.3E1,1.5E1,3.3E1,9E0,2.1E1,7.2E1,9E0,9.4E1,7.5E1,2.1E1,1.9E1,2E1,2.2E1,8.36E2,1.99E2,2.22E2,6.1E1,8E0,2.1E2,8E0,2.47E2,2.7E1,4.29E2,1.5E1,7E1,1.13E2,7.1E1,1.3E1,8.7E1,4.4E1,6.1E1,3.43E2,1.08E2],"tree_param":{"num_deleted":"0","num_feature":"38","num_nodes":"141","size_leaf_vector":"1"}},{"base_weights":[-2.9328356E-3,-4.2463574E-1,1.6693737E-1,-4.5095015E-2,-3.8851303E-1,1.8285023E-2,4.184467E-1,-7.3154664E-1,-2.0424362E-1,9.8195486E-2,-1.3939662E-1,4.6438497E-1,1.7058854E-1,-6.810613E-1,-5.758353E-2,-1.4284815E0,-1.5458526E-1,4.3665993E-1,5.3095132E-2,-9.48914E-2,-3.6572027E-1,3.620845E-1,5.8023477E-1,2.1389323E-1,-5.241877E-1,-1.2345865E-1,-8.957374E-1,-3.7407968E0,-6.331005E-2,-7.1670525E-2,-4.382183E-1,2.1979862E-1,6.5337026E-1,-5.74379E-2,1.5786865E-1,2.109664E-2,-1.5111904E-1,-1.1175756E-1,-6.1393887E-1,1.5740417E-1,3.763891E-1,4.3815476E-1,6.342362E-1,1.1711995E-1,3.4516004E-1,-1.1738281E-4,-1.4010996E-2,3.5784718E-1,-2.6062468E-1,-7.958444E-1,-2.1864767E0,-6.7713514E-2,-3.2867216E-2,1.19929396E-1,-5.8292225E-3,4.396243E-1,-1.02489345E-1,-3.4039968E-1,-7.5295323E-1,2.9491454E-1,-1.0814359E-2,1.2255103E-3,7.130541E-1,-1.2399569E-2,-4.711308E-2,-8.549983E-3,1.6750416E-1,8.0673015E-3,-2.5996108E-2,-1.39255E-1,-1.1567594E-2,3.1927868E-3,-1.5442203E-1,-8.177681E-1,-1.4178936E-1,1.3172953E-2,3.033495E-1,3.0580524E-1,4.286862E-1,5.828467E-1,3.303988E-1,5.74076E-1,7.081043E-1,7.944864E-3,2.4695228E-1,4.3450806E-1,1.9076207E-1,7.8334855E-3,-9.057412E-4,-2.273733E-3,-1.4613765E-2,2.5078268E-3,-1.3305598E-2,-4.6319198E-2,-8.78935E-3,4.729122E-3,-2.106114E-3,8.516893E-3,-2.6967635E-3,-1.0796479E-3,-1.162815E-2,-8.005463E-4,-7.0027853E-3,-6.204148E-3,-1.7393883E-2,1.9817764E-3,7.59271E-3,8.744065E-3,1.20173255E-2,-1.8137811E-3,-1.4687091E-4,1.3520527E-3,3.1203607E-3,-9.525114E-3,-4.09059E-5,-2.6111694E-3,-1.0791386E-4,-3.93393E-3,4.38327E-4,-9.39721E-3,-2.5319574E-2,-3.816031E-3,1.1855931E-3,-4.037771E-4,1.7748361E-3,6.6103046E-3,3.1137497E-3,1.9753887E-3,4.8213974E-3,1.2825179E-2,6.18255E-3,3.717526E-3,9.218729E-3,6.1467285E-3,1.644794E-3,9.560447E-3,7.6202755E-3,8.694452E-3,1.1498803E-2,-3.0159838E-3,1.6772673E-3,5.853339E-3,1.4001089E-3,3.071455E-3,7.082183E-3,3.5888993E-3,2.9107754E-5],"categories":[],"categories_nodes":[],"categories_segments":[],"categories_sizes":[],"default_left":[0,0,0,0,0,0,0,0,0,0,0,0,0,0,0,0,0,0,0,0,0,0,0,0,0,0,0,0,0,0,0,0,0,0,0,0,0,0,0,0,0,0,0,0,0,0,0,0,0,0,0,0,0,0,0,0,0,0,0,0,0,0,0,0,0,0,0,0,0,0,0,0,0,0,0,0,0,0,0,0,0,0,0,0,0,0,0,0,0,0,0,0,0,0,0,0,0,0,0,0,0,0,0,0,0,0,0,0,0,0,0,0,0,0,0,0,0,0,0,0,0,0,0,0,0,0,0,0,0,0,0,0,0,0,0,0,0,0,0,0,0,0,0,0,0,0,0],"id":9,"left_children":[1,3,5,-1,7,9,11,13,15,17,19,21,23,25,-1,27,29,31,33,35,37,39,41,43,45,47,49,51,53,55,57,59,61,63,65,67,69,71,73,75,77,79,81,83,85,-1,-1,87,89,91,93,-1,-1,95,-1,97,99,101,103,105,-1,-1,107,-1,109,-1,111,-1,113,115,-1,-1,117,119,121,123,125,127,129,131,133,135,137,139,141,143,145,-1,-1,-1,-1,-1,-1,-1,-1,-1,-1,-1,-1,-1,-1,-1,-1,-1,-1,-1,-1,-1,-1,-1,-1,-1,-1,-1,-1,-1,-1,-1,-1,-1,-1,-1,-1,-1,-1,-1,-1,-1,-1,-1,-1,-1,-1,-1,-1,-1,-1,-1,-1,-1,-1,-1,-1,-1,-1,-1,-1],"loss_changes":[5.081011E2,1.8750601E2,1.8896602E2,0E0,1.2674136E2,4.008731E1,2.1174866E1,1.04937256E2,7.913252E1,3.214564E1,1.0667126E1,1.8286163E1,9.10063E0,8.262991E1,0E0,1.59554E2,2.9566685E1,1.12998085E1,2.1634073E1,5.8674326E0,1.0823015E1,2.316368E0,5.06102E0,3.448042E0,3.6599493E0,1.3018618E1,6.101175E1,4.0578613E0,2.1255329E0,1.5470834E1,8.197433E0,9.300528E0,4.0055313E0,7.060078E0,6.856035E0,7.2256565E0,4.164773E0,1.2831403E0,8.145023E0,1.1988876E0,2.6023026E0,2.8331223E0,1.4989166E0,2.3069286E0,1.4133453E0,0E0,0E0,3.1142316E0,1.1511818E1,4.1335297E1,4.6585846E1,0E0,0E0,1.2566757E0,0E0,4.6524353E0,1.8797848E1,7.917221E0,8.059124E0,3.90172E0,0E0,0E0,2.910881E-1,0E0,2.4605894E0,0E0,2.9077072E0,0E0,3.7706485E0,2.719551E0,0E0,0E0,1.6174694E0,7.985794E0,7.6993275E-1,1.4892931E-1,1.492958E-1,8.108635E-1,2.3920364E0,5.624199E-1,2.0541058E0,5.685196E-1,7.921753E-1,2.0245712E0,1.53228E0,3.8778973E-1,4.036126E-1,0E0,0E0,0E0,0E0,0E0,0E0,0E0,0E0,0E0,0E0,0E0,0E0,0E0,0E0,0E0,0E0,0E0,0E0,0E0,0E0,0E0,0E0,0E0,0E0,0E0,0E0,0E0,0E0,0E0,0E0,0E0,0E0,0E0,0E0,0E0,0E0,0E0,0E0,0E0,0E0,0E0,0E0,0E0,0E0,0E0,0E0,0E0,0E0,0E0,0E0,0E0,0E0,0E0,0E0,0E0,0E0,0E0,0E0,0E0,0E0],"parents":[2147483647,0,0,1,1,2,2,4,4,5,5,6,6,7,7,8,8,9,9,10,10,11,11,12,12,13,13,15,15,16,16,17,17,18,18,19,19,20,20,21,21,22,22,23,23,24,24,25,25,26,26,27,27,28,28,29,29,30,30,31,31,32,32,33,33,34,34,35,35,36,36,37,37,38,38,39,39,40,40,41,41,42,42,43,43,44,44,47,47,48,48,49,49,50,50,53,53,55,55,56,56,57,57,58,58,59,59,62,62,64,64,66,66,68,68,69,69,72,72,73,73,74,74,75,75,76,76,77,77,78,78,79,79,80,80,81,81,82,82,83,83,84,84,85,85,86,86],"right_children":[2,4,6,-1,8,10,12,14,16,18,20,22,24,26,-1,28,30,32,34,36,38,40,42,44,46,48,50,52,54,56,58,60,62,64,66,68,70,72,74,76,78,80,82,84,86,-1,-1,88,90,92,94,-1,-1,96,-1,98,100,102,104,106,-1,-1,108,-1,110,-1,112,-1,114,116,-1,-1,118,120,122,124,126,128,130,132,134,136,138,140,142,144,146,-1,-1,-1,-1,-1,-1,-1,-1,-1,-1,-1,-1,-1,-1,-1,-1,-1,-1,-1,-1,-1,-1,-1,-1,-1,-1,-1,-1,-1,-1,-1,-1,-1,-1,-1,-1,-1,-1,-1,-1,-1,-1,-1,-1,-1,-1,-1,-1,-1,-1,-1,-1,-1,-1,-1,-1,-1,-1,-1,-1],"split_conditions":[1.7252101E3,1.6849415E1,8.58756E-2,-4.5095015E-2,3.778722E-2,1.0366667E1,9.823334E0,1.8078324E3,-9.659258E-1,8.501028E1,1.5133465E1,1.3344559E-1,2.2470589E1,1.6233334E1,-5.758353E-2,2.056887E1,1.4283333E1,2.32465E3,6.0465287E-2,0E0,2.1462711E1,5.1138657E1,3.003621E3,3.003621E3,4.2503094E1,9.796666E0,2.4962662E1,5.6278057E1,1.6881592E2,2.024109E1,2.127475E1,4.749042E2,2.3016807E3,1.7794554E0,3.6204107E0,4.1728344E0,1.8226667E1,1.8329083E2,4.8850626E-2,5E-1,1.0146011E-1,2.0674603E1,2.0677938E-1,8.660254E-1,5.176591E2,-1.1738281E-4,-1.4010996E-2,2.849986E1,3.6506805E2,2.0006676E1,3.5654095E1,-6.7713514E-2,-3.2867216E-2,9.440001E0,-5.8292225E-3,7.0710677E-1,3.473936E1,2.252465E1,2.3078772E1,8.340091E-3,-1.0814359E-2,1.2255103E-3,2.2906145E1,-1.2399569E-2,4.9397726E-2,-8.549983E-3,6.647353E-2,8.0673015E-3,2.3011288E1,4.133025E0,-1.1567594E-2,3.1927868E-3,1.4162011E0,6.08837E2,8.660254E-1,2.6774061E1,2.840112E0,8.178105E0,2.8103287E1,5.5803333E1,3.5962715E1,7.543432E2,5E-1,2.1582632E3,1.1400001E1,1.8801031E1,3.844648E0,7.8334855E-3,-9.057412E-4,-2.273733E-3,-1.4613765E-2,2.5078268E-3,-1.3305598E-2,-4.6319198E-2,-8.78935E-3,4.729122E-3,-2.106114E-3,8.516893E-3,-2.6967635E-3,-1.0796479E-3,-1.162815E-2,-8.005463E-4,-7.0027853E-3,-6.204148E-3,-1.7393883E-2,1.9817764E-3,7.59271E-3,8.744065E-3,1.20173255E-2,-1.8137811E-3,-1.4687091E-4,1.3520527E-3,3.1203607E-3,-9.525114E-3,-4.09059E-5,-2.6111694E-3,-1.0791386E-4,-3.93393E-3,4.38327E-4,-9.39721E-3,-2.5319574E-2,-3.816031E-3,1.1855931E-3,-4.037771E-4,1.7748361E-3,6.6103046E-3,3.1137497E-3,1.9753887E-3,4.8213974E-3,1.2825179E-2,6.18255E-3,3.717526E-3,9.218729E-3,6.1467285E-3,1.644794E-3,9.560447E-3,7.6202755E-3,8.694452E-3,1.1498803E-2,-3.0159838E-3,1.6772673E-3,5.853339E-3,1.4001089E-3,3.071455E-3,7.082183E-3,3.5888993E-3,2.9107754E-5],"split_indices":[33,21,16,0,16,1,1,20,8,17,26,16,3,17,0,3,1,34,16,7,3,17,33,33,21,1,24,15,14,3,24,15,33,30,30,30,1,17,16,10,16,3,16,8,20,0,0,22,20,21,21,0,0,1,0,7,24,20,15,16,0,0,20,0,16,0,16,0,22,23,0,0,23,20,9,22,23,26,22,17,22,20,8,33,1,24,30,0,0,0,0,0,0,0,0,0,0,0,0,0,0,0,0,0,0,0,0,0,0,0,0,0,0,0,0,0,0,0,0,0,0,0,0,0,0,0,0,0,0,0,0,0,0,0,0,0,0,0,0,0,0,0,0,0,0,0,0],"split_type":[0,0,0,0,0,0,0,0,0,0,0,0,0,0,0,0,0,0,0,0,0,0,0,0,0,0,0,0,0,0,0,0,0,0,0,0,0,0,0,0,0,0,0,0,0,0,0,0,0,0,0,0,0,0,0,0,0,0,0,0,0,0,0,0,0,0,0,0,0,0,0,0,0,0,0,0,0,0,0,0,0,0,0,0,0,0,0,0,0,0,0,0,0,0,0,0,0,0,0,0,0,0,0,0,0,0,0,0,0,0,0,0,0,0,0,0,0,0,0,0,0,0,0,0,0,0,0,0,0,0,0,0,0,0,0,0,0,0,0,0,0,0,0,0,0,0,0],"sum_hessian":[7.089E3,2.035E3,5.054E3,2.6E1,2.009E3,3.178E3,1.876E3,7E2,1.309E3,2.11E3,1.068E3,1.581E3,2.95E2,6.91E2,9E0,4.9E1,1.26E3,2.46E2,1.864E3,8.95E2,1.73E2,8.44E2,7.37E2,2.79E2,1.6E1,1.93E2,4.98E2,1.7E1,3.2E1,9.77E2,2.83E2,1.25E2,1.21E2,9.07E2,9.57E2,2.92E2,6.03E2,8.7E1,8.6E1,5.7E1,7.87E2,2.08E2,5.29E2,1.63E2,1.16E2,8E0,8E0,4.2E1,1.51E2,4.65E2,3.3E1,9E0,8E0,2.1E1,1.1E1,5.4E1,9.23E2,2.19E2,6.4E1,1.17E2,8E0,1.2E1,1.09E2,1E1,8.97E2,1.1E1,9.46E2,2.3E1,2.69E2,5.94E2,9E0,9E0,7.8E1,5.9E1,2.7E1,3E1,2.7E1,3.41E2,4.46E2,8.5E1,1.23E2,3.01E2,2.28E2,9E1,7.3E1,7.1E1,4.5E1,3E1,1.2E1,1.33E2,1.8E1,4E1,4.25E2,2E1,1.3E1,1.2E1,9E0,4.5E1,9E0,8.85E2,3.8E1,6.8E1,1.51E2,3.7E1,2.7E1,6.8E1,4.9E1,5E1,5.9E1,2.99E2,5.98E2,3.28E2,6.18E2,8E0,2.61E2,4.69E2,1.25E2,4.9E1,2.9E1,5.1E1,8E0,1.8E1,9E0,2.2E1,8E0,8E0,1.9E1,3E1,3.11E2,1.3E1,4.33E2,9E0,7.6E1,8.9E1,3.4E1,1.45E2,1.56E2,7.8E1,1.5E2,2.9E1,6.1E1,3.6E1,3.7E1,1.2E1,5.9E1,3.5E1,1E1],"tree_param":{"num_deleted":"0","num_feature":"38","num_nodes":"147","size_leaf_vector":"1"}},{"base_weights":[4.1387178E-4,-2.6924405E-1,2.3147218E-1,-1.5351287E0,-2.1163093E-1,6.8384305E-2,4.2867842E-1,-4.11017E-1,-2.7496483E0,-5.2263486E-1,-1.08834E-1,1.4557208E-1,-8.5383624E-2,3.2866052E-1,5.5390865E-1,-2.5694342E-2,-1.3587773E0,-3.1756163E0,-3.5282401E-3,-8.077118E-2,-7.130201E-1,-8.61795E-1,-8.6031295E-2,4.6682355E-1,8.9288935E-2,1.0880491E-1,-1.3456444E-1,3.7639555E-1,2.097839E-1,5.688478E-1,-4.8580365E-3,-6.525689E-1,2.766637E-1,-3.5270203E-2,-2.2569294E-3,-3.7715392E0,-1.8755244E0,1.3726985E-1,-2.554552E-1,-5.996225E-1,-1.5017111E0,-4.8189882E-2,-9.700427E-2,-1.241626E-2,-2.3420735E-1,5.2513105E-1,-4.3729376E-3,-1.1514976E0,1.1025647E-1,3.160609E-1,1.18320715E-2,-5.5804983E-2,-3.123058E-1,3.1083697E-1,4.2981228E-1,2.3462994E-1,-5.0341883E-3,4.2457357E-1,6.189601E-1,-1.9199291E-2,2.433921E-4,4.4793254E-1,-1.2717837E-3,-6.375807E-2,-3.345675E-2,-8.484593E-3,-4.0637724E-2,2.3588555E-1,-9.068906E-3,-4.2202628E-1,6.1172795E-2,-8.840166E-1,-4.350619E-1,-1.0361673E0,-4.320064E-2,-1.8551525E-2,-6.534444E-3,-1.1927737E-1,1.156809E-1,-1.9701298E-1,-6.531193E-1,2.1952876E-1,6.2024873E-1,-2.640584E-3,-3.1564888E-2,2.717122E-2,2.0193893E-1,9.1405876E-2,6.856171E-3,-3.5603293E-3,5.5732716E-2,6.4201476E-3,-7.7490255E-2,-4.9128917E-1,-1.5843393E-1,1.964833E-1,3.4851438E-1,1.4903359E-1,4.4222766E-1,1.5654004E-1,3.7024754E-1,5.1755345E-1,3.0159557E-1,5.5672795E-1,1.0901976E-2,9.56935E-3,7.624486E-4,-2.0079426E-3,4.995969E-3,-9.057451E-3,-1.2979405E-3,4.0744683E-3,-2.6613146E-3,-2.4510207E-2,-9.859167E-3,-1.0938791E-2,-4.9742856E-3,-5.055646E-3,-2.1123877E-2,-2.2346016E-3,1.9911844E-3,8.653219E-3,-1.9751263E-3,2.0364728E-3,-1.450899E-2,-2.5432382E-3,-9.623574E-3,-6.2026987E-3,-2.2285188E-2,5.3699105E-3,-4.7710543E-3,7.5545916E-3,1.1778643E-2,5.750441E-4,-9.9011455E-3,3.1272415E-3,-1.4498602E-3,4.8836186E-3,-1.6281286E-3,-7.265689E-4,3.3230004E-3,-1.0445049E-2,-9.045494E-4,-1.7566636E-2,-5.7260944E-3,-1.6630901E-3,-8.105799E-3,4.0875487E-3,-0E0,2.6352184E-3,5.315658E-3,8.4017037E-4,3.2095546E-3,1.2909883E-2,6.3029914E-3,3.772307E-3,-2.7612378E-4,8.17668E-3,4.2504994E-3,2.189397E-3,8.323141E-3,6.1661773E-3,2.5564707E-3,9.137256E-3,7.477496E-3],"categories":[],"categories_nodes":[],"categories_segments":[],"categories_sizes":[],"default_left":[0,0,0,0,0,0,0,0,0,0,0,0,0,0,0,0,0,0,0,0,0,0,0,0,0,0,0,0,0,0,0,0,0,0,0,0,0,0,0,0,0,0,0,0,0,0,0,0,0,0,0,0,0,0,0,0,0,0,0,0,0,0,0,0,0,0,0,0,0,0,0,0,0,0,0,0,0,0,0,0,0,0,0,0,0,0,0,0,0,0,0,0,0,0,0,0,0,0,0,0,0,0,0,0,0,0,0,0,0,0,0,0,0,0,0,0,0,0,0,0,0,0,0,0,0,0,0,0,0,0,0,0,0,0,0,0,0,0,0,0,0,0,0,0,0,0,0,0,0,0,0,0,0,0,0,0,0,0,0,0,0,0,0,0,0],"id":10,"left_children":[1,3,5,7,9,11,13,15,17,19,21,23,25,27,29,31,33,35,-1,37,39,41,43,45,47,49,51,53,55,57,-1,59,61,-1,-1,63,65,67,69,71,73,-1,75,77,79,81,-1,83,85,87,89,91,93,95,97,99,-1,101,103,-1,-1,105,-1,-1,-1,-1,-1,107,-1,109,111,113,115,117,-1,119,-1,121,123,125,127,129,131,-1,-1,133,135,137,-1,-1,139,-1,141,143,145,147,149,151,153,155,157,159,161,163,-1,-1,-1,-1,-1,-1,-1,-1,-1,-1,-1,-1,-1,-1,-1,-1,-1,-1,-1,-1,-1,-1,-1,-1,-1,-1,-1,-1,-1,-1,-1,-1,-1,-1,-1,-1,-1,-1,-1,-1,-1,-1,-1,-1,-1,-1,-1,-1,-1,-1,-1,-1,-1,-1,-1,-1,-1,-1,-1,-1,-1],"loss_changes":[4.4097815E2,2.3742043E2,1.2249245E2,1.9124295E2,9.9767075E1,2.4820368E1,2.1187653E1,2.7480381E1,7.093274E1,6.508061E1,4.0151104E1,2.5034552E1,6.702716E0,5.2684174E0,1.0358871E1,1.093893E1,2.5258549E1,3.1483582E1,0E0,9.056154E0,4.6625305E1,1.2280491E2,2.4892664E1,9.443138E0,3.1000471E1,2.8104043E0,7.7543554E0,