{"learner":{"attributes":{"best_iteration":"215","best_score":"0.1884399738247299","scikit_learn":"{\"_estimator_type\": \"regressor\"}"},"feature_names":[],"feature_types":[],"gradient_booster":{"model":{"cats":{"enc":[],"feature_segments":[],"sorted_idx":[]},"gbtree_model_param":{"num_parallel_tree":"1","num_trees":"336"},"iteration_indptr":[0,1,2,3,4,5,6,7,8,9,10,11,12,13,14,15,16,17,18,19,20,21,22,23,24,25,26,27,28,29,30,31,32,33,34,35,36,37,38,39,40,41,42,43,44,45,46,47,48,49,50,51,52,53,54,55,56,57,58,59,60,61,62,63,64,65,66,67,68,69,70,71,72,73,74,75,76,77,78,79,80,81,82,83,84,85,86,87,88,89,90,91,92,93,94,95,96,97,98,99,100,101,102,103,104,105,106,107,108,109,110,111,112,113,114,115,116,117,118,119,120,121,122,123,124,125,126,127,128,129,130,131,132,133,134,135,136,137,138,139,140,141,142,143,144,145,146,147,148,149,150,151,152,153,154,155,156,157,158,159,160,161,162,163,164,165,166,167,168,169,170,171,172,173,174,175,176,177,178,179,180,181,182,183,184,185,186,187,188,189,190,191,192,193,194,195,196,197,198,199,200,201,202,203,204,205,206,207,208,209,210,211,212,213,214,215,216,217,218,219,220,221,222,223,224,225,226,227,228,229,230,231,232,233,234,235,236,237,238,239,240,241,242,243,244,245,246,247,248,249,250,251,252,253,254,255,256,257,258,259,260,261,262,263,264,265,266,267,268,269,270,271,272,273,274,275,276,277,278,279,280,281,282,283,284,285,286,287,288,289,290,291,292,293,294,295,296,297,298,299,300,301,302,303,304,305,306,307,308,309,310,311,312,313,314,315,316,317,318,319,320,321,322,323,324,325,326,327,328,329,330,331,332,333,334,335,336],"tree_info":[0,0,0,0,0,0,0,0,0,0,0,0,0,0,0,0,0,0,0,0,0,0,0,0,0,0,0,0,0,0,0,0,0,0,0,0,0,0,0,0,0,0,0,0,0,0,0,0,0,0,0,0,0,0,0,0,0,0,0,0,0,0,0,0,0,0,0,0,0,0,0,0,0,0,0,0,0,0,0,0,0,0,0,0,0,0,0,0,0,0,0,0,0,0,0,0,0,0,0,0,0,0,0,0,0,0,0,0,0,0,0,0,0,0,0,0,0,0,0,0,0,0,0,0,0,0,0,0,0,0,0,0,0,0,0,0,0,0,0,0,0,0,0,0,0,0,0,0,0,0,0,0,0,0,0,0,0,0,0,0,0,0,0,0,0,0,0,0,0,0,0,0,0,0,0,0,0,0,0,0,0,0,0,0,0,0,0,0,0,0,0,0,0,0,0,0,0,0,0,0,0,0,0,0,0,0,0,0,0,0,0,0,0,0,0,0,0,0,0,0,0,0,0,0,0,0,0,0,0,0,0,0,0,0,0,0,0,0,0,0,0,0,0,0,0,0,0,0,0,0,0,0,0,0,0,0,0,0,0,0,0,0,0,0,0,0,0,0,0,0,0,0,0,0,0,0,0,0,0,0,0,0,0,0,0,0,0,0,0,0,0,0,0,0,0,0,0,0,0,0,0,0,0,0,0,0,0,0,0,0,0,0,0,0,0,0,0,0,0,0,0,0,0,0,0,0,0,0,0,0,0,0,0,0,0,0],"trees":[{"base_weights":[-4.7169687E-4,-1.5321974E-1,4.342893E-1,-2.200895E-1,2.9763332E-1,2.697606E-1,7.641983E-1,-3.196863E-1,-5.712803E-2,7.576819E-1,1.14887446E-1,2.3884375E-1,8.4145796E-1,5.659469E-1,9.7031355E-1,-3.7907194E-3,-3.998678E-1,3.6207053E-1,-8.648643E-2,2.1460658E-1,8.399366E-1,3.3337936E-2,7.287376E-1,1.5187149E-1,3.976833E-1,1.0494864E0,4.7196187E-3,-0E0,6.122972E-1,7.387225E-1,1.0354166E0,-1.3187157E-1,6.819714E-1,-5.207252E-1,-3.1291604E-1,1.2233069E-2,1.9752136E-1,-3.8104594E-1,-3.2416478E-2,6.959682E-3,-4.9822376E-4,3.0504065E-3,8.7640727E-1,-8.555514E-2,3.5821185E-1,9.7231406E-1,2.2982399E-3,5.514974E-1,9.714848E-2,2.850866E-1,4.575696E-1,9.722465E-3,1.8005617E-2,1.0702962E-2,-1.3983805E-2,6.7200595E-1,3.5000277E-1,5.4486375E-3,1.16918245E-2,1.7426271E-2,1.2929025E-2,-5.963176E-3,-2.3480573E-1,8.3063984E-1,2.0236942E-1,-5.4585564E-1,3.0692393E-1,-3.7152502E-1,-2.4225812E-1,2.8060555E-1,-1.1679935E-3,-1.3626787E-1,-7.468793E-1,-1.0475379E-1,2.0477374E-1,6.0130097E-3,1.3577441E-2,-2.5843567E-1,2.039751E-2,4.368562E-1,-2.0053396E-3,5.6673493E-3,1.7581144E-2,7.918608E-1,-2.0743052E-2,1.7270807E-2,1.776482E-1,1.1054091E-3,4.5803715E-3,7.7669197E-3,5.5844E-3,8.270228E-3,7.4820256E-1,1.4877544E-1,7.957482E-3,-7.812733E-3,3.5085855E-4,-4.245999E-3,1.2354343E-3,4.8671523E-3,1.3695101E-2,5.945645E-3,-7.6369185E-4,-1.0617257E-2,-6.9632893E-3,6.128061E-4,6.867707E-3,-5.3671445E-3,-1.0045111E-2,3.7315176E-4,-4.0754266E-3,5.1066307E-3,-4.6145264E-4,-3.955168E-3,4.2541656E-3,-1.4074248E-2,-3.7557604E-3,-2.6103766E-3,-6.9542864E-4,3.746058E-3,-6.634966E-3,-5.3720954E-3,5.5431603E-3,-5.7347945E-4,2.6064941E-3,1.2243142E-2,5.4598018E-3,3.0019342E-3,1.4093709E-2,1.1940945E-3,-1.6636709E-3,1.5631097E-3,-6.271815E-4,2.0230338E-3,3.5184612E-3,1.1881648E-2,6.1232285E-3,-0E0,4.097241E-3],"categories":[],"categories_nodes":[],"categories_segments":[],"categories_sizes":[],"default_left":[0,0,0,0,0,0,0,0,0,0,0,0,0,0,0,0,0,0,0,0,0,0,0,0,0,0,0,0,0,0,0,0,0,0,0,0,0,0,0,0,0,0,0,0,0,0,0,0,0,0,0,0,0,0,0,0,0,0,0,0,0,0,0,0,0,0,0,0,0,0,0,0,0,0,0,0,0,0,0,0,0,0,0,0,0,0,0,0,0,0,0,0,0,0,0,0,0,0,0,0,0,0,0,0,0,0,0,0,0,0,0,0,0,0,0,0,0,0,0,0,0,0,0,0,0,0,0,0,0,0,0,0,0,0,0,0,0,0,0],"id":0,"left_children":[1,3,5,7,9,11,13,15,17,19,21,23,25,27,29,31,33,35,37,39,41,43,45,47,49,51,-1,53,55,57,59,61,63,65,67,-1,69,71,73,-1,-1,-1,75,77,79,81,-1,83,85,87,89,-1,-1,-1,-1,91,93,-1,-1,-1,-1,95,97,99,101,103,105,107,109,111,-1,113,115,117,119,-1,-1,121,123,125,-1,-1,-1,127,129,131,133,-1,-1,-1,-1,-1,135,137,-1,-1,-1,-1,-1,-1,-1,-1,-1,-1,-1,-1,-1,-1,-1,-1,-1,-1,-1,-1,-1,-1,-1,-1,-1,-1,-1,-1,-1,-1,-1,-1,-1,-1,-1,-1,-1,-1,-1,-1,-1,-1,-1,-1,-1],"loss_changes":[3.7269717E2,1.25352104E2,7.857471E1,5.8626083E1,4.479804E1,1.6650558E1,1.8371979E1,5.67798E1,1.694194E1,6.218498E0,1.9171898E1,1.2616913E1,4.436798E0,6.638977E0,1.6434784E0,4.0209526E1,1.8318054E1,6.1908073E0,2.0406345E1,1.5383703E0,2.468933E0,1.3402915E1,5.785206E0,1.2993697E1,1.795536E0,1.3307571E-1,0E0,1.5309611E1,2.974266E0,1.07559204E-1,1.4718323E0,4.9646735E0,4.590927E0,1.5878281E1,4.033058E0,0E0,1.6629922E0,1.743987E1,1.8741951E1,0E0,0E0,0E0,6.9503784E-1,4.6923895E0,3.7751675E0,2.4858055E0,0E0,1.0090364E1,3.395E0,3.934126E-1,5.098114E-1,0E0,0E0,0E0,0E0,6.342697E-1,1.4496899E0,0E0,0E0,0E0,0E0,2.7990046E0,3.331811E0,1.4113274E0,1.0922241E0,8.681122E0,7.864423E-1,1.633873E0,3.853159E0,1.0889688E0,0E0,6.6721845E0,6.7998657E0,3.3293982E0,7.6019154E0,0E0,0E0,6.3357906E0,1.4611188E0,1.408886E0,0E0,0E0,0E0,3.8539238E0,2.320312E-1,1.4183108E0,5.0807E-1,0E0,0E0,0E0,0E0,0E0,7.254448E-1,4.6906096E-1,0E0,0E0,0E0,0E0,0E0,0E0,0E0,0E0,0E0,0E0,0E0,0E0,0E0,0E0,0E0,0E0,0E0,0E0,0E0,0E0,0E0,0E0,0E0,0E0,0E0,0E0,0E0,0E0,0E0,0E0,0E0,0E0,0E0,0E0,0E0,0E0,0E0,0E0,0E0,0E0,0E0,0E0,0E0,0E0,0E0],"parents":[2147483647,0,0,1,1,2,2,3,3,4,4,5,5,6,6,7,7,8,8,9,9,10,10,11,11,12,12,13,13,14,14,15,15,16,16,17,17,18,18,19,19,20,20,21,21,22,22,23,23,24,24,25,25,27,27,28,28,29,29,30,30,31,31,32,32,33,33,34,34,36,36,37,37,38,38,42,42,43,43,44,44,45,45,47,47,48,48,49,49,50,50,55,55,56,56,61,61,62,62,63,63,64,64,65,65,66,66,67,67,68,68,69,69,71,71,72,72,73,73,74,74,77,77,78,78,79,79,83,83,84,84,85,85,86,86,92,92,93,93],"right_children":[2,4,6,8,10,12,14,16,18,20,22,24,26,28,30,32,34,36,38,40,42,44,46,48,50,52,-1,54,56,58,60,62,64,66,68,-1,70,72,74,-1,-1,-1,76,78,80,82,-1,84,86,88,90,-1,-1,-1,-1,92,94,-1,-1,-1,-1,96,98,100,102,104,106,108,110,112,-1,114,116,118,120,-1,-1,122,124,126,-1,-1,-1,128,130,132,134,-1,-1,-1,-1,-1,136,138,-1,-1,-1,-1,-1,-1,-1,-1,-1,-1,-1,-1,-1,-1,-1,-1,-1,-1,-1,-1,-1,-1,-1,-1,-1,-1,-1,-1,-1,-1,-1,-1,-1,-1,-1,-1,-1,-1,-1,-1,-1,-1,-1,-1,-1],"split_conditions":[1.5191668E1,7.971735E2,9.899437E2,4.727571E2,2.5279081E1,1.7656521E3,1.1018008E3,2.5021723E1,1.6286583E1,2.067E1,1.9242931E3,7.3446576E2,-7.0710677E-1,5.42039E1,1.733E1,2.3823009E2,9.966553E0,2.4709278E1,1.0808334E1,-2.5881904E-1,1.8797611E1,7.0557074E2,3.3669056E1,2.6272638E1,1.6893333E1,7.329613E2,4.7196187E-3,3.6731777E1,3.65E0,-7.0710677E-1,1.4E1,-2.4492937E-16,1.7848468E0,1.7E1,1.1891667E1,1.2233069E-2,1.2449582E2,3.210197E1,6.946844E2,6.959682E-3,-4.9822376E-4,3.0504065E-3,4.5882497E0,1.1360001E1,1.4806995E3,2.7724442E0,2.2982399E-3,1E0,6.0634235E2,4.9390863E2,1.9883333E1,9.722465E-3,1.8005617E-2,1.0702962E-2,-1.3983805E-2,1.2196178E3,6.123234E-17,5.4486375E-3,1.16918245E-2,1.7426271E-2,1.2929025E-2,1.9636667E1,1.3381458E1,2.70595E2,1.5860724E1,1.7524584E1,1.1876044E1,3.3271835E1,3.494741E2,3.135064E1,-1.1679935E-3,7.005989E2,5E-1,5.246217E2,4.693347E1,6.0130097E-3,1.3577441E-2,1.4330556E1,6.0164594E2,3.229233E1,-2.0053396E-3,5.6673493E-3,1.7581144E-2,5E-1,6.114011E1,3.9972222E0,1.6893333E1,1.1054091E-3,4.5803715E-3,7.7669197E-3,5.5844E-3,8.270228E-3,4.2561195E1,5.0984012E2,7.957482E-3,-7.812733E-3,3.5085855E-4,-4.245999E-3,1.2354343E-3,4.8671523E-3,1.3695101E-2,5.945645E-3,-7.6369185E-4,-1.0617257E-2,-6.9632893E-3,6.128061E-4,6.867707E-3,-5.3671445E-3,-1.0045111E-2,3.7315176E-4,-4.0754266E-3,5.1066307E-3,-4.6145264E-4,-3.955168E-3,4.2541656E-3,-1.4074248E-2,-3.7557604E-3,-2.6103766E-3,-6.9542864E-4,3.746058E-3,-6.634966E-3,-5.3720954E-3,5.5431603E-3,-5.7347945E-4,2.6064941E-3,1.2243142E-2,5.4598018E-3,3.0019342E-3,1.4093709E-2,1.1940945E-3,-1.6636709E-3,1.5631097E-3,-6.271815E-4,2.0230338E-3,3.5184612E-3,1.1881648E-2,6.1232285E-3,-0E0,4.097241E-3],"split_indices":[4,14,13,13,21,14,14,21,24,3,15,13,7,14,4,13,4,21,4,7,22,13,21,22,4,15,0,24,1,7,29,9,23,1,4,0,14,22,13,0,0,0,24,4,13,23,0,31,13,18,3,0,0,0,0,13,8,0,0,0,0,3,24,13,14,24,14,21,13,22,0,13,9,13,21,0,0,1,13,21,0,0,0,10,15,1,4,0,0,0,0,0,21,20,0,0,0,0,0,0,0,0,0,0,0,0,0,0,0,0,0,0,0,0,0,0,0,0,0,0,0,0,0,0,0,0,0,0,0,0,0,0,0,0,0,0,0,0,0],"split_type":[0,0,0,0,0,0,0,0,0,0,0,0,0,0,0,0,0,0,0,0,0,0,0,0,0,0,0,0,0,0,0,0,0,0,0,0,0,0,0,0,0,0,0,0,0,0,0,0,0,0,0,0,0,0,0,0,0,0,0,0,0,0,0,0,0,0,0,0,0,0,0,0,0,0,0,0,0,0,0,0,0,0,0,0,0,0,0,0,0,0,0,0,0,0,0,0,0,0,0,0,0,0,0,0,0,0,0,0,0,0,0,0,0,0,0,0,0,0,0,0,0,0,0,0,0,0,0,0,0,0,0,0,0,0,0,0,0,0,0],"sum_hessian":[5.609E3,4.152E3,1.457E3,3.617E3,5.35E2,9.75E2,4.82E2,2.243E3,1.374E3,1.5E2,3.85E2,9.28E2,4.7E1,2.5E2,2.32E2,4.55E2,1.788E3,8.8E1,1.286E3,2.1E1,1.29E2,3.42E2,4.3E1,6.03E2,3.25E2,3.2E1,1.5E1,1.9E1,2.31E2,5.7E1,1.75E2,3.85E2,7E1,7.43E2,1.045E3,2.1E1,6.7E1,1.97E2,1.089E3,1E1,1.1E1,8E0,1.21E2,2.51E2,9.1E1,2.9E1,1.4E1,7E1,5.33E2,1.18E2,2.07E2,1.2E1,2E1,1.1E1,8E0,1.85E2,4.6E1,8E0,4.9E1,9.4E1,8.1E1,1.75E2,2.1E2,5.2E1,1.8E1,7.22E2,2.1E1,5.65E2,4.8E2,5.2E1,1.5E1,1.2E2,7.7E1,8.36E2,2.53E2,9E0,1.12E2,9.5E1,1.56E2,7.9E1,1.2E1,9E0,2E1,4.9E1,2.1E1,2.7E2,2.63E2,1.2E1,1.06E2,1.14E2,9.3E1,7.9E1,1.06E2,2.4E1,2.2E1,8E0,1.67E2,1.83E2,2.7E1,9E0,4.3E1,1E1,8E0,2.36E2,4.86E2,9E0,1.2E1,5.45E2,2E1,4.7E1,4.33E2,4.4E1,8E0,9.3E1,2.7E1,5.4E1,2.3E1,3.79E2,4.57E2,2.38E2,1.5E1,8.3E1,1.2E1,1.13E2,4.3E1,9E0,7E1,1.1E1,3.8E1,9E0,1.2E1,1.1E2,1.6E2,1.56E2,1.07E2,9.1E1,1.5E1,1.2E1,1.2E1],"tree_param":{"num_deleted":"0","num_feature":"35","num_nodes":"139","size_leaf_vector":"1"}},{"base_weights":[-5.376527E-4,3.4392908E-1,-1.9960566E-1,1.8254642E-1,6.416519E-1,-2.6527673E-1,1.2279312E-1,2.3694335E-1,-2.5191644E-1,4.777116E-1,8.561724E-1,2.3399223E-2,-3.2947567E-1,6.411981E-2,1.0426695E0,3.9670736E-1,1.1572435E-1,-1.0134343E0,-5.100003E-2,8.834063E-1,3.75264E-1,3.566866E-1,9.506355E-1,-9.4697945E-2,5.977543E-1,-1.789565E-1,-4.3581155E-1,-8.582573E-3,2.6463917E-1,1.8517526E-2,4.1550817E-3,3.1644425E-1,6.3473046E-1,4.9584955E-1,8.381604E-2,-1.1286749E-2,-1.9994406E-2,-3.487498E-1,1.3184522E-1,1.8034122E-3,1.0208102E0,1.2327831E-1,5.3211635E-1,-1.4212477E-3,5.287279E-1,1.2729667E-2,1.674386E-2,-1.2599891E-1,3.9876902E-1,7.5684386E-1,1.672361E-1,-1.07101865E-1,-2.5272855E-1,-5.5777425E-1,-3.662425E-1,7.971139E-3,-2.4793612E-2,3.9300135E-1,-3.2933486E-1,-1.5559182E-1,3.5588932E-1,1.649777E-2,5.410327E-1,7.527809E-5,6.540743E-1,-1.1084764E-1,1.6452831E-1,-1.5544422E-2,-1.4944339E-1,4.1160944E-1,-4.4334307E-2,8.091515E-3,1.6075531E-2,-3.2110035E-1,2.1981041E-1,1.5142209E-2,4.569751E-1,9.8060435E-3,2.3184485E-4,9.1840364E-2,-1.5865214E-1,-3.6120598E-4,5.89872E-1,5.046148E-3,8.07035E-1,-2.9671702E-3,3.430362E-1,-1.4020073E-1,7.2150776E-4,-2.9532567E-1,-1.376363E-1,4.8925485E-2,-5.9481806E-1,-4.0880218E-1,-3.0015206E-1,2.1821484E-2,-2.1479373E-1,2.7471E-1,6.825265E-1,-8.645401E-3,-0E0,6.183649E-3,-9.339163E-3,-7.589359E-4,5.926587E-3,6.544438E-3,1.2572391E-2,3.7652035E-3,1.2775608E-2,-8.394382E-3,-9.997371E-4,1.5989476E-3,4.3813586E-3,-4.5706215E-3,8.166617E-4,2.6327108E-3,7.0862337E-3,6.625181E-4,-4.1979537E-3,-1.0560172E-3,-8.795988E-3,7.639436E-3,2.2488963E-3,1.2704262E-3,7.1470747E-3,-2.4901684E-3,4.315155E-3,-6.706184E-3,-1.9383428E-3,2.9615283E-3,1.2318021E-2,6.3478434E-3,1.2978049E-2,9.379086E-3,5.1000033E-4,1.5484978E-3,-2.203425E-3,-1.0027095E-3,2.3829835E-3,-4.6288436E-3,-9.904136E-4,-2.2860854E-3,9.505524E-4,2.7564291E-3,-3.1719177E-3,-7.7848183E-3,-1.17168175E-2,-4.0861494E-3,-6.279769E-3,-4.6347533E-3,8.539485E-4,2.5880977E-3,-0E0,9.782604E-4,-3.8741026E-3,3.0049714E-3,1.0993624E-2,3.6552397E-3,1.1806445E-2],"categories":[],"categories_nodes":[],"categories_segments":[],"categories_sizes":[],"default_left":[0,0,0,0,0,0,0,0,0,0,0,0,0,0,0,0,0,0,0,0,0,0,0,0,0,0,0,0,0,0,0,0,0,0,0,0,0,0,0,0,0,0,0,0,0,0,0,0,0,0,0,0,0,0,0,0,0,0,0,0,0,0,0,0,0,0,0,0,0,0,0,0,0,0,0,0,0,0,0,0,0,0,0,0,0,0,0,0,0,0,0,0,0,0,0,0,0,0,0,0,0,0,0,0,0,0,0,0,0,0,0,0,0,0,0,0,0,0,0,0,0,0,0,0,0,0,0,0,0,0,0,0,0,0,0,0,0,0,0,0,0,0,0,0,0,0,0,0,0,0,0,0,0,0,0,0,0,0,0],"id":1,"left_children":[1,3,5,7,9,11,13,15,17,19,21,23,25,27,29,31,33,35,37,39,41,43,45,47,49,51,53,55,57,-1,-1,59,61,63,65,-1,-1,67,69,-1,71,73,75,-1,77,-1,-1,79,81,83,85,87,89,91,93,-1,95,97,99,101,103,-1,105,-1,107,109,111,-1,113,115,117,-1,-1,119,121,-1,123,-1,-1,125,127,-1,129,-1,131,-1,133,135,137,139,141,143,145,147,149,151,153,155,157,-1,-1,-1,-1,-1,-1,-1,-1,-1,-1,-1,-1,-1,-1,-1,-1,-1,-1,-1,-1,-1,-1,-1,-1,-1,-1,-1,-1,-1,-1,-1,-1,-1,-1,-1,-1,-1,-1,-1,-1,-1,-1,-1,-1,-1,-1,-1,-1,-1,-1,-1,-1,-1,-1,-1,-1,-1,-1,-1,-1],"loss_changes":[3.8685623E2,9.886664E1,7.580571E1,3.185611E1,2.4412384E1,5.5155792E1,3.2352077E1,2.2948578E1,2.263396E1,1.6375214E1,1.3734299E1,3.6977528E1,3.8646667E1,8.394505E0,4.3014145E0,9.227753E0,8.085157E0,1.6207695E-1,6.7228403E0,8.125168E0,1.3017971E1,4.3032713E0,2.104309E0,7.012078E0,5.9317017E0,5.2330704E0,1.148053E1,3.6103895E0,1.19368925E1,0E0,0E0,7.393799E0,4.0164757E0,3.9000196E0,9.992747E0,0E0,0E0,5.8936267E0,3.8558955E0,0E0,2.1191406E-1,5.783283E0,6.1732597E0,0E0,2.34832E0,0E0,0E0,3.0727086E0,2.3233767E0,6.421585E-1,1.9616687E0,1.8731837E0,2.2638016E0,1.1674301E1,2.18087E0,0E0,3.688144E0,3.7830944E0,2.278135E0,8.776293E0,5.8476067E0,0E0,2.4369507E0,0E0,2.4585419E0,3.4895146E0,3.1760626E0,0E0,1.3178368E0,1.352644E-1,1.0724142E0,0E0,0E0,1.3823185E0,1.9407849E0,0E0,1.128048E0,0E0,0E0,2.9476686E0,2.9268026E0,0E0,1.196866E0,0E0,3.0503464E-1,0E0,1.5700507E0,6.860161E-1,1.343287E0,9.7618866E-1,4.4977856E-1,1.1605754E0,5.7527313E0,3.6985016E-1,1.2429543E0,1.0629553E0,1.0706346E0,2.7232347E0,1.016386E0,0E0,0E0,0E0,0E0,0E0,0E0,0E0,0E0,0E0,0E0,0E0,0E0,0E0,0E0,0E0,0E0,0E0,0E0,0E0,0E0,0E0,0E0,0E0,0E0,0E0,0E0,0E0,0E0,0E0,0E0,0E0,0E0,0E0,0E0,0E0,0E0,0E0,0E0,0E0,0E0,0E0,0E0,0E0,0E0,0E0,0E0,0E0,0E0,0E0,0E0,0E0,0E0,0E0,0E0,0E0,0E0,0E0,0E0,0E0,0E0],"parents":[2147483647,0,0,1,1,2,2,3,3,4,4,5,5,6,6,7,7,8,8,9,9,10,10,11,11,12,12,13,13,14,14,15,15,16,16,17,17,18,18,19,19,20,20,21,21,22,22,23,23,24,24,25,25,26,26,27,27,28,28,31,31,32,32,33,33,34,34,37,37,38,38,40,40,41,41,42,42,44,44,47,47,48,48,49,49,50,50,51,51,52,52,53,53,54,54,56,56,57,57,58,58,59,59,60,60,62,62,64,64,65,65,66,66,68,68,69,69,70,70,73,73,74,74,76,76,79,79,80,80,82,82,84,84,86,86,87,87,88,88,89,89,90,90,91,91,92,92,93,93,94,94,95,95,96,96,97,97,98,98],"right_children":[2,4,6,8,10,12,14,16,18,20,22,24,26,28,30,32,34,36,38,40,42,44,46,48,50,52,54,56,58,-1,-1,60,62,64,66,-1,-1,68,70,-1,72,74,76,-1,78,-1,-1,80,82,84,86,88,90,92,94,-1,96,98,100,102,104,-1,106,-1,108,110,112,-1,114,116,118,-1,-1,120,122,-1,124,-1,-1,126,128,-1,130,-1,132,-1,134,136,138,140,142,144,146,148,150,152,154,156,158,-1,-1,-1,-1,-1,-1,-1,-1,-1,-1,-1,-1,-1,-1,-1,-1,-1,-1,-1,-1,-1,-1,-1,-1,-1,-1,-1,-1,-1,-1,-1,-1,-1,-1,-1,-1,-1,-1,-1,-1,-1,-1,-1,-1,-1,-1,-1,-1,-1,-1,-1,-1,-1,-1,-1,-1,-1,-1,-1,-1],"split_conditions":[4.0461373E0,8.2440027E2,5.468265E2,3.6205418E1,1.119558E3,2.4434223E1,1.4444769E3,3.6242657E0,1.4802786E1,2.3255083E1,1.6E1,7.2832367E2,8.833333E0,6.946844E2,2.8218416E1,7.078696E2,2.4741388E1,1.1027778E1,3.156468E2,1.6427561E0,7.429696E2,8.660254E-1,1.7870797E3,1.2097646E3,6.123234E-17,7.3E0,3.6945905E2,1.385669E1,3.197236E1,1.8517526E-2,4.1550817E-3,8.700001E0,2.1147501E1,3.003894E2,5.669833E2,-1.1286749E-2,-1.9994406E-2,3.75E0,5.008333E0,1.8034122E-3,2.7951587E2,2.3589447E0,2.8573305E1,-1.4212477E-3,3.579172E1,1.2729667E-2,1.674386E-2,1.2342618E1,1.9382444E1,1.9795973E1,1.5479387E1,6.009312E2,5.1792035E2,1.4150697E1,4.1395767E2,7.971139E-3,8.716666E0,8.9994763E2,1.2141504E1,1.1833694E1,1.9621922E0,1.649777E-2,1.1912E3,7.527809E-5,6.8E0,2.6173334E1,7.494E2,-1.5544422E-2,1.2800001E1,4.8617188E2,9.6E0,8.091515E-3,1.6075531E-2,4.9703307E0,2.7298555E1,1.5142209E-2,1.27316675E1,9.8060435E-3,2.3184485E-4,1.37568245E1,1.1900279E1,-3.6120598E-4,1.4735655E1,5.046148E-3,1.5923956E1,-2.9671702E-3,1.2140223E1,3.003894E2,2.0518333E1,8.941667E0,4.857587E0,3.702262E2,1.2816667E1,2.0103334E1,1.3433333E1,4.5E0,4.367188E0,1.1585063E3,1.2342618E1,-8.645401E-3,-0E0,6.183649E-3,-9.339163E-3,-7.589359E-4,5.926587E-3,6.544438E-3,1.2572391E-2,3.7652035E-3,1.2775608E-2,-8.394382E-3,-9.997371E-4,1.5989476E-3,4.3813586E-3,-4.5706215E-3,8.166617E-4,2.6327108E-3,7.0862337E-3,6.625181E-4,-4.1979537E-3,-1.0560172E-3,-8.795988E-3,7.639436E-3,2.2488963E-3,1.2704262E-3,7.1470747E-3,-2.4901684E-3,4.315155E-3,-6.706184E-3,-1.9383428E-3,2.9615283E-3,1.2318021E-2,6.3478434E-3,1.2978049E-2,9.379086E-3,5.1000033E-4,1.5484978E-3,-2.203425E-3,-1.0027095E-3,2.3829835E-3,-4.6288436E-3,-9.904136E-4,-2.2860854E-3,9.505524E-4,2.7564291E-3,-3.1719177E-3,-7.7848183E-3,-1.17168175E-2,-4.0861494E-3,-6.279769E-3,-4.6347533E-3,8.539485E-4,2.5880977E-3,-0E0,9.782604E-4,-3.8741026E-3,3.0049714E-3,1.0993624E-2,3.6552397E-3,1.1806445E-2],"split_indices":[30,14,13,22,13,22,14,30,18,22,4,14,0,13,22,15,22,1,15,30,13,10,13,15,10,0,13,24,22,0,0,4,22,13,13,0,0,0,0,0,15,30,22,0,22,0,0,14,22,22,13,14,14,18,13,0,0,13,19,24,30,0,13,0,0,22,13,0,4,19,1,0,0,26,22,0,4,0,0,13,19,0,13,0,15,0,24,13,3,1,30,19,0,3,0,0,30,15,14,0,0,0,0,0,0,0,0,0,0,0,0,0,0,0,0,0,0,0,0,0,0,0,0,0,0,0,0,0,0,0,0,0,0,0,0,0,0,0,0,0,0,0,0,0,0,0,0,0,0,0,0,0,0,0,0,0,0,0,0],"split_type":[0,0,0,0,0,0,0,0,0,0,0,0,0,0,0,0,0,0,0,0,0,0,0,0,0,0,0,0,0,0,0,0,0,0,0,0,0,0,0,0,0,0,0,0,0,0,0,0,0,0,0,0,0,0,0,0,0,0,0,0,0,0,0,0,0,0,0,0,0,0,0,0,0,0,0,0,0,0,0,0,0,0,0,0,0,0,0,0,0,0,0,0,0,0,0,0,0,0,0,0,0,0,0,0,0,0,0,0,0,0,0,0,0,0,0,0,0,0,0,0,0,0,0,0,0,0,0,0,0,0,0,0,0,0,0,0,0,0,0,0,0,0,0,0,0,0,0,0,0,0,0,0,0,0,0,0,0,0,0],"sum_hessian":[5.638E3,2.064E3,3.574E3,1.341E3,7.23E2,2.97E3,6.04E2,1.193E3,1.48E2,4.14E2,3.09E2,5.4E2,2.43E3,5.7E2,3.4E1,5.12E2,6.81E2,2.9E1,1.19E2,8E1,3.34E2,5.1E1,2.58E2,4.49E2,9.1E1,1.009E3,1.421E3,4.19E2,1.51E2,2.6E1,8E0,3.87E2,1.25E2,5E1,6.31E2,2E1,9E0,4.5E1,7.4E1,1.3E1,6.7E1,1.3E2,2.04E2,1.4E1,3.7E1,1.68E2,9E1,4.24E2,2.5E1,6.5E1,2.6E1,5.15E2,4.94E2,5.1E2,9.11E2,1E1,4.09E2,1.25E2,2.6E1,2.9E1,3.58E2,1.7E1,1.08E2,1.3E1,3.7E1,1.84E2,4.47E2,8E0,3.7E1,2.8E1,4.6E1,9E0,5.8E1,2.2E1,1.08E2,2.4E1,1.8E2,2.9E1,8E0,5.4E1,3.7E2,8E0,1.7E1,9E0,5.6E1,8E0,1.8E1,3.95E2,1.2E2,3.57E2,1.37E2,2.9E1,4.81E2,5.46E2,3.65E2,3.29E2,8E1,9.2E1,3.3E1,1.4E1,1.2E1,1.3E1,1.6E1,3.1E1,3.27E2,8.4E1,2.4E1,1.4E1,2.3E1,1.4E1,1.7E2,3.11E2,1.36E2,2.1E1,1.6E1,8E0,2E1,3.4E1,1.2E1,1.3E1,9E0,1.8E1,9E1,1E1,1.7E2,2.3E1,3.1E1,3.1E1,3.39E2,8E0,9E0,1E1,4.6E1,8E0,1E1,9E0,3.86E2,8.4E1,3.6E1,3.36E2,2.1E1,1.29E2,8E0,2E1,9E0,3.48E2,1.33E2,4.2E1,5.04E2,3.57E2,8E0,3.9E1,2.9E2,1E1,7E1,8.2E1,1E1,8E0,2.5E1],"tree_param":{"num_deleted":"0","num_feature":"35","num_nodes":"159","size_leaf_vector":"1"}},{"base_weights":[-5.4040486E-3,3.2941535E-1,-1.9381551E-1,1.6955453E-1,6.295518E-1,-2.3071684E-1,5.030688E-1,2.303105E-1,-1.8510133E-1,4.776698E-1,8.5195065E-1,-3.09837E-1,-6.5406887E-3,1.5321313E-1,9.1426504E-1,1.3402425E-1,3.915021E-1,-8.473817E-1,1.7780142E-2,9.068716E-1,3.7355188E-1,2.8506765E-1,9.558986E-1,-2.205494E-1,-4.412652E-1,-6.2209044E-2,2.3668078E-1,5.063265E-1,-1.4774981E-2,9.985615E-1,1.1878313E-3,5.1952916E-1,2.9484786E-2,-1.8320154E-1,4.1993225E-1,-1.452767E-2,-5.6326874E-3,-3.7515548E-1,2.3376967E-1,9.796289E-4,1.5311175E-2,1.3177742E-1,5.305689E-1,8.994108E-3,-1.1778252E-1,7.67358E-1,1.5972916E-2,-7.110705E-2,-2.7888548E-1,-6.7661077E-1,-3.846689E-1,7.074906E-3,-7.192633E-2,3.4022918E-1,-4.6763635E-1,-2.8024712E-3,7.9016334E-1,-1.4313735E-1,6.357603E-3,1.1378752E-2,1.8356403E-2,1.06015235E-1,7.431794E-1,-1.409751E-1,1.2276274E-1,3.961589E-3,-9.840687E-3,3.209851E-1,5.871937E-1,-1.9767998E-2,-1.4955935E-1,4.0098708E-2,5.799052E-1,-3.1431502E-1,2.368734E-1,1.5605487E-2,4.7026852E-1,-5.764038E-3,2.275019E-3,4.645085E-3,1.2000394E-2,-1.3561678E-1,4.94972E-1,-3.809948E-1,-1.975956E-1,1.8014099E-3,-7.1304834E-1,-4.6511164E-1,-3.2276845E-1,-2.2815251E-1,-3.2882966E-2,5.14275E-1,1.872837E-1,-2.9160657E-3,-9.693934E-3,7.827737E-3,1.5621498E-2,-2.518271E-1,3.7840956E-3,-2.41592E-4,9.400693E-3,1.3824269E-2,5.6866775E-3,-4.932909E-3,-7.247171E-4,3.5436204E-4,2.5668081E-3,5.2163512E-3,-5.9276945E-3,2.921748E-3,9.127702E-3,4.6583216E-5,-7.182213E-3,3.3536658E-3,-1.3989381E-3,5.5535864E-3,1.1951422E-2,-1.2630185E-3,-8.006869E-3,8.247168E-3,2.346977E-3,5.2739633E-3,8.3082095E-3,-2.464278E-3,4.855233E-3,4.0659956E-3,1.3175709E-2,-6.062349E-3,1.9168422E-3,-3.2616297E-3,1.7199008E-4,-1.23128E-2,-7.791997E-3,-7.3699453E-3,-4.222927E-3,-5.3233914E-3,-3.3597124E-3,2.595429E-4,-3.849146E-3,-1.2970179E-3,6.3902524E-4,1.0896646E-2,3.4584524E-3,1.0707465E-3,4.784699E-3,-4.580048E-4,-5.050363E-3,2.7547514E-3,-1.6177017E-3],"categories":[],"categories_nodes":[],"categories_segments":[],"categories_sizes":[],"default_left":[0,0,0,0,0,0,0,0,0,0,0,0,0,0,0,0,0,0,0,0,0,0,0,0,0,0,0,0,0,0,0,0,0,0,0,0,0,0,0,0,0,0,0,0,0,0,0,0,0,0,0,0,0,0,0,0,0,0,0,0,0,0,0,0,0,0,0,0,0,0,0,0,0,0,0,0,0,0,0,0,0,0,0,0,0,0,0,0,0,0,0,0,0,0,0,0,0,0,0,0,0,0,0,0,0,0,0,0,0,0,0,0,0,0,0,0,0,0,0,0,0,0,0,0,0,0,0,0,0,0,0,0,0,0,0,0,0,0,0,0,0,0,0,0,0,0,0,0,0],"id":2,"left_children":[1,3,5,7,9,11,13,15,17,19,21,23,25,27,29,31,33,35,37,39,41,43,45,47,49,51,53,55,57,59,-1,61,63,65,67,-1,-1,69,71,-1,-1,73,75,-1,77,79,-1,81,83,85,87,-1,89,91,93,-1,95,97,-1,-1,-1,99,101,103,105,-1,-1,107,109,-1,111,113,115,117,119,-1,121,-1,-1,-1,-1,123,125,127,129,-1,131,133,135,137,139,141,143,-1,-1,-1,-1,145,147,-1,-1,-1,-1,-1,-1,-1,-1,-1,-1,-1,-1,-1,-1,-1,-1,-1,-1,-1,-1,-1,-1,-1,-1,-1,-1,-1,-1,-1,-1,-1,-1,-1,-1,-1,-1,-1,-1,-1,-1,-1,-1,-1,-1,-1,-1,-1,-1,-1,-1],"loss_changes":[3.5601947E2,9.712218E1,9.3063675E1,2.8730885E1,2.2733917E1,6.0805542E1,2.5688751E1,1.7421272E1,2.6397118E1,1.8013931E1,1.588295E1,2.943274E1,1.2153238E1,6.104476E0,5.468994E0,2.86744E1,7.112564E0,1.6330566E0,1.296249E1,7.411827E0,1.2824833E1,6.1930895E0,2.888733E0,1.3097931E1,1.28932495E1,3.790535E0,1.2472189E1,6.9084635E0,4.006312E0,1.800087E0,0E0,1.3729923E1,9.014556E0,4.866561E0,6.1276245E0,0E0,0E0,1.0796604E1,6.4660964E0,0E0,0E0,6.6500883E0,5.113491E0,0E0,1.7427921E0,7.029915E-1,0E0,1.57284355E1,8.76461E0,5.9507065E0,3.6751175E0,0E0,4.3366966E0,3.5801258E0,6.543331E-1,0E0,2.1846485E-1,9.4577026E-1,0E0,0E0,0E0,3.7032547E0,5.407505E0,3.374705E0,1.7124095E0,0E0,0E0,5.231148E0,8.321037E-1,0E0,2.410336E0,1.6827195E0,7.6797485E-1,1.1501312E0,2.5552502E0,0E0,1.3146591E0,0E0,0E0,0E0,0E0,5.1702476E0,3.0711946E0,5.8032684E0,2.581293E0,0E0,2.781639E0,1.2774582E0,1.2390022E0,1.0555935E0,2.366191E0,3.506651E0,1.1280091E0,0E0,0E0,0E0,0E0,5.257275E-1,5.567378E-1,0E0,0E0,0E0,0E0,0E0,0E0,0E0,0E0,0E0,0E0,0E0,0E0,0E0,0E0,0E0,0E0,0E0,0E0,0E0,0E0,0E0,0E0,0E0,0E0,0E0,0E0,0E0,0E0,0E0,0E0,0E0,0E0,0E0,0E0,0E0,0E0,0E0,0E0,0E0,0E0,0E0,0E0,0E0,0E0,0E0,0E0,0E0,0E0,0E0,0E0],"parents":[2147483647,0,0,1,1,2,2,3,3,4,4,5,5,6,6,7,7,8,8,9,9,10,10,11,11,12,12,13,13,14,14,15,15,16,16,17,17,18,18,19,19,20,20,21,21,22,22,23,23,24,24,25,25,26,26,27,27,28,28,29,29,31,31,32,32,33,33,34,34,37,37,38,38,41,41,42,42,44,44,45,45,47,47,48,48,49,49,50,50,52,52,53,53,54,54,56,56,57,57,61,61,62,62,63,63,64,64,67,67,68,68,70,70,71,71,72,72,73,73,74,74,76,76,81,81,82,82,83,83,84,84,86,86,87,87,88,88,89,89,90,90,91,91,92,92,97,97,98,98],"right_children":[2,4,6,8,10,12,14,16,18,20,22,24,26,28,30,32,34,36,38,40,42,44,46,48,50,52,54,56,58,60,-1,62,64,66,68,-1,-1,70,72,-1,-1,74,76,-1,78,80,-1,82,84,86,88,-1,90,92,94,-1,96,98,-1,-1,-1,100,102,104,106,-1,-1,108,110,-1,112,114,116,118,120,-1,122,-1,-1,-1,-1,124,126,128,130,-1,132,134,136,138,140,142,144,-1,-1,-1,-1,146,148,-1,-1,-1,-1,-1,-1,-1,-1,-1,-1,-1,-1,-1,-1,-1,-1,-1,-1,-1,-1,-1,-1,-1,-1,-1,-1,-1,-1,-1,-1,-1,-1,-1,-1,-1,-1,-1,-1,-1,-1,-1,-1,-1,-1,-1,-1,-1,-1,-1,-1],"split_conditions":[4.0461373E0,8.2440027E2,1.2225952E3,3.4454723E1,1.1495847E3,4.998908E2,1.2097646E3,7.494E2,1.4785794E1,2.3255083E1,1.6E1,4.6607585E0,6.946844E2,5E-1,5E-1,2.4434223E1,-5E-1,1.9747721E3,2.9723566E2,1.6427561E0,7.494E2,1.3430487E3,1.4806995E3,2.3779444E1,1.7711111E1,1.385669E1,3.319875E1,2.0698334E1,5.8941113E2,3.9288272E2,1.1878313E-3,2.3823009E2,5.669833E2,3.555936E1,1.0086178E3,-1.452767E-2,-5.6326874E-3,3.4581668E0,5.2691284E2,9.796289E-4,1.5311175E-2,2.3589447E0,3.234497E1,8.994108E-3,3.942376E2,1.2246469E-16,1.5972916E-2,1.9062674E1,1.1933333E1,9.085528E0,2.0397943E1,7.074906E-3,1.1891667E1,-1.8369701E-16,4.5760636E0,-2.8024712E-3,1.7656521E3,5.3451056E2,6.357603E-3,1.1378752E-2,1.8356403E-2,2.1136667E1,2.3871086E1,1.3683333E1,1.5216667E1,3.961589E-3,-9.840687E-3,3.2732807E1,1.0116668E1,-1.9767998E-2,4.2126667E1,4.30975E0,1.2005457E3,-2.4492937E-16,3.1240223E1,1.5605487E-2,3.2729916E1,-5.764038E-3,2.275019E-3,4.645085E-3,1.2000394E-2,1.2097646E3,3.765234E2,2.3828333E1,6.9900336E2,1.8014099E-3,8.660254E-1,4.0314346E2,1.1738334E1,1.9815E1,5.669833E2,0E0,8.25266E2,-2.9160657E-3,-9.693934E-3,7.827737E-3,1.5621498E-2,2.0914694E1,4.4332952E0,-2.41592E-4,9.400693E-3,1.3824269E-2,5.6866775E-3,-4.932909E-3,-7.247171E-4,3.5436204E-4,2.5668081E-3,5.2163512E-3,-5.9276945E-3,2.921748E-3,9.127702E-3,4.6583216E-5,-7.182213E-3,3.3536658E-3,-1.3989381E-3,5.5535864E-3,1.1951422E-2,-1.2630185E-3,-8.006869E-3,8.247168E-3,2.346977E-3,5.2739633E-3,8.3082095E-3,-2.464278E-3,4.855233E-3,4.0659956E-3,1.3175709E-2,-6.062349E-3,1.9168422E-3,-3.2616297E-3,1.7199008E-4,-1.23128E-2,-7.791997E-3,-7.3699453E-3,-4.222927E-3,-5.3233914E-3,-3.3597124E-3,2.595429E-4,-3.849146E-3,-1.2970179E-3,6.3902524E-4,1.0896646E-2,3.4584524E-3,1.0707465E-3,4.784699E-3,-4.580048E-4,-5.050363E-3,2.7547514E-3,-1.6177017E-3],"split_indices":[30,14,14,22,13,13,15,13,19,22,4,30,13,10,8,22,9,13,15,30,13,13,13,22,24,24,22,3,13,13,0,13,13,21,13,0,0,23,19,0,0,30,21,0,19,9,0,13,4,24,24,0,4,8,30,0,14,15,0,0,0,3,21,4,4,0,0,22,4,0,22,23,19,9,21,0,24,0,0,0,0,15,13,3,14,0,10,13,4,3,13,7,13,0,0,0,0,22,30,0,0,0,0,0,0,0,0,0,0,0,0,0,0,0,0,0,0,0,0,0,0,0,0,0,0,0,0,0,0,0,0,0,0,0,0,0,0,0,0,0,0,0,0,0,0,0,0,0,0],"split_type":[0,0,0,0,0,0,0,0,0,0,0,0,0,0,0,0,0,0,0,0,0,0,0,0,0,0,0,0,0,0,0,0,0,0,0,0,0,0,0,0,0,0,0,0,0,0,0,0,0,0,0,0,0,0,0,0,0,0,0,0,0,0,0,0,0,0,0,0,0,0,0,0,0,0,0,0,0,0,0,0,0,0,0,0,0,0,0,0,0,0,0,0,0,0,0,0,0,0,0,0,0,0,0,0,0,0,0,0,0,0,0,0,0,0,0,0,0,0,0,0,0,0,0,0,0,0,0,0,0,0,0,0,0,0,0,0,0,0,0,0,0,0,0,0,0,0,0,0,0],"sum_hessian":[5.64E3,2.03E3,3.61E3,1.327E3,7.03E2,3.43E3,1.8E2,1.134E3,1.93E2,4.22E2,2.81E2,2.534E3,8.96E2,9.9E1,8.1E1,7.13E2,4.21E2,4.4E1,1.49E2,7.9E1,3.43E2,4.5E1,2.36E2,1.513E3,1.021E3,7.31E2,1.65E2,3.1E1,6.8E1,7.3E1,8E0,1.5E2,5.63E2,1.9E1,4.02E2,3.3E1,1.1E1,5.2E1,9.7E1,1E1,6.9E1,1.37E2,2.06E2,2.5E1,2E1,9.3E1,1.43E2,4.27E2,1.086E3,1.93E2,8.28E2,1.1E1,7.2E2,1.45E2,2E1,9E0,2.2E1,5.4E1,1.4E1,4E1,3.3E1,5.4E1,9.6E1,1.98E2,3.65E2,1E1,9E0,2.57E2,1.45E2,8E0,4.4E1,6.4E1,3.3E1,2.5E1,1.12E2,1.8E1,1.88E2,1E1,1E1,8E0,8.5E1,3.85E2,4.2E1,4.77E2,6.09E2,8E0,1.85E2,3.53E2,4.75E2,1.41E2,5.79E2,6.5E1,8E1,1E1,1E1,1.4E1,8E0,3.1E1,2.3E1,4.5E1,9E0,6.2E1,3.4E1,6.3E1,1.35E2,1.22E2,2.43E2,2.49E2,8E0,9E0,1.36E2,3.1E1,1.3E1,2.7E1,3.7E1,2E1,1.3E1,1.4E1,1.1E1,2E1,9.2E1,8.3E1,1.05E2,3.64E2,2.1E1,2.9E1,1.3E1,4.57E2,2E1,5.57E2,5.2E1,1.14E2,7.1E1,3.05E2,4.8E1,3.53E2,1.22E2,1.4E1,1.27E2,3.4E2,2.39E2,3.5E1,3E1,4.5E1,3.5E1,1E1,2.1E1,9E0,1.4E1],"tree_param":{"num_deleted":"0","num_feature":"35","num_nodes":"149","size_leaf_vector":"1"}},{"base_weights":[-2.87532E-3,-1.4535075E-1,4.2300516E-1,-1.9355811E-1,3.8030997E-1,2.8828865E-1,6.7759603E-1,-6.01681E-2,-3.085989E-1,8.446138E-1,1.2400434E-1,2.4098699E-1,8.184348E-1,5.603967E-1,8.9697796E-1,-1.0818687E-1,1.5618671E-1,-2.4389314E-2,-4.3034372E-1,4.1030063E-3,8.8215786E-1,-3.457849E-2,7.710818E-1,4.5516056E-1,1.6931368E-1,3.8856858E-1,1.7552089E-2,5.1499134E-1,8.2851094E-1,1.5076346E-2,7.2513497E-1,-2.742339E-2,-1.7472363E-1,2.2727074E-1,-7.791135E-2,1.945583E-2,-7.508168E-1,-6.9288653E-1,-3.8261944E-1,5.638276E-3,9.20578E-1,-1.14210896E-1,2.6077196E-1,1.6838867E-2,4.142099E-4,1.3249754E-2,4.1040355E-1,1.291208E-1,3.6099687E-1,1.6127786E-1,9.813419E-3,5.6027955E-1,2.3150927E-1,1.4191935E-2,5.942124E-3,1.16393715E-2,5.8416743E-3,2.8048044E-1,-4.7140647E-2,4.7896467E-3,-2.0855857E-1,6.880607E-2,3.1172317E-1,5.9580375E-2,-2.6118502E-1,-1.4787321E-1,2.693731E-1,-1.6865388E-2,-4.3321818E-1,-5.804681E-1,-9.4739825E-1,-4.4779515E-1,-3.381663E-1,1.4279694E-2,7.4497773E-3,1.7216721E-1,-1.758412E-1,5.7997044E-2,8.664957E-3,2.924573E-1,5.419072E-1,3.3917835E-1,9.58251E-2,1.2494892E-2,2.8416076E-1,2.3506659E-4,3.5753665E-3,6.0583276E-1,3.294874E-1,-9.881373E-3,4.783566E-1,7.018751E-3,-2.4591316E-4,-1.2840903E-3,1.4138353E-3,-1.898269E-3,2.4507514E-3,-3.502563E-3,-1.5580731E-3,4.860348E-3,4.0242102E-4,5.1961564E-3,-3.1859034E-3,-0E0,2.3374227E-3,-8.789494E-3,-6.930839E-4,-4.2892725E-4,-3.9460775E-3,8.341574E-3,1.5706761E-4,-1.831987E-3,-8.542693E-3,-9.46038E-3,-6.0041677E-3,-1.5336862E-2,-7.7846805E-3,-3.5015151E-3,-7.0247524E-3,-4.8352773E-3,-9.667435E-3,6.405422E-3,1.4071022E-4,-3.7756169E-3,6.729021E-4,3.7509804E-3,-8.2066556E-4,4.73836E-3,-0E0,9.475807E-3,5.60555E-3,6.344075E-3,-1.3596878E-3,5.0578814E-4,3.1559216E-3,2.6831685E-3,6.2538874E-3,7.959801E-3,1.056095E-2,5.8355504E-3,2.6080885E-3,2.890391E-3,1.0321587E-2],"categories":[],"categories_nodes":[],"categories_segments":[],"categories_sizes":[],"default_left":[0,0,0,0,0,0,0,0,0,0,0,0,0,0,0,0,0,0,0,0,0,0,0,0,0,0,0,0,0,0,0,0,0,0,0,0,0,0,0,0,0,0,0,0,0,0,0,0,0,0,0,0,0,0,0,0,0,0,0,0,0,0,0,0,0,0,0,0,0,0,0,0,0,0,0,0,0,0,0,0,0,0,0,0,0,0,0,0,0,0,0,0,0,0,0,0,0,0,0,0,0,0,0,0,0,0,0,0,0,0,0,0,0,0,0,0,0,0,0,0,0,0,0,0,0,0,0,0,0,0,0,0,0,0,0,0,0,0,0,0,0,0,0],"id":3,"left_children":[1,3,5,7,9,11,13,15,17,19,21,23,25,27,29,31,33,35,37,-1,39,41,43,45,47,49,-1,51,53,-1,55,57,59,61,63,65,67,69,71,-1,73,75,77,-1,-1,-1,79,81,83,85,-1,87,89,-1,-1,-1,-1,91,93,95,97,99,101,103,105,107,109,-1,111,113,115,117,119,-1,-1,121,123,125,-1,127,129,131,133,-1,135,-1,-1,137,139,-1,141,-1,-1,-1,-1,-1,-1,-1,-1,-1,-1,-1,-1,-1,-1,-1,-1,-1,-1,-1,-1,-1,-1,-1,-1,-1,-1,-1,-1,-1,-1,-1,-1,-1,-1,-1,-1,-1,-1,-1,-1,-1,-1,-1,-1,-1,-1,-1,-1,-1,-1,-1,-1],"loss_changes":[3.4277402E2,1.0740243E2,4.7981537E1,5.942885E1,4.1962112E1,2.271508E1,1.1250351E1,1.872456E1,7.1927414E1,1.987793E0,2.4007395E1,1.2876373E1,1.0117836E1,2.8222656E0,1.280304E0,7.876253E0,5.5067725E0,2.014564E1,1.7510406E1,0E0,1.3244095E0,4.4519134E0,1.1729412E1,3.0979462E0,4.7857323E0,1.8600044E0,0E0,3.215477E0,1.1686859E0,0E0,3.9091492E-1,4.0473585E0,4.9443264E0,3.2534437E0,2.011737E0,2.4902288E1,2.9852142E0,4.9177628E0,3.1267548E0,0E0,1.890564E-1,2.7087183E0,2.3761716E0,0E0,0E0,0E0,2.5716972E0,3.610775E0,3.2924566E0,1.9986075E-1,0E0,1.9579391E0,1.0043848E1,0E0,0E0,0E0,0E0,2.3314505E0,3.4517698E0,2.7357702E0,1.6598263E0,8.87373E-1,3.1373224E0,2.530592E-1,2.1933393E0,4.8182993E0,1.7617308E1,0E0,6.977434E-1,7.27829E-1,6.884804E-1,1.8141403E0,3.0050735E0,0E0,0E0,1.0248806E0,2.1569357E0,6.509201E-1,0E0,7.555704E-1,6.86388E-1,2.735281E0,3.2670197E0,0E0,1.1015143E0,0E0,0E0,4.7542572E-1,1.6913605E-1,0E0,1.655777E0,0E0,0E0,0E0,0E0,0E0,0E0,0E0,0E0,0E0,0E0,0E0,0E0,0E0,0E0,0E0,0E0,0E0,0E0,0E0,0E0,0E0,0E0,0E0,0E0,0E0,0E0,0E0,0E0,0E0,0E0,0E0,0E0,0E0,0E0,0E0,0E0,0E0,0E0,0E0,0E0,0E0,0E0,0E0,0E0,0E0,0E0,0E0,0E0,0E0,0E0,0E0,0E0],"parents":[2147483647,0,0,1,1,2,2,3,3,4,4,5,5,6,6,7,7,8,8,9,9,10,10,11,11,12,12,13,13,14,14,15,15,16,16,17,17,18,18,20,20,21,21,22,22,23,23,24,24,25,25,27,27,28,28,30,30,31,31,32,32,33,33,34,34,35,35,36,36,37,37,38,38,40,40,41,41,42,42,46,46,47,47,48,48,49,49,51,51,52,52,57,57,58,58,59,59,60,60,61,61,62,62,63,63,64,64,65,65,66,66,68,68,69,69,70,70,71,71,72,72,75,75,76,76,77,77,79,79,80,80,81,81,82,82,84,84,87,87,88,88,90,90],"right_children":[2,4,6,8,10,12,14,16,18,20,22,24,26,28,30,32,34,36,38,-1,40,42,44,46,48,50,-1,52,54,-1,56,58,60,62,64,66,68,70,72,-1,74,76,78,-1,-1,-1,80,82,84,86,-1,88,90,-1,-1,-1,-1,92,94,96,98,100,102,104,106,108,110,-1,112,114,116,118,120,-1,-1,122,124,126,-1,128,130,132,134,-1,136,-1,-1,138,140,-1,142,-1,-1,-1,-1,-1,-1,-1,-1,-1,-1,-1,-1,-1,-1,-1,-1,-1,-1,-1,-1,-1,-1,-1,-1,-1,-1,-1,-1,-1,-1,-1,-1,-1,-1,-1,-1,-1,-1,-1,-1,-1,-1,-1,-1,-1,-1,-1,-1,-1,-1,-1,-1],"split_conditions":[1.5216667E1,1.2097646E3,3.333328E1,8.833333E0,2.5279081E1,1.4300911E3,9.191794E2,3.4230026E1,2E0,2.0051222E1,1.0131869E1,2.4166667E0,2.0501667E1,1.7285713E3,1.8558705E0,6.8E0,3.6205418E1,3.2926212E1,1.7524584E1,4.1030063E-3,5.16125E0,1.3683333E1,2.9129889E1,2.7222222E-1,1.041868E1,8.781101E0,1.7552089E-2,3.7156223E1,1.4E1,1.5076346E-2,4.5979996E0,1.5561838E1,2.6272638E1,3.0547438E1,7.1666665E0,1E0,3.4258494E0,1.3566667E1,2.0340918E1,5.638276E-3,1.5120527E1,1.465571E1,2.9441532E1,1.6838867E-2,4.142099E-4,1.3249754E-2,9.448753E0,6.6519847E0,2.6853472E1,3.2152256E1,9.813419E-3,1E0,3.5380557E2,1.4191935E-2,5.942124E-3,1.16393715E-2,5.8416743E-3,2.6087694E1,9.288287E0,4.2707187E2,8.431141E0,4.5673984E2,8.216666E0,2.008179E1,1.8558705E0,-2.4492937E-16,2.0360277E0,-1.6865388E-2,2.2275723E1,4.2070474E2,8.660254E-1,-7.0710677E-1,3.927675E1,1.4279694E-2,7.4497773E-3,2.6784695E1,1.9700178E3,2.56605E1,8.664957E-3,1E0,-2.5881904E-1,1E0,3.0276833E1,1.2494892E-2,3.8735554E0,2.3506659E-4,3.5753665E-3,3.557575E1,7.888889E-1,-9.881373E-3,5.1244904E2,7.018751E-3,-2.4591316E-4,-1.2840903E-3,1.4138353E-3,-1.898269E-3,2.4507514E-3,-3.502563E-3,-1.5580731E-3,4.860348E-3,4.0242102E-4,5.1961564E-3,-3.1859034E-3,-0E0,2.3374227E-3,-8.789494E-3,-6.930839E-4,-4.2892725E-4,-3.9460775E-3,8.341574E-3,1.5706761E-4,-1.831987E-3,-8.542693E-3,-9.46038E-3,-6.0041677E-3,-1.5336862E-2,-7.7846805E-3,-3.5015151E-3,-7.0247524E-3,-4.8352773E-3,-9.667435E-3,6.405422E-3,1.4071022E-4,-3.7756169E-3,6.729021E-4,3.7509804E-3,-8.2066556E-4,4.73836E-3,-0E0,9.475807E-3,5.60555E-3,6.344075E-3,-1.3596878E-3,5.0578814E-4,3.1559216E-3,2.6831685E-3,6.2538874E-3,7.959801E-3,1.056095E-2,5.8355504E-3,2.6080885E-3,2.890391E-3,1.0321587E-2],"split_indices":[4,15,24,0,21,15,15,21,29,21,26,0,3,18,26,0,22,22,24,0,24,4,22,1,26,26,0,22,29,0,23,19,22,22,0,27,23,0,24,0,24,20,22,0,0,0,26,26,22,21,0,9,15,0,0,0,0,22,26,15,26,19,1,26,26,9,23,0,24,15,10,7,22,0,0,22,15,24,0,31,7,31,24,0,23,0,0,24,1,0,19,0,0,0,0,0,0,0,0,0,0,0,0,0,0,0,0,0,0,0,0,0,0,0,0,0,0,0,0,0,0,0,0,0,0,0,0,0,0,0,0,0,0,0,0,0,0,0,0,0,0,0,0],"split_type":[0,0,0,0,0,0,0,0,0,0,0,0,0,0,0,0,0,0,0,0,0,0,0,0,0,0,0,0,0,0,0,0,0,0,0,0,0,0,0,0,0,0,0,0,0,0,0,0,0,0,0,0,0,0,0,0,0,0,0,0,0,0,0,0,0,0,0,0,0,0,0,0,0,0,0,0,0,0,0,0,0,0,0,0,0,0,0,0,0,0,0,0,0,0,0,0,0,0,0,0,0,0,0,0,0,0,0,0,0,0,0,0,0,0,0,0,0,0,0,0,0,0,0,0,0,0,0,0,0,0,0,0,0,0,0,0,0,0,0,0,0,0,0],"sum_hessian":[5.646E3,4.232E3,1.414E3,3.878E3,3.54E2,9.28E2,4.86E2,1.798E3,2.08E3,1.24E2,2.3E2,8.55E2,7.3E1,3.22E2,1.64E2,1.473E3,3.25E2,6.25E2,1.455E3,9E0,1.15E2,1.86E2,4.4E1,2.11E2,6.44E2,3.5E1,3.8E1,2.81E2,4.1E1,9.4E1,7E1,6.68E2,8.05E2,2.5E2,7.5E1,5.91E2,3.4E1,2.19E2,1.236E3,1E1,1.05E2,1.48E2,3.8E1,2.9E1,1.5E1,1.6E1,1.95E2,5.36E2,1.08E2,2.1E1,1.4E1,2.4E2,4.1E1,3E1,1.1E1,5.8E1,1.2E1,3.8E1,6.3E2,1.27E2,6.78E2,8.9E1,1.61E2,4.3E1,3.2E1,3.54E2,2.37E2,1.3E1,2.1E1,1.57E2,6.2E1,4.92E2,7.44E2,9.5E1,1E1,2.5E1,1.23E2,2.5E1,1.3E1,1.07E2,8.8E1,7E1,4.66E2,1.2E1,9.6E1,9E0,1.2E1,1.97E2,4.3E1,8E0,3.3E1,2.3E1,1.5E1,4.97E2,1.33E2,6.9E1,5.8E1,5.44E2,1.34E2,1E1,7.9E1,1.52E2,9E0,2.8E1,1.5E1,1.1E1,2.1E1,1.76E2,1.78E2,1.11E2,1.26E2,8E0,1.3E1,1.18E2,3.9E1,5E1,1.2E1,4.6E1,4.46E2,7.12E2,3.2E1,8E0,1.7E1,9.2E1,3.1E1,9E0,1.6E1,9.9E1,8E0,5.3E1,3.5E1,5.9E1,1.1E1,3.05E2,1.61E2,5.7E1,3.9E1,1.2E2,7.7E1,2.8E1,1.5E1,1.6E1,1.7E1],"tree_param":{"num_deleted":"0","num_feature":"35","num_nodes":"143","size_leaf_vector":"1"}},{"base_weights":[2.2266794E-3,3.277194E-1,-1.8620487E-1,1.7371924E-1,6.1586803E-1,-2.2626689E-1,4.5522708E-1,2.2930452E-1,-2.0312743E-1,4.5285752E-1,8.3297503E-1,-3.0382466E-1,-2.3216018E-2,7.492171E-1,5.9691645E-2,3.6897916E-1,1.2476201E-1,-7.33231E-1,1.16809756E-1,8.779113E-1,3.5488155E-1,3.986421E-1,9.162573E-1,-7.6355435E-2,-3.628993E-1,-6.9117606E-2,2.2117229E-1,8.805287E-1,3.6793225E-2,-1.1034846E-1,4.0785757E-1,2.981028E-1,6.0322326E-1,5.4518E-1,8.771866E-2,-3.7020817E-1,-1.5418446E-2,3.018693E-1,-1.6995542E-1,1.605874E-3,9.8843277E-1,1.270659E-1,5.075142E-1,5.5669755E-1,-9.3987107E-4,1.1678796E-2,1.5570738E-2,-1.4155902E-1,2.4153084E-1,-5.525608E-1,-2.8887796E-1,-1.1592067E-1,3.559805E-2,3.7006232E-1,-3.7750295E-1,7.3070556E-1,1.817704E-2,4.714844E-3,-2.5045057E-3,-2.2479784E-1,3.2103027E-3,1.3486542E-2,1.5011115E-1,-1.00257404E-1,3.312135E-1,1.653623E-2,4.971834E-1,-0E0,6.834239E-1,-4.6942934E-2,2.3271726E-1,-9.639622E-3,-0E0,-6.3414625E-3,4.4483244E-1,-2.9886133E-4,-4.274818E-3,7.489256E-3,1.5815666E-2,-2.41723E-1,2.1318041E-1,1.4644027E-2,4.4452173E-1,4.1704024E-3,9.544941E-3,-1.4661453E-2,-2.52633E-1,6.0968E-1,-4.3923747E-2,-1.413833E-2,-5.065426E-1,-3.316285E-1,-1.4368698E-1,4.2565544E-3,-1.24826185E-1,4.9945805E-3,1.3636568E-2,5.792803E-1,1.8146966E-1,-5.400324E-1,-4.0555152E-4,1.22744655E-2,-0E0,-2.6250294E-1,-1.4026935E-3,-0E0,4.0736343E-3,3.730782E-4,-2.8864625E-3,1.1348652E-2,4.3334723E-3,6.238267E-3,1.1192215E-2,4.4268444E-3,1.2948287E-2,1.9429566E-4,-4.214383E-3,2.2141596E-3,5.0785886E-3,3.0979097E-3,9.702231E-3,-4.3611282E-5,-5.5514397E-3,8.6726565E-3,2.3623204E-3,2.5138962E-3,6.9644363E-3,-9.7025133E-4,6.442553E-3,-6.040763E-3,-2.293558E-3,1.341207E-3,1.1371183E-2,3.8165576E-3,-3.7448555E-3,-9.530912E-3,-6.590883E-3,-5.9606084E-3,-4.2201746E-3,2.9104557E-3,-2.3465538E-3,-3.6339427E-3,-1.2342018E-3,-5.920839E-4,1.6836842E-3,4.2897495E-3,1.2234251E-2,7.12648E-4,4.597342E-3,-2.7331077E-3,-1.1722321E-2,-1.1125986E-3,-4.581039E-3],"categories":[],"categories_nodes":[],"categories_segments":[],"categories_sizes":[],"default_left":[0,0,0,0,0,0,0,0,0,0,0,0,0,0,0,0,0,0,0,0,0,0,0,0,0,0,0,0,0,0,0,0,0,0,0,0,0,0,0,0,0,0,0,0,0,0,0,0,0,0,0,0,0,0,0,0,0,0,0,0,0,0,0,0,0,0,0,0,0,0,0,0,0,0,0,0,0,0,0,0,0,0,0,0,0,0,0,0,0,0,0,0,0,0,0,0,0,0,0,0,0,0,0,0,0,0,0,0,0,0,0,0,0,0,0,0,0,0,0,0,0,0,0,0,0,0,0,0,0,0,0,0,0,0,0,0,0,0,0,0,0,0,0,0,0,0,0,0,0,0,0,0,0],"id":4,"left_children":[1,3,5,7,9,11,13,15,17,19,21,23,25,27,29,31,33,35,37,39,41,43,45,47,49,51,53,55,57,59,61,63,65,67,69,71,-1,73,75,-1,77,79,81,83,-1,-1,-1,85,87,89,91,93,95,97,99,101,-1,-1,-1,103,-1,-1,105,107,109,-1,111,-1,113,115,117,-1,-1,-1,119,-1,-1,-1,-1,121,123,-1,125,-1,-1,127,129,131,133,-1,135,137,139,-1,141,-1,143,145,147,149,-1,-1,-1,151,-1,-1,-1,-1,-1,-1,-1,-1,-1,-1,-1,-1,-1,-1,-1,-1,-1,-1,-1,-1,-1,-1,-1,-1,-1,-1,-1,-1,-1,-1,-1,-1,-1,-1,-1,-1,-1,-1,-1,-1,-1,-1,-1,-1,-1,-1,-1,-1,-1],"loss_changes":[3.4539432E2,9.126236E1,9.1795944E1,2.8356071E1,2.4398926E1,5.2802856E1,2.4168304E1,1.6995655E1,2.9804955E1,1.641304E1,1.0039032E1,3.249684E1,1.0443946E1,1.0977676E1,5.5961146E0,7.794487E0,1.0321167E1,6.0193443E0,5.9665413E0,6.044136E0,1.1601395E1,4.032855E0,2.2791138E0,1.0494961E1,2.6565598E1,3.8765144E0,1.3381016E1,2.853447E0,1.3219744E0,2.437177E0,3.4453444E0,5.2567024E0,4.618374E0,4.033985E0,1.2262593E1,3.323988E0,0E0,7.425052E0,6.870339E-1,0E0,7.653656E-1,4.5434833E0,4.8420753E0,3.5093784E-1,0E0,0E0,0E0,5.859042E0,9.204437E0,8.41069E0,8.443558E0,1.9789572E0,1.5085752E0,4.332987E0,1.566217E0,4.819153E0,0E0,0E0,0E0,1.17307425E-1,0E0,0E0,4.405259E-1,4.006255E-1,5.851536E0,0E0,1.1305447E0,0E0,2.260851E0,4.616279E0,2.5235252E0,0E0,0E0,0E0,2.3539085E0,0E0,0E0,0E0,0E0,7.50999E-1,2.0084214E0,0E0,7.201042E-1,0E0,0E0,4.403983E0,3.1035414E0,2.6288013E0,3.195227E0,0E0,3.4317398E0,3.1845932E0,1.4353766E0,0E0,2.5683346E0,0E0,1.2226913E0,3.125597E0,1.0054209E0,1.250454E0,0E0,0E0,0E0,1.6155434E-1,0E0,0E0,0E0,0E0,0E0,0E0,0E0,0E0,0E0,0E0,0E0,0E0,0E0,0E0,0E0,0E0,0E0,0E0,0E0,0E0,0E0,0E0,0E0,0E0,0E0,0E0,0E0,0E0,0E0,0E0,0E0,0E0,0E0,0E0,0E0,0E0,0E0,0E0,0E0,0E0,0E0,0E0,0E0,0E0,0E0,0E0,0E0,0E0,0E0],"parents":[2147483647,0,0,1,1,2,2,3,3,4,4,5,5,6,6,7,7,8,8,9,9,10,10,11,11,12,12,13,13,14,14,15,15,16,16,17,17,18,18,19,19,20,20,21,21,22,22,23,23,24,24,25,25,26,26,27,27,28,28,29,29,30,30,31,31,32,32,33,33,34,34,35,35,37,37,38,38,40,40,41,41,42,42,43,43,47,47,48,48,49,49,50,50,51,51,52,52,53,53,54,54,55,55,59,59,62,62,63,63,64,64,66,66,68,68,69,69,70,70,74,74,79,79,80,80,82,82,85,85,86,86,87,87,88,88,90,90,91,91,92,92,94,94,96,96,97,97,98,98,99,99,103,103],"right_children":[2,4,6,8,10,12,14,16,18,20,22,24,26,28,30,32,34,36,38,40,42,44,46,48,50,52,54,56,58,60,62,64,66,68,70,72,-1,74,76,-1,78,80,82,84,-1,-1,-1,86,88,90,92,94,96,98,100,102,-1,-1,-1,104,-1,-1,106,108,110,-1,112,-1,114,116,118,-1,-1,-1,120,-1,-1,-1,-1,122,124,-1,126,-1,-1,128,130,132,134,-1,136,138,140,-1,142,-1,144,146,148,150,-1,-1,-1,152,-1,-1,-1,-1,-1,-1,-1,-1,-1,-1,-1,-1,-1,-1,-1,-1,-1,-1,-1,-1,-1,-1,-1,-1,-1,-1,-1,-1,-1,-1,-1,-1,-1,-1,-1,-1,-1,-1,-1,-1,-1,-1,-1,-1,-1,-1,-1,-1,-1],"split_conditions":[4.0461373E0,8.2440027E2,1.1555863E3,3.4454723E1,1.119558E3,4.950936E2,8.660254E-1,3.6242657E0,5.180975E1,2.3255083E1,1.6E1,5.198635E1,6.946844E2,-5E-1,5.669833E2,7.438944E2,2.4741388E1,9.608334E0,6.388889E0,1.6427561E0,7.429696E2,3.6205418E1,1.3859928E3,1.9062674E1,1.9810444E1,9.558333E0,3.197236E1,5.4391925E2,2.9872694E1,8.4542505E2,3.178325E1,8.5368997E-1,2.0606638E1,2.9306714E2,6.4077466E2,2.5614274E0,-1.5418446E-2,-5E-1,3.355988E0,1.605874E-3,2.7951587E2,2.3589447E0,3.238778E1,-5E-1,-9.3987107E-4,1.1678796E-2,1.5570738E-2,-2.4492937E-16,1.6857778E0,1.5916667E0,8.058333E0,1.385669E1,2.6917778E1,-1.8369701E-16,5E-1,2.7261862E1,1.817704E-2,4.714844E-3,-2.5045057E-3,4.762259E2,3.2103027E-3,1.3486542E-2,2.6875889E1,5.1545124E1,2.1359833E1,1.653623E-2,1.1912E3,-0E0,7.447222E0,6.8333335E0,7.494E2,-9.639622E-3,-0E0,-6.3414625E-3,1.147337E3,-2.9886133E-4,-4.274818E-3,7.489256E-3,1.5815666E-2,2.6558138E1,2.979625E1,1.4644027E-2,1.3735001E1,4.1704024E-3,9.544941E-3,5.917412E2,3.5771533E2,5.1492477E1,4.590063E0,-1.413833E-2,3.345365E2,4.0084875E2,3.291897E2,4.2565544E-3,6.766667E0,4.9945805E-3,5.768652E2,1.4381198E2,7.733847E2,1.5496657E1,-4.0555152E-4,1.22744655E-2,-0E0,1.587883E1,-1.4026935E-3,-0E0,4.0736343E-3,3.730782E-4,-2.8864625E-3,1.1348652E-2,4.3334723E-3,6.238267E-3,1.1192215E-2,4.4268444E-3,1.2948287E-2,1.9429566E-4,-4.214383E-3,2.2141596E-3,5.0785886E-3,3.0979097E-3,9.702231E-3,-4.3611282E-5,-5.5514397E-3,8.6726565E-3,2.3623204E-3,2.5138962E-3,6.9644363E-3,-9.7025133E-4,6.442553E-3,-6.040763E-3,-2.293558E-3,1.341207E-3,1.1371183E-2,3.8165576E-3,-3.7448555E-3,-9.530912E-3,-6.590883E-3,-5.9606084E-3,-4.2201746E-3,2.9104557E-3,-2.3465538E-3,-3.6339427E-3,-1.2342018E-3,-5.920839E-4,1.6836842E-3,4.2897495E-3,1.2234251E-2,7.12648E-4,4.597342E-3,-2.7331077E-3,-1.1722321E-2,-1.1125986E-3,-4.581039E-3],"split_indices":[30,14,14,22,13,13,10,30,18,22,4,17,13,7,13,15,22,0,1,30,13,22,14,13,24,2,22,13,21,15,21,30,22,13,13,30,0,8,30,0,15,30,21,7,0,0,0,9,23,2,2,24,22,8,9,21,0,0,0,13,0,0,24,18,22,0,13,0,1,0,13,0,0,0,17,0,0,0,0,21,21,0,4,0,0,14,15,13,30,0,14,13,13,0,2,0,13,17,13,17,0,0,0,17,0,0,0,0,0,0,0,0,0,0,0,0,0,0,0,0,0,0,0,0,0,0,0,0,0,0,0,0,0,0,0,0,0,0,0,0,0,0,0,0,0,0,0,0,0,0,0,0,0],"split_type":[0,0,0,0,0,0,0,0,0,0,0,0,0,0,0,0,0,0,0,0,0,0,0,0,0,0,0,0,0,0,0,0,0,0,0,0,0,0,0,0,0,0,0,0,0,0,0,0,0,0,0,0,0,0,0,0,0,0,0,0,0,0,0,0,0,0,0,0,0,0,0,0,0,0,0,0,0,0,0,0,0,0,0,0,0,0,0,0,0,0,0,0,0,0,0,0,0,0,0,0,0,0,0,0,0,0,0,0,0,0,0,0,0,0,0,0,0,0,0,0,0,0,0,0,0,0,0,0,0,0,0,0,0,0,0,0,0,0,0,0,0,0,0,0,0,0,0,0,0,0,0,0,0],"sum_hessian":[5.627E3,2.063E3,3.564E3,1.347E3,7.16E2,3.356E3,2.08E2,1.175E3,1.72E2,4.13E2,3.03E2,2.427E3,9.29E2,1.18E2,9E1,5E2,6.75E2,6.4E1,1.08E2,7.4E1,3.39E2,5.1E1,2.52E2,5.02E2,1.925E3,7.84E2,1.45E2,9.9E1,1.9E1,6.1E1,2.9E1,3.88E2,1.12E2,5.2E1,6.23E2,3.1E1,3.3E1,6.6E1,4.2E1,1E1,6.4E1,1.38E2,2.01E2,3.8E1,1.3E1,1.26E2,1.26E2,4.18E2,8.4E1,5.36E2,1.389E3,5.43E2,2.41E2,1.17E2,2.8E1,7.3E1,2.6E1,8E0,1.1E1,4.6E1,1.5E1,8E0,2.1E1,2.9E1,3.59E2,1.6E1,9.6E1,1.1E1,4.1E1,3.23E2,3E2,1.7E1,1.4E1,1E1,5.6E1,2E1,2.2E1,1E1,5.4E1,2.5E1,1.13E2,2E1,1.81E2,1.1E1,2.7E1,1.97E2,2.21E2,3.6E1,4.8E1,5.2E1,4.84E2,1.07E3,3.19E2,1E1,5.33E2,1.4E1,2.27E2,5.3E1,6.4E1,1.8E1,1E1,6.5E1,8E0,3.3E1,1.3E1,1E1,1.1E1,1.2E1,1.7E1,2.9E1,3.3E2,7.7E1,1.9E1,1.5E1,2.6E1,2.58E2,6.5E1,1.7E2,1.3E2,2.8E1,2.8E1,1E1,1.5E1,1.2E1,1.01E2,1.4E1,1.67E2,1.79E2,1.8E1,8.5E1,1.36E2,9E0,2.7E1,1.9E1,2.9E1,1.59E2,3.25E2,4.56E2,6.14E2,1E1,3.09E2,1.38E2,3.95E2,1.47E2,8E1,2.6E1,2.7E1,3.3E1,3.1E1,9E0,9E0,8E0,2.5E1],"tree_param":{"num_deleted":"0","num_feature":"35","num_nodes":"153","size_leaf_vector":"1"}},{"base_weights":[3.0325402E-3,3.296751E-1,-1.8597887E-1,1.7285265E-1,6.0344183E-1,-2.1992391E-1,6.136046E-1,5.2976805E-1,1.2567236E-1,8.052052E-1,4.558001E-1,-1.314624E-1,-3.6370888E-1,2.3884943E-1,9.228565E-1,9.8001674E-2,7.174757E-1,1.9024615E-1,-4.2493483E-1,9.753882E-2,8.6750364E-1,2.4890134E-1,6.1316603E-1,-1.6423266E-1,1.5654308E-1,-2.889379E-1,-4.862353E-1,9.066996E-2,1.4782381E-2,9.9298877E-1,3.3051935E-3,-1.5069654E-2,8.429906E-3,8.434825E-1,3.5175088E-1,-5.72265E-3,2.6912594E-1,-9.194386E-2,-6.477521E-1,6.846731E-3,-8.1670016E-2,7.226854E-1,1.0723124E0,-3.4352967E-3,2.7845162E-1,1.6496101E-2,5.403317E-1,-6.013225E-2,-2.2772105E-1,6.558937E-1,6.25054E-2,-3.3667868E-1,-1.2789558E-1,-5.3324866E-1,3.699073E-2,4.2578945E-1,-8.052147E-2,6.8985154E-3,1.5643617E-2,1.0793065E-1,-6.569351E-3,9.2683434E-1,3.3128096E-3,7.81562E-3,1.7311636E-3,-3.171016E-2,3.0357888E-1,2.8942814E-1,-3.873063E-1,2.7778667E-1,-3.667798E-1,-8.271238E-1,-1.152961E-1,-3.2227114E-3,1.1171533E-3,7.447639E-1,2.8084356E-3,1.661962E-2,8.47321E-3,3.931268E-1,1.5305631E-1,6.696582E-1,2.5882062E-1,-6.930251E-2,7.2401143E-3,-7.564676E-2,-3.1084374E-1,1.1106932E-2,4.8938612E-3,-2.233638E-2,1.4287233E-1,-3.5891208E-1,-7.814982E-2,7.849088E-2,-2.2748446E-1,-5.922969E-1,-3.2548395E-1,2.1817674E-1,-8.496597E-3,8.014404E-3,3.1773464E-3,-1.6642363E-1,2.985899E-3,-7.179204E-4,5.107286E-3,8.217178E-3,1.5446844E-2,-1.4131316E-3,7.447203E-4,7.184446E-3,1.04769744E-4,7.904226E-3,3.6825964E-3,-9.245356E-3,2.0596545E-4,6.265655E-3,-0E0,-8.900176E-3,-4.899638E-4,-1.4459488E-2,-4.2622685E-3,-0E0,-2.7210396E-3,1.2298291E-2,8.621947E-3,1.0732881E-2,5.1625576E-3,1.8704553E-3,4.570031E-3,1.1218403E-2,7.5092777E-3,5.0772093E-3,-2.7879665E-3,-1.4467508E-3,4.661895E-4,-2.210276E-3,5.658493E-3,-7.309152E-3,-3.923665E-3,-2.798443E-3,4.410718E-4,3.5604375E-4,3.4973565E-3,-6.480295E-3,-4.663189E-3,6.8583706E-4,-2.0207455E-3,9.251577E-3,-6.3858565E-4,-3.831747E-3,-9.971434E-4,-8.103393E-3,-1.3716778E-2,-1.3318341E-3,-5.3662406E-3,6.096703E-3,-1.418381E-3,-3.2355806E-3,-0E0],"categories":[],"categories_nodes":[],"categories_segments":[],"categories_sizes":[],"default_left":[0,0,0,0,0,0,0,0,0,0,0,0,0,0,0,0,0,0,0,0,0,0,0,0,0,0,0,0,0,0,0,0,0,0,0,0,0,0,0,0,0,0,0,0,0,0,0,0,0,0,0,0,0,0,0,0,0,0,0,0,0,0,0,0,0,0,0,0,0,0,0,0,0,0,0,0,0,0,0,0,0,0,0,0,0,0,0,0,0,0,0,0,0,0,0,0,0,0,0,0,0,0,0,0,0,0,0,0,0,0,0,0,0,0,0,0,0,0,0,0,0,0,0,0,0,0,0,0,0,0,0,0,0,0,0,0,0,0,0,0,0,0,0,0,0,0,0,0,0,0,0,0,0,0,0,0,0,0,0],"id":5,"left_children":[1,3,5,7,9,11,13,15,17,19,21,23,25,27,29,31,33,35,37,39,41,43,45,47,49,51,53,55,-1,57,-1,59,-1,61,63,65,67,69,71,-1,73,75,77,-1,79,-1,81,83,85,87,89,91,93,95,97,99,101,-1,-1,103,-1,105,-1,-1,-1,107,109,111,113,115,117,119,121,-1,-1,123,-1,-1,-1,125,127,129,131,133,-1,135,137,-1,-1,139,141,143,145,147,149,151,153,155,-1,-1,-1,157,-1,-1,-1,-1,-1,-1,-1,-1,-1,-1,-1,-1,-1,-1,-1,-1,-1,-1,-1,-1,-1,-1,-1,-1,-1,-1,-1,-1,-1,-1,-1,-1,-1,-1,-1,-1,-1,-1,-1,-1,-1,-1,-1,-1,-1,-1,-1,-1,-1,-1,-1,-1,-1,-1,-1,-1,-1],"loss_changes":[3.4879248E2,8.854988E1,9.7304825E1,2.1963726E1,2.1444672E1,4.3483887E1,1.6247295E1,1.2096294E1,4.1678303E1,1.3525009E1,1.3848236E1,2.0155926E1,1.1528793E1,7.2400203E0,3.2119598E0,2.697069E0,4.0524483E0,1.6255718E1,8.85907E0,1.9504671E0,6.6628723E0,2.8772326E0,7.272476E0,1.2564983E1,1.001112E1,6.102295E0,1.2216614E1,3.579799E0,0E0,6.295624E-1,0E0,2.2931678E0,0E0,3.3571625E0,9.9275494E-1,2.3923483E0,1.0173225E1,5.5055647E0,6.5928364E0,0E0,4.7598127E-1,1.6154099E0,4.9475098E-1,0E0,2.4162912E0,0E0,7.4771576E0,3.6129518E0,1.4880325E1,2.5130653E-1,1.2987258E0,3.4662094E0,3.991285E0,4.963806E0,4.769509E0,1.1196685E-1,1.0444119E0,0E0,0E0,1.2867144E0,0E0,1.1707115E0,0E0,0E0,0E0,1.4470881E0,1.0925324E0,7.1710434E0,2.250183E0,8.4242404E-1,2.182703E0,3.2148323E0,1.4863288E-1,0E0,0E0,9.2359924E-1,0E0,0E0,0E0,7.791786E-1,2.3370957E-1,9.7198486E-1,2.74227E0,1.9784315E0,0E0,1.38015785E1,6.2535095E0,0E0,0E0,8.156549E-1,9.809016E-1,1.6089859E0,4.0149045E-1,4.272815E0,4.8699665E-1,4.558693E0,6.490555E-1,2.1411216E0,0E0,0E0,0E0,2.492252E-1,0E0,0E0,0E0,0E0,0E0,0E0,0E0,0E0,0E0,0E0,0E0,0E0,0E0,0E0,0E0,0E0,0E0,0E0,0E0,0E0,0E0,0E0,0E0,0E0,0E0,0E0,0E0,0E0,0E0,0E0,0E0,0E0,0E0,0E0,0E0,0E0,0E0,0E0,0E0,0E0,0E0,0E0,0E0,0E0,0E0,0E0,0E0,0E0,0E0,0E0,0E0,0E0,0E0,0E0,0E0,0E0,0E0],"parents":[2147483647,0,0,1,1,2,2,3,3,4,4,5,5,6,6,7,7,8,8,9,9,10,10,11,11,12,12,13,13,14,14,15,15,16,16,17,17,18,18,19,19,20,20,21,21,22,22,23,23,24,24,25,25,26,26,27,27,29,29,31,31,33,33,34,34,35,35,36,36,37,37,38,38,40,40,41,41,42,42,44,44,46,46,47,47,48,48,49,49,50,50,51,51,52,52,53,53,54,54,55,55,56,56,59,59,61,61,65,65,66,66,67,67,68,68,69,69,70,70,71,71,72,72,75,75,79,79,80,80,81,81,82,82,83,83,85,85,86,86,89,89,90,90,91,91,92,92,93,93,94,94,95,95,96,96,97,97,101,101],"right_children":[2,4,6,8,10,12,14,16,18,20,22,24,26,28,30,32,34,36,38,40,42,44,46,48,50,52,54,56,-1,58,-1,60,-1,62,64,66,68,70,72,-1,74,76,78,-1,80,-1,82,84,86,88,90,92,94,96,98,100,102,-1,-1,104,-1,106,-1,-1,-1,108,110,112,114,116,118,120,122,-1,-1,124,-1,-1,-1,126,128,130,132,134,-1,136,138,-1,-1,140,142,144,146,148,150,152,154,156,-1,-1,-1,158,-1,-1,-1,-1,-1,-1,-1,-1,-1,-1,-1,-1,-1,-1,-1,-1,-1,-1,-1,-1,-1,-1,-1,-1,-1,-1,-1,-1,-1,-1,-1,-1,-1,-1,-1,-1,-1,-1,-1,-1,-1,-1,-1,-1,-1,-1,-1,-1,-1,-1,-1,-1,-1,-1,-1,-1,-1],"split_conditions":[4.0461373E0,7.971735E2,1.3859928E3,2.4741388E1,4.9703307E0,4.623698E0,1.2414783E3,2.720038E0,8.766666E0,1.9621922E0,1.041868E1,7.2832367E2,1.145E1,1.0303308E1,2.8218416E1,5E-1,3.8155987E0,2.868014E1,3.1637917E1,2.0083334E0,1.6190504E3,2.6834977E0,2.890236E1,7.4583335E0,1.0993028E1,6.8612022E0,1.55E1,5E-1,1.4782381E-2,5.3933334E0,3.3051935E-3,-1.8369701E-16,8.429906E-3,1.404195E2,-2.4492937E-16,1.2134086E1,4.2126667E1,1.587883E1,3.669089E2,6.846731E-3,4.2473007E2,3.8995519E0,1.1E1,-3.4352967E-3,3.7184339E0,1.6496101E-2,2.3333333E0,1.6893333E1,1.955209E1,1.5053761E1,1.3208334E1,2.9027529E1,-2.5881904E-1,2.8072779E1,9.401532E1,7.076666E-1,8.3670807E2,6.8985154E-3,1.5643617E-2,1E0,-6.569351E-3,8.700001E0,3.3128096E-3,7.81562E-3,1.7311636E-3,8.660254E-1,2.0446667E1,1.6333333E0,6.609471E2,1.5435098E1,3.805685E2,3.827156E2,6.702039E2,-3.2227114E-3,1.1171533E-3,4.665639E0,2.8084356E-3,1.661962E-2,8.47321E-3,2.2701305E1,1.0272473E3,2.8945076E0,7.4E0,8.649062E0,7.2401143E-3,1E0,2.0504694E1,1.1106932E-2,4.8938612E-3,-2.4492937E-16,6.764713E0,3.757674E2,1.603649E1,1.995E1,6.686354E2,1.3866667E1,2.0083334E1,3.0604221E1,-8.496597E-3,8.014404E-3,3.1773464E-3,5.394223E2,2.985899E-3,-7.179204E-4,5.107286E-3,8.217178E-3,1.5446844E-2,-1.4131316E-3,7.447203E-4,7.184446E-3,1.04769744E-4,7.904226E-3,3.6825964E-3,-9.245356E-3,2.0596545E-4,6.265655E-3,-0E0,-8.900176E-3,-4.899638E-4,-1.4459488E-2,-4.2622685E-3,-0E0,-2.7210396E-3,1.2298291E-2,8.621947E-3,1.0732881E-2,5.1625576E-3,1.8704553E-3,4.570031E-3,1.1218403E-2,7.5092777E-3,5.0772093E-3,-2.7879665E-3,-1.4467508E-3,4.661895E-4,-2.210276E-3,5.658493E-3,-7.309152E-3,-3.923665E-3,-2.798443E-3,4.410718E-4,3.5604375E-4,3.4973565E-3,-6.480295E-3,-4.663189E-3,6.8583706E-4,-2.0207455E-3,9.251577E-3,-6.3858565E-4,-3.831747E-3,-9.971434E-4,-8.103393E-3,-1.3716778E-2,-1.3318341E-3,-5.3662406E-3,6.096703E-3,-1.418381E-3,-3.2355806E-3,-0E0],"split_indices":[30,14,14,22,26,30,15,30,0,30,26,14,0,26,22,8,30,24,22,0,14,30,22,0,24,26,0,10,0,4,0,8,0,20,9,26,22,17,18,0,15,30,29,0,30,0,0,4,17,20,4,22,8,22,17,23,15,0,0,29,0,4,0,0,0,10,3,0,17,14,17,15,17,0,0,23,0,0,0,22,15,30,0,26,0,29,24,0,0,9,26,14,14,3,15,0,3,22,0,0,0,18,0,0,0,0,0,0,0,0,0,0,0,0,0,0,0,0,0,0,0,0,0,0,0,0,0,0,0,0,0,0,0,0,0,0,0,0,0,0,0,0,0,0,0,0,0,0,0,0,0,0,0,0,0,0,0,0,0],"split_type":[0,0,0,0,0,0,0,0,0,0,0,0,0,0,0,0,0,0,0,0,0,0,0,0,0,0,0,0,0,0,0,0,0,0,0,0,0,0,0,0,0,0,0,0,0,0,0,0,0,0,0,0,0,0,0,0,0,0,0,0,0,0,0,0,0,0,0,0,0,0,0,0,0,0,0,0,0,0,0,0,0,0,0,0,0,0,0,0,0,0,0,0,0,0,0,0,0,0,0,0,0,0,0,0,0,0,0,0,0,0,0,0,0,0,0,0,0,0,0,0,0,0,0,0,0,0,0,0,0,0,0,0,0,0,0,0,0,0,0,0,0,0,0,0,0,0,0,0,0,0,0,0,0,0,0,0,0,0,0],"sum_hessian":[5.645E3,2.069E3,3.576E3,1.318E3,7.51E2,3.432E3,1.44E2,1.51E2,1.167E3,3.13E2,4.38E2,2.128E3,1.304E3,6.7E1,7.7E1,4.7E1,1.04E2,1.046E3,1.21E2,2.6E1,2.87E2,1.92E2,2.46E2,1.912E3,2.16E2,8.15E2,4.89E2,5.8E1,9E0,6.9E1,8E0,3.9E1,8E0,7.5E1,2.9E1,3E2,7.46E2,5E1,7.1E1,8E0,1.8E1,1.74E2,1.13E2,1E1,1.82E2,2.8E1,2.18E2,7.27E2,1.185E3,3.2E1,1.84E2,6.26E2,1.89E2,4.49E2,4E1,1.9E1,3.9E1,8E0,6.1E1,3.1E1,8E0,6.5E1,1E1,1.5E1,1.4E1,2.79E2,2.1E1,7.25E2,2.1E1,2.1E1,2.9E1,5.2E1,1.9E1,1E1,8E0,1.66E2,8E0,1.03E2,1E1,9.2E1,9E1,1.47E2,7.1E1,7.17E2,1E1,4.21E2,7.64E2,2.3E1,9E0,8.9E1,9.5E1,5.75E2,5.1E1,6.1E1,1.28E2,3.46E2,1.03E2,3.2E1,8E0,1E1,9E0,3.1E1,8E0,1.9E1,1.2E1,1.7E1,4.8E1,1.59E2,1.2E2,1.2E1,9E0,1.09E2,6.16E2,1.3E1,8E0,1.3E1,8E0,1.6E1,1.3E1,4E1,1.2E1,8E0,1.1E1,1.09E2,5.7E1,8E0,8.4E1,8E1,1E1,9.5E1,5.2E1,6.1E1,1E1,5.66E2,1.51E2,3.65E2,5.6E1,1.62E2,6.02E2,2.1E1,6.8E1,4.3E1,5.2E1,2.2E2,3.55E2,1.5E1,3.6E1,1E1,5.1E1,1.07E2,2.1E1,3.03E2,4.3E1,1.4E1,8.9E1,2E1,1.2E1,2.3E1,8E0],"tree_param":{"num_deleted":"0","num_feature":"35","num_nodes":"159","size_leaf_vector":"1"}},{"base_weights":[3.7379374E-3,3.7419862E-1,-1.5825392E-1,2.755355E-1,7.362484E-1,-2.3566182E-1,1.1984323E-1,1.2097004E-1,4.5710388E-1,1.4152773E-1,7.804362E-1,2.9143913E-2,-3.0433667E-1,7.7521324E-2,7.519655E-1,1.9479558E-1,-1.596481E-1,3.0775863E-1,6.548389E-1,7.298862E-3,-6.261697E-2,5.4512435E-1,8.9705473E-1,-6.314417E-2,6.5212846E-1,-4.2301503E-1,-1.6679001E-1,9.190192E-2,-6.8479273E-3,1.6099863E-2,5.3394835E-2,4.642243E-1,1.4179784E-1,-1.5514367E-2,1.7561316E-2,2.1260959E-1,3.9187297E-1,6.7961395E-1,-1.3555438E-3,2.9444015E-3,-5.323425E-3,7.108323E-1,3.8505995E-1,9.559227E-1,3.4634602E-1,4.1903016E-1,-8.991896E-2,7.1358913E-1,1.612536E-3,-6.729613E-1,-3.7687102E-1,-8.895136E-2,-2.4632588E-1,4.886302E-2,4.004602E-1,-2.4661602E-4,2.0930304E-3,1.0693854E-1,7.7035826E-1,-6.0374126E-2,2.7470303E-1,2.598377E-1,-2.2590582E-1,4.832761E-1,1.4530528E-1,4.2658597E-1,2.763901E-1,5.9507906E-1,8.885684E-1,5.110046E-3,1.1326303E-2,9.936625E-3,3.132507E-1,1.5178361E-2,7.2020864E-1,-0E0,9.953717E-3,1.6937621E-3,9.150908E-3,-1.2659046E-1,1.7506139E-1,3.8275304E-3,7.834647E-1,-1.37919E-2,-5.629415E-1,-4.2239615E-1,-2.9161853E-1,4.3703597E-3,-1.0121503E-1,-2.743842E-1,-1.3440765E-1,-2.4274725E-3,2.0944928E-1,2.63611E-1,5.19308E-1,3.922336E-3,-4.0408443E-3,1.3239298E-2,4.495082E-3,7.9619895E-5,-9.219401E-3,2.131541E-3,7.3701194E-3,1.6434012E-3,9.142771E-3,-9.0237735E-3,-1.57503E-3,5.343716E-4,1.2618741E-2,9.2550495E-4,3.0380355E-3,1.0123865E-2,5.9907255E-3,3.418718E-4,4.891024E-3,1.3973895E-2,8.440385E-3,7.496088E-3,1.4240756E-2,5.835203E-3,6.144569E-4,1.1884307E-2,4.2340304E-3,-1.3033438E-3,-3.9006118E-3,6.4754104E-3,-8.479656E-4,7.4576205E-3,1.2856196E-2,-8.894622E-3,-3.8557237E-3,-7.347019E-3,-5.7745897E-3,-4.784836E-3,-2.6894275E-3,-2.28493E-3,-7.4102724E-4,-4.1977083E-3,-0E0,-2.703931E-3,-9.6113974E-4,3.93544E-3,-2.4045096E-4,1.110245E-2,2.1965394E-3,2.1929813E-3,5.779892E-3,9.413932E-3,3.8697717E-3],"categories":[],"categories_nodes":[],"categories_segments":[],"categories_sizes":[],"default_left":[0,0,0,0,0,0,0,0,0,0,0,0,0,0,0,0,0,0,0,0,0,0,0,0,0,0,0,0,0,0,0,0,0,0,0,0,0,0,0,0,0,0,0,0,0,0,0,0,0,0,0,0,0,0,0,0,0,0,0,0,0,0,0,0,0,0,0,0,0,0,0,0,0,0,0,0,0,0,0,0,0,0,0,0,0,0,0,0,0,0,0,0,0,0,0,0,0,0,0,0,0,0,0,0,0,0,0,0,0,0,0,0,0,0,0,0,0,0,0,0,0,0,0,0,0,0,0,0,0,0,0,0,0,0,0,0,0,0,0,0,0,0,0,0,0,0,0,0,0],"id":6,"left_children":[1,3,5,7,9,11,13,15,17,19,21,23,25,27,29,31,33,35,37,-1,39,41,43,45,47,49,51,53,-1,-1,55,57,59,-1,61,63,65,67,-1,-1,-1,69,71,73,75,77,79,81,-1,83,85,87,89,91,93,-1,-1,95,97,99,101,103,105,107,109,111,113,115,117,-1,-1,-1,119,-1,121,-1,-1,-1,-1,123,125,-1,127,-1,129,131,133,-1,135,137,139,141,143,145,147,-1,-1,-1,-1,-1,-1,-1,-1,-1,-1,-1,-1,-1,-1,-1,-1,-1,-1,-1,-1,-1,-1,-1,-1,-1,-1,-1,-1,-1,-1,-1,-1,-1,-1,-1,-1,-1,-1,-1,-1,-1,-1,-1,-1,-1,-1,-1,-1,-1,-1,-1,-1,-1,-1],"loss_changes":[3.3766693E2,6.0546204E1,8.433598E1,3.76324E1,9.186661E0,5.577495E1,2.25375E1,1.5233913E1,1.7683975E1,2.1181307E0,8.036301E0,3.6536392E1,3.9456757E1,6.170309E0,1.15581E1,8.043304E0,2.3953905E1,2.569683E0,5.114792E0,0E0,1.60885E0,2.363224E0,6.3068542E0,7.1359205E0,2.4271507E0,1.4322525E1,6.8911037E0,1.0269248E1,0E0,0E0,1.435054E-1,9.941246E0,1.3215322E1,0E0,7.7334223E0,2.885384E0,3.6922646E-1,3.1677094E0,0E0,0E0,0E0,1.6735268E-1,6.845484E-1,8.345337E-1,2.72553E0,1.4134598E0,5.1361723E0,1.7308044E0,0E0,4.09227E0,3.9033508E0,2.7074027E0,1.5935974E0,5.7256393E0,1.1147261E0,0E0,0E0,2.8147433E0,1.8765469E0,7.227263E0,8.236652E0,3.1908689E0,2.6847146E0,5.0528455E0,6.0159373E-1,1.7834473E-1,5.4528093E-1,7.125702E-1,3.9291382E-1,0E0,0E0,0E0,1.0373702E0,0E0,7.8985214E-1,0E0,0E0,0E0,0E0,2.3384418E0,3.9276285E0,0E0,1.8357849E-1,0E0,8.480797E-1,1.2515411E0,9.941788E-1,0E0,1.4276857E0,6.3344574E-1,3.053584E-1,1.8465048E0,5.2241726E0,4.8127842E-1,8.573694E-1,0E0,0E0,0E0,0E0,0E0,0E0,0E0,0E0,0E0,0E0,0E0,0E0,0E0,0E0,0E0,0E0,0E0,0E0,0E0,0E0,0E0,0E0,0E0,0E0,0E0,0E0,0E0,0E0,0E0,0E0,0E0,0E0,0E0,0E0,0E0,0E0,0E0,0E0,0E0,0E0,0E0,0E0,0E0,0E0,0E0,0E0,0E0,0E0,0E0,0E0,0E0,0E0,0E0,0E0],"parents":[2147483647,0,0,1,1,2,2,3,3,4,4,5,5,6,6,7,7,8,8,9,9,10,10,11,11,12,12,13,13,14,14,15,15,16,16,17,17,18,18,20,20,21,21,22,22,23,23,24,24,25,25,26,26,27,27,30,30,31,31,32,32,34,34,35,35,36,36,37,37,41,41,42,42,43,43,44,44,45,45,46,46,47,47,49,49,50,50,51,51,52,52,53,53,54,54,57,57,58,58,59,59,60,60,61,61,62,62,63,63,64,64,65,65,66,66,67,67,68,68,72,72,74,74,79,79,80,80,82,82,84,84,85,85,86,86,88,88,89,89,90,90,91,91,92,92,93,93,94,94],"right_children":[2,4,6,8,10,12,14,16,18,20,22,24,26,28,30,32,34,36,38,-1,40,42,44,46,48,50,52,54,-1,-1,56,58,60,-1,62,64,66,68,-1,-1,-1,70,72,74,76,78,80,82,-1,84,86,88,90,92,94,-1,-1,96,98,100,102,104,106,108,110,112,114,116,118,-1,-1,-1,120,-1,122,-1,-1,-1,-1,124,126,-1,128,-1,130,132,134,-1,136,138,140,142,144,146,148,-1,-1,-1,-1,-1,-1,-1,-1,-1,-1,-1,-1,-1,-1,-1,-1,-1,-1,-1,-1,-1,-1,-1,-1,-1,-1,-1,-1,-1,-1,-1,-1,-1,-1,-1,-1,-1,-1,-1,-1,-1,-1,-1,-1,-1,-1,-1,-1,-1,-1,-1,-1,-1,-1],"split_conditions":[3.9072526E0,1.0272473E3,5.468265E2,2.7825E0,2.2114892E0,5.198635E1,1.80369E3,3.9353138E1,9.5782117E2,6.45E0,2.0501667E1,1.2097646E3,6.516667E0,3.789836E1,-1.8369701E-16,2.5021723E1,1.4802786E1,7.254435E2,2.368766E3,7.298862E-3,2.6737556E1,1.925E0,2.0783333E1,4.1981564E0,-5E-1,1.7524584E1,7.241667E0,8.053791E2,-6.8479273E-3,1.6099863E-2,5.93515E2,2.5814597E2,2.8586222E1,-1.5514367E-2,6.8333335E0,2.2683231E1,2.4833333E0,1.6220856E3,-1.3555438E-3,2.9444015E-3,-5.323425E-3,7.449426E2,5.8733344E2,4.5878057E0,1.6136334E3,3.765234E2,7.438944E2,9.908334E0,1.612536E-3,1.1583334E0,4.045429E2,3.528699E2,4.9706183E2,2.5361114E0,4.1853714E0,-2.4661602E-4,2.0930304E-3,5.1545124E1,-1.8369701E-16,3.586264E1,9.5782117E2,6.123234E-17,4.9132144E2,1.0450891E2,6.4077466E2,3.1998028E1,7.186418E2,3.2602417E1,8.660254E-1,5.110046E-3,1.1326303E-2,9.936625E-3,1.9761667E1,1.5178361E-2,5.733333E0,-0E0,9.953717E-3,1.6937621E-3,9.150908E-3,1.8901944E0,1.3802779E0,3.8275304E-3,2.1217194E1,-1.37919E-2,2.1185001E1,3.156468E2,4.727571E2,4.3703597E-3,4.899674E2,5.007392E0,4.4258704E0,1.4106556E1,3.145089E1,2.7348944E1,3.3426224E1,3.922336E-3,-4.0408443E-3,1.3239298E-2,4.495082E-3,7.9619895E-5,-9.219401E-3,2.131541E-3,7.3701194E-3,1.6434012E-3,9.142771E-3,-9.0237735E-3,-1.57503E-3,5.343716E-4,1.2618741E-2,9.2550495E-4,3.0380355E-3,1.0123865E-2,5.9907255E-3,3.418718E-4,4.891024E-3,1.3973895E-2,8.440385E-3,7.496088E-3,1.4240756E-2,5.835203E-3,6.144569E-4,1.1884307E-2,4.2340304E-3,-1.3033438E-3,-3.9006118E-3,6.4754104E-3,-8.479656E-4,7.4576205E-3,1.2856196E-2,-8.894622E-3,-3.8557237E-3,-7.347019E-3,-5.7745897E-3,-4.784836E-3,-2.6894275E-3,-2.28493E-3,-7.4102724E-4,-4.1977083E-3,-0E0,-2.703931E-3,-9.6113974E-4,3.93544E-3,-2.4045096E-4,1.110245E-2,2.1965394E-3,2.1929813E-3,5.779892E-3,9.413932E-3,3.8697717E-3],"split_indices":[30,15,13,5,30,17,15,21,13,0,3,15,2,21,8,21,18,13,13,0,21,0,3,30,7,24,0,13,0,0,13,13,24,0,0,21,0,13,0,0,0,17,17,23,15,13,15,0,0,5,13,13,13,5,30,0,0,18,8,21,13,8,17,13,13,21,17,21,10,0,0,0,3,0,0,0,0,0,0,23,5,0,21,0,3,15,13,0,13,30,30,24,21,24,21,0,0,0,0,0,0,0,0,0,0,0,0,0,0,0,0,0,0,0,0,0,0,0,0,0,0,0,0,0,0,0,0,0,0,0,0,0,0,0,0,0,0,0,0,0,0,0,0,0,0,0,0,0,0],"split_type":[0,0,0,0,0,0,0,0,0,0,0,0,0,0,0,0,0,0,0,0,0,0,0,0,0,0,0,0,0,0,0,0,0,0,0,0,0,0,0,0,0,0,0,0,0,0,0,0,0,0,0,0,0,0,0,0,0,0,0,0,0,0,0,0,0,0,0,0,0,0,0,0,0,0,0,0,0,0,0,0,0,0,0,0,0,0,0,0,0,0,0,0,0,0,0,0,0,0,0,0,0,0,0,0,0,0,0,0,0,0,0,0,0,0,0,0,0,0,0,0,0,0,0,0,0,0,0,0,0,0,0,0,0,0,0,0,0,0,0,0,0,0,0,0,0,0,0,0,0],"sum_hessian":[5.622E3,1.71E3,3.912E3,1.347E3,3.63E2,3.061E3,8.51E2,7.3E2,6.17E2,2.6E1,3.37E2,6.3E2,2.431E3,8E2,5.1E1,5.79E2,1.51E2,3.55E2,2.62E2,9E0,1.7E1,1.16E2,2.21E2,5.5E2,8E1,1.302E3,1.129E3,7.81E2,1.9E1,3.4E1,1.7E1,9.2E1,4.87E2,2.4E1,1.27E2,1.71E2,1.84E2,2.54E2,8E0,9E0,8E0,5.3E1,6.3E1,1.98E2,2.3E1,2.7E1,5.23E2,7.1E1,9E0,1.98E2,1.104E3,5.74E2,5.55E2,6.88E2,9.3E1,9E0,8E0,4.4E1,4.8E1,1.93E2,2.94E2,6.4E1,6.3E1,3.1E1,1.4E2,1.36E2,4.8E1,1.87E2,6.7E1,8E0,4.5E1,9E0,5.4E1,1.54E2,4.4E1,1.2E1,1.1E1,1.2E1,1.5E1,4.61E2,6.2E1,1.1E1,6E1,5.6E1,1.42E2,7.13E2,3.91E2,1.6E1,5.58E2,4.4E2,1.15E2,5.22E2,1.66E2,4.7E1,4.6E1,3.2E1,1.2E1,3.7E1,1.1E1,1.74E2,1.9E1,1.85E2,1.09E2,4.7E1,1.7E1,1.3E1,5E1,1.5E1,1.6E1,6E1,8E1,8E0,1.28E2,9E0,3.9E1,1.1E1,1.76E2,1.2E1,5.5E1,4.1E1,1.3E1,3.6E1,8E0,3.59E2,1.02E2,2.9E1,3.3E1,1.6E1,4.4E1,1.27E2,1.5E1,2.44E2,4.69E2,3.1E2,8.1E1,2.77E2,2.81E2,4.31E2,9E0,6.6E1,4.9E1,2.3E1,4.99E2,1.5E1,1.51E2,2.7E1,2E1,3E1,1.6E1],"tree_param":{"num_deleted":"0","num_feature":"35","num_nodes":"149","size_leaf_vector":"1"}},{"base_weights":[2.7531788E-3,3.1848013E-1,-1.7877093E-1,1.7367297E-1,5.972994E-1,-2.0863272E-1,5.680482E-1,2.2143114E-1,-1.3913909E-1,4.500696E-1,7.9046094E-1,-2.804341E-1,-1.6738486E-2,3.6630315E-1,1.7113097E-2,3.765643E-1,1.08248144E-1,1.5525652E-1,-4.8867816E-1,8.110073E-1,3.4478894E-1,3.4357238E-1,8.773822E-1,-3.2698754E-2,-3.445523E-1,-5.941069E-2,2.2489968E-1,3.6971578E-3,6.743786E-1,3.147599E-1,6.2478757E-1,4.8775366E-1,8.18772E-2,-1.9360739E-1,2.8576568E-1,-1.3112435E-2,-2.4999875E-1,2.8323233E-3,8.903289E-1,-4.079693E-1,3.931796E-1,-5.6606405E-3,4.929577E-1,7.223556E-1,1.4480333E-2,-7.948836E-2,5.457207E-1,-4.2880666E-1,-1.9971281E-1,-1.3510098E-1,5.330108E-3,3.0129507E-1,-6.7313095E-3,-1.0630651E-1,3.7196376E-3,4.443299E-1,1.2884319E-2,-2.1177806E-2,3.5742533E-1,1.2727448E-2,4.3451822E-1,3.6838272E-4,6.739606E-1,-1.06984526E-1,1.6037467E-1,-1.2655978E-2,1.408156E-1,8.486205E-2,4.6636584E-1,-8.611663E-3,-1.0644287E-1,7.275677E-3,1.4080234E-2,-1.7547586E-3,-9.09895E-3,3.4332386E-1,1.397481E-2,8.8156825E-3,3.566212E-4,5.465627E-3,1.1342475E-2,-1.339435E-1,1.6694999E-1,1.0660192E-2,-0E0,-6.466476E-1,-3.8353074E-1,-2.4109428E-1,-1.05804496E-1,6.662427E-3,-1.5730949E-1,-1.7040595E-2,1.4405146E-1,1.1772443E-1,4.6992388E-1,-7.13052E-3,-3.9793514E-3,1.180648E-3,8.4155435E-3,1.3016473E-3,-2.9989353E-3,1.2799044E-2,4.7450047E-3,5.010925E-3,9.565207E-3,5.1075253E-3,1.2572965E-2,-7.4362946E-3,-1.006214E-3,1.4780606E-3,4.3795863E-3,-1.1806235E-3,5.2937767E-3,2.8165525E-3,-0E0,4.895592E-3,1.0049811E-2,-2.964607E-3,1.4148458E-4,2.663626E-3,6.4291833E-3,-7.0237108E-3,-1.5993661E-3,5.92273E-3,-5.136974E-3,-1.227595E-2,-7.82313E-3,-6.7572403E-3,-5.092092E-3,-4.0504E-3,-1.7404816E-3,3.5402689E-3,-1.8634364E-3,-3.619273E-3,-1.333857E-3,-8.36636E-4,9.57905E-4,3.8244321E-3,9.795371E-4,4.9435855E-3,-1.9415406E-3,1.4145398E-2,3.2831714E-3,-1.763398E-3,1.7314187E-3],"categories":[],"categories_nodes":[],"categories_segments":[],"categories_sizes":[],"default_left":[0,0,0,0,0,0,0,0,0,0,0,0,0,0,0,0,0,0,0,0,0,0,0,0,0,0,0,0,0,0,0,0,0,0,0,0,0,0,0,0,0,0,0,0,0,0,0,0,0,0,0,0,0,0,0,0,0,0,0,0,0,0,0,0,0,0,0,0,0,0,0,0,0,0,0,0,0,0,0,0,0,0,0,0,0,0,0,0,0,0,0,0,0,0,0,0,0,0,0,0,0,0,0,0,0,0,0,0,0,0,0,0,0,0,0,0,0,0,0,0,0,0,0,0,0,0,0,0,0,0,0,0,0,0,0,0,0,0,0,0,0,0,0,0,0],"id":7,"left_children":[1,3,5,7,9,11,13,15,17,19,21,23,25,27,-1,29,31,33,35,37,39,41,43,45,47,49,51,53,55,57,59,61,63,65,67,-1,69,-1,71,73,75,-1,77,79,-1,81,83,85,87,89,91,93,-1,95,-1,97,-1,99,101,-1,103,-1,105,107,109,-1,111,113,115,-1,117,-1,-1,-1,-1,119,-1,-1,-1,-1,-1,121,123,-1,-1,125,127,129,131,-1,133,135,137,139,141,143,-1,-1,-1,-1,-1,-1,-1,-1,-1,-1,-1,-1,-1,-1,-1,-1,-1,-1,-1,-1,-1,-1,-1,-1,-1,-1,-1,-1,-1,-1,-1,-1,-1,-1,-1,-1,-1,-1,-1,-1,-1,-1,-1,-1,-1,-1,-1,-1,-1],"loss_changes":[3.257316E2,8.341652E1,8.062845E1,2.0530018E1,1.9175278E1,4.775557E1,1.4926231E1,2.069849E1,1.894673E1,1.4675499E1,1.0922684E1,4.000998E1,9.768675E0,1.1700657E1,0E0,7.0894165E0,6.721672E0,4.682077E0,7.0666904E0,3.8896904E0,1.1937893E1,6.103231E0,1.7046356E0,1.412093E1,2.4170746E1,3.9867961E0,7.548816E0,1.4515058E0,1.396328E0,5.887226E0,3.1348267E0,3.6221972E0,9.666528E0,6.465868E0,2.4955602E0,0E0,2.3007202E0,0E0,3.5279846E-1,8.6931276E-1,7.1859436E0,0E0,1.8503294E0,4.3515015E-1,0E0,6.546742E0,3.5373278E0,1.1774582E1,2.7630634E0,4.8937163E0,1.3833479E0,3.7650614E0,0E0,5.0935733E-1,0E0,1.0638385E0,0E0,9.6428597E-1,6.561268E0,0E0,5.4291534E-1,0E0,8.9120007E-1,2.7839549E0,3.6076756E0,0E0,1.0416298E0,3.609779E-1,4.466095E-1,0E0,4.746391E-1,0E0,0E0,0E0,0E0,3.6706085E0,0E0,0E0,0E0,0E0,0E0,3.4291897E0,1.049728E1,0E0,0E0,3.4765244E0,2.6422577E0,1.7127209E0,1.4974048E0,0E0,1.9699087E0,1.1837813E0,4.4416225E-1,3.5287726E0,7.193651E0,3.6591697E-1,0E0,0E0,0E0,0E0,0E0,0E0,0E0,0E0,0E0,0E0,0E0,0E0,0E0,0E0,0E0,0E0,0E0,0E0,0E0,0E0,0E0,0E0,0E0,0E0,0E0,0E0,0E0,0E0,0E0,0E0,0E0,0E0,0E0,0E0,0E0,0E0,0E0,0E0,0E0,0E0,0E0,0E0,0E0,0E0,0E0,0E0,0E0,0E0,0E0],"parents":[2147483647,0,0,1,1,2,2,3,3,4,4,5,5,6,6,7,7,8,8,9,9,10,10,11,11,12,12,13,13,15,15,16,16,17,17,18,18,19,19,20,20,21,21,22,22,23,23,24,24,25,25,26,26,27,27,28,28,29,29,30,30,31,31,32,32,33,33,34,34,36,36,38,38,39,39,40,40,42,42,43,43,45,45,46,46,47,47,48,48,49,49,50,50,51,51,53,53,55,55,57,57,58,58,60,60,62,62,63,63,64,64,66,66,67,67,68,68,70,70,75,75,81,81,82,82,85,85,86,86,87,87,88,88,90,90,91,91,92,92,93,93,94,94,95,95],"right_children":[2,4,6,8,10,12,14,16,18,20,22,24,26,28,-1,30,32,34,36,38,40,42,44,46,48,50,52,54,56,58,60,62,64,66,68,-1,70,-1,72,74,76,-1,78,80,-1,82,84,86,88,90,92,94,-1,96,-1,98,-1,100,102,-1,104,-1,106,108,110,-1,112,114,116,-1,118,-1,-1,-1,-1,120,-1,-1,-1,-1,-1,122,124,-1,-1,126,128,130,132,-1,134,136,138,140,142,144,-1,-1,-1,-1,-1,-1,-1,-1,-1,-1,-1,-1,-1,-1,-1,-1,-1,-1,-1,-1,-1,-1,-1,-1,-1,-1,-1,-1,-1,-1,-1,-1,-1,-1,-1,-1,-1,-1,-1,-1,-1,-1,-1,-1,-1,-1,-1,-1,-1],"split_conditions":[4.0461373E0,8.2440027E2,1.3859928E3,3.9353138E1,1.119558E3,4.950936E2,9.830937E0,3.6242657E0,7.1666665E0,2.5279081E1,1.6E1,5.198635E1,6.946844E2,1.0694445E1,1.7113097E-2,8.1085876E2,2.558425E1,2.7951587E2,1.505766E1,1.6427561E0,2.3589447E0,5E-1,1.4806995E3,8.125301E2,6.516667E0,8.491667E0,3.789836E1,1.0481938E3,1.1680509E0,2.5614274E0,1.8558705E0,3.003894E2,5.669833E2,2.6545544E2,5.1839417E2,-1.3112435E-2,4.8750223E2,2.8323233E-3,2.9723566E2,-2.4492937E-16,1.80369E3,-5.6606405E-3,1.5795917E3,1.2246469E-16,1.4480333E-2,1.9062674E1,2.0566342E0,2.920764E0,8.791667E0,2.3094482E0,7.2832367E2,2.3635042E2,-6.7313095E-3,6.6950874E0,3.7196376E-3,7.531259E2,1.2884319E-2,5.180975E1,2.2683231E1,1.2727448E-2,1.328059E1,3.6838272E-4,6.6916666E0,9.566667E0,7.494E2,-1.2655978E-2,8.120142E2,2E0,7.2673175E2,-8.611663E-3,4.366206E1,7.275677E-3,1.4080234E-2,-1.7547586E-3,-9.09895E-3,7.494E2,1.397481E-2,8.8156825E-3,3.566212E-4,5.465627E-3,1.1342475E-2,-8.660254E-1,4.780423E0,1.0660192E-2,-0E0,7.6399994E0,3.8209555E2,5.473983E2,4.8523192E0,6.662427E-3,5.0260083E2,5.80344E2,3.283819E1,3.2380185E0,3.246003E1,3.9981616E2,-3.9793514E-3,1.180648E-3,8.4155435E-3,1.3016473E-3,-2.9989353E-3,1.2799044E-2,4.7450047E-3,5.010925E-3,9.565207E-3,5.1075253E-3,1.2572965E-2,-7.4362946E-3,-1.006214E-3,1.4780606E-3,4.3795863E-3,-1.1806235E-3,5.2937767E-3,2.8165525E-3,-0E0,4.895592E-3,1.0049811E-2,-2.964607E-3,1.4148458E-4,2.663626E-3,6.4291833E-3,-7.0237108E-3,-1.5993661E-3,5.92273E-3,-5.136974E-3,-1.227595E-2,-7.82313E-3,-6.7572403E-3,-5.092092E-3,-4.0504E-3,-1.7404816E-3,3.5402689E-3,-1.8634364E-3,-3.619273E-3,-1.333857E-3,-8.36636E-4,9.57905E-4,3.8244321E-3,9.795371E-4,4.9435855E-3,-1.9415406E-3,1.4145398E-2,3.2831714E-3,-1.763398E-3,1.7314187E-3],"split_indices":[30,14,14,21,13,13,26,30,0,21,4,17,13,1,0,15,21,15,18,30,30,10,13,14,2,2,21,15,25,30,26,13,13,14,18,0,17,0,15,9,15,0,13,9,0,13,25,25,2,25,14,17,0,26,0,15,0,18,21,0,26,0,0,4,13,0,17,11,18,0,21,0,0,0,0,13,0,0,0,0,0,7,30,0,0,4,13,14,26,0,18,13,21,25,21,18,0,0,0,0,0,0,0,0,0,0,0,0,0,0,0,0,0,0,0,0,0,0,0,0,0,0,0,0,0,0,0,0,0,0,0,0,0,0,0,0,0,0,0,0,0,0,0,0,0],"split_type":[0,0,0,0,0,0,0,0,0,0,0,0,0,0,0,0,0,0,0,0,0,0,0,0,0,0,0,0,0,0,0,0,0,0,0,0,0,0,0,0,0,0,0,0,0,0,0,0,0,0,0,0,0,0,0,0,0,0,0,0,0,0,0,0,0,0,0,0,0,0,0,0,0,0,0,0,0,0,0,0,0,0,0,0,0,0,0,0,0,0,0,0,0,0,0,0,0,0,0,0,0,0,0,0,0,0,0,0,0,0,0,0,0,0,0,0,0,0,0,0,0,0,0,0,0,0,0,0,0,0,0,0,0,0,0,0,0,0,0,0,0,0,0,0,0],"sum_hessian":[5.679E3,2.073E3,3.606E3,1.367E3,7.06E2,3.469E3,1.37E2,1.187E3,1.8E2,4.05E2,3.01E2,2.523E3,9.46E2,1.04E2,3.3E1,4.98E2,6.89E2,9.8E1,8.2E1,8.8E1,3.17E2,5.1E1,2.5E2,5.2E2,2.003E3,8.06E2,1.4E2,4.9E1,5.5E1,4.03E2,9.5E1,4.2E1,6.47E2,2.6E1,7.2E1,2.9E1,5.3E1,1.1E1,7.7E1,1.8E1,2.99E2,8E0,4.3E1,9.8E1,1.52E2,4.83E2,3.7E1,1.263E3,7.4E2,3.72E2,4.34E2,1.27E2,1.3E1,3.4E1,1.5E1,2.8E1,2.7E1,4.5E1,3.58E2,4E1,5.5E1,1.3E1,2.9E1,1.89E2,4.58E2,8E0,1.8E1,3.6E1,3.6E1,1.4E1,3.9E1,1.1E1,6.6E1,9E0,9E0,2.77E2,2.2E1,3.5E1,8E0,1.1E1,8.7E1,3.97E2,8.6E1,2.8E1,9E0,2.12E2,1.051E3,5.1E2,2.3E2,1.2E1,3.6E2,3.74E2,6E1,6.3E1,6.4E1,2.3E1,1.1E1,8E0,2E1,2.8E1,1.7E1,2.4E1,3.34E2,4.1E1,1.4E1,1.2E1,1.7E1,1.5E1,1.74E2,3.15E2,1.43E2,9E0,9E0,1.6E1,2E1,2.5E1,1.1E1,2.2E1,1.7E1,9.7E1,1.8E2,2.7E1,3.7E2,6E1,2.6E1,8.4E1,1.28E2,4.08E2,6.43E2,4.11E2,9.9E1,1E1,2.2E2,1.58E2,2.02E2,2.55E2,1.19E2,2.2E1,3.8E1,3.4E1,2.9E1,2E1,4.4E1,1.3E1,1E1],"tree_param":{"num_deleted":"0","num_feature":"35","num_nodes":"145","size_leaf_vector":"1"}},{"base_weights":[5.6035828E-5,3.2737133E-1,-1.700486E-1,2.4330698E-1,6.6777307E-1,-2.2327043E-1,1.6604544E-1,4.3778807E-1,1.3299105E-1,-9.782257E-2,7.089355E-1,6.320999E-2,-2.8000563E-1,1.04833476E-1,7.3357713E-1,2.9889318E-1,6.262709E-1,5.0278723E-1,7.367774E-2,3.1053787E-3,-5.6644394E-3,8.679953E-1,4.9268275E-1,-3.4418784E-2,6.820877E-1,-1.2960552E-1,-3.8364324E-1,1.2446654E-1,-8.67805E-3,9.9889433E-1,1.5731223E-3,2.0059748E-1,3.7637413E-1,6.9093615E-1,3.081438E-1,3.6714707E-2,6.0437995E-1,1.5044068E-1,-4.2582476E-1,9.596192E-1,5.558931E-1,1.5407597E-1,6.302396E-1,-7.594567E-2,2.5400797E-1,7.543556E-4,7.5522304E-1,-1.8548879E-1,-7.185768E-2,-3.961801E-1,1.4364676E-1,3.8400978E-2,3.5499796E-1,7.566153E-3,1.6568253E-2,3.7456602E-1,1.434172E-1,2.8260658E-3,5.963589E-3,7.194424E-1,3.7975497E-5,-1.103865E-2,8.798927E-3,3.980698E-3,-7.697378E-2,6.7132324E-1,1.5945735E-3,3.3896375E-2,3.0499882E-1,-4.362328E-2,-5.963565E-1,4.3409294E-3,1.485878E-2,1.01539E-2,-1.9153208E-6,3.3742147E-3,4.5703795E-2,6.833975E-1,1.5734886E-3,-1.16336204E-1,2.4880229E-1,6.4452046E-1,9.289774E-3,5.9248107E-3,1.2040813E-2,-1.9479728E-1,2.1078293E-3,-8.6069945E-3,-1.0314601E-1,-5.3780514E-1,-3.2468444E-1,-0E0,7.4168234E-3,-1.6685305E-2,2.5174972E-1,5.6101096E-1,1.93572E-1,8.5704384E-4,7.0853718E-3,-1.2389114E-3,2.5192907E-3,1.4726614E-2,9.106327E-3,-3.6271904E-3,1.0303977E-3,7.372918E-3,1.1698415E-2,-1.3774872E-3,1.4484855E-3,5.688738E-3,-2.1276361E-4,3.3324559E-3,-4.72572E-3,-1.1867808E-2,-3.2808082E-3,2.0179306E-3,-9.409981E-5,1.0695893E-2,3.7629188E-3,-2.8892813E-4,-2.9138874E-3,7.404609E-3,-6.44259E-4,4.3118135E-3,1.1898115E-2,2.7720428E-3,-3.639616E-3,-3.0512877E-3,2.759234E-4,-7.915295E-4,1.4516484E-3,-2.5377958E-3,-9.929828E-4,-1.2947709E-2,-7.288768E-3,-5.7073496E-3,-4.303046E-3,-2.7235553E-3,3.328145E-3,-2.2484064E-3,4.470272E-4,1.2797586E-2,2.1243456E-3,5.0361413E-3,1.3595977E-2,3.8978178E-3,1.5323756E-4],"categories":[],"categories_nodes":[],"categories_segments":[],"categories_sizes":[],"default_left":[0,0,0,0,0,0,0,0,0,0,0,0,0,0,0,0,0,0,0,0,0,0,0,0,0,0,0,0,0,0,0,0,0,0,0,0,0,0,0,0,0,0,0,0,0,0,0,0,0,0,0,0,0,0,0,0,0,0,0,0,0,0,0,0,0,0,0,0,0,0,0,0,0,0,0,0,0,0,0,0,0,0,0,0,0,0,0,0,0,0,0,0,0,0,0,0,0,0,0,0,0,0,0,0,0,0,0,0,0,0,0,0,0,0,0,0,0,0,0,0,0,0,0,0,0,0,0,0,0,0,0,0,0,0,0,0,0,0,0,0,0,0,0,0,0,0,0],"id":8,"left_children":[1,3,5,7,9,11,13,15,17,19,21,23,25,27,29,31,33,35,37,-1,-1,39,41,43,45,47,49,51,-1,53,-1,55,57,59,61,63,65,67,69,71,73,75,77,79,81,-1,83,85,87,89,91,93,95,-1,-1,97,99,-1,-1,101,-1,-1,-1,-1,103,105,-1,107,109,111,113,-1,-1,-1,-1,-1,115,117,-1,119,121,123,125,-1,-1,127,-1,129,131,133,135,137,-1,139,141,143,145,-1,-1,-1,-1,-1,-1,-1,-1,-1,-1,-1,-1,-1,-1,-1,-1,-1,-1,-1,-1,-1,-1,-1,-1,-1,-1,-1,-1,-1,-1,-1,-1,-1,-1,-1,-1,-1,-1,-1,-1,-1,-1,-1,-1,-1,-1,-1,-1,-1,-1],"loss_changes":[3.1533508E2,5.492137E1,6.6734566E1,3.3173843E1,1.2299194E1,5.238263E1,1.7395775E1,1.4153358E1,2.1678654E1,1.9817463E0,1.1358734E1,3.238049E1,4.168045E1,6.265113E0,7.7431965E0,2.2316685E0,4.229309E0,6.314293E0,3.3124947E1,0E0,0E0,4.5207825E0,7.054779E0,5.5365577E0,3.1360283E0,3.4717274E0,1.0668503E1,8.862105E0,0E0,3.4025574E-1,0E0,1.2811007E0,4.5023346E-1,3.6589966E0,1.3625103E1,7.804439E-1,3.4361382E0,1.3403187E1,7.315386E0,2.4083405E0,3.634985E0,3.0165327E-1,2.8266754E0,5.3567953E0,5.4000635E0,0E0,2.3850632E-1,1.7528744E0,1.0564122E0,1.5203262E1,1.9052355E0,3.9572735E0,3.689106E0,0E0,0E0,9.265981E-1,6.936164E-1,0E0,0E0,3.9723434E0,0E0,0E0,0E0,0E0,5.240658E-1,8.920479E-1,0E0,3.4067993E0,7.6913013E0,2.8999255E0,5.264353E0,0E0,0E0,0E0,0E0,0E0,1.3352682E-1,7.452812E-1,0E0,2.6956596E0,3.3469956E0,4.9585247E-1,1.758366E0,0E0,0E0,1.0407524E0,0E0,8.623854E-1,8.162446E-1,7.619751E0,1.8386841E0,1.24966E0,0E0,1.673959E0,4.1294384E0,3.1887894E0,8.157151E-1,0E0,0E0,0E0,0E0,0E0,0E0,0E0,0E0,0E0,0E0,0E0,0E0,0E0,0E0,0E0,0E0,0E0,0E0,0E0,0E0,0E0,0E0,0E0,0E0,0E0,0E0,0E0,0E0,0E0,0E0,0E0,0E0,0E0,0E0,0E0,0E0,0E0,0E0,0E0,0E0,0E0,0E0,0E0,0E0,0E0,0E0,0E0,0E0,0E0,0E0],"parents":[2147483647,0,0,1,1,2,2,3,3,4,4,5,5,6,6,7,7,8,8,9,9,10,10,11,11,12,12,13,13,14,14,15,15,16,16,17,17,18,18,21,21,22,22,23,23,24,24,25,25,26,26,27,27,29,29,31,31,32,32,33,33,34,34,35,35,36,36,37,37,38,38,39,39,40,40,41,41,42,42,43,43,44,44,46,46,47,47,48,48,49,49,50,50,51,51,52,52,55,55,56,56,59,59,64,64,65,65,67,67,68,68,69,69,70,70,76,76,77,77,79,79,80,80,81,81,82,82,85,85,87,87,88,88,89,89,90,90,91,91,93,93,94,94,95,95,96,96],"right_children":[2,4,6,8,10,12,14,16,18,20,22,24,26,28,30,32,34,36,38,-1,-1,40,42,44,46,48,50,52,-1,54,-1,56,58,60,62,64,66,68,70,72,74,76,78,80,82,-1,84,86,88,90,92,94,96,-1,-1,98,100,-1,-1,102,-1,-1,-1,-1,104,106,-1,108,110,112,114,-1,-1,-1,-1,-1,116,118,-1,120,122,124,126,-1,-1,128,-1,130,132,134,136,138,-1,140,142,144,146,-1,-1,-1,-1,-1,-1,-1,-1,-1,-1,-1,-1,-1,-1,-1,-1,-1,-1,-1,-1,-1,-1,-1,-1,-1,-1,-1,-1,-1,-1,-1,-1,-1,-1,-1,-1,-1,-1,-1,-1,-1,-1,-1,-1,-1,-1,-1,-1,-1,-1],"split_conditions":[4.0032353E0,1.0272473E3,9.713876E-2,3.1555555E0,1.9621922E0,2.3779444E1,1.7148044E3,1.6245474E-1,2.4741388E1,8.941667E0,5.651224E0,1.2097646E3,8.333333E0,3.6205418E1,-1.8369701E-16,1.2382827E-1,7.0710677E-1,1.7418152E-2,8.833333E0,3.1053787E-3,-5.6644394E-3,4.53075E0,1.2241095E-1,4.5099165E-2,1.9382444E1,2.5596222E1,1.7175E1,1.2241095E-1,-8.67805E-3,3.4039917E2,1.5731223E-3,1.3472222E0,1.6705E1,3.9479434E-1,2.7951587E2,1.57657385E1,1.7075527E1,1.3156249E-1,3.1637917E1,1.4420055E1,6.9333334E0,3.4745762E0,3.6492054E1,7.1388916E2,1.6857778E0,7.543556E-4,5.16125E0,1.6718875E3,-5E-1,6.1576508E-2,1E0,1.0583333E1,2.8651001E1,7.566153E-3,1.6568253E-2,1.7418152E-2,8.350413E-2,2.8260658E-3,5.963589E-3,1.8558705E0,3.7975497E-5,-1.103865E-2,8.798927E-3,3.980698E-3,4.7748773E2,6.189243E-2,1.5945735E-3,9.4971724E-2,3.0943367E-1,1.6329805E1,1.2246469E-16,4.3409294E-3,1.485878E-2,1.01539E-2,-1.9153208E-6,3.3742147E-3,1.3E1,2.26E2,1.5734886E-3,-2.4492937E-16,8.200001E0,2.0286612E1,4.5399003E0,5.9248107E-3,1.2040813E-2,1.4541667E1,2.1078293E-3,2.7704834E1,8.306764E-2,7.0950003E0,4.0237244E2,2.023491E-3,7.4168234E-3,2.964674E2,2.6707138E1,1.4381198E2,3.1813612E1,8.5704384E-4,7.0853718E-3,-1.2389114E-3,2.5192907E-3,1.4726614E-2,9.106327E-3,-3.6271904E-3,1.0303977E-3,7.372918E-3,1.1698415E-2,-1.3774872E-3,1.4484855E-3,5.688738E-3,-2.1276361E-4,3.3324559E-3,-4.72572E-3,-1.1867808E-2,-3.2808082E-3,2.0179306E-3,-9.409981E-5,1.0695893E-2,3.7629188E-3,-2.8892813E-4,-2.9138874E-3,7.404609E-3,-6.44259E-4,4.3118135E-3,1.1898115E-2,2.7720428E-3,-3.639616E-3,-3.0512877E-3,2.759234E-4,-7.915295E-4,1.4516484E-3,-2.5377958E-3,-9.929828E-4,-1.2947709E-2,-7.288768E-3,-5.7073496E-3,-4.303046E-3,-2.7235553E-3,3.328145E-3,-2.2484064E-3,4.470272E-4,1.2797586E-2,2.1243456E-3,5.0361413E-3,1.3595977E-2,3.8978178E-3,1.5323756E-4],"split_indices":[30,15,16,1,30,22,15,16,22,1,26,15,0,22,8,16,7,16,0,0,0,23,16,16,22,24,0,16,0,19,0,1,4,16,15,15,24,16,22,18,0,0,22,15,23,0,24,15,7,16,28,2,22,0,0,16,16,0,0,26,0,0,0,0,15,16,0,16,16,17,9,0,0,0,0,0,29,29,0,9,4,22,30,0,0,4,0,24,16,4,19,16,0,17,22,17,22,0,0,0,0,0,0,0,0,0,0,0,0,0,0,0,0,0,0,0,0,0,0,0,0,0,0,0,0,0,0,0,0,0,0,0,0,0,0,0,0,0,0,0,0,0,0,0,0,0,0],"split_type":[0,0,0,0,0,0,0,0,0,0,0,0,0,0,0,0,0,0,0,0,0,0,0,0,0,0,0,0,0,0,0,0,0,0,0,0,0,0,0,0,0,0,0,0,0,0,0,0,0,0,0,0,0,0,0,0,0,0,0,0,0,0,0,0,0,0,0,0,0,0,0,0,0,0,0,0,0,0,0,0,0,0,0,0,0,0,0,0,0,0,0,0,0,0,0,0,0,0,0,0,0,0,0,0,0,0,0,0,0,0,0,0,0,0,0,0,0,0,0,0,0,0,0,0,0,0,0,0,0,0,0,0,0,0,0,0,0,0,0,0,0,0,0,0,0,0,0],"sum_hessian":[5.659E3,1.935E3,3.724E3,1.555E3,3.8E2,3.216E3,5.08E2,5.6E2,9.95E2,1.9E1,3.61E2,5.31E2,2.685E3,4.61E2,4.7E1,3.26E2,2.34E2,1.35E2,8.6E2,9E0,1E1,2.04E2,1.57E2,4.6E2,7.1E1,1.098E3,1.587E3,4.5E2,1.1E1,3.2E1,1.5E1,1.48E2,1.78E2,1.92E2,4.2E1,2.5E1,1.1E2,7.47E2,1.13E2,1.54E2,5E1,4.7E1,1.1E2,4.04E2,5.6E1,8E0,6.3E1,5.54E2,5.44E2,1.551E3,3.6E1,3.3E2,1.2E2,8E0,2.4E1,3.3E1,1.15E2,2.1E1,1.57E2,1.84E2,8E0,8E0,3.4E1,8E0,1.7E1,9.6E1,1.4E1,4.28E2,3.19E2,3.6E1,7.7E1,8E0,1.46E2,4.1E1,9E0,2.6E1,2.1E1,9.9E1,1.1E1,3.61E2,4.3E1,2E1,3.6E1,1E1,5.3E1,5.4E2,1.4E1,1.83E2,3.61E2,5.15E2,1.036E3,2.7E1,9E0,2.63E2,6.7E1,5E1,7E1,9E0,2.4E1,1E1,1.05E2,5E1,1.34E2,8E0,9E0,4.1E1,5.5E1,1.41E2,2.87E2,2.59E2,6E1,1.8E1,1.8E1,4.9E1,2.8E1,8E0,1.3E1,9.1E1,8E0,1.63E2,1.98E2,2.3E1,2E1,8E0,1.2E1,2.2E1,1.4E1,5.2E2,2E1,1.31E2,5.2E1,1.25E2,2.36E2,6.6E1,4.49E2,4.09E2,6.27E2,1.5E1,1.2E1,6.8E1,1.95E2,8E0,5.9E1,3.3E1,1.7E1,5E1,2E1],"tree_param":{"num_deleted":"0","num_feature":"35","num_nodes":"147","size_leaf_vector":"1"}},{"base_weights":[1.7328287E-3,2.9782206E-1,-1.7088969E-1,1.5547365E-1,5.076147E-1,-2.2320926E-1,1.5210097E-1,6.327381E-1,8.038702E-2,3.6816558E-1,8.309404E-1,5.7983406E-2,-2.819516E-1,8.989862E-2,6.484691E-1,2.5033178E-2,7.8393734E-1,1.5756065E-1,-3.144157E-1,2.5663808E-1,4.8945847E-1,8.4806657E-1,3.4031097E-3,-7.000334E-2,4.884107E-1,-1.4231013E-1,-3.9310676E-1,1.1119651E-1,-9.342684E-3,9.175989E-1,7.5731985E-2,1.8367878E-1,-5.2610897E-3,4.0784392E-1,9.2614526E-1,7.779889E-3,2.8887078E-1,-2.3404509E-2,-6.1947626E-1,5.190664E-1,2.0224585E-1,1.3198572E-2,4.520304E-1,9.36583E-1,7.0451266E-1,-9.805536E-2,2.4257983E-1,5.621906E-1,-1.5664485E-3,-8.179595E-2,-2.0578869E-1,-5.6337523E-1,-3.519412E-1,5.3459026E-2,4.5453364E-1,4.5338636E-3,1.5894094E-2,2.351566E-3,-0E0,6.956199E-5,4.6944027E-3,8.341287E-3,1.4130777E-3,1.4852413E-2,8.608044E-3,1.2487262E-1,-3.671718E-2,3.4514123E-1,-8.867017E-3,1.5962881E-1,-3.415528E-1,-7.595162E-1,-1.8608013E-1,-3.585583E-2,8.4680074E-1,9.579132E-2,2.7810982E-1,4.6934244E-1,-8.455668E-4,1.50309345E-2,1.0876239E-2,1.1296615E-2,2.2108373E-3,-1.6054983E-1,-2.1512724E-2,-0E0,1.1428519E-2,6.397452E-1,2.0450635E-1,-1.0986334E-1,-1.0644438E-2,-2.1798247E-1,-0E0,-6.192376E-1,4.238959E-3,-3.6842757E-1,-1.8604492E-1,1.4898461E-2,2.6523134E-1,2.4096717E-3,5.1464117E-1,1.6168646E-4,2.3876147E-3,4.151695E-3,-7.458344E-4,3.472061E-3,7.874056E-3,-4.7429665E-3,1.4614897E-3,-2.80869E-3,6.357159E-3,-7.515226E-3,2.059587E-3,-1.4466104E-2,-7.5380015E-3,-6.101096E-4,-4.9852002E-3,-2.6064883E-3,9.0540736E-4,1.4970237E-2,5.987576E-3,-9.446344E-5,1.8806579E-3,5.654316E-3,3.257573E-3,6.291092E-3,8.740756E-3,-1.7907046E-3,-8.561123E-3,3.3501396E-4,-5.063548E-3,3.076539E-3,-3.4668883E-3,3.3800069E-3,1.1034642E-2,-1.746963E-3,6.6265203E-3,1.3395115E-3,-1.8524426E-3,1.53117E-3,-7.618343E-4,-3.7002407E-3,-1.8410151E-3,-2.3483762E-3,2.752438E-3,-6.952127E-3,-1.1423077E-2,-6.5560746E-3,-4.9569276E-3,-3.0038652E-3,-7.244474E-5,5.278825E-3,-1.1960013E-4,1.1148301E-2,2.2916284E-3,1.0281077E-2,3.962946E-3],"categories":[],"categories_nodes":[],"categories_segments":[],"categories_sizes":[],"default_left":[0,0,0,0,0,0,0,0,0,0,0,0,0,0,0,0,0,0,0,0,0,0,0,0,0,0,0,0,0,0,0,0,0,0,0,0,0,0,0,0,0,0,0,0,0,0,0,0,0,0,0,0,0,0,0,0,0,0,0,0,0,0,0,0,0,0,0,0,0,0,0,0,0,0,0,0,0,0,0,0,0,0,0,0,0,0,0,0,0,0,0,0,0,0,0,0,0,0,0,0,0,0,0,0,0,0,0,0,0,0,0,0,0,0,0,0,0,0,0,0,0,0,0,0,0,0,0,0,0,0,0,0,0,0,0,0,0,0,0,0,0,0,0,0,0,0,0,0,0,0,0,0,0,0,0,0,0],"id":9,"left_children":[1,3,5,7,9,11,13,15,17,19,21,23,25,27,29,31,33,35,37,39,41,43,-1,45,47,49,51,53,-1,55,57,59,-1,61,63,65,67,69,71,73,75,-1,77,79,81,83,85,87,-1,89,91,93,95,97,99,-1,-1,-1,-1,-1,-1,-1,-1,-1,-1,101,103,105,107,109,111,113,115,117,119,121,123,125,-1,-1,-1,-1,-1,127,129,131,-1,133,135,137,139,141,143,145,-1,147,149,151,153,-1,155,-1,-1,-1,-1,-1,-1,-1,-1,-1,-1,-1,-1,-1,-1,-1,-1,-1,-1,-1,-1,-1,-1,-1,-1,-1,-1,-1,-1,-1,-1,-1,-1,-1,-1,-1,-1,-1,-1,-1,-1,-1,-1,-1,-1,-1,-1,-1,-1,-1,-1,-1,-1,-1,-1,-1,-1],"loss_changes":[2.898792E2,6.2094696E1,6.0613373E1,4.4479195E1,3.7157074E1,5.1018753E1,1.5173365E1,1.5327446E1,3.3004E1,7.621361E0,2.0072327E0,2.9569584E1,3.9392838E1,6.821624E0,8.140083E0,2.2415624E0,6.198021E0,1.775514E1,1.555578E1,4.127836E0,3.0445633E0,1.452591E0,0E0,3.6400952E0,5.5889587E0,4.268753E0,9.36644E0,8.492817E0,0E0,2.3202553E0,1.3106501E-1,5.585389E-1,0E0,1.6714401E0,7.1565247E-1,2.246382E0,8.148727E0,5.5609794E0,4.747799E0,9.680003E0,2.0040197E0,0E0,2.4326935E0,1.9566345E-1,2.3593903E0,1.7791903E0,4.384701E0,2.6208916E0,0E0,1.1438239E0,1.3742199E0,1.3271484E1,2.8945618E0,3.0065093E0,7.9481983E-1,0E0,0E0,0E0,0E0,0E0,0E0,0E0,0E0,0E0,0E0,4.2829645E-1,1.2419248E0,7.9033203E0,2.6535635E0,5.7043076E0,2.8829217E0,2.1071358E0,4.087934E-1,3.223114E-1,1.1575165E0,3.697194E-1,6.3300705E-1,7.431488E-1,0E0,0E0,0E0,0E0,0E0,3.2382846E0,2.503303E0,1.2833884E0,0E0,3.0132332E0,1.9195032E0,1.163837E0,7.693931E-1,1.2870598E0,1.0044321E0,4.723366E0,0E0,2.2731934E0,2.3778558E-1,2.5487752E0,2.657617E0,0E0,1.5862627E0,0E0,0E0,0E0,0E0,0E0,0E0,0E0,0E0,0E0,0E0,0E0,0E0,0E0,0E0,0E0,0E0,0E0,0E0,0E0,0E0,0E0,0E0,0E0,0E0,0E0,0E0,0E0,0E0,0E0,0E0,0E0,0E0,0E0,0E0,0E0,0E0,0E0,0E0,0E0,0E0,0E0,0E0,0E0,0E0,0E0,0E0,0E0,0E0,0E0,0E0,0E0,0E0,0E0,0E0,0E0,0E0],"parents":[2147483647,0,0,1,1,2,2,3,3,4,4,5,5,6,6,7,7,8,8,9,9,10,10,11,11,12,12,13,13,14,14,15,15,16,16,17,17,18,18,19,19,20,20,21,21,23,23,24,24,25,25,26,26,27,27,29,29,30,30,31,31,33,33,34,34,35,35,36,36,37,37,38,38,39,39,40,40,42,42,43,43,44,44,45,45,46,46,47,47,49,49,50,50,51,51,52,52,53,53,54,54,65,65,66,66,67,67,68,68,69,69,70,70,71,71,72,72,73,73,74,74,75,75,76,76,77,77,83,83,84,84,85,85,87,87,88,88,89,89,90,90,91,91,92,92,93,93,95,95,96,96,97,97,98,98,100,100],"right_children":[2,4,6,8,10,12,14,16,18,20,22,24,26,28,30,32,34,36,38,40,42,44,-1,46,48,50,52,54,-1,56,58,60,-1,62,64,66,68,70,72,74,76,-1,78,80,82,84,86,88,-1,90,92,94,96,98,100,-1,-1,-1,-1,-1,-1,-1,-1,-1,-1,102,104,106,108,110,112,114,116,118,120,122,124,126,-1,-1,-1,-1,-1,128,130,132,-1,134,136,138,140,142,144,146,-1,148,150,152,154,-1,156,-1,-1,-1,-1,-1,-1,-1,-1,-1,-1,-1,-1,-1,-1,-1,-1,-1,-1,-1,-1,-1,-1,-1,-1,-1,-1,-1,-1,-1,-1,-1,-1,-1,-1,-1,-1,-1,-1,-1,-1,-1,-1,-1,-1,-1,-1,-1,-1,-1,-1,-1,-1,-1,-1,-1,-1],"split_conditions":[4.054404E0,1.6695E1,5.669833E2,2.3519083E1,1.2832449E3,2.5279081E1,1.2684598E3,2.720038E0,8.833333E0,8.125897E2,4.0857918E1,7.438944E2,8.833333E0,3.789836E1,-1.8369701E-16,5.16649E1,3.7135458E2,7.0557074E2,3.1637917E1,2.6917778E1,3.240436E1,1.4E1,3.4031097E-3,2.70595E2,2.0566342E0,7.241667E0,2.9518518E0,8.053791E2,-9.342684E-3,3.652145E1,4.2928658E0,1.0450891E2,-5.2610897E-3,1.6857778E0,-5E-1,4.358333E0,4.174025E1,1.6329805E1,3.156468E2,8.5368997E-1,6.555546E2,1.3198572E-2,3.9353138E1,2.9583333E0,3.7994915E1,4E0,1.3E1,-5E-1,-1.5664485E-3,5.166975E2,8.975E0,1.5827778E1,4.727571E2,1.5216667E1,1.5243454E1,4.5338636E-3,1.5894094E-2,2.351566E-3,-0E0,6.956199E-5,4.6944027E-3,8.341287E-3,1.4130777E-3,1.4852413E-2,8.608044E-3,-7.0710677E-1,1.8613258E2,1.0454563E3,5.9891364E2,2.3589447E0,5.0102478E2,4.798824E0,4.8521667E0,1.699075E1,2.0458834E1,5.468265E2,1.925E0,1.8955E1,-8.455668E-4,1.50309345E-2,1.0876239E-2,1.1296615E-2,2.2108373E-3,2.246536E1,1.8207778E0,4.5399003E0,1.1428519E-2,1.9795973E1,1.2042061E1,1.5735933E1,3.2602417E1,4.9706183E2,4.376936E2,1.3E1,4.238959E-3,3.825621E2,5.544095E2,2.3510926E0,2.7851805E1,2.4096717E-3,2.8488972E1,1.6168646E-4,2.3876147E-3,4.151695E-3,-7.458344E-4,3.472061E-3,7.874056E-3,-4.7429665E-3,1.4614897E-3,-2.80869E-3,6.357159E-3,-7.515226E-3,2.059587E-3,-1.4466104E-2,-7.5380015E-3,-6.101096E-4,-4.9852002E-3,-2.6064883E-3,9.0540736E-4,1.4970237E-2,5.987576E-3,-9.446344E-5,1.8806579E-3,5.654316E-3,3.257573E-3,6.291092E-3,8.740756E-3,-1.7907046E-3,-8.561123E-3,3.3501396E-4,-5.063548E-3,3.076539E-3,-3.4668883E-3,3.3800069E-3,1.1034642E-2,-1.746963E-3,6.6265203E-3,1.3395115E-3,-1.8524426E-3,1.53117E-3,-7.618343E-4,-3.7002407E-3,-1.8410151E-3,-2.3483762E-3,2.752438E-3,-6.952127E-3,-1.1423077E-2,-6.5560746E-3,-4.9569276E-3,-3.0038652E-3,-7.244474E-5,5.278825E-3,-1.1960013E-4,1.1148301E-2,2.2916284E-3,1.0281077E-2,3.962946E-3],"split_indices":[30,4,13,22,13,21,15,30,0,13,22,15,0,21,8,17,13,13,22,22,21,29,0,13,25,0,25,13,0,19,30,13,0,23,7,0,21,17,19,30,13,0,21,0,22,11,1,7,0,13,1,1,13,4,19,0,0,0,0,0,0,0,0,0,0,8,13,13,17,30,13,25,23,22,22,13,0,4,0,0,0,0,0,22,23,30,0,22,19,19,21,13,13,0,0,19,13,25,22,0,22,0,0,0,0,0,0,0,0,0,0,0,0,0,0,0,0,0,0,0,0,0,0,0,0,0,0,0,0,0,0,0,0,0,0,0,0,0,0,0,0,0,0,0,0,0,0,0,0,0,0,0,0,0,0,0,0],"split_type":[0,0,0,0,0,0,0,0,0,0,0,0,0,0,0,0,0,0,0,0,0,0,0,0,0,0,0,0,0,0,0,0,0,0,0,0,0,0,0,0,0,0,0,0,0,0,0,0,0,0,0,0,0,0,0,0,0,0,0,0,0,0,0,0,0,0,0,0,0,0,0,0,0,0,0,0,0,0,0,0,0,0,0,0,0,0,0,0,0,0,0,0,0,0,0,0,0,0,0,0,0,0,0,0,0,0,0,0,0,0,0,0,0,0,0,0,0,0,0,0,0,0,0,0,0,0,0,0,0,0,0,0,0,0,0,0,0,0,0,0,0,0,0,0,0,0,0,0,0,0,0,0,0,0,0,0,0],"sum_hessian":[5.667E3,2.087E3,3.58E3,1.246E3,8.41E2,3.082E3,4.98E2,1.67E2,1.079E3,5.91E2,2.5E2,5.32E2,2.55E3,4.45E2,5.3E1,3.4E1,1.33E2,9.04E2,1.75E2,3.12E2,2.79E2,2.42E2,8E0,4.11E2,1.21E2,1.133E3,1.417E3,4.34E2,1.1E1,3.5E1,1.8E1,2.5E1,9E0,3.9E1,9.4E1,4.24E2,4.8E2,9.1E1,8.4E1,5E1,2.62E2,2E1,2.59E2,1.42E2,1E2,3.79E2,3.2E1,1.08E2,1.3E1,5.84E2,5.49E2,2.7E2,1.147E3,3.74E2,6E1,8E0,2.7E1,8E0,1E1,1.2E1,1.3E1,2.5E1,1.4E1,7.6E1,1.8E1,1.17E2,3.07E2,4.04E2,7.6E1,5.8E1,3.3E1,6.2E1,2.2E1,1.9E1,3.1E1,1.12E2,1.5E2,2.51E2,8E0,1.02E2,4E1,9.1E1,9E0,2.06E2,1.73E2,2.3E1,9E0,8.7E1,2.1E1,4.16E2,1.68E2,5.18E2,3.1E1,2.54E2,1.6E1,1.04E3,1.07E2,3.19E2,5.5E1,1.2E1,4.8E1,2.9E1,8.8E1,1E1,2.97E2,2.51E2,1.53E2,1.9E1,5.7E1,2.5E1,3.3E1,2.5E1,8E0,3.1E1,3.1E1,1.3E1,9E0,8E0,1.1E1,2.1E1,1E1,2.4E1,8.8E1,5.2E1,9.8E1,1.82E2,6.9E1,1.9E2,1.6E1,1.53E2,2E1,1.2E1,1.1E1,1.8E1,6.9E1,9E0,1.2E1,2.5E1,3.91E2,4.2E1,1.26E2,3.94E2,1.24E2,1.7E1,1.4E1,1.26E2,1.28E2,3.61E2,6.79E2,9.8E1,9E0,1.9E1,3E2,8E0,4.7E1,2.6E1,2.2E1],"tree_param":{"num_deleted":"0","num_feature":"35","num_nodes":"157","size_leaf_vector":"1"}},{"base_weights":[-1.2440135E-3,3.0455047E-1,-1.7222686E-1,1.6524808E-1,5.62924E-1,-2.0262328E-1,5.256246E-1,2.1186447E-1,-1.7244211E-1,4.2342624E-1,7.4376094E-1,-2.6934397E-1,-2.1025589E-2,7.5688237E-1,7.0043966E-2,3.830912E-1,1.2798707E-1,-5.899501E-1,1.1914115E-1,8.1759894E-1,3.3010367E-1,3.5689133E-1,8.339318E-1,-6.530905E-2,-3.2818758E-1,-6.7387E-2,2.149275E-1,5.814291E-1,1.6466765E-2,-1.157052E-1,3.3108246E-1,4.2604873E-1,-6.819025E-2,4.9013913E-1,9.594596E-2,-1.8406773E-2,-3.329715E-1,4.3299857E-1,-7.504231E-2,2.7413284E-3,1.3434003E-2,1.0736662E-1,4.4841364E-1,-3.6805575E-3,4.7441244E-1,1.4478262E-2,1.0668615E-2,-1.2747756E-1,3.6889333E-1,-4.771288E-1,-2.4589199E-1,-1.1209984E-1,3.336492E-2,3.218217E-1,-4.3688568E-1,6.8274593E-1,-1.0192632E-3,-2.2401597E-1,2.2107249E-3,9.265662E-3,1.237788E-3,8.89159E-1,3.637901E-1,9.500117E-4,-1.8921834E-1,-0E0,6.3352525E-1,-5.2902177E-2,2.1730597E-1,-9.61876E-3,1.8607704E-2,2.9689686E-3,8.492806E-3,3.656588E-3,-1.4478503E-1,-4.3945857E-3,1.6941217E-1,3.9850613E-1,1.4005332E-2,8.457627E-3,9.851137E-4,-9.6338734E-2,-4.3152356E-1,1.752468E-2,5.7916385E-1,-6.79685E-1,-4.2236555E-1,-1.09860025E-1,-2.8446877E-1,4.514318E-3,-1.2140636E-1,3.4099892E-1,7.337381E-3,5.332498E-1,1.389929E-1,-2.647677E-3,-8.619063E-3,3.3882211E-3,1.1091137E-2,-1.6642621E-3,-5.101755E-3,4.894186E-3,1.5807854E-2,1.3822678E-3,6.592028E-3,-0E0,-4.6635177E-3,1.0975759E-2,2.2803294E-3,-0E0,-4.421761E-3,3.4565723E-3,-4.71556E-3,2.7707499E-3,-3.1231008E-3,-4.3821423E-3,-8.928009E-5,7.1461317E-3,1.6225133E-3,3.9422815E-3,7.2762263E-3,-2.0821393E-3,2.1882842E-3,8.0572104E-4,-8.684201E-3,-1.8521862E-3,3.8178978E-3,9.881727E-3,3.0352448E-3,-1.08906E-2,-4.3530953E-3,-7.166249E-3,-5.3900173E-3,3.1838533E-3,-1.8225249E-3,-4.593389E-3,-2.899424E-3,-3.6960992E-3,-1.1794469E-3,6.8476712E-3,2.059299E-3,-6.452063E-4,1.172846E-3,1.1373607E-3,9.26553E-3,7.9558365E-4,4.4282945E-3],"categories":[],"categories_nodes":[],"categories_segments":[],"categories_sizes":[],"default_left":[0,0,0,0,0,0,0,0,0,0,0,0,0,0,0,0,0,0,0,0,0,0,0,0,0,0,0,0,0,0,0,0,0,0,0,0,0,0,0,0,0,0,0,0,0,0,0,0,0,0,0,0,0,0,0,0,0,0,0,0,0,0,0,0,0,0,0,0,0,0,0,0,0,0,0,0,0,0,0,0,0,0,0,0,0,0,0,0,0,0,0,0,0,0,0,0,0,0,0,0,0,0,0,0,0,0,0,0,0,0,0,0,0,0,0,0,0,0,0,0,0,0,0,0,0,0,0,0,0,0,0,0,0,0,0,0,0,0,0,0,0,0,0,0,0,0,0],"id":10,"left_children":[1,3,5,7,9,11,13,15,17,19,21,23,25,27,29,31,33,35,37,39,41,43,45,47,49,51,53,55,-1,57,59,61,63,65,67,-1,69,71,73,-1,-1,75,77,-1,79,-1,-1,81,83,85,87,89,91,93,95,97,-1,99,-1,-1,-1,101,103,-1,105,-1,107,109,111,-1,113,-1,-1,-1,115,-1,117,119,-1,-1,-1,121,123,125,127,129,131,133,135,-1,137,139,141,143,145,-1,-1,-1,-1,-1,-1,-1,-1,-1,-1,-1,-1,-1,-1,-1,-1,-1,-1,-1,-1,-1,-1,-1,-1,-1,-1,-1,-1,-1,-1,-1,-1,-1,-1,-1,-1,-1,-1,-1,-1,-1,-1,-1,-1,-1,-1,-1,-1,-1,-1,-1,-1],"loss_changes":[2.92355E2,7.183241E1,7.623651E1,2.0639874E1,1.6820374E1,4.1598633E1,1.553207E1,1.6301723E1,1.959113E1,1.39815445E1,9.70166E0,3.006189E1,1.014002E1,4.3090096E0,2.6895387E0,7.4187813E0,8.78164E0,9.677536E0,5.92644E0,3.1708717E0,8.43602E0,4.596109E0,2.2058258E0,1.532421E1,2.3522324E1,3.5235384E0,1.0848793E1,4.8212605E0,0E0,9.93203E-1,1.3966496E0,9.020897E0,5.9036165E-1,4.370352E0,1.2971785E1,0E0,5.5676203E0,7.814503E-1,1.3848925E0,0E0,0E0,2.9807463E0,4.148018E0,0E0,1.7008038E0,0E0,0E0,4.516698E0,5.106018E0,6.870453E0,6.4759445E0,2.1129785E0,1.8389912E0,4.8197947E0,4.3581104E-1,1.0520382E0,0E0,1.4936137E-1,0E0,0E0,0E0,2.6517715E0,6.123741E0,0E0,3.8298708E-1,0E0,1.8702049E0,4.1389017E0,2.8860188E0,0E0,1.0141182E0,0E0,0E0,0E0,9.802681E-1,0E0,1.7166152E0,1.9096432E0,0E0,0E0,0E0,4.709567E0,3.3863344E0,1.0581932E0,8.8121796E-1,1.9571075E0,1.4092484E0,1.0946689E0,1.7257309E0,0E0,2.730194E0,1.7945838E-1,8.093133E-1,2.0854568E0,8.927269E-1,0E0,0E0,0E0,0E0,0E0,0E0,0E0,0E0,0E0,0E0,0E0,0E0,0E0,0E0,0E0,0E0,0E0,0E0,0E0,0E0,0E0,0E0,0E0,0E0,0E0,0E0,0E0,0E0,0E0,0E0,0E0,0E0,0E0,0E0,0E0,0E0,0E0,0E0,0E0,0E0,0E0,0E0,0E0,0E0,0E0,0E0,0E0,0E0,0E0,0E0,0E0,0E0],"parents":[2147483647,0,0,1,1,2,2,3,3,4,4,5,5,6,6,7,7,8,8,9,9,10,10,11,11,12,12,13,13,14,14,15,15,16,16,17,17,18,18,19,19,20,20,21,21,22,22,23,23,24,24,25,25,26,26,27,27,29,29,30,30,31,31,32,32,33,33,34,34,36,36,37,37,38,38,41,41,42,42,44,44,47,47,48,48,49,49,50,50,51,51,52,52,53,53,54,54,55,55,57,57,61,61,62,62,64,64,66,66,67,67,68,68,70,70,74,74,76,76,77,77,81,81,82,82,83,83,84,84,85,85,86,86,87,87,88,88,90,90,91,91,92,92,93,93,94,94],"right_children":[2,4,6,8,10,12,14,16,18,20,22,24,26,28,30,32,34,36,38,40,42,44,46,48,50,52,54,56,-1,58,60,62,64,66,68,-1,70,72,74,-1,-1,76,78,-1,80,-1,-1,82,84,86,88,90,92,94,96,98,-1,100,-1,-1,-1,102,104,-1,106,-1,108,110,112,-1,114,-1,-1,-1,116,-1,118,120,-1,-1,-1,122,124,126,128,130,132,134,136,-1,138,140,142,144,146,-1,-1,-1,-1,-1,-1,-1,-1,-1,-1,-1,-1,-1,-1,-1,-1,-1,-1,-1,-1,-1,-1,-1,-1,-1,-1,-1,-1,-1,-1,-1,-1,-1,-1,-1,-1,-1,-1,-1,-1,-1,-1,-1,-1,-1,-1,-1,-1,-1,-1,-1,-1],"split_conditions":[4.0461373E0,8.125301E2,1.3210254E3,3.6205418E1,1.119558E3,4.950936E2,8.660254E-1,3.5062947E0,3.4941672E2,2.3255083E1,1.6E1,2E0,6.946844E2,5.768652E2,6.8040894E2,1E0,2.4741388E1,3.4581668E0,4.8333335E0,1.6427561E0,7.0557074E2,5E-1,1.2E1,9.3221423E2,2.0340918E1,9.558333E0,3.319875E1,2.7261862E1,1.6466765E-2,4.9840585E2,2.7402E1,2.1359833E1,5.1545124E1,2.70595E2,6.4077466E2,-1.8406773E-2,1.5172423E1,5.125738E2,1.5636211E1,2.7413284E-3,1.3434003E-2,1.9621922E0,1.8757251E3,-3.6805575E-3,3.579172E1,1.4478262E-2,1.0668615E-2,2.7992813E2,1.1661017E1,7.766667E0,7.241667E0,1.385669E1,2.6917778E1,-1.8369701E-16,4.499822E0,4.5882497E0,-1.0192632E-3,1.8558705E0,2.2107249E-3,9.265662E-3,1.237788E-3,1.8613258E2,2.9114916E1,9.500117E-4,2.6166666E0,-0E0,6.6435585E0,6.8333335E0,1.55E1,-9.61876E-3,4.930861E0,2.9689686E-3,8.492806E-3,3.656588E-3,3.582236E1,-4.3945857E-3,2.638814E1,1.6695E1,1.4005332E-2,8.457627E-3,9.851137E-4,1.9062674E1,7.075E0,1.5780501E1,1.4715321E1,1.8766527E1,3.6945905E2,3.291897E2,5.473983E2,4.514318E-3,6.766667E0,4.616667E0,5.698304E2,-8.660254E-1,8.4542505E2,-2.647677E-3,-8.619063E-3,3.3882211E-3,1.1091137E-2,-1.6642621E-3,-5.101755E-3,4.894186E-3,1.5807854E-2,1.3822678E-3,6.592028E-3,-0E0,-4.6635177E-3,1.0975759E-2,2.2803294E-3,-0E0,-4.421761E-3,3.4565723E-3,-4.71556E-3,2.7707499E-3,-3.1231008E-3,-4.3821423E-3,-8.928009E-5,7.1461317E-3,1.6225133E-3,3.9422815E-3,7.2762263E-3,-2.0821393E-3,2.1882842E-3,8.0572104E-4,-8.684201E-3,-1.8521862E-3,3.8178978E-3,9.881727E-3,3.0352448E-3,-1.08906E-2,-4.3530953E-3,-7.166249E-3,-5.3900173E-3,3.1838533E-3,-1.8225249E-3,-4.593389E-3,-2.899424E-3,-3.6960992E-3,-1.1794469E-3,6.8476712E-3,2.059299E-3,-6.452063E-4,1.172846E-3,1.1373607E-3,9.26553E-3,7.9558365E-4,4.4282945E-3],"split_indices":[30,14,14,22,13,13,10,30,14,22,4,29,13,13,15,31,22,23,0,30,13,10,29,15,24,2,22,21,0,13,22,22,18,13,13,0,18,14,18,0,0,30,15,0,22,0,0,18,0,4,0,24,22,8,30,24,0,26,0,0,0,13,24,0,0,0,26,0,0,0,23,0,0,0,24,0,22,4,0,0,0,13,0,13,20,24,13,13,14,0,2,0,13,8,13,0,0,0,0,0,0,0,0,0,0,0,0,0,0,0,0,0,0,0,0,0,0,0,0,0,0,0,0,0,0,0,0,0,0,0,0,0,0,0,0,0,0,0,0,0,0,0,0,0,0,0,0],"split_type":[0,0,0,0,0,0,0,0,0,0,0,0,0,0,0,0,0,0,0,0,0,0,0,0,0,0,0,0,0,0,0,0,0,0,0,0,0,0,0,0,0,0,0,0,0,0,0,0,0,0,0,0,0,0,0,0,0,0,0,0,0,0,0,0,0,0,0,0,0,0,0,0,0,0,0,0,0,0,0,0,0,0,0,0,0,0,0,0,0,0,0,0,0,0,0,0,0,0,0,0,0,0,0,0,0,0,0,0,0,0,0,0,0,0,0,0,0,0,0,0,0,0,0,0,0,0,0,0,0,0,0,0,0,0,0,0,0,0,0,0,0,0,0,0,0,0,0],"sum_hessian":[5.588E3,2.003E3,3.585E3,1.304E3,6.99E2,3.437E3,1.48E2,1.147E3,1.57E2,3.99E2,3E2,2.512E3,9.25E2,9.7E1,5.1E1,3.74E2,7.73E2,6.4E1,9.3E1,7.3E1,3.26E2,5.9E1,2.41E2,5.64E2,1.948E3,7.75E2,1.5E2,6.8E1,2.9E1,3E1,2.1E1,3.42E2,3.2E1,6E1,7.13E2,1.6E1,4.8E1,3.5E1,5.8E1,9E0,6.4E1,1.15E2,2.11E2,9E0,5E1,1.09E2,1.32E2,4.95E2,6.9E1,6.89E2,1.259E3,5.38E2,2.37E2,1.3E2,2E1,5.9E1,9E0,2.2E1,8E0,8E0,1.3E1,3.7E1,3.05E2,1.5E1,1.7E1,1.4E1,4.6E1,3.2E2,3.93E2,2.5E1,2.3E1,1.5E1,2E1,9E0,4.9E1,1.4E1,1.01E2,1.95E2,1.6E1,4E1,1E1,4.52E2,4.3E1,2.7E1,4.2E1,1.41E2,5.48E2,2.81E2,9.78E2,1E1,5.28E2,1.6E1,2.21E2,5.8E1,7.2E1,9E0,1.1E1,8E0,5.1E1,1.4E1,8E0,1E1,2.7E1,6.8E1,2.37E2,8E0,9E0,3.7E1,9E0,2.64E2,5.6E1,3.85E2,8E0,1.4E1,9E0,2.2E1,2.7E1,1.4E1,8.7E1,8E1,1.15E2,3.86E2,6.6E1,1E1,3.3E1,1.7E1,1E1,3.3E1,9E0,1.24E2,1.7E1,2.83E2,2.65E2,8E0,2.73E2,7.84E2,1.94E2,1.31E2,3.97E2,8E0,8E0,1.28E2,9.3E1,1E1,4.8E1,4.9E1,2.3E1],"tree_param":{"num_deleted":"0","num_feature":"35","num_nodes":"147","size_leaf_vector":"1"}},{"base_weights":[-3.097233E-3,2.9693615E-1,-1.7183638E-1,1.5288532E-1,5.54767E-1,-1.9898532E-1,5.51013E-1,4.764894E-1,1.0791458E-1,4.2452866E-1,7.3928386E-1,-2.7041772E-1,-7.2814855E-3,1.4490709E-1,8.0698246E-1,3.453345E-2,6.1051697E-1,-4.1173032E-1,1.671569E-1,8.058275E-1,3.2892704E-1,7.788242E-1,-5.258044E-4,-3.4529887E-2,-3.3395502E-1,-5.415046E-2,2.3731977E-1,-2.219152E-2,1.331804E-2,1.5777215E-2,6.273957E-1,4.749565E-3,-7.7684395E-2,3.3945397E-1,7.3506206E-1,-8.7153904E-2,-6.0939187E-1,1.6502887E-2,2.8538445E-1,1.3076394E-3,9.204034E-1,1.2159772E-1,4.7806144E-1,6.7648953E-1,9.19374E-1,-7.733928E-2,4.3251228E-1,-4.4513682E-1,-2.3422958E-1,-1.2407831E-1,1.0790338E-2,3.456996E-1,-3.8720277E-1,1.8075126E-1,-1.535221E-1,1.0880678E-2,9.088501E-4,4.225989E-4,-3.7351742E-3,7.708116E-3,6.3695095E-2,8.064399E-1,8.119401E-4,2.1109827E-1,-3.3112577E-1,-1.002176E0,-4.1592968E-1,-5.0871853E-2,1.1256664E-1,3.0621693E-1,-3.810206E-1,6.870839E-3,1.4531054E-2,-3.680477E-1,1.9228527E-1,8.969003E-1,3.9537063E-1,6.943465E-1,3.4518575E-3,1.4317315E-2,7.346109E-3,-9.4589785E-2,3.5335404E-1,5.6141603E-1,-7.471715E-4,-6.658584E-1,-3.9993563E-1,-2.798837E-1,-1.281809E-1,5.698342E-3,-1.3877213E-1,2.842352E-1,-3.4033426E-3,5.273131E-1,1.819745E-1,-7.3306574E-3,-2.0625095E-3,-5.049889E-4,5.6852726E-3,4.7434302E-4,-3.5488354E-3,-6.371016E-4,2.5021925E-3,1.4418256E-2,8.199636E-3,4.966153E-3,-0E0,-8.3132405E-3,-4.5766638E-4,-1.8262872E-2,-7.2037852E-3,-1.01681575E-2,-2.824436E-3,-1.5853911E-3,1.0482775E-4,-0E0,2.070173E-3,3.3622163E-3,5.9469286E-3,-9.99756E-3,-0E0,-2.38407E-3,-7.095718E-3,7.24305E-3,2.0352171E-3,7.110366E-3,1.6081193E-2,6.160181E-3,1.1978515E-3,1.0756188E-2,6.3065244E-3,-1.237562E-3,-9.337329E-3,5.986251E-4,8.33815E-3,-0E0,1.0930075E-2,-1.0578497E-2,-2.3139731E-3,-7.170429E-3,-5.182796E-3,-4.4897445E-3,-2.5155502E-3,-2.4290006E-3,-2.933602E-5,-3.3956817E-3,-1.2895276E-3,-0E0,7.4463044E-3,-6.273547E-4,1.0331349E-3,3.0898447E-3,1.1840201E-2,1.2187812E-3,5.9161736E-3],"categories":[],"categories_nodes":[],"categories_segments":[],"categories_sizes":[],"default_left":[0,0,0,0,0,0,0,0,0,0,0,0,0,0,0,0,0,0,0,0,0,0,0,0,0,0,0,0,0,0,0,0,0,0,0,0,0,0,0,0,0,0,0,0,0,0,0,0,0,0,0,0,0,0,0,0,0,0,0,0,0,0,0,0,0,0,0,0,0,0,0,0,0,0,0,0,0,0,0,0,0,0,0,0,0,0,0,0,0,0,0,0,0,0,0,0,0,0,0,0,0,0,0,0,0,0,0,0,0,0,0,0,0,0,0,0,0,0,0,0,0,0,0,0,0,0,0,0,0,0,0,0,0,0,0,0,0,0,0,0,0,0,0,0,0,0,0,0,0,0,0,0,0,0,0],"id":11,"left_children":[1,3,5,7,9,11,13,15,17,19,21,23,25,27,29,31,33,35,37,39,41,43,-1,45,47,49,51,53,-1,-1,55,-1,57,59,61,63,65,67,69,-1,71,73,75,77,79,81,83,85,87,89,91,93,95,97,99,-1,-1,-1,-1,-1,101,103,-1,105,107,109,111,113,115,117,119,-1,-1,121,123,125,127,129,-1,-1,-1,131,133,135,-1,137,139,141,143,-1,145,147,149,151,153,-1,-1,-1,-1,-1,-1,-1,-1,-1,-1,-1,-1,-1,-1,-1,-1,-1,-1,-1,-1,-1,-1,-1,-1,-1,-1,-1,-1,-1,-1,-1,-1,-1,-1,-1,-1,-1,-1,-1,-1,-1,-1,-1,-1,-1,-1,-1,-1,-1,-1,-1,-1,-1,-1,-1,-1,-1,-1,-1,-1],"loss_changes":[2.8343848E2,7.452745E1,7.048342E1,1.8640593E1,1.6466019E1,4.7266525E1,1.3089336E1,9.128605E0,3.5214386E1,1.4844719E1,9.235519E0,3.7627228E1,1.0776891E1,6.792384E0,1.8178673E0,1.3316143E0,3.3372078E0,7.2607536E0,1.820476E1,6.5545845E0,1.0462105E1,2.478592E0,0E0,1.0732531E1,2.1631332E1,3.6219425E0,1.0479945E1,1.2494196E0,0E0,0E0,2.587305E0,0E0,5.8415127E-1,1.8391385E0,3.6288605E0,3.5837672E0,4.3539085E0,2.9622025E0,8.187157E0,0E0,4.3614578E-1,5.228939E0,5.959152E0,8.5852814E-1,4.6588898E-1,3.6853566E0,2.9560518E0,8.572632E0,4.930271E0,2.8934093E0,1.6532696E0,3.5317373E0,3.233359E-1,8.598035E-1,5.019598E-1,0E0,0E0,0E0,0E0,0E0,2.4704745E-1,1.5427132E0,0E0,5.541917E-1,1.6599684E0,9.637127E-1,2.672145E0,8.6813056E-1,5.193527E-1,3.8308792E0,1.8290956E0,0E0,0E0,1.4040685E-1,1.8999839E0,9.708481E-1,6.622162E-1,1.8448639E-1,0E0,0E0,0E0,2.7995453E0,1.0425918E0,3.5201826E0,0E0,2.732811E0,2.8238144E0,1.3997574E0,1.3341818E0,0E0,1.6287122E0,1.2606146E0,1.0889277E0,4.5275936E0,1.3813705E0,0E0,0E0,0E0,0E0,0E0,0E0,0E0,0E0,0E0,0E0,0E0,0E0,0E0,0E0,0E0,0E0,0E0,0E0,0E0,0E0,0E0,0E0,0E0,0E0,0E0,0E0,0E0,0E0,0E0,0E0,0E0,0E0,0E0,0E0,0E0,0E0,0E0,0E0,0E0,0E0,0E0,0E0,0E0,0E0,0E0,0E0,0E0,0E0,0E0,0E0,0E0,0E0,0E0,