{"learner":{"attributes":{"best_iteration":"92","best_score":"0.3211650010750774","scikit_learn":"{\"_estimator_type\": \"regressor\"}"},"feature_names":[],"feature_types":[],"gradient_booster":{"model":{"cats":{"enc":[],"feature_segments":[],"sorted_idx":[]},"gbtree_model_param":{"num_parallel_tree":"1","num_trees":"243"},"iteration_indptr":[0,1,2,3,4,5,6,7,8,9,10,11,12,13,14,15,16,17,18,19,20,21,22,23,24,25,26,27,28,29,30,31,32,33,34,35,36,37,38,39,40,41,42,43,44,45,46,47,48,49,50,51,52,53,54,55,56,57,58,59,60,61,62,63,64,65,66,67,68,69,70,71,72,73,74,75,76,77,78,79,80,81,82,83,84,85,86,87,88,89,90,91,92,93,94,95,96,97,98,99,100,101,102,103,104,105,106,107,108,109,110,111,112,113,114,115,116,117,118,119,120,121,122,123,124,125,126,127,128,129,130,131,132,133,134,135,136,137,138,139,140,141,142,143,144,145,146,147,148,149,150,151,152,153,154,155,156,157,158,159,160,161,162,163,164,165,166,167,168,169,170,171,172,173,174,175,176,177,178,179,180,181,182,183,184,185,186,187,188,189,190,191,192,193,194,195,196,197,198,199,200,201,202,203,204,205,206,207,208,209,210,211,212,213,214,215,216,217,218,219,220,221,222,223,224,225,226,227,228,229,230,231,232,233,234,235,236,237,238,239,240,241,242,243],"tree_info":[0,0,0,0,0,0,0,0,0,0,0,0,0,0,0,0,0,0,0,0,0,0,0,0,0,0,0,0,0,0,0,0,0,0,0,0,0,0,0,0,0,0,0,0,0,0,0,0,0,0,0,0,0,0,0,0,0,0,0,0,0,0,0,0,0,0,0,0,0,0,0,0,0,0,0,0,0,0,0,0,0,0,0,0,0,0,0,0,0,0,0,0,0,0,0,0,0,0,0,0,0,0,0,0,0,0,0,0,0,0,0,0,0,0,0,0,0,0,0,0,0,0,0,0,0,0,0,0,0,0,0,0,0,0,0,0,0,0,0,0,0,0,0,0,0,0,0,0,0,0,0,0,0,0,0,0,0,0,0,0,0,0,0,0,0,0,0,0,0,0,0,0,0,0,0,0,0,0,0,0,0,0,0,0,0,0,0,0,0,0,0,0,0,0,0,0,0,0,0,0,0,0,0,0,0,0,0,0,0,0,0,0,0,0,0,0,0,0,0,0,0,0,0,0,0,0,0,0,0,0,0,0,0,0,0,0,0,0,0,0,0,0,0],"trees":[{"base_weights":[-6.901266E-4,1.8745661E-1,-1.6618766E-1,3.320986E-1,1.0452815E-1,-2.2808369E-1,-2.2692073E-2,4.6702E-1,2.794474E-1,-5.8698105E-3,1.4649095E-1,-2.5472856E-1,1.7944576E-2,-1.17606595E-1,9.6072845E-2,2.8624648E-1,5.246109E-1,1.5617459E-1,3.037457E-1,3.8112197E-2,-1.5613505E-1,8.847792E-2,1.9500542E-1,-1.7400944E-1,-3.4976995E-1,-1.354701E-1,1.5734054E-1,-2.0705454E-1,-7.129589E-2,2.148392E-1,-9.242247E-2,3.321039E-1,-1.6352431E-1,5.939036E-1,4.6307647E-1,2.8268632E-1,9.217608E-2,1.7773972E-1,3.3141348E-1,6.270183E-2,-1.2145517E-1,-3.0081275E-1,-9.784931E-2,1.9083689E-1,4.2487647E-2,2.1168661E-1,5.2564573E-2,-1.14929244E-1,-2.702264E-1,-4.0598467E-1,-1.490385E-1,-5.883828E-2,-2.9198155E-1,2.681208E-1,1.4308667E-2,-6.1873987E-2,-2.4280891E-1,-1.4481154E-1,-2.1874486E-2,4.4811648E-1,1.7701748E-1,-4.180393E-4,-1.6624476E-1,2.3950021E-1,4.4136062E-1,5.422613E-3,-1.7263459E-2,5.2209383E-1,1.0756231E-2,5.4549253E-1,3.8426837E-1,3.12199E-1,1.0145832E-1,-6.272137E-3,1.0770536E-1,2.3144023E-1,-1.3006996E-1,3.338152E-1,-1.7288566E-3,4.9630925E-2,1.8118379E-1,-1.9330986E-2,-5.211414E-1,-1.6418003E-1,-3.2141665E-1,-1.4272918E-1,1.6572762E-2,3.3967862E-1,7.9765014E-2,-1.1670428E-1,8.552958E-2,2.4173008E-1,1.0738803E-1,1.4360708E-1,-2.0911254E-1,-1.8665949E-2,-1.4017011E-1,-2.3774081E-1,-5.234924E-1,-4.5658255E-1,-2.4509552E-1,1.4806291E-2,-3.7825188E-1,7.076479E-2,-2.1930131E-1,-1.8889142E-2,-3.655702E-1,2.945168E-1,-1.9949542E-3,-4.3427795E-1,8.607613E-2,-2.2377312E-1,-1.0052504E-2,-3.769669E-1,-1.8743286E-1,1.3647241E-2,-1.946204E-1,-7.872424E-3,-1.9985868E-1,4.692539E-1,2.7081342E-3,2.1160877E-1,1.02546886E-1,3.698023E-2,-3.0422628E-1,1.1821765E-1,-1.8282706E-1,-4.1738735E-3,4.7945045E-3,1.0971904E-2,5.636682E-3,8.485424E-3,6.007092E-3,1.0397084E-2,7.5993026E-3,5.9570367E-3,4.6825327E-4,3.25476E-3,7.0589934E-3,-1.0155218E-3,4.3589137E-3,3.677301E-3,9.339844E-4,5.5221515E-3,2.8575556E-3,-2.1144755E-2,1.6701254E-3,5.11388E-3,2.764636E-3,1.8690113E-4,1.5673673E-3,-8.480972E-3,3.5981839E-3,-2.837154E-3,1.9832702E-4,-1.1279625E-2,-3.0435908E-3,-7.331092E-4,-3.542931E-3,-9.261744E-3,-4.2268164E-3,-1.9185586E-3,-5.262711E-3,1.0629484E-3,-1.2040306E-3,5.83498E-3,2.4860469E-3,-3.5395876E-3,1.5699759E-3,-5.275827E-3,5.2828627E-4,1.5132842E-3,-2.5401819E-3,-9.78885E-4,3.7148332E-3,2.6357905E-3,9.5442496E-4,3.5377757E-3,1.4733342E-3,-4.4203815E-3,1.167083E-3,3.864142E-4,-1.4107514E-3,2.5217934E-4,-2.3085421E-3,-2.676631E-3,-4.983271E-3,-8.327083E-3,1.044472E-3,-5.82676E-3,-8.489556E-3,-4.380881E-3,4.4828778E-4,-3.3463887E-3,1.0969113E-3,-7.3496373E-3,-3.7805222E-3,5.8445176E-3,1.0783599E-5,-1.8534928E-3,-6.162706E-3,1.5391059E-3,-4.053638E-3,-8.92279E-3,-3.3787158E-3,5.0415127E-3,4.2150385E-4,-0E0,-1.5401128E-2,3.3663146E-3,-1.3845206E-4,-1.2267841E-3,-7.1936715E-3,-1.8259654E-3,5.059026E-4,-2.8856888E-3,-6.7168674E-3,6.935681E-4,-3.5208827E-3,-4.122841E-3,2.1047413E-3,3.407751E-4,-3.6846306E-3,-3.592835E-4,4.1372674E-3,-1.9438161E-3,-4.784596E-3,4.2571817E-3,7.3709055E-3,3.9958167E-3,1.9808465E-3,2.3205024E-3,-9.658472E-4,3.724939E-3,2.8916588E-4,-8.367897E-3,-0E0,2.7479907E-3,4.8352606E-4,-3.1780514E-3,-1.0733572E-3],"categories":[],"categories_nodes":[],"categories_segments":[],"categories_sizes":[],"default_left":[0,0,0,0,0,0,0,0,0,0,0,0,0,0,0,0,0,0,0,0,0,0,0,0,0,0,0,0,0,0,0,0,0,0,0,0,0,0,0,0,0,0,0,0,0,0,0,0,0,0,0,0,0,0,0,0,0,0,0,0,0,0,0,0,0,0,0,0,0,0,0,0,0,0,0,0,0,0,0,0,0,0,0,0,0,0,0,0,0,0,0,0,0,0,0,0,0,0,0,0,0,0,0,0,0,0,0,0,0,0,0,0,0,0,0,0,0,0,0,0,0,0,0,0,0,0,0,0,0,0,0,0,0,0,0,0,0,0,0,0,0,0,0,0,0,0,0,0,0,0,0,0,0,0,0,0,0,0,0,0,0,0,0,0,0,0,0,0,0,0,0,0,0,0,0,0,0,0,0,0,0,0,0,0,0,0,0,0,0,0,0,0,0,0,0,0,0,0,0,0,0,0,0,0,0,0,0,0,0,0,0,0,0,0,0,0,0,0,0,0,0,0,0,0,0,0,0,0,0,0,0,0,0,0,0,0,0,0,0,0,0],"id":0,"left_children":[1,3,5,7,9,11,13,15,17,19,21,23,25,27,29,31,33,35,37,39,41,43,45,47,49,51,53,55,57,59,61,63,65,67,69,71,73,75,77,79,81,83,85,87,89,91,93,95,97,99,101,103,105,107,109,111,113,115,117,119,121,123,125,127,129,-1,-1,131,-1,133,135,137,139,-1,141,143,145,147,-1,149,151,153,155,157,159,161,163,165,167,169,171,173,175,177,179,181,183,185,187,189,191,193,195,197,199,201,203,205,-1,207,209,211,213,215,217,219,221,223,225,227,-1,229,231,233,235,237,239,-1,-1,-1,-1,-1,-1,-1,-1,-1,-1,-1,-1,-1,-1,-1,-1,-1,-1,-1,-1,-1,-1,-1,-1,-1,-1,-1,-1,-1,-1,-1,-1,-1,-1,-1,-1,-1,-1,-1,-1,-1,-1,-1,-1,-1,-1,-1,-1,-1,-1,-1,-1,-1,-1,-1,-1,-1,-1,-1,-1,-1,-1,-1,-1,-1,-1,-1,-1,-1,-1,-1,-1,-1,-1,-1,-1,-1,-1,-1,-1,-1,-1,-1,-1,-1,-1,-1,-1,-1,-1,-1,-1,-1,-1,-1,-1,-1,-1,-1,-1,-1,-1,-1,-1,-1,-1,-1,-1,-1,-1,-1,-1,-1,-1],"loss_changes":[7.4115894E2,1.3350302E2,1.12443085E2,2.8516083E1,3.282744E1,5.8026123E1,4.3069977E1,1.1473343E1,8.6263275E0,1.2921895E1,1.4386711E1,6.1079346E1,1.8556023E1,8.743216E0,3.8034077E1,5.86495E0,3.061081E0,3.8489199E0,8.348953E0,5.935764E0,3.6411266E0,1.09861355E1,6.58947E0,2.4467224E1,4.117813E1,4.8850174E0,7.1712046E0,3.6944275E0,5.0743484E0,8.98645E0,4.444179E0,2.3094845E0,1.47210245E1,2.7120514E0,2.542122E0,7.6701164E-1,2.6319475E0,7.400131E0,2.234314E0,1.9907241E0,8.164818E0,2.1060371E-1,1.65399E0,1.1891771E1,1.11067505E1,7.748329E0,7.0945663E0,6.4931374E0,1.3207764E1,2.301715E1,3.0271027E1,5.8616486E0,2.6581316E0,2.7950459E0,6.4970055E0,1.1958091E0,4.1163635E0,4.464862E0,2.074283E0,5.958309E-1,2.2474384E0,3.3964643E0,1.761425E0,6.0474777E0,1.5595932E0,0E0,0E0,8.6266327E-1,0E0,5.209274E-1,1.0424004E0,1.8257542E0,8.831519E-1,0E0,1.9266341E0,1.9377174E0,2.1047241E1,1.9474335E0,0E0,2.3999681E0,5.8556857E0,9.220316E-1,2.6270113E0,1.2343347E-1,8.498144E-1,5.803771E-1,4.8668528E-1,2.477623E0,3.3160193E0,1.2364911E1,5.0172205E0,3.5723038E0,1.6388011E0,8.4927416E-1,1.9487326E0,1.8860072E0,4.5946693E0,8.014984E0,3.5868797E0,1.5709747E1,8.937092E0,6.546498E0,4.4387856E0,3.4403336E0,2.1620555E0,1.0072608E0,3.0807648E0,2.6143246E0,0E0,7.1965394E0,2.3300083E0,1.1372377E0,5.6769365E-1,1.961544E0,4.611252E0,5.0186934E0,4.7872925E0,3.5575924E0,3.8965392E-1,2.1256828E-1,0E0,2.5629406E0,2.550046E0,9.5160556E-1,2.503736E0,8.404252E-2,1.05863E0,0E0,0E0,0E0,0E0,0E0,0E0,0E0,0E0,0E0,0E0,0E0,0E0,0E0,0E0,0E0,0E0,0E0,0E0,0E0,0E0,0E0,0E0,0E0,0E0,0E0,0E0,0E0,0E0,0E0,0E0,0E0,0E0,0E0,0E0,0E0,0E0,0E0,0E0,0E0,0E0,0E0,0E0,0E0,0E0,0E0,0E0,0E0,0E0,0E0,0E0,0E0,0E0,0E0,0E0,0E0,0E0,0E0,0E0,0E0,0E0,0E0,0E0,0E0,0E0,0E0,0E0,0E0,0E0,0E0,0E0,0E0,0E0,0E0,0E0,0E0,0E0,0E0,0E0,0E0,0E0,0E0,0E0,0E0,0E0,0E0,0E0,0E0,0E0,0E0,0E0,0E0,0E0,0E0,0E0,0E0,0E0,0E0,0E0,0E0,0E0,0E0,0E0,0E0,0E0,0E0,0E0,0E0,0E0,0E0,0E0,0E0,0E0,0E0,0E0],"parents":[2147483647,0,0,1,1,2,2,3,3,4,4,5,5,6,6,7,7,8,8,9,9,10,10,11,11,12,12,13,13,14,14,15,15,16,16,17,17,18,18,19,19,20,20,21,21,22,22,23,23,24,24,25,25,26,26,27,27,28,28,29,29,30,30,31,31,32,32,33,33,34,34,35,35,36,36,37,37,38,38,39,39,40,40,41,41,42,42,43,43,44,44,45,45,46,46,47,47,48,48,49,49,50,50,51,51,52,52,53,53,54,54,55,55,56,56,57,57,58,58,59,59,60,60,61,61,62,62,63,63,64,64,67,67,69,69,70,70,71,71,72,72,74,74,75,75,76,76,77,77,79,79,80,80,81,81,82,82,83,83,84,84,85,85,86,86,87,87,88,88,89,89,90,90,91,91,92,92,93,93,94,94,95,95,96,96,97,97,98,98,99,99,100,100,101,101,102,102,103,103,104,104,105,105,106,106,107,107,109,109,110,110,111,111,112,112,113,113,114,114,115,115,116,116,117,117,118,118,119,119,121,121,122,122,123,123,124,124,125,125,126,126],"right_children":[2,4,6,8,10,12,14,16,18,20,22,24,26,28,30,32,34,36,38,40,42,44,46,48,50,52,54,56,58,60,62,64,66,68,70,72,74,76,78,80,82,84,86,88,90,92,94,96,98,100,102,104,106,108,110,112,114,116,118,120,122,124,126,128,130,-1,-1,132,-1,134,136,138,140,-1,142,144,146,148,-1,150,152,154,156,158,160,162,164,166,168,170,172,174,176,178,180,182,184,186,188,190,192,194,196,198,200,202,204,206,-1,208,210,212,214,216,218,220,222,224,226,228,-1,230,232,234,236,238,240,-1,-1,-1,-1,-1,-1,-1,-1,-1,-1,-1,-1,-1,-1,-1,-1,-1,-1,-1,-1,-1,-1,-1,-1,-1,-1,-1,-1,-1,-1,-1,-1,-1,-1,-1,-1,-1,-1,-1,-1,-1,-1,-1,-1,-1,-1,-1,-1,-1,-1,-1,-1,-1,-1,-1,-1,-1,-1,-1,-1,-1,-1,-1,-1,-1,-1,-1,-1,-1,-1,-1,-1,-1,-1,-1,-1,-1,-1,-1,-1,-1,-1,-1,-1,-1,-1,-1,-1,-1,-1,-1,-1,-1,-1,-1,-1,-1,-1,-1,-1,-1,-1,-1,-1,-1,-1,-1,-1,-1,-1,-1,-1,-1,-1],"split_conditions":[7.233333E0,3.1666667E0,8.660254E-1,2.5666666E-1,5E-1,1E0,8E0,1.831E1,5E-1,5.87E2,1.4091667E1,1.159E1,8.660254E-1,9.705834E0,2.079148E1,1E0,2.28E2,2.28E2,1.4364035E1,1E0,1E0,1.9541666E1,1E0,2.28E2,1E0,2.08E1,1.9805084E1,1.88E1,-2.4492937E-16,1.9239655E1,2.1346666E1,4E0,-1.4E0,2.17997E1,1.93E1,2.0818333E1,8.660254E-1,6E0,2.1711668E1,1E0,1.9336666E1,2.0598333E1,1.6706667E1,1E0,-2.4492937E-16,2.0960238E1,1.9805084E1,8.133333E0,2.1878363E1,2.2416151E1,6.123234E-17,1.337E1,1.6537925E0,1.6433332E1,-1.8369701E-16,8.883333E0,1E0,6E0,2.0960238E1,1.1775E1,5E0,1E0,7.48E0,1.62E2,-2.4492937E-16,5.422613E-3,-1.7263459E-2,8.660254E-1,1.0756231E-2,1.2246469E-16,7.7E-1,8E0,2.1279999E1,-6.272137E-3,1.885034E1,1E0,6.4E-1,1E0,-1.7288566E-3,1.5131667E1,-8.660254E-1,3.7166667E0,1.9618645E1,1.3816668E1,2.0775E1,2.2329166E1,2.21E1,1.942034E1,1.0950001E1,5.5E0,1E0,-5E-1,5.076667E0,1.9140678E1,5.17E0,1E0,-5E-1,9.8E0,8E0,1.4309999E1,1.62E2,1.3533333E1,8.054747E0,1.9239655E1,6.123234E-17,5E0,7.137931E0,1.119339E1,-1.9949542E-3,8.342921E0,8.054747E0,8.096666E0,6.298923E0,1.032E1,2.0141666E1,8.68E0,7.8E0,1.2924999E1,2.1104168E1,1E0,2.7081342E-3,1E0,1.0010678E1,7.45E0,9.856863E0,2.167395E1,1.2246469E-16,-4.1738735E-3,4.7945045E-3,1.0971904E-2,5.636682E-3,8.485424E-3,6.007092E-3,1.0397084E-2,7.5993026E-3,5.9570367E-3,4.6825327E-4,3.25476E-3,7.0589934E-3,-1.0155218E-3,4.3589137E-3,3.677301E-3,9.339844E-4,5.5221515E-3,2.8575556E-3,-2.1144755E-2,1.6701254E-3,5.11388E-3,2.764636E-3,1.8690113E-4,1.5673673E-3,-8.480972E-3,3.5981839E-3,-2.837154E-3,1.9832702E-4,-1.1279625E-2,-3.0435908E-3,-7.331092E-4,-3.542931E-3,-9.261744E-3,-4.2268164E-3,-1.9185586E-3,-5.262711E-3,1.0629484E-3,-1.2040306E-3,5.83498E-3,2.4860469E-3,-3.5395876E-3,1.5699759E-3,-5.275827E-3,5.2828627E-4,1.5132842E-3,-2.5401819E-3,-9.78885E-4,3.7148332E-3,2.6357905E-3,9.5442496E-4,3.5377757E-3,1.4733342E-3,-4.4203815E-3,1.167083E-3,3.864142E-4,-1.4107514E-3,2.5217934E-4,-2.3085421E-3,-2.676631E-3,-4.983271E-3,-8.327083E-3,1.044472E-3,-5.82676E-3,-8.489556E-3,-4.380881E-3,4.4828778E-4,-3.3463887E-3,1.0969113E-3,-7.3496373E-3,-3.7805222E-3,5.8445176E-3,1.0783599E-5,-1.8534928E-3,-6.162706E-3,1.5391059E-3,-4.053638E-3,-8.92279E-3,-3.3787158E-3,5.0415127E-3,4.2150385E-4,-0E0,-1.5401128E-2,3.3663146E-3,-1.3845206E-4,-1.2267841E-3,-7.1936715E-3,-1.8259654E-3,5.059026E-4,-2.8856888E-3,-6.7168674E-3,6.935681E-4,-3.5208827E-3,-4.122841E-3,2.1047413E-3,3.407751E-4,-3.6846306E-3,-3.592835E-4,4.1372674E-3,-1.9438161E-3,-4.784596E-3,4.2571817E-3,7.3709055E-3,3.9958167E-3,1.9808465E-3,2.3205024E-3,-9.658472E-4,3.724939E-3,2.8916588E-4,-8.367897E-3,-0E0,2.7479907E-3,4.8352606E-4,-3.1780514E-3,-1.0733572E-3],"split_indices":[0,1,10,1,10,16,6,4,10,20,4,0,9,4,3,10,20,20,4,15,9,3,15,20,13,3,3,3,9,3,3,11,0,4,3,3,9,6,3,16,3,3,4,15,9,3,3,1,3,3,10,1,4,1,10,0,13,6,3,0,11,16,1,20,9,0,0,9,0,9,0,6,3,0,3,0,0,10,0,4,9,1,3,4,3,3,3,3,4,0,15,9,1,3,0,9,10,0,6,1,20,1,4,3,10,11,4,4,0,4,4,1,4,0,3,0,0,4,3,11,0,16,4,0,1,3,9,0,0,0,0,0,0,0,0,0,0,0,0,0,0,0,0,0,0,0,0,0,0,0,0,0,0,0,0,0,0,0,0,0,0,0,0,0,0,0,0,0,0,0,0,0,0,0,0,0,0,0,0,0,0,0,0,0,0,0,0,0,0,0,0,0,0,0,0,0,0,0,0,0,0,0,0,0,0,0,0,0,0,0,0,0,0,0,0,0,0,0,0,0,0,0,0,0,0,0,0,0,0,0,0,0,0,0,0,0,0,0,0,0,0],"split_type":[0,0,0,0,0,0,0,0,0,0,0,0,0,0,0,0,0,0,0,0,0,0,0,0,0,0,0,0,0,0,0,0,0,0,0,0,0,0,0,0,0,0,0,0,0,0,0,0,0,0,0,0,0,0,0,0,0,0,0,0,0,0,0,0,0,0,0,0,0,0,0,0,0,0,0,0,0,0,0,0,0,0,0,0,0,0,0,0,0,0,0,0,0,0,0,0,0,0,0,0,0,0,0,0,0,0,0,0,0,0,0,0,0,0,0,0,0,0,0,0,0,0,0,0,0,0,0,0,0,0,0,0,0,0,0,0,0,0,0,0,0,0,0,0,0,0,0,0,0,0,0,0,0,0,0,0,0,0,0,0,0,0,0,0,0,0,0,0,0,0,0,0,0,0,0,0,0,0,0,0,0,0,0,0,0,0,0,0,0,0,0,0,0,0,0,0,0,0,0,0,0,0,0,0,0,0,0,0,0,0,0,0,0,0,0,0,0,0,0,0,0,0,0,0,0,0,0,0,0,0,0,0,0,0,0,0,0,0,0,0,0],"sum_hessian":[2.3799E4,1.1137E4,1.2662E4,4.056E3,7.081E3,8.845E3,3.817E3,1.134E3,2.922E3,1.95E3,5.131E3,7.981E3,8.64E2,2.122E3,1.695E3,2.77E2,8.57E2,4.84E2,2.438E3,1.509E3,4.41E2,2.34E3,2.791E3,4.319E3,3.662E3,4.11E2,4.53E2,7.21E2,1.401E3,1.04E3,6.55E2,2.52E2,2.5E1,3.95E2,4.62E2,1.6E2,3.24E2,4.42E2,1.996E3,1.309E3,2E2,1.24E2,3.17E2,7.23E2,1.617E3,2.497E3,2.94E2,2.679E3,1.64E3,2.859E3,8.03E2,2.78E2,1.33E2,2.54E2,1.99E2,1.44E2,5.77E2,5.61E2,8.4E2,1.42E2,8.98E2,2.93E2,3.62E2,1.4E2,1.12E2,1.7E1,8E0,2.56E2,1.39E2,2.2E2,2.42E2,1.36E2,2.4E1,8E0,3.16E2,3.77E2,6.5E1,1.986E3,1E1,1.182E3,1.27E2,1.61E2,3.9E1,1.9E1,1.05E2,2.28E2,8.9E1,3.07E2,4.16E2,3.43E2,1.274E3,1.936E3,5.61E2,2.19E2,7.5E1,5.58E2,2.121E3,1.457E3,1.83E2,2.172E3,6.87E2,4.69E2,3.34E2,1.54E2,1.24E2,2.9E1,1.04E2,2.39E2,1.5E1,2.6E1,1.73E2,3.3E1,1.11E2,1.65E2,4.12E2,1.34E2,4.27E2,7.81E2,5.9E1,1.3E2,1.2E1,6.1E2,2.88E2,2.62E2,3.1E1,1.9E1,3.43E2,1.8E1,1.22E2,1.7E1,9.5E1,1.83E2,7.3E1,3.9E1,1.81E2,2.33E2,9E0,8.8E1,4.8E1,1.3E1,1.1E1,7.6E1,2.4E2,8.3E1,2.94E2,9E0,5.6E1,1.893E3,9.3E1,7.07E2,4.75E2,8E0,1.19E2,2.5E1,1.36E2,2.1E1,1.8E1,9E0,1E1,9E0,9.6E1,2.16E2,1.2E1,5.8E1,3.1E1,2.37E2,7E1,2.9E1,3.87E2,1.34E2,2.09E2,1.203E3,7.1E1,3.6E1,1.9E3,2.16E2,3.45E2,6.9E1,1.5E2,5.8E1,1.7E1,3.51E2,2.07E2,1.7E2,1.951E3,8.99E2,5.58E2,1.74E2,9E0,1.344E3,8.28E2,5.87E2,1E2,9.1E1,3.78E2,1.74E2,1.6E2,2.6E1,1.28E2,8.5E1,3.9E1,2E1,9E0,3.7E1,6.7E1,2.06E2,3.3E1,1.6E1,1E1,7E1,1.03E2,2.3E1,1E1,3.1E1,8E1,4.8E1,1.17E2,6.9E1,3.43E2,4E1,9.4E1,8.1E1,3.46E2,7.41E2,4E1,4E1,1.9E1,1.7E1,1.13E2,3.58E2,2.52E2,2.2E2,6.8E1,1.8E1,2.44E2,1.6E1,1.5E1,9E0,1E1,2.7E2,7.3E1],"tree_param":{"num_deleted":"0","num_feature":"21","num_nodes":"241","size_leaf_vector":"1"}},{"base_weights":[1.4994006E-3,-1.6340041E-1,1.8006842E-1,-2.2308731E-1,-1.9527344E-2,3.384995E-1,1.0669656E-1,-1.425167E-1,-2.8724042E-1,5.82071E-2,-2.1086036E-1,2.984478E-1,5.1934046E-1,-1.873892E-2,1.5432034E-1,-1.1158042E-1,-2.9284322E-1,-3.9258555E-1,-2.145285E-1,-5.6731258E-2,2.1084443E-1,-2.6053497E-1,-4.4445563E-2,3.28722E-1,1.418728E-1,5.347128E-1,2.2126246E-2,2.242578E-2,-1.5152752E-1,2.1920323E-1,1.247274E-2,-6.997906E-2,-2.4424286E-1,-2.2009373E-1,-4.9593064E-1,-1.9916108E-1,-5.123008E-1,-1.6420451E-1,-4.848639E-1,-3.889146E-2,-3.226885E-1,2.8332072E-1,5.6259934E-2,-4.1764626E-1,-1.9176188E-1,-6.2848517E-4,-3.9872947E-1,2.3978809E-1,3.7498316E-1,1.8152569E-1,-6.0756415E-1,5.987819E-1,4.2980644E-1,-3.9389166E-3,3.4301933E-3,4.8390143E-2,-1.4195038E-1,-3.0797863E-1,-8.764436E-2,1.0582073E-1,2.5026137E-1,-2.2758432E-1,4.845871E-2,-9.460989E-2,2.2692162E-1,-2.2866087E-1,-5.604355E-1,1.3828805E-1,-2.34385E-1,-6.263046E-1,-3.6610475E-1,-1.5161218E-1,-3.631763E-1,-6.794509E-1,-3.5145968E-1,2.406186E-2,-2.5541726E-1,1.0389065E-1,-5.2711827E-1,-1.21429585E-1,2.429974E-2,-3.5930684E-1,-1.688768E-3,3.9551282E-1,2.1170808E-1,2.849024E-1,1.738018E-2,-2.4597949E-1,-9.4251674E-1,-7.65586E-2,-5.0742173E-1,-4.364968E-2,2.0708178E-1,-2.527586E-1,-8.929728E-3,3.5045E-1,2.0654577E-1,4.022645E-1,1.6319428E-1,-2.0608751E-2,2.2264147E-1,-1.5533255E-2,3.4127375E-3,6.132784E-1,2.4789955E-1,4.4284484E-1,1.7898508E-3,6.331107E-2,-2.045805E-1,-0E0,-4.5233023E-1,-1.0143609E-3,-3.2196614E-1,-1.616486E-1,-3.6982289E-3,-4.539606E-2,1.7474982E-1,2.738348E-1,1.6131042E-1,-6.532172E-1,-2.6421443E-2,-1.06882915E-1,1.1159608E-1,-8.6667604E-4,-2.9540122E-3,5.5089304E-3,1.4742854E-5,7.2140456E-4,-3.639738E-3,-1.8829478E-2,-5.6747725E-4,3.9120363E-3,1.04541774E-4,-2.5184685E-3,-4.3643517E-3,-1.369854E-2,-7.72894E-3,1.2845248E-4,-6.048748E-3,-8.462288E-4,-3.1882727E-3,-9.1663785E-3,-3.3759593E-3,-1.3016477E-2,-6.971456E-3,-6.2170248E-3,-1.5115656E-3,7.5222756E-4,-2.9027616E-3,-2.762425E-3,-5.9065763E-3,5.481593E-3,-1.2419262E-3,-3.7243702E-3,-8.95966E-3,-2.5002386E-3,3.6035758E-4,2.5135598E-5,2.8397036E-3,-5.7769204E-3,-1.487966E-3,6.801312E-3,4.106494E-3,4.3260963E-3,-4.6854155E-4,7.316344E-3,2.7584902E-3,5.556939E-4,-2.4942567E-3,4.141955E-3,-4.3720775E-3,-2.087838E-2,-1.0300134E-2,5.7113264E-4,-3.7716671E-3,-3.0637786E-3,-1.9811396E-2,-1.7411231E-4,-3.195208E-3,4.2533246E-3,-3.3151626E-4,-1.8366242E-3,-5.0961613E-3,1.1037819E-2,4.285469E-3,-1.4685635E-3,3.6313348E-3,6.453538E-3,4.162632E-3,1.5769586E-3,6.8314984E-3,5.8195586E-3,-2.2879601E-3,2.303291E-4,4.2089904E-3,9.569303E-3,6.59433E-3,2.0462857E-4,6.754866E-3,6.937211E-3,3.8018308E-3,3.5613016E-3,6.4192235E-4,-2.2369787E-2,-3.364756E-4,9.792004E-4,-2.8372814E-3,-1.4458033E-2,-2.9966168E-3,-2.8944514E-3,-5.3464514E-3,-3.922309E-3,-9.72518E-4,2.7938536E-3,-7.8989146E-4,2.8067338E-3,-1.8032016E-2,1.707905E-3,6.2182504E-3,5.536566E-3,3.5908467E-3,-1.1990906E-2,2.7274613E-3,-1.9532701E-2,-7.8772026E-4,1.0931462E-3,-7.343454E-3,-3.7440835E-4,-8.778875E-3,2.886067E-4,3.5627559E-3],"categories":[],"categories_nodes":[],"categories_segments":[],"categories_sizes":[],"default_left":[0,0,0,0,0,0,0,0,0,0,0,0,0,0,0,0,0,0,0,0,0,0,0,0,0,0,0,0,0,0,0,0,0,0,0,0,0,0,0,0,0,0,0,0,0,0,0,0,0,0,0,0,0,0,0,0,0,0,0,0,0,0,0,0,0,0,0,0,0,0,0,0,0,0,0,0,0,0,0,0,0,0,0,0,0,0,0,0,0,0,0,0,0,0,0,0,0,0,0,0,0,0,0,0,0,0,0,0,0,0,0,0,0,0,0,0,0,0,0,0,0,0,0,0,0,0,0,0,0,0,0,0,0,0,0,0,0,0,0,0,0,0,0,0,0,0,0,0,0,0,0,0,0,0,0,0,0,0,0,0,0,0,0,0,0,0,0,0,0,0,0,0,0,0,0,0,0,0,0,0,0,0,0,0,0,0,0,0,0,0,0,0,0,0,0,0,0,0,0,0,0,0,0,0,0,0,0,0,0,0,0,0,0,0,0,0,0,0,0,0,0,0,0,0,0,0,0,0,0,0,0],"id":1,"left_children":[1,3,5,7,9,11,13,15,17,19,21,23,25,27,29,31,33,35,37,39,41,43,45,47,49,51,53,55,57,59,61,63,65,67,69,71,73,75,77,79,81,83,85,87,89,91,93,95,97,99,101,103,105,-1,-1,107,109,111,113,115,117,119,121,123,125,127,129,131,133,135,137,139,141,143,145,147,149,151,153,155,157,159,-1,161,163,165,167,169,171,173,175,177,179,181,-1,183,185,187,189,191,193,-1,-1,195,197,199,-1,201,203,205,207,-1,209,211,213,215,217,219,221,223,225,227,229,-1,-1,-1,-1,-1,-1,-1,-1,-1,-1,-1,-1,-1,-1,-1,-1,-1,-1,-1,-1,-1,-1,-1,-1,-1,-1,-1,-1,-1,-1,-1,-1,-1,-1,-1,-1,-1,-1,-1,-1,-1,-1,-1,-1,-1,-1,-1,-1,-1,-1,-1,-1,-1,-1,-1,-1,-1,-1,-1,-1,-1,-1,-1,-1,-1,-1,-1,-1,-1,-1,-1,-1,-1,-1,-1,-1,-1,-1,-1,-1,-1,-1,-1,-1,-1,-1,-1,-1,-1,-1,-1,-1,-1,-1,-1,-1,-1,-1,-1,-1,-1,-1,-1,-1,-1,-1,-1,-1],"loss_changes":[7.0628156E2,1.0705026E2,1.3375452E2,4.5435425E1,5.445529E1,2.603122E1,4.7054573E1,1.8088089E1,3.7350006E1,4.5700157E1,8.693058E0,1.4031738E1,4.9507904E0,1.1868661E1,5.250354E1,1.7856705E1,9.56879E0,4.6052277E1,3.9323334E1,6.990813E0,1.2472069E1,8.588032E0,3.775335E0,1.0069519E1,1.4652036E1,3.7207031E0,1.3867565E0,7.0698338E0,5.0470724E0,1.3706009E1,1.5498014E1,1.8123404E1,3.5028648E0,2.597065E0,2.4297562E0,5.837288E0,3.263733E1,4.2154396E1,1.1455147E1,7.2898602E0,5.939684E-1,5.9011154E0,3.1593235E0,2.1611115E1,2.059248E1,1.9729836E0,4.1339207E-1,2.9842796E0,9.311417E0,3.8913774E0,9.368479E0,1.6280518E0,8.5586166E-1,0E0,0E0,5.4135985E0,9.936016E0,4.187479E-1,2.2672987E0,8.843188E0,6.3181763E0,1.9919283E1,1.5339857E1,8.572435E0,5.980768E0,2.908348E0,1.2422405E1,2.8850168E-1,1.6558056E0,1.6801376E0,1.3232737E0,3.4252987E0,5.517048E0,2.35112E1,9.868713E0,4.5540795E0,1.6105858E1,1.6354389E0,7.9624863E0,4.008971E0,2.9326067E0,4.053297E-1,0E0,1.7751617E0,8.777281E0,8.327012E-1,1.117147E0,4.607033E0,4.946869E0,8.454674E0,3.6792694E1,9.759599E-1,6.9992137E-1,9.201443E-2,0E0,4.40576E0,7.283434E0,4.7839813E0,3.0953455E0,4.384242E0,4.6096134E0,0E0,0E0,9.89151E-1,8.34033E-1,6.0175323E-1,0E0,4.7895503E0,1.8491766E1,1.9617662E0,8.683832E0,0E0,4.383583E-1,1.819746E0,1.6300106E0,7.1994675E1,8.357241E0,7.7372437E0,1.29903145E1,2.8901003E1,7.5009236E0,1.761856E1,1.2895789E1,0E0,0E0,0E0,0E0,0E0,0E0,0E0,0E0,0E0,0E0,0E0,0E0,0E0,0E0,0E0,0E0,0E0,0E0,0E0,0E0,0E0,0E0,0E0,0E0,0E0,0E0,0E0,0E0,0E0,0E0,0E0,0E0,0E0,0E0,0E0,0E0,0E0,0E0,0E0,0E0,0E0,0E0,0E0,0E0,0E0,0E0,0E0,0E0,0E0,0E0,0E0,0E0,0E0,0E0,0E0,0E0,0E0,0E0,0E0,0E0,0E0,0E0,0E0,0E0,0E0,0E0,0E0,0E0,0E0,0E0,0E0,0E0,0E0,0E0,0E0,0E0,0E0,0E0,0E0,0E0,0E0,0E0,0E0,0E0,0E0,0E0,0E0,0E0,0E0,0E0,0E0,0E0,0E0,0E0,0E0,0E0,0E0,0E0,0E0,0E0,0E0,0E0,0E0,0E0,0E0,0E0,0E0,0E0],"parents":[2147483647,0,0,1,1,2,2,3,3,4,4,5,5,6,6,7,7,8,8,9,9,10,10,11,11,12,12,13,13,14,14,15,15,16,16,17,17,18,18,19,19,20,20,21,21,22,22,23,23,24,24,25,25,26,26,27,27,28,28,29,29,30,30,31,31,32,32,33,33,34,34,35,35,36,36,37,37,38,38,39,39,40,40,41,41,42,42,43,43,44,44,45,45,46,46,47,47,48,48,49,49,50,50,51,51,52,52,55,55,56,56,57,57,58,58,59,59,60,60,61,61,62,62,63,63,64,64,65,65,66,66,67,67,68,68,69,69,70,70,71,71,72,72,73,73,74,74,75,75,76,76,77,77,78,78,79,79,80,80,81,81,83,83,84,84,85,85,86,86,87,87,88,88,89,89,90,90,91,91,92,92,93,93,95,95,96,96,97,97,98,98,99,99,100,100,103,103,104,104,105,105,107,107,108,108,109,109,110,110,112,112,113,113,114,114,115,115,116,116,117,117,118,118,119,119,120,120,121,121,122,122],"right_children":[2,4,6,8,10,12,14,16,18,20,22,24,26,28,30,32,34,36,38,40,42,44,46,48,50,52,54,56,58,60,62,64,66,68,70,72,74,76,78,80,82,84,86,88,90,92,94,96,98,100,102,104,106,-1,-1,108,110,112,114,116,118,120,122,124,126,128,130,132,134,136,138,140,142,144,146,148,150,152,154,156,158,160,-1,162,164,166,168,170,172,174,176,178,180,182,-1,184,186,188,190,192,194,-1,-1,196,198,200,-1,202,204,206,208,-1,210,212,214,216,218,220,222,224,226,228,230,-1,-1,-1,-1,-1,-1,-1,-1,-1,-1,-1,-1,-1,-1,-1,-1,-1,-1,-1,-1,-1,-1,-1,-1,-1,-1,-1,-1,-1,-1,-1,-1,-1,-1,-1,-1,-1,-1,-1,-1,-1,-1,-1,-1,-1,-1,-1,-1,-1,-1,-1,-1,-1,-1,-1,-1,-1,-1,-1,-1,-1,-1,-1,-1,-1,-1,-1,-1,-1,-1,-1,-1,-1,-1,-1,-1,-1,-1,-1,-1,-1,-1,-1,-1,-1,-1,-1,-1,-1,-1,-1,-1,-1,-1,-1,-1,-1,-1,-1,-1,-1,-1,-1,-1,-1,-1,-1,-1],"split_conditions":[8.12E0,8.660254E-1,2.8333333E0,1.1E1,7.0710677E-1,2.0439322E1,5E-1,5.87E2,1.62E2,8E0,1.2246469E-16,7.0710677E-1,1.06E0,5.87E2,7.0710677E-1,7.0710677E-1,2.1761667E1,-2.5881904E-1,1E0,1.254E1,2.079148E1,8.660254E-1,1.2083333E1,1.6654915E1,1E0,3.64E2,1E0,1E0,1E0,1.2030001E1,-2.4492937E-16,3.64E2,7.97E0,1.975E1,1.2246469E-16,1.612E1,-1.8369701E-16,9.482759E-1,-8.660254E-1,-2.4492937E-16,7.9644065E0,-2.4492937E-16,-8.660254E-1,2.0888742E1,1E0,3.64E2,8.533334E0,-8.660254E-1,5.87E2,-2.4492937E-16,1.7133334E0,5.4444444E-1,7.0710677E-1,-3.9389166E-3,3.4301933E-3,1.24E1,2.5881904E-1,1.3338277E1,0E0,4.483333E0,2.5881904E-1,1.62E2,8.660254E-1,2.28E2,1.9847458E1,7.9333334E0,1.2654167E1,5E-1,9.1E0,1.2397001E1,1.70875E0,-2.4492937E-16,2.2191305E1,2.2329166E1,3.8999996E0,5E-1,5E-1,2.167395E1,1.9027119E1,1.2246469E-16,1.2700001E1,5E-1,-1.688768E-3,5E0,2.5881904E-1,2.1013334E1,2.1976662E1,7.8E0,8.83E0,3.51E2,1E0,1E0,2.0028334E1,1.24E1,-8.929728E-3,1.62E2,1.62E2,1.2246469E-16,1.2246469E-16,6E0,2E0,-1.5533255E-2,3.4127375E-3,1E0,3E0,3E-2,1.7898508E-3,1.9928814E1,8.660254E-1,1.90625E1,5.32E0,-1.0143609E-3,5.62E0,1.012E1,2.5881904E-1,8E0,8E0,1.62E2,-5E-1,1.3444525E1,1E0,1E0,8E0,-8.6667604E-4,-2.9540122E-3,5.5089304E-3,1.4742854E-5,7.2140456E-4,-3.639738E-3,-1.8829478E-2,-5.6747725E-4,3.9120363E-3,1.04541774E-4,-2.5184685E-3,-4.3643517E-3,-1.369854E-2,-7.72894E-3,1.2845248E-4,-6.048748E-3,-8.462288E-4,-3.1882727E-3,-9.1663785E-3,-3.3759593E-3,-1.3016477E-2,-6.971456E-3,-6.2170248E-3,-1.5115656E-3,7.5222756E-4,-2.9027616E-3,-2.762425E-3,-5.9065763E-3,5.481593E-3,-1.2419262E-3,-3.7243702E-3,-8.95966E-3,-2.5002386E-3,3.6035758E-4,2.5135598E-5,2.8397036E-3,-5.7769204E-3,-1.487966E-3,6.801312E-3,4.106494E-3,4.3260963E-3,-4.6854155E-4,7.316344E-3,2.7584902E-3,5.556939E-4,-2.4942567E-3,4.141955E-3,-4.3720775E-3,-2.087838E-2,-1.0300134E-2,5.7113264E-4,-3.7716671E-3,-3.0637786E-3,-1.9811396E-2,-1.7411231E-4,-3.195208E-3,4.2533246E-3,-3.3151626E-4,-1.8366242E-3,-5.0961613E-3,1.1037819E-2,4.285469E-3,-1.4685635E-3,3.6313348E-3,6.453538E-3,4.162632E-3,1.5769586E-3,6.8314984E-3,5.8195586E-3,-2.2879601E-3,2.303291E-4,4.2089904E-3,9.569303E-3,6.59433E-3,2.0462857E-4,6.754866E-3,6.937211E-3,3.8018308E-3,3.5613016E-3,6.4192235E-4,-2.2369787E-2,-3.364756E-4,9.792004E-4,-2.8372814E-3,-1.4458033E-2,-2.9966168E-3,-2.8944514E-3,-5.3464514E-3,-3.922309E-3,-9.72518E-4,2.7938536E-3,-7.8989146E-4,2.8067338E-3,-1.8032016E-2,1.707905E-3,6.2182504E-3,5.536566E-3,3.5908467E-3,-1.1990906E-2,2.7274613E-3,-1.9532701E-2,-7.8772026E-4,1.0931462E-3,-7.343454E-3,-3.7440835E-4,-8.778875E-3,2.886067E-4,3.5627559E-3],"split_indices":[2,10,1,0,7,4,10,20,20,6,9,7,1,20,7,7,3,7,15,0,3,7,1,4,10,20,18,15,9,4,9,20,2,3,7,0,10,5,10,9,4,9,7,3,13,20,4,7,20,9,1,1,7,0,0,2,7,4,7,0,7,20,7,20,3,1,4,7,0,4,5,9,3,3,2,10,7,3,3,7,4,7,0,11,7,3,3,0,0,20,7,7,3,0,0,20,20,7,7,6,11,0,0,9,11,0,0,3,9,3,1,0,0,2,7,6,6,20,9,4,7,15,6,0,0,0,0,0,0,0,0,0,0,0,0,0,0,0,0,0,0,0,0,0,0,0,0,0,0,0,0,0,0,0,0,0,0,0,0,0,0,0,0,0,0,0,0,0,0,0,0,0,0,0,0,0,0,0,0,0,0,0,0,0,0,0,0,0,0,0,0,0,0,0,0,0,0,0,0,0,0,0,0,0,0,0,0,0,0,0,0,0,0,0,0,0,0,0,0,0,0,0,0,0,0,0,0,0,0,0,0],"split_type":[0,0,0,0,0,0,0,0,0,0,0,0,0,0,0,0,0,0,0,0,0,0,0,0,0,0,0,0,0,0,0,0,0,0,0,0,0,0,0,0,0,0,0,0,0,0,0,0,0,0,0,0,0,0,0,0,0,0,0,0,0,0,0,0,0,0,0,0,0,0,0,0,0,0,0,0,0,0,0,0,0,0,0,0,0,0,0,0,0,0,0,0,0,0,0,0,0,0,0,0,0,0,0,0,0,0,0,0,0,0,0,0,0,0,0,0,0,0,0,0,0,0,0,0,0,0,0,0,0,0,0,0,0,0,0,0,0,0,0,0,0,0,0,0,0,0,0,0,0,0,0,0,0,0,0,0,0,0,0,0,0,0,0,0,0,0,0,0,0,0,0,0,0,0,0,0,0,0,0,0,0,0,0,0,0,0,0,0,0,0,0,0,0,0,0,0,0,0,0,0,0,0,0,0,0,0,0,0,0,0,0,0,0,0,0,0,0,0,0,0,0,0,0,0,0,0,0,0,0,0,0],"sum_hessian":[2.3982E4,1.2468E4,1.1514E4,8.811E3,3.657E3,3.642E3,7.872E3,3.909E3,4.902E3,2.601E3,1.056E3,2.986E3,6.56E2,2.166E3,5.706E3,3.245E3,6.64E2,1.998E3,2.904E3,1.484E3,1.117E3,8.12E2,2.44E2,2.5E3,4.86E2,6.36E2,2E1,1.654E3,5.12E2,3.914E3,1.792E3,2.473E3,7.72E2,4.92E2,1.72E2,7.66E2,1.232E3,2.451E3,4.53E2,1.393E3,9.1E1,7.59E2,3.58E2,2.44E2,5.68E2,2.19E2,2.5E1,8.6E2,1.64E3,4.63E2,2.3E1,3.89E2,2.47E2,8E0,1.2E1,1.43E3,2.24E2,1.46E2,3.66E2,8.44E2,3.07E3,2.32E2,1.56E3,2.285E3,1.88E2,7.39E2,3.3E1,1.8E1,4.74E2,8.2E1,9E1,5.97E2,1.69E2,6.01E2,6.31E2,8E2,1.651E3,3E1,4.23E2,6.04E2,7.89E2,7.6E1,1.5E1,2.92E2,4.67E2,5E1,3.08E2,1.86E2,5.8E1,4.18E2,1.5E2,1.83E2,3.6E1,1.7E1,8E0,1.94E2,6.66E2,1.451E3,1.89E2,7.8E1,3.85E2,1.5E1,8E0,3.72E2,1.7E1,2.36E2,1.1E1,1.352E3,7.8E1,1.55E2,6.9E1,9E0,1.37E2,1.93E2,1.73E2,2.64E2,5.8E2,2.423E3,6.47E2,7.3E1,1.59E2,4.5E2,1.11E3,1.683E3,6.02E2,1.15E2,7.3E1,3.5E1,7.04E2,1.3E1,2E1,8E0,1E1,2.22E2,2.52E2,1.9E1,6.3E1,8E0,8.2E1,2.35E2,3.62E2,5.8E1,1.11E2,3.17E2,2.84E2,5.03E2,1.28E2,7.16E2,8.4E1,1.093E3,5.58E2,1.2E1,1.8E1,8.7E1,3.36E2,4.61E2,1.43E2,6.96E2,9.3E1,6.8E1,8E0,1.94E2,9.8E1,3.55E2,1.12E2,1.4E1,3.6E1,2.8E2,2.8E1,1.4E1,1.72E2,1.8E1,4E1,2.53E2,1.65E2,1.11E2,3.9E1,1.56E2,2.7E1,2.7E1,9E0,9E0,8E0,2.5E1,1.69E2,6.9E1,5.97E2,1.181E3,2.7E2,1.6E2,2.9E1,1.8E1,6E1,8.5E1,3E2,3.21E2,5.1E1,9E0,8E0,2.11E2,2.5E1,1.4E2,1.212E3,8E0,7E1,1.16E2,3.9E1,2.1E1,4.8E1,3.2E1,1.05E2,9.3E1,1E2,3.4E1,1.39E2,2.21E2,4.3E1,4.65E2,1.15E2,6.38E2,1.785E3,1.2E1,6.35E2,3.4E1,3.9E1,1.32E2,2.7E1,3.86E2,6.4E1,6.42E2,4.68E2],"tree_param":{"num_deleted":"0","num_feature":"21","num_nodes":"231","size_leaf_vector":"1"}},{"base_weights":[6.9563783E-4,-1.6070431E-1,1.7723311E-1,-2.2109842E-1,-1.9934582E-2,1.03761934E-1,3.2011986E-1,-2.800257E-1,-1.368797E-1,5.5864427E-2,-2.0519173E-1,-2.1183493E-2,1.5193704E-1,3.878085E-1,1.9033206E-1,-2.0922302E-1,-3.8305816E-1,-9.770083E-2,-2.5833777E-1,5.3691524E-3,1.7645448E-1,-5.256163E-1,-1.6770889E-1,-2.4829542E-3,-1.7713943E-1,2.170911E-1,-4.5281933E-3,4.3066105E-1,1.5135325E-1,2.2239342E-1,-5.611012E-1,-1.6434364E-1,-4.5243168E-1,-2.0013186E-1,-4.9651346E-1,-7.801479E-2,-3.3461413E-1,-4.13006E-1,-1.9717342E-1,1.5687902E-1,-2.5208693E-2,2.2396462E-1,-1.3087076E-1,-1.6223371E-1,-1.1334666E0,-1.2023846E-1,-3.9633372E-1,2.2904394E-2,-1.6289017E-1,-2.675402E-1,-6.5076545E-2,8.578161E-2,2.5545403E-1,-4.2423075E-1,6.1511267E-2,3.4463456E-1,5.129774E-1,2.2769973E-1,-1.0235208E-1,-4.955987E-3,2.5623184E-1,1.008436E-2,-1.207711E0,3.6932097E-3,-2.4009518E-1,-4.382469E-2,-5.4153097E-1,-1.0264888E-1,-3.1612775E-1,-6.995563E-1,-3.1464624E-1,1.7944369E-1,-9.325586E-2,-1.1633198E-1,-5.342321E-1,-2.8695065E-1,-5.94318E-1,-2.6959252E-1,-1.2536797E-1,-9.761715E-2,2.9809237E-1,-6.084582E-2,1.05425335E-1,3.4434384E-1,7.872733E-2,-9.7120506E-1,1.22460864E-1,3.0300304E-2,-1.3908013E-2,-2.204894E-2,-6.8027596E-4,-1.6236898E-1,1.1512821E-2,-1.9060347E-2,-1.1862515E0,4.928305E-2,-1.4318979E-1,-1.884782E-1,3.2534236E-3,-3.5346922E-1,-8.972319E-2,-4.117133E-3,-1.0510474E-2,1.5776302E-1,-2.5365964E-1,2.1814829E-1,3.6114693E-1,-1.992605E-1,-1.4833835E0,-5.7204075E-2,1.4402333E-1,2.983715E-1,4.9231738E-1,4.4629553E-1,6.546047E-1,1.5734513E-1,7.278708E-3,-3.37997E-1,2.0265099E-2,1.5821756E-1,-6.3494736E-1,2.1689416E-1,4.483997E-1,-1.7536594E-1,4.5502074E-3,-2.6024451E-2,-2.654941E-3,7.9003687E-4,-5.548549E-3,-3.0210987E-3,-7.61019E-3,9.356893E-3,-1.9068186E-3,-3.8259516E-3,-1.0063705E-2,-6.9430337E-4,-5.195829E-3,-6.647267E-3,-3.6551338E-3,-1.3444182E-2,-6.8214014E-3,-5.87925E-3,-1.234179E-3,3.7598084E-3,-2.5169502E-3,-2.1501733E-3,-2.2253205E-4,9.190742E-3,-2.8700235E-3,-4.970128E-3,-1.087398E-2,-2.9539953E-3,-7.1014776E-3,-2.01213E-2,-6.7772027E-3,-4.937637E-4,-4.680799E-3,-1.3655788E-3,-6.600479E-3,-3.5162494E-4,-4.5289616E-3,-5.2102376E-3,5.1880497E-3,-1.1952518E-3,2.8124317E-3,4.2236447E-3,1.1074216E-3,5.9983316E-3,2.9904856E-3,3.3428338E-3,3.7324E-4,-1.2821289E-3,-2.1895017E-2,3.5179444E-3,6.2381633E-4,2.154995E-3,-2.6187813E-3,-2.7813807E-3,1.7474585E-3,-1.9113213E-3,9.498465E-4,1.4698195E-3,-6.2056608E-3,7.9492916E-4,-2.5055666E-2,1.2223093E-3,-7.337621E-4,-3.3338252E-4,-6.238221E-3,-3.7127265E-3,-1.6114998E-3,-4.1973046E-3,-7.4760173E-3,-1.9087073E-3,1.2457844E-4,-2.4128663E-3,3.3541003E-4,3.6039413E-3,1.3671648E-3,-2.8621098E-2,2.4122938E-3,3.652984E-4,3.5397774E-3,6.5973173E-3,3.5490782E-3,2.5607091E-3,-1.441303E-2,-1.248638E-2,-2.4067514E-2,-6.7541744E-3,2.3099758E-4,2.8900658E-3,2.6720177E-4,-7.0449742E-3,4.666632E-3,1.2839652E-3,7.6242783E-3,5.5392263E-3,8.519363E-3,5.5037644E-3,1.04267225E-2,-3.215192E-4,3.1465278E-3,-1.8088315E-3,-1.1905548E-2,-2.4647696E-3,2.6227331E-3,6.347406E-3,2.8208713E-4,-2.1519735E-2,4.024074E-3,2.116286E-3,4.998583E-3,7.883673E-3,4.6532443E-3,-6.6978103E-3,2.5969876E-3],"categories":[],"categories_nodes":[],"categories_segments":[],"categories_sizes":[],"default_left":[0,0,0,0,0,0,0,0,0,0,0,0,0,0,0,0,0,0,0,0,0,0,0,0,0,0,0,0,0,0,0,0,0,0,0,0,0,0,0,0,0,0,0,0,0,0,0,0,0,0,0,0,0,0,0,0,0,0,0,0,0,0,0,0,0,0,0,0,0,0,0,0,0,0,0,0,0,0,0,0,0,0,0,0,0,0,0,0,0,0,0,0,0,0,0,0,0,0,0,0,0,0,0,0,0,0,0,0,0,0,0,0,0,0,0,0,0,0,0,0,0,0,0,0,0,0,0,0,0,0,0,0,0,0,0,0,0,0,0,0,0,0,0,0,0,0,0,0,0,0,0,0,0,0,0,0,0,0,0,0,0,0,0,0,0,0,0,0,0,0,0,0,0,0,0,0,0,0,0,0,0,0,0,0,0,0,0,0,0,0,0,0,0,0,0,0,0,0,0,0,0,0,0,0,0,0,0,0,0,0,0,0,0,0,0,0,0,0,0,0,0,0,0,0,0,0,0,0,0,0,0,0,0,0,0,0,0],"id":2,"left_children":[1,3,5,7,9,11,13,15,17,19,21,23,25,27,29,31,33,35,37,39,41,43,45,47,49,51,53,55,57,59,61,63,65,67,69,71,73,75,77,79,81,83,85,87,89,91,93,95,97,99,101,103,105,107,109,111,113,115,117,119,121,123,125,127,129,131,133,135,137,139,141,143,145,147,149,151,153,155,157,159,161,163,165,167,169,171,173,175,-1,-1,-1,177,179,181,183,185,187,189,-1,191,193,-1,195,197,199,201,203,205,207,209,211,213,215,217,219,221,-1,223,225,227,229,231,233,235,-1,-1,-1,-1,-1,-1,-1,-1,-1,-1,-1,-1,-1,-1,-1,-1,-1,-1,-1,-1,-1,-1,-1,-1,-1,-1,-1,-1,-1,-1,-1,-1,-1,-1,-1,-1,-1,-1,-1,-1,-1,-1,-1,-1,-1,-1,-1,-1,-1,-1,-1,-1,-1,-1,-1,-1,-1,-1,-1,-1,-1,-1,-1,-1,-1,-1,-1,-1,-1,-1,-1,-1,-1,-1,-1,-1,-1,-1,-1,-1,-1,-1,-1,-1,-1,-1,-1,-1,-1,-1,-1,-1,-1,-1,-1,-1,-1,-1,-1,-1,-1,-1,-1,-1,-1,-1,-1,-1,-1,-1,-1,-1,-1],"loss_changes":[6.7972266E2,1.0591397E2,1.1951059E2,4.3163757E1,5.260716E1,4.5330643E1,3.3788513E1,3.7203644E1,1.7020386E1,1.6164062E1,1.2836937E1,6.0935626E0,5.5417046E1,2.555954E1,3.2228256E1,3.302774E1,4.304007E1,1.2601246E1,8.068165E0,8.710577E0,1.1506382E1,2.4454952E1,1.0463692E1,7.6514163E0,2.2026205E0,1.9254028E1,4.4397068E1,1.48125305E1,7.6628284E0,9.850021E0,2.0381199E1,3.2774544E1,1.7111794E1,8.966167E0,4.698291E1,9.889431E0,8.877552E0,5.222744E0,3.179882E0,1.1421725E1,7.2779255E0,1.1794216E1,2.2822004E1,1.0862405E1,1.5031879E1,4.5245476E0,4.9547676E1,7.0958257E0,2.5663118E0,1.7749357E0,1.1409097E0,2.13391E1,1.15021515E1,5.1196613E1,1.3568657E1,6.876854E0,9.693878E0,5.284937E0,2.6965823E0,1.7375195E1,8.162994E0,1.7836311E0,1.3276989E1,1.46557665E1,1.8085503E1,4.9200363E0,1.3972778E1,5.9599557E0,3.0942383E0,2.8304688E1,1.2141624E1,3.5655622E0,9.312498E0,5.7353816E0,3.6329174E0,2.262989E0,9.248528E0,3.0804138E0,3.3401375E0,1.6793689E0,6.5008144E0,5.7646403E0,1.7904985E0,2.782547E0,2.3772197E0,1.0350529E1,7.052773E-1,1.4310352E0,0E0,0E0,0E0,4.0051575E0,1.4319222E0,5.4075165E0,3.2598473E1,4.434099E0,7.2558336E0,1.0735664E0,0E0,5.442848E-1,1.7123261E-1,0E0,4.34471E-1,3.88348E0,1.05505104E2,7.5642014E0,7.2975235E0,5.160107E1,3.3242035E-1,1.6260258E1,4.9877815E0,8.169205E0,1.4781113E0,6.5541077E0,3.4647522E0,2.283762E0,0E0,2.8868515E0,1.8161421E0,4.8835363E0,2.5945656E1,8.0422325E0,1.6151276E0,2.0375326E0,0E0,0E0,0E0,0E0,0E0,0E0,0E0,0E0,0E0,0E0,0E0,0E0,0E0,0E0,0E0,0E0,0E0,0E0,0E0,0E0,0E0,0E0,0E0,0E0,0E0,0E0,0E0,0E0,0E0,0E0,0E0,0E0,0E0,0E0,0E0,0E0,0E0,0E0,0E0,0E0,0E0,0E0,0E0,0E0,0E0,0E0,0E0,0E0,0E0,0E0,0E0,0E0,0E0,0E0,0E0,0E0,0E0,0E0,0E0,0E0,0E0,0E0,0E0,0E0,0E0,0E0,0E0,0E0,0E0,0E0,0E0,0E0,0E0,0E0,0E0,0E0,0E0,0E0,0E0,0E0,0E0,0E0,0E0,0E0,0E0,0E0,0E0,0E0,0E0,0E0,0E0,0E0,0E0,0E0,0E0,0E0,0E0,0E0,0E0,0E0,0E0,0E0,0E0,0E0,0E0,0E0,0E0,0E0,0E0,0E0,0E0,0E0,0E0],"parents":[2147483647,0,0,1,1,2,2,3,3,4,4,5,5,6,6,7,7,8,8,9,9,10,10,11,11,12,12,13,13,14,14,15,15,16,16,17,17,18,18,19,19,20,20,21,21,22,22,23,23,24,24,25,25,26,26,27,27,28,28,29,29,30,30,31,31,32,32,33,33,34,34,35,35,36,36,37,37,38,38,39,39,40,40,41,41,42,42,43,43,44,44,45,45,46,46,47,47,48,48,49,49,50,50,51,51,52,52,53,53,54,54,55,55,56,56,57,57,58,58,59,59,60,60,61,61,62,62,63,63,64,64,65,65,66,66,67,67,68,68,69,69,70,70,71,71,72,72,73,73,74,74,75,75,76,76,77,77,78,78,79,79,80,80,81,81,82,82,83,83,84,84,85,85,86,86,87,87,91,91,92,92,93,93,94,94,95,95,96,96,97,97,99,99,100,100,102,102,103,103,104,104,105,105,106,106,107,107,108,108,109,109,110,110,111,111,112,112,113,113,114,114,115,115,117,117,118,118,119,119,120,120,121,121,122,122,123,123],"right_children":[2,4,6,8,10,12,14,16,18,20,22,24,26,28,30,32,34,36,38,40,42,44,46,48,50,52,54,56,58,60,62,64,66,68,70,72,74,76,78,80,82,84,86,88,90,92,94,96,98,100,102,104,106,108,110,112,114,116,118,120,122,124,126,128,130,132,134,136,138,140,142,144,146,148,150,152,154,156,158,160,162,164,166,168,170,172,174,176,-1,-1,-1,178,180,182,184,186,188,190,-1,192,194,-1,196,198,200,202,204,206,208,210,212,214,216,218,220,222,-1,224,226,228,230,232,234,236,-1,-1,-1,-1,-1,-1,-1,-1,-1,-1,-1,-1,-1,-1,-1,-1,-1,-1,-1,-1,-1,-1,-1,-1,-1,-1,-1,-1,-1,-1,-1,-1,-1,-1,-1,-1,-1,-1,-1,-1,-1,-1,-1,-1,-1,-1,-1,-1,-1,-1,-1,-1,-1,-1,-1,-1,-1,-1,-1,-1,-1,-1,-1,-1,-1,-1,-1,-1,-1,-1,-1,-1,-1,-1,-1,-1,-1,-1,-1,-1,-1,-1,-1,-1,-1,-1,-1,-1,-1,-1,-1,-1,-1,-1,-1,-1,-1,-1,-1,-1,-1,-1,-1,-1,-1,-1,-1,-1,-1,-1,-1,-1,-1],"split_conditions":[8.12E0,8.660254E-1,1.25E1,4.8E0,7.0710677E-1,5E-1,1.2246469E-16,1E0,7.0710677E-1,1E0,-5E-1,1E0,7.0710677E-1,1E0,1E0,1E0,-2.5881904E-1,1E0,-2.5881904E-1,1.2767017E0,5E-1,2.0756666E1,1E0,1E0,0E0,-7.0710677E-1,-5E-1,8.660254E-1,5E-1,-2.4492937E-16,1.402E1,9.482759E-1,-5E-1,7.0710677E-1,-1.8369701E-16,1.3168592E0,2.1711668E1,1E0,6.26E0,7.137931E0,1.2246469E-16,2.0775E1,-7.0710677E-1,1E0,1.2246469E-16,1.2246469E-16,1E0,1E0,9.659258E-1,1.7256666E1,1E0,1E0,1E0,1E0,1.4031356E1,1E0,2.0265518E1,1.63E1,1.402E1,1E0,1.556E1,1E0,1.9771667E1,5E-1,1E0,-9.659258E-1,5E-1,1.3998959E0,7.5533333E0,2.2329166E1,3.8999996E0,1E0,5E-1,-9.659258E-1,-2.5881904E-1,1E0,2.012185E1,1.3714228E0,7.97E0,1.0955777E0,-9.659258E-1,2.1166668E0,1.4500002E0,9.659258E-1,-7.0710677E-1,1E0,2.0756666E1,1.4583334E0,-1.3908013E-2,-2.204894E-2,-6.8027596E-4,1E0,4.84E0,1E0,2.0688135E1,5E-1,2.5881904E-1,9.83E0,3.2534236E-3,5E-1,6E0,-4.117133E-3,1.4818276E1,0E0,9.844999E0,-9.659258E-1,2.0775E1,1E0,1.926207E1,-2.4492937E-16,1E0,-5E-1,1.870862E1,1.498E1,-7.0710677E-1,5E-1,7.278708E-3,5E0,3E0,7.0710677E-1,-2.5881904E-1,-2.5881904E-1,7.0710677E-1,1E0,4.5502074E-3,-2.6024451E-2,-2.654941E-3,7.9003687E-4,-5.548549E-3,-3.0210987E-3,-7.61019E-3,9.356893E-3,-1.9068186E-3,-3.8259516E-3,-1.0063705E-2,-6.9430337E-4,-5.195829E-3,-6.647267E-3,-3.6551338E-3,-1.3444182E-2,-6.8214014E-3,-5.87925E-3,-1.234179E-3,3.7598084E-3,-2.5169502E-3,-2.1501733E-3,-2.2253205E-4,9.190742E-3,-2.8700235E-3,-4.970128E-3,-1.087398E-2,-2.9539953E-3,-7.1014776E-3,-2.01213E-2,-6.7772027E-3,-4.937637E-4,-4.680799E-3,-1.3655788E-3,-6.600479E-3,-3.5162494E-4,-4.5289616E-3,-5.2102376E-3,5.1880497E-3,-1.1952518E-3,2.8124317E-3,4.2236447E-3,1.1074216E-3,5.9983316E-3,2.9904856E-3,3.3428338E-3,3.7324E-4,-1.2821289E-3,-2.1895017E-2,3.5179444E-3,6.2381633E-4,2.154995E-3,-2.6187813E-3,-2.7813807E-3,1.7474585E-3,-1.9113213E-3,9.498465E-4,1.4698195E-3,-6.2056608E-3,7.9492916E-4,-2.5055666E-2,1.2223093E-3,-7.337621E-4,-3.3338252E-4,-6.238221E-3,-3.7127265E-3,-1.6114998E-3,-4.1973046E-3,-7.4760173E-3,-1.9087073E-3,1.2457844E-4,-2.4128663E-3,3.3541003E-4,3.6039413E-3,1.3671648E-3,-2.8621098E-2,2.4122938E-3,3.652984E-4,3.5397774E-3,6.5973173E-3,3.5490782E-3,2.5607091E-3,-1.441303E-2,-1.248638E-2,-2.4067514E-2,-6.7541744E-3,2.3099758E-4,2.8900658E-3,2.6720177E-4,-7.0449742E-3,4.666632E-3,1.2839652E-3,7.6242783E-3,5.5392263E-3,8.519363E-3,5.5037644E-3,1.04267225E-2,-3.215192E-4,3.1465278E-3,-1.8088315E-3,-1.1905548E-2,-2.4647696E-3,2.6227331E-3,6.347406E-3,2.8208713E-4,-2.1519735E-2,4.024074E-3,2.116286E-3,4.998583E-3,7.883673E-3,4.6532443E-3,-6.6978103E-3,2.5969876E-3],"split_indices":[2,10,2,2,7,10,7,17,7,17,8,18,7,14,10,15,7,18,8,5,7,3,7,19,7,8,8,10,8,9,2,5,10,8,10,5,3,9,2,4,9,3,8,15,9,9,13,15,8,4,9,17,17,15,4,17,3,2,2,17,2,14,4,10,18,7,8,5,4,3,2,19,10,8,8,17,3,5,2,5,7,5,5,8,7,10,3,5,0,0,0,14,2,15,3,7,7,2,0,8,11,0,4,7,4,7,3,17,3,9,13,9,3,2,8,10,0,11,11,7,8,8,7,13,0,0,0,0,0,0,0,0,0,0,0,0,0,0,0,0,0,0,0,0,0,0,0,0,0,0,0,0,0,0,0,0,0,0,0,0,0,0,0,0,0,0,0,0,0,0,0,0,0,0,0,0,0,0,0,0,0,0,0,0,0,0,0,0,0,0,0,0,0,0,0,0,0,0,0,0,0,0,0,0,0,0,0,0,0,0,0,0,0,0,0,0,0,0,0,0,0,0,0,0,0,0,0,0,0,0,0,0,0,0,0,0,0],"split_type":[0,0,0,0,0,0,0,0,0,0,0,0,0,0,0,0,0,0,0,0,0,0,0,0,0,0,0,0,0,0,0,0,0,0,0,0,0,0,0,0,0,0,0,0,0,0,0,0,0,0,0,0,0,0,0,0,0,0,0,0,0,0,0,0,0,0,0,0,0,0,0,0,0,0,0,0,0,0,0,0,0,0,0,0,0,0,0,0,0,0,0,0,0,0,0,0,0,0,0,0,0,0,0,0,0,0,0,0,0,0,0,0,0,0,0,0,0,0,0,0,0,0,0,0,0,0,0,0,0,0,0,0,0,0,0,0,0,0,0,0,0,0,0,0,0,0,0,0,0,0,0,0,0,0,0,0,0,0,0,0,0,0,0,0,0,0,0,0,0,0,0,0,0,0,0,0,0,0,0,0,0,0,0,0,0,0,0,0,0,0,0,0,0,0,0,0,0,0,0,0,0,0,0,0,0,0,0,0,0,0,0,0,0,0,0,0,0,0,0,0,0,0,0,0,0,0,0,0,0,0,0,0,0,0,0,0,0],"sum_hessian":[2.3852E4,1.246E4,1.1392E4,8.718E3,3.742E3,7.526E3,3.866E3,5.126E3,3.592E3,2.656E3,1.086E3,2.094E3,5.432E3,2.538E3,1.328E3,3.042E3,2.084E3,2.719E3,8.73E2,1.874E3,7.82E2,1.11E2,9.75E2,1.872E3,2.22E2,3.835E3,1.597E3,2.147E3,3.91E2,1.275E3,5.3E1,2.571E3,4.71E2,8E2,1.284E3,2.513E3,2.06E2,2.44E2,6.29E2,3.14E2,1.56E3,6.78E2,1.04E2,7.1E1,4E1,8.1E2,1.65E2,1.617E3,2.55E2,1.21E2,1.01E2,8.69E2,2.966E3,2.16E2,1.381E3,1.055E3,1.092E3,3.01E2,9E1,1.65E2,1.11E3,2.9E1,2.4E1,7.99E2,1.772E3,8.5E1,3.86E2,4.37E2,3.63E2,6.04E2,6.8E2,1.39E2,2.374E3,1E2,1.06E2,1.47E2,9.7E1,3.1E2,3.19E2,1.12E2,2.02E2,1.227E3,3.33E2,3.69E2,3.09E2,2.3E1,8.1E1,5.8E1,1.3E1,3E1,1E1,6.14E2,1.96E2,1.13E2,5.2E1,1.397E3,2.2E2,2.4E2,1.5E1,8E1,4.1E1,1.9E1,8.2E1,7.18E2,1.51E2,2.197E3,7.69E2,1.8E2,3.6E1,5.66E2,8.15E2,8.08E2,2.47E2,7.48E2,3.44E2,2.39E2,6.2E1,3E1,6E1,1.32E2,3.3E1,9.25E2,1.85E2,1.8E1,1.1E1,1.5E1,9E0,7.08E2,9.1E1,1.551E3,2.21E2,8E0,7.7E1,1.22E2,2.64E2,3.57E2,8E1,1.28E2,2.35E2,3.32E2,2.72E2,5.09E2,1.71E2,1.16E2,2.3E1,1.447E3,9.27E2,8E0,9.2E1,5.4E1,5.2E1,1.02E2,4.5E1,1.3E1,8.4E1,4.8E1,2.62E2,2.9E2,2.9E1,8.4E1,2.8E1,1.3E1,1.89E2,1.142E3,8.5E1,4.8E1,2.85E2,2.64E2,1.05E2,8.2E1,2.27E2,9E0,1.4E1,3.2E1,4.9E1,3.8E1,2E1,5.68E2,4.6E1,5.2E1,1.44E2,8.8E1,2.5E1,1.5E1,3.7E1,1.053E3,3.44E2,1.54E2,6.6E1,1.36E2,1.04E2,5.7E1,2.3E1,3E1,1.1E1,1.4E1,6.8E1,3.18E2,4E2,2.9E1,1.22E2,1.86E2,2.011E3,4.68E2,3.01E2,1.22E2,5.8E1,8E0,2.8E1,8.7E1,4.79E2,5.87E2,2.28E2,1.2E1,7.96E2,1E1,2.37E2,4.63E2,2.85E2,4.5E1,2.99E2,5.4E1,1.85E2,2.2E1,8E0,2.7E1,3.3E1,4.4E1,8.8E1,1.7E1,1.6E1,5.63E2,3.62E2,1.15E2,7E1,1E1,8E0],"tree_param":{"num_deleted":"0","num_feature":"21","num_nodes":"237","size_leaf_vector":"1"}},{"base_weights":[-2.0726926E-4,1.7900342E-1,-1.5808415E-1,3.3257186E-1,1.0689163E-1,-2.1814008E-1,-1.881239E-2,3.650934E-1,1.4340097E-1,1.5753241E-1,1.2725922E-2,-1.08235136E-1,-2.653812E-1,6.262049E-2,-2.1681468E-1,2.7999482E-1,4.5362973E-1,1.8667556E-1,-6.727675E-1,1.2478027E-2,2.1989454E-1,-2.3885526E-1,8.682689E-2,-7.2998226E-2,-2.5869235E-1,-0E0,-2.862074E-1,-4.3936215E-2,2.03263E-1,-3.1983602E-1,-1.2528585E-1,2.9049367E-1,-5.3103007E-2,5.538233E-1,3.5355008E-1,-5.701242E-2,2.6047137E-1,1.9590765E-1,-3.33876E-2,7.090284E-2,-1.7713161E-1,8.1952885E-2,2.5163004E-1,-3.815078E-2,-8.380065E-1,-1.0178369E-3,1.7845102E-1,2.2543819E-1,-9.8535396E-2,3.915537E-3,-2.6927608E-1,-1.2584703E-1,8.826141E-2,-3.2432884E-1,-1.4973237E-1,-9.6872784E-2,5.0734494E-2,-8.656927E-2,2.4359414E-1,-2.134536E-1,-6.552205E-1,-5.4568533E-2,-2.713409E-1,2.0055526E-1,3.2393968E-1,7.1874335E-2,-5.800437E-3,5.871632E-1,4.159314E-1,4.3746796E-1,2.8761104E-1,1.1822525E-1,-5.4076225E-1,-1.06821E-2,3.178318E-1,1.0555331E-2,-5.842002E-3,1.15550116E-1,-9.1978265E-3,-1.9477408E-1,4.0779226E-3,-1.0347956E-1,1.6563869E-1,2.1956225E-1,3.4774885E-1,2.5479302E-1,-2.1766086E-1,-1.4882201E0,-5.554883E-1,-2.8549284E-1,4.383745E-2,2.2840571E-1,9.162392E-2,4.2088428E-1,3.530111E-2,-5.5291846E-2,-2.3693538E-1,-1.0179446E-2,-2.845313E-1,1.5457242E-2,-2.1885528E-1,-1.5073501E-2,2.8663552E-1,-2.2151987E-1,-3.869246E-1,-4.206912E-2,-4.6103784E-1,7.441789E-2,-1.3701375E-1,8.535478E-3,1.19376525E-1,2.4594457E-1,-5.3655046E-1,3.165903E-1,1.6406442E-1,-4.6002197E-1,-6.949578E-2,-1.13759026E-1,-1.1849314E0,-1.1694493E-1,7.8984514E-2,-6.067684E-1,-5.699709E-2,5.123266E-3,-2.0307705E-2,4.121815E-3,8.31327E-3,2.1679958E-3,-3.6236166E-4,8.915241E-3,4.594418E-3,7.865821E-3,5.488886E-3,3.3051171E-3,6.807941E-3,2.8671182E-3,5.4519014E-3,5.8752345E-3,-2.5544085E-3,-1.1485477E-2,1.4194649E-3,2.6459973E-3,-5.7292692E-3,5.077498E-3,-3.945731E-3,3.116116E-3,9.2532183E-4,-1.0554236E-3,2.0526547E-3,-3.5966581E-3,9.513651E-6,2.490951E-3,-2.4325067E-2,1.4808899E-3,9.47893E-3,2.991943E-3,5.674238E-3,6.4285737E-3,4.35467E-3,-7.4562435E-5,5.0759576E-3,-6.8086754E-3,-9.276343E-5,-3.080395E-2,-1.6619528E-2,-2.73884E-2,-6.315978E-3,-1.8312199E-3,-1.5850672E-2,-3.845839E-4,2.7333174E-3,2.465381E-3,4.345182E-3,1.7798755E-3,-7.6987233E-4,2.2625276E-4,6.930531E-3,-5.199805E-3,1.3944007E-3,-1.3849005E-3,8.8556495E-5,-6.5754903E-3,-2.4329918E-3,-3.2812678E-3,3.3158844E-3,-3.3362815E-3,-5.4380395E-3,2.8655853E-3,-1.2166343E-3,-3.7216765E-4,-4.7133733E-3,-6.4824508E-3,1.737658E-3,-1.5859505E-3,7.521776E-3,-2.8326805E-3,-6.435699E-3,-6.232694E-3,-3.0856094E-4,5.5200263E-4,-2.4037315E-3,-8.362386E-3,-3.3145235E-3,1.782726E-3,-4.3488187E-3,-1.7506029E-3,-5.835453E-3,-2.0200503E-4,2.7123287E-3,-9.060345E-5,2.4864422E-3,7.4533573E-3,2.7873253E-3,5.30131E-4,-1.4346924E-2,8.710724E-3,4.1322745E-3,3.2520157E-3,1.4987333E-4,-9.856396E-3,-3.7538924E-4,-4.961509E-3,4.5297068E-4,2.0951123E-3,-2.5109611E-3,-3.8652061E-3,-2.024803E-2,-2.7282967E-3,1.7227909E-4,4.050007E-3,-3.7019173E-4,-1.0864686E-3,-1.9259354E-2,3.5377026E-3,-1.6579045E-3],"categories":[],"categories_nodes":[],"categories_segments":[],"categories_sizes":[],"default_left":[0,0,0,0,0,0,0,0,0,0,0,0,0,0,0,0,0,0,0,0,0,0,0,0,0,0,0,0,0,0,0,0,0,0,0,0,0,0,0,0,0,0,0,0,0,0,0,0,0,0,0,0,0,0,0,0,0,0,0,0,0,0,0,0,0,0,0,0,0,0,0,0,0,0,0,0,0,0,0,0,0,0,0,0,0,0,0,0,0,0,0,0,0,0,0,0,0,0,0,0,0,0,0,0,0,0,0,0,0,0,0,0,0,0,0,0,0,0,0,0,0,0,0,0,0,0,0,0,0,0,0,0,0,0,0,0,0,0,0,0,0,0,0,0,0,0,0,0,0,0,0,0,0,0,0,0,0,0,0,0,0,0,0,0,0,0,0,0,0,0,0,0,0,0,0,0,0,0,0,0,0,0,0,0,0,0,0,0,0,0,0,0,0,0,0,0,0,0,0,0,0,0,0,0,0,0,0,0,0,0,0,0,0,0,0,0,0,0,0,0,0,0,0,0,0,0,0,0,0,0,0,0,0,0,0],"id":3,"left_children":[1,3,5,7,9,11,13,15,17,19,21,23,25,27,29,31,33,35,37,39,41,43,45,47,49,51,53,55,57,59,61,63,65,67,69,71,73,75,-1,77,79,81,83,85,87,89,91,93,95,-1,97,99,101,103,105,107,109,111,113,115,117,119,121,123,125,127,-1,129,131,133,135,137,139,141,143,-1,-1,145,147,149,-1,151,153,155,157,159,161,163,165,167,169,171,173,175,177,179,181,183,185,187,189,191,193,195,197,199,201,203,205,207,209,211,213,215,217,219,221,223,225,227,229,231,233,-1,-1,-1,-1,-1,-1,-1,-1,-1,-1,-1,-1,-1,-1,-1,-1,-1,-1,-1,-1,-1,-1,-1,-1,-1,-1,-1,-1,-1,-1,-1,-1,-1,-1,-1,-1,-1,-1,-1,-1,-1,-1,-1,-1,-1,-1,-1,-1,-1,-1,-1,-1,-1,-1,-1,-1,-1,-1,-1,-1,-1,-1,-1,-1,-1,-1,-1,-1,-1,-1,-1,-1,-1,-1,-1,-1,-1,-1,-1,-1,-1,-1,-1,-1,-1,-1,-1,-1,-1,-1,-1,-1,-1,-1,-1,-1,-1,-1,-1,-1,-1,-1,-1,-1,-1,-1,-1,-1,-1,-1,-1,-1],"loss_changes":[6.7478E2,1.2358746E2,1.0602399E2,2.1804474E1,3.6239037E1,4.5906067E1,6.1678284E1,2.2623413E1,1.8783693E1,4.4692955E1,4.964449E1,1.4071278E1,3.4207886E1,4.064216E1,1.0395287E1,5.495865E0,1.4475525E1,9.071024E0,3.7144196E1,1.650477E1,1.5062164E1,7.270369E1,1.658068E1,1.6518093E1,2.9040833E0,5.0526705E0,2.9742798E1,7.745268E0,1.3716072E1,1.8314373E1,6.0738935E0,4.3722E0,2.1160579E0,2.8611755E0,3.850006E0,1.0143377E1,6.037363E0,6.1128874E0,0E0,4.0887885E0,2.866413E0,1.0120705E1,8.463455E0,2.4064978E1,2.6192818E1,1.3467879E1,4.3015785E0,6.27483E0,1.1885885E1,0E0,1.9249992E0,2.4945836E0,5.504058E0,2.865921E1,4.2071404E1,6.8371296E0,1.5895262E0,2.1782661E1,5.819397E0,1.408058E1,3.5422394E1,3.3759713E0,1.3733077E1,9.164042E1,1.2057266E1,2.7509606E-1,0E0,7.74704E-1,3.8342667E-1,9.123421E-1,2.935131E0,7.0694094E0,4.742482E0,4.9205256E0,3.995224E0,0E0,0E0,3.5887728E0,3.6622667E0,3.0035915E0,0E0,8.361968E1,1.3817518E1,6.5434265E0,2.948166E0,3.8108444E0,1.412802E1,5.219612E0,1.6971397E1,1.7772455E1,8.771249E0,2.371849E0,1.4545319E0,1.3391333E0,1.9882873E0,3.4608545E0,6.9445934E0,1.5240598E0,2.0628815E0,1.3240931E0,2.0580354E0,9.775788E0,7.872505E0,1.1338783E1,2.911792E1,8.754635E0,7.17511E0,3.1011672E0,3.981287E0,1.3319527E0,1.2383101E0,1.0298686E0,1.4993864E1,5.4109917E0,4.001936E0,1.2486645E1,6.684851E0,9.121394E-1,8.817657E0,2.3210967E0,2.5869563E0,2.6763123E1,1.9123623E0,0E0,0E0,0E0,0E0,0E0,0E0,0E0,0E0,0E0,0E0,0E0,0E0,0E0,0E0,0E0,0E0,0E0,0E0,0E0,0E0,0E0,0E0,0E0,0E0,0E0,0E0,0E0,0E0,0E0,0E0,0E0,0E0,0E0,0E0,0E0,0E0,0E0,0E0,0E0,0E0,0E0,0E0,0E0,0E0,0E0,0E0,0E0,0E0,0E0,0E0,0E0,0E0,0E0,0E0,0E0,0E0,0E0,0E0,0E0,0E0,0E0,0E0,0E0,0E0,0E0,0E0,0E0,0E0,0E0,0E0,0E0,0E0,0E0,0E0,0E0,0E0,0E0,0E0,0E0,0E0,0E0,0E0,0E0,0E0,0E0,0E0,0E0,0E0,0E0,0E0,0E0,0E0,0E0,0E0,0E0,0E0,0E0,0E0,0E0,0E0,0E0,0E0,0E0,0E0,0E0,0E0,0E0,0E0,0E0,0E0,0E0,0E0],"parents":[2147483647,0,0,1,1,2,2,3,3,4,4,5,5,6,6,7,7,8,8,9,9,10,10,11,11,12,12,13,13,14,14,15,15,16,16,17,17,18,18,19,19,20,20,21,21,22,22,23,23,24,24,25,25,26,26,27,27,28,28,29,29,30,30,31,31,32,32,33,33,34,34,35,35,36,36,37,37,39,39,40,40,41,41,42,42,43,43,44,44,45,45,46,46,47,47,48,48,50,50,51,51,52,52,53,53,54,54,55,55,56,56,57,57,58,58,59,59,60,60,61,61,62,62,63,63,64,64,65,65,67,67,68,68,69,69,70,70,71,71,72,72,73,73,74,74,77,77,78,78,79,79,81,81,82,82,83,83,84,84,85,85,86,86,87,87,88,88,89,89,90,90,91,91,92,92,93,93,94,94,95,95,96,96,97,97,98,98,99,99,100,100,101,101,102,102,103,103,104,104,105,105,106,106,107,107,108,108,109,109,110,110,111,111,112,112,113,113,114,114,115,115,116,116,117,117,118,118,119,119,120,120,121,121,122,122],"right_children":[2,4,6,8,10,12,14,16,18,20,22,24,26,28,30,32,34,36,38,40,42,44,46,48,50,52,54,56,58,60,62,64,66,68,70,72,74,76,-1,78,80,82,84,86,88,90,92,94,96,-1,98,100,102,104,106,108,110,112,114,116,118,120,122,124,126,128,-1,130,132,134,136,138,140,142,144,-1,-1,146,148,150,-1,152,154,156,158,160,162,164,166,168,170,172,174,176,178,180,182,184,186,188,190,192,194,196,198,200,202,204,206,208,210,212,214,216,218,220,222,224,226,228,230,232,234,-1,-1,-1,-1,-1,-1,-1,-1,-1,-1,-1,-1,-1,-1,-1,-1,-1,-1,-1,-1,-1,-1,-1,-1,-1,-1,-1,-1,-1,-1,-1,-1,-1,-1,-1,-1,-1,-1,-1,-1,-1,-1,-1,-1,-1,-1,-1,-1,-1,-1,-1,-1,-1,-1,-1,-1,-1,-1,-1,-1,-1,-1,-1,-1,-1,-1,-1,-1,-1,-1,-1,-1,-1,-1,-1,-1,-1,-1,-1,-1,-1,-1,-1,-1,-1,-1,-1,-1,-1,-1,-1,-1,-1,-1,-1,-1,-1,-1,-1,-1,-1,-1,-1,-1,-1,-1,-1,-1,-1,-1,-1,-1],"split_conditions":[7.233333E0,2.7633333E0,8.660254E-1,7.0710677E-1,5E-1,9.8E0,7.0710677E-1,1.831E1,1E0,5E-1,-5E-1,5.87E2,-8.660254E-1,8E0,2.5881904E-1,5.87E2,8.660254E-1,-5E-1,2.5881904E-1,5.87E2,1.0950001E1,1E0,1.4818276E1,1.4245E0,1.0383334E1,1E0,3.64E2,1.072E1,-7.0710677E-1,1E0,1E0,-7.0710677E-1,3.6E0,0E0,3E-2,1E0,-2.4492937E-16,-9.1E-1,-3.33876E-2,2.28E2,1E0,-7.0710677E-1,1E0,1.9252083E0,1.2246469E-16,-2.4492937E-16,5.076667E0,8.786667E0,7.0710677E-1,3.915537E-3,-9.659258E-1,-9.659258E-1,-2.4492937E-16,1.17E1,1.265E0,-7.0710677E-1,1E0,2.5881904E-1,1.0253332E1,-2.4492937E-16,1E0,1E0,8.660254E-1,1E0,1E0,5E-1,-5.800437E-3,2.1766667E0,-1.0833334E0,2.4669445E0,5E-1,2.5816667E0,2.5980458E0,8E0,2.7E0,1.0555331E-2,-5.842002E-3,5.32E0,-2.5881904E-1,1.7347479E1,4.0779226E-3,8E0,1.2246469E-16,2.7329879E0,-7.0710677E-1,5E-1,1E0,4.91E0,2.74E0,1E0,8E0,2.5881904E-1,1E0,8E0,-1.8369701E-16,8E0,-2.5881904E-1,1.7000002E0,2.02E0,-5E-1,1.0776667E1,1.389E1,1.1516666E1,3.51E2,1.9793333E1,5E-1,8E0,1.1775E1,1.0668136E1,6E0,1.943644E0,8.450001E0,1E0,8.7E0,9.555555E0,1E0,8.660254E-1,-2.4492937E-16,7.96E0,-2.4492937E-16,9.844999E0,8E0,7.8333335E0,5.123266E-3,-2.0307705E-2,4.121815E-3,8.31327E-3,2.1679958E-3,-3.6236166E-4,8.915241E-3,4.594418E-3,7.865821E-3,5.488886E-3,3.3051171E-3,6.807941E-3,2.8671182E-3,5.4519014E-3,5.8752345E-3,-2.5544085E-3,-1.1485477E-2,1.4194649E-3,2.6459973E-3,-5.7292692E-3,5.077498E-3,-3.945731E-3,3.116116E-3,9.2532183E-4,-1.0554236E-3,2.0526547E-3,-3.5966581E-3,9.513651E-6,2.490951E-3,-2.4325067E-2,1.4808899E-3,9.47893E-3,2.991943E-3,5.674238E-3,6.4285737E-3,4.35467E-3,-7.4562435E-5,5.0759576E-3,-6.8086754E-3,-9.276343E-5,-3.080395E-2,-1.6619528E-2,-2.73884E-2,-6.315978E-3,-1.8312199E-3,-1.5850672E-2,-3.845839E-4,2.7333174E-3,2.465381E-3,4.345182E-3,1.7798755E-3,-7.6987233E-4,2.2625276E-4,6.930531E-3,-5.199805E-3,1.3944007E-3,-1.3849005E-3,8.8556495E-5,-6.5754903E-3,-2.4329918E-3,-3.2812678E-3,3.3158844E-3,-3.3362815E-3,-5.4380395E-3,2.8655853E-3,-1.2166343E-3,-3.7216765E-4,-4.7133733E-3,-6.4824508E-3,1.737658E-3,-1.5859505E-3,7.521776E-3,-2.8326805E-3,-6.435699E-3,-6.232694E-3,-3.0856094E-4,5.5200263E-4,-2.4037315E-3,-8.362386E-3,-3.3145235E-3,1.782726E-3,-4.3488187E-3,-1.7506029E-3,-5.835453E-3,-2.0200503E-4,2.7123287E-3,-9.060345E-5,2.4864422E-3,7.4533573E-3,2.7873253E-3,5.30131E-4,-1.4346924E-2,8.710724E-3,4.1322745E-3,3.2520157E-3,1.4987333E-4,-9.856396E-3,-3.7538924E-4,-4.961509E-3,4.5297068E-4,2.0951123E-3,-2.5109611E-3,-3.8652061E-3,-2.024803E-2,-2.7282967E-3,1.7227909E-4,4.050007E-3,-3.7019173E-4,-1.0864686E-3,-1.9259354E-2,3.5377026E-3,-1.6579045E-3],"split_indices":[0,1,10,7,7,0,7,4,10,10,8,20,8,6,8,20,9,8,8,20,4,17,4,5,4,13,20,4,8,13,10,8,0,7,0,17,9,0,0,20,8,8,17,5,9,9,1,1,7,0,8,8,9,1,5,8,10,7,4,9,7,17,7,17,17,8,0,1,1,5,10,5,5,6,1,0,0,0,7,4,0,6,7,5,7,10,13,0,0,7,6,8,7,6,10,6,8,5,5,9,1,1,1,20,1,7,6,0,4,11,5,4,10,1,1,7,7,9,0,9,4,6,1,0,0,0,0,0,0,0,0,0,0,0,0,0,0,0,0,0,0,0,0,0,0,0,0,0,0,0,0,0,0,0,0,0,0,0,0,0,0,0,0,0,0,0,0,0,0,0,0,0,0,0,0,0,0,0,0,0,0,0,0,0,0,0,0,0,0,0,0,0,0,0,0,0,0,0,0,0,0,0,0,0,0,0,0,0,0,0,0,0,0,0,0,0,0,0,0,0,0,0,0,0,0,0,0,0,0,0,0,0,0,0,0],"split_type":[0,0,0,0,0,0,0,0,0,0,0,0,0,0,0,0,0,0,0,0,0,0,0,0,0,0,0,0,0,0,0,0,0,0,0,0,0,0,0,0,0,0,0,0,0,0,0,0,0,0,0,0,0,0,0,0,0,0,0,0,0,0,0,0,0,0,0,0,0,0,0,0,0,0,0,0,0,0,0,0,0,0,0,0,0,0,0,0,0,0,0,0,0,0,0,0,0,0,0,0,0,0,0,0,0,0,0,0,0,0,0,0,0,0,0,0,0,0,0,0,0,0,0,0,0,0,0,0,0,0,0,0,0,0,0,0,0,0,0,0,0,0,0,0,0,0,0,0,0,0,0,0,0,0,0,0,0,0,0,0,0,0,0,0,0,0,0,0,0,0,0,0,0,0,0,0,0,0,0,0,0,0,0,0,0,0,0,0,0,0,0,0,0,0,0,0,0,0,0,0,0,0,0,0,0,0,0,0,0,0,0,0,0,0,0,0,0,0,0,0,0,0,0,0,0,0,0,0,0,0,0,0,0,0,0],"sum_hessian":[2.3846E4,1.1168E4,1.2678E4,3.566E3,7.602E3,8.857E3,3.821E3,3.041E3,5.25E2,4.942E3,2.66E3,2.665E3,6.192E3,2.708E3,1.113E3,1.555E3,1.486E3,5E2,2.5E1,1.487E3,3.455E3,6.04E2,2.056E3,2.162E3,5.03E2,4.51E2,5.741E3,1.541E3,1.167E3,5.21E2,5.92E2,1.508E3,4.7E1,7.38E2,7.48E2,1.16E2,3.84E2,1.7E1,8E0,1.138E3,3.49E2,6.48E2,2.807E3,4.54E2,1.5E2,1.05E3,1.006E3,1.69E2,1.993E3,9E0,4.94E2,1.86E2,2.65E2,4.485E3,1.256E3,9.89E2,5.52E2,1.42E2,1.025E3,3.98E2,1.23E2,4.01E2,1.91E2,4.13E2,1.095E3,3.5E1,1.2E1,5.89E2,1.49E2,3.24E2,4.24E2,8.6E1,3E1,6.7E1,3.17E2,9E0,8E0,7.31E2,4.07E2,3.37E2,1.2E1,2.01E2,4.47E2,2.11E3,6.97E2,1.72E2,2.82E2,4.3E1,1.07E2,1.42E2,9.08E2,6.36E2,3.7E2,8.2E1,8.7E1,1.521E3,4.72E2,2.8E1,4.66E2,7.4E1,1.12E2,1.75E2,9E1,1.701E3,2.784E3,9.35E2,3.21E2,1.87E2,8.02E2,3.44E2,2.08E2,8.2E1,6E1,5.31E2,4.94E2,1.45E2,2.53E2,6.2E1,6.1E1,2.74E2,1.27E2,7.3E1,1.18E2,3.8E2,3.3E1,9.06E2,1.89E2,2E1,1.5E1,5.72E2,1.7E1,4.1E1,1.08E2,2.5E1,2.99E2,1.9E2,2.34E2,4.4E1,4.2E1,2.2E1,8E0,4.5E1,2.2E1,3.07E2,1E1,2.67E2,4.64E2,2.88E2,1.19E2,2.74E2,6.3E1,1.72E2,2.9E1,3.93E2,5.4E1,1.877E3,2.33E2,2.84E2,4.13E2,4.2E1,1.3E2,1.32E2,1.5E2,1.4E1,2.9E1,8E0,9.9E1,1.19E2,2.3E1,6.05E2,3.03E2,3.15E2,3.21E2,3.12E2,5.8E1,8E0,7.4E1,1E1,7.7E1,9.48E2,5.73E2,1.25E2,3.47E2,1.5E1,1.3E1,2.64E2,2.02E2,2.6E1,4.8E1,3.8E1,7.4E1,4.1E1,1.34E2,3.2E1,5.8E1,1.473E3,2.28E2,2.582E3,2.02E2,5.61E2,3.74E2,2.27E2,9.4E1,1.68E2,1.9E1,7.45E2,5.7E1,3.06E2,3.8E1,5.6E1,1.52E2,1.3E1,6.9E1,2.6E1,3.4E1,6.8E1,4.63E2,3.67E2,1.27E2,9.9E1,4.6E1,6.9E1,1.84E2,1E1,5.2E1,1E1,5.1E1,1.82E2,9.2E1,4.4E1,8.3E1,4.2E1,3.1E1,1.7E1,1.01E2],"tree_param":{"num_deleted":"0","num_feature":"21","num_nodes":"235","size_leaf_vector":"1"}},{"base_weights":[-2.808926E-3,-1.6150692E-1,1.6998443E-1,-9.603294E-2,-2.764544E-1,3.208704E-1,9.922055E-2,-1.9850105E-1,-3.8081758E-2,-4.0382645E-1,-1.9020592E-1,2.4496831E-1,3.9909893E-1,1.5263644E-1,6.9042953E-4,-2.1933824E-1,1.2260824E-1,2.1251138E-2,-1.9764626E-1,-2.281261E-1,-4.9762213E-1,-1.4508559E-1,-4.2527214E-1,2.6066092E-1,-0E0,4.560368E-1,2.3298833E-1,8.0345785E-3,2.1823719E-1,-3.1507216E-2,2.0470627E-1,-1.4582075E-1,-3.1899145E-1,3.1391636E-1,-2.4688986E-1,-6.4118266E-2,1.3659963E-1,-2.7025625E-1,-8.789217E-2,-2.5984317E-1,1.8093862E-1,-6.7956424E-1,-3.281841E-1,3.3758108E-2,-1.9792844E-1,-4.4821598E-2,-5.0816834E-1,2.7000815E-1,-5.9371274E-2,3.608763E-1,-8.7356377E-1,5.427908E-1,3.7022814E-1,-1.0402302E-1,2.67308E-1,7.298958E-2,-1.5384842E-1,7.345853E-2,2.5042132E-1,-2.4365173E-1,-6.3694017E-3,4.3245417E-1,1.3792436E-1,-6.700816E-2,-2.0273228E-1,-2.5126255E-1,-4.1624397E-1,-4.7422703E-3,3.6639443E-1,-1.8123182E-2,-4.804182E-1,-8.2963884E-2,1.16177514E-1,2.4745564E-1,-3.019683E-2,-3.8808376E-1,-2.1964222E-1,1.1490386E-1,-1.3567603E-1,-1.5256058E-1,-3.5058996E-1,6.7023234E-3,7.398356E-2,-8.727159E-1,-4.5321867E-1,-1.19265236E-1,-4.022058E-1,6.6049255E-2,-2.6409912E-1,-2.2675717E-2,-2.4423884E-1,-3.086283E-1,1.23245314E-1,-1.390615E-1,-5.6597775E-1,1.5413846E-1,2.897281E-1,2.0207746E-1,-4.284425E-1,6.2871647E-1,1.2345411E-1,4.91756E-3,-1.5665418E0,5.6930816E-1,2.6799864E-1,4.0093702E-1,1.7027442E-1,-3.5216424E-1,8.9792386E-2,2.944336E-1,4.24581E-2,1.9965438E-2,1.6835356E-1,-1.4361511E-2,-1.2594938E-1,-8.5252844E-2,1.3333434E-1,3.4585533E-1,2.1816362E-1,-3.7303876E-2,-6.117459E-1,-8.23718E-2,4.9501184E-2,3.5588131E-3,6.912775E-3,1.03065325E-2,2.8258684E-1,-4.2905337E-3,-6.890095E-4,-6.2023447E-4,-4.5432565E-3,-3.114647E-3,-6.1966386E-3,-7.656657E-3,-3.442287E-3,2.226741E-3,6.670626E-3,3.3672804E-3,-4.1877497E-3,-1.1103666E-2,1.3619739E-3,-1.662827E-3,7.740778E-5,2.2613513E-3,-2.244607E-3,4.283973E-3,1.347423E-3,-2.610023E-4,-5.9875567E-3,-3.4009232E-3,-1.2192783E-2,-6.222215E-4,-4.9631745E-3,4.2252988E-3,1.2428398E-3,-7.361967E-3,-1.6035589E-3,-5.240531E-3,-9.159592E-4,-3.0625209E-3,-6.3769785E-3,-6.372071E-4,4.887213E-3,-6.6852537E-3,-1.4172797E-2,-8.596508E-3,-5.258195E-3,-2.7605302E-3,6.429395E-3,-3.776836E-3,-9.418986E-3,4.1302647E-3,5.0926977E-4,-6.0946587E-3,4.816038E-3,9.956681E-4,-4.181124E-3,-4.6141455E-3,-2.3139808E-4,2.7763755E-3,-7.8377435E-3,8.716412E-3,-2.3340229E-4,-5.1780613E-3,-4.8808448E-4,-9.308187E-3,-5.0187437E-3,2.6972047E-3,-3.2748263E-3,4.6462878E-3,2.601592E-3,4.468569E-3,-0E0,-1.0732733E-2,6.643899E-4,2.6284156E-3,1.3170304E-2,4.3505556E-3,-1.4558614E-3,-2.9658295E-2,-1.3626379E-2,7.85856E-3,9.531709E-3,6.6826744E-3,-1.3486722E-3,8.026268E-3,5.2530514E-3,3.2028882E-3,-2.8267421E-3,-1.1950365E-2,9.3396683E-4,-1.2382054E-3,3.5201812E-3,3.5434975E-3,6.208977E-3,3.03692E-3,-4.9825916E-3,-5.2729517E-4,8.7382575E-4,3.5641014E-3,1.8225033E-3,3.3403588E-3,-2.609849E-3,1.9433049E-3,-5.177254E-3,1.1467346E-3,5.9899776E-3,7.2103385E-3,4.154315E-3,2.8814953E-3,4.7656335E-3,9.257389E-4,-9.367231E-3,-2.0342836E-2,-2.4858792E-4,-4.8403237E-3,2.224773E-4,2.6702627E-3,-1.6312746E-4,3.3976259E-3,-1.3051567E-3,4.494512E-3,3.675506E-4],"categories":[],"categories_nodes":[],"categories_segments":[],"categories_sizes":[],"default_left":[0,0,0,0,0,0,0,0,0,0,0,0,0,0,0,0,0,0,0,0,0,0,0,0,0,0,0,0,0,0,0,0,0,0,0,0,0,0,0,0,0,0,0,0,0,0,0,0,0,0,0,0,0,0,0,0,0,0,0,0,0,0,0,0,0,0,0,0,0,0,0,0,0,0,0,0,0,0,0,0,0,0,0,0,0,0,0,0,0,0,0,0,0,0,0,0,0,0,0,0,0,0,0,0,0,0,0,0,0,0,0,0,0,0,0,0,0,0,0,0,0,0,0,0,0,0,0,0,0,0,0,0,0,0,0,0,0,0,0,0,0,0,0,0,0,0,0,0,0,0,0,0,0,0,0,0,0,0,0,0,0,0,0,0,0,0,0,0,0,0,0,0,0,0,0,0,0,0,0,0,0,0,0,0,0,0,0,0,0,0,0,0,0,0,0,0,0,0,0,0,0,0,0,0,0,0,0,0,0,0,0,0,0,0,0,0,0,0,0,0,0,0,0,0,0,0,0,0,0,0,0,0,0,0,0,0,0,0,0,0,0,0,0],"id":4,"left_children":[1,3,5,7,9,11,13,15,17,19,21,23,25,27,29,31,33,35,37,39,41,43,45,47,49,51,53,55,57,59,61,63,65,67,69,71,73,75,77,79,81,83,85,87,89,91,93,95,97,99,101,103,105,107,109,111,113,115,117,119,121,123,125,127,129,131,133,-1,135,137,139,141,143,145,147,149,151,153,155,157,159,-1,161,163,165,167,169,171,173,175,177,179,181,183,185,187,189,191,193,195,197,-1,199,201,203,205,207,209,211,213,215,217,219,-1,221,223,225,227,229,231,233,235,237,-1,-1,239,241,-1,-1,-1,-1,-1,-1,-1,-1,-1,-1,-1,-1,-1,-1,-1,-1,-1,-1,-1,-1,-1,-1,-1,-1,-1,-1,-1,-1,-1,-1,-1,-1,-1,-1,-1,-1,-1,-1,-1,-1,-1,-1,-1,-1,-1,-1,-1,-1,-1,-1,-1,-1,-1,-1,-1,-1,-1,-1,-1,-1,-1,-1,-1,-1,-1,-1,-1,-1,-1,-1,-1,-1,-1,-1,-1,-1,-1,-1,-1,-1,-1,-1,-1,-1,-1,-1,-1,-1,-1,-1,-1,-1,-1,-1,-1,-1,-1,-1,-1,-1,-1,-1,-1,-1,-1,-1,-1,-1,-1,-1,-1,-1,-1,-1,-1,-1],"loss_changes":[6.561409E2,9.378616E1,1.22206696E2,4.7169815E1,4.951013E1,2.1466705E1,4.1040657E1,1.926664E1,4.812729E1,2.9795685E1,2.8487907E1,7.155037E0,1.6733948E1,4.795247E1,1.8059055E1,1.9627228E1,1.2573156E1,3.6505035E1,1.0901451E1,8.380524E0,3.6115204E1,2.1479446E1,1.35848465E1,5.2813187E0,3.6446194E1,9.491028E0,5.41918E0,1.6634415E1,1.6144226E1,1.2620657E1,5.5360975E0,6.926876E0,7.2724E0,4.07549E0,3.1826231E0,7.2506323E0,2.9190826E1,4.7225647E0,5.37729E0,5.634384E0,1.219292E0,2.411026E1,9.430962E0,5.0014915E0,1.4189102E1,3.625112E0,7.3798294E0,3.759163E0,5.0803328E0,4.9868307E0,2.9188307E1,4.4494324E0,3.981926E0,2.1896553E0,2.5103474E0,5.688058E0,9.826044E0,6.067258E0,8.565445E0,1.8943642E1,9.02467E0,1.9789791E-1,5.3709974E0,2.9702122E0,1.4518631E1,4.5756187E0,7.90979E0,0E0,1.6788673E0,2.1956823E0,4.608756E0,4.754855E0,1.8956206E0,5.6147537E0,2.9242485E0,1.6411133E1,1.1507751E1,4.870392E-1,4.4212275E0,4.886964E0,3.271309E0,0E0,1.1032326E0,8.523132E0,2.8299332E0,5.965787E0,1.5103233E1,3.1084309E0,4.470797E0,8.464503E0,2.0053307E1,3.5659306E0,3.2377143E0,1.0575156E0,3.4046478E0,2.4747715E0,3.2310104E0,5.8821344E-1,3.0826359E0,3.8912764E0,1.7523608E0,0E0,2.3703232E0,1.0860138E0,4.034045E0,3.560997E0,1.5302758E0,3.8103805E0,6.9429934E-1,2.3656502E0,2.9733176E0,1.5441027E0,1.2191076E0,0E0,7.4310193E0,9.860721E0,6.9002647E0,6.3252335E0,5.3702087E0,9.591211E0,3.9610203E1,2.1081757E1,9.5160885E0,0E0,0E0,3.3695555E0,5.562391E-1,0E0,0E0,0E0,0E0,0E0,0E0,0E0,0E0,0E0,0E0,0E0,0E0,0E0,0E0,0E0,0E0,0E0,0E0,0E0,0E0,0E0,0E0,0E0,0E0,0E0,0E0,0E0,0E0,0E0,0E0,0E0,0E0,0E0,0E0,0E0,0E0,0E0,0E0,0E0,0E0,0E0,0E0,0E0,0E0,0E0,0E0,0E0,0E0,0E0,0E0,0E0,0E0,0E0,0E0,0E0,0E0,0E0,0E0,0E0,0E0,0E0,0E0,0E0,0E0,0E0,0E0,0E0,0E0,0E0,0E0,0E0,0E0,0E0,0E0,0E0,0E0,0E0,0E0,0E0,0E0,0E0,0E0,0E0,0E0,0E0,0E0,0E0,0E0,0E0,0E0,0E0,0E0,0E0,0E0,0E0,0E0,0E0,0E0,0E0,0E0,0E0,0E0,0E0,0E0,0E0,0E0,0E0,0E0,0E0,0E0,0E0,0E0,0E0,0E0,0E0,0E0],"parents":[2147483647,0,0,1,1,2,2,3,3,4,4,5,5,6,6,7,7,8,8,9,9,10,10,11,11,12,12,13,13,14,14,15,15,16,16,17,17,18,18,19,19,20,20,21,21,22,22,23,23,24,24,25,25,26,26,27,27,28,28,29,29,30,30,31,31,32,32,33,33,34,34,35,35,36,36,37,37,38,38,39,39,40,40,41,41,42,42,43,43,44,44,45,45,46,46,47,47,48,48,49,49,50,50,51,51,52,52,53,53,54,54,55,55,56,56,57,57,58,58,59,59,60,60,61,61,62,62,63,63,64,64,65,65,66,66,68,68,69,69,70,70,71,71,72,72,73,73,74,74,75,75,76,76,77,77,78,78,79,79,80,80,82,82,83,83,84,84,85,85,86,86,87,87,88,88,89,89,90,90,91,91,92,92,93,93,94,94,95,95,96,96,97,97,98,98,99,99,100,100,102,102,103,103,104,104,105,105,106,106,107,107,108,108,109,109,110,110,111,111,112,112,114,114,115,115,116,116,117,117,118,118,119,119,120,120,121,121,122,122,125,125,126,126],"right_children":[2,4,6,8,10,12,14,16,18,20,22,24,26,28,30,32,34,36,38,40,42,44,46,48,50,52,54,56,58,60,62,64,66,68,70,72,74,76,78,80,82,84,86,88,90,92,94,96,98,100,102,104,106,108,110,112,114,116,118,120,122,124,126,128,130,132,134,-1,136,138,140,142,144,146,148,150,152,154,156,158,160,-1,162,164,166,168,170,172,174,176,178,180,182,184,186,188,190,192,194,196,198,-1,200,202,204,206,208,210,212,214,216,218,220,-1,222,224,226,228,230,232,234,236,238,-1,-1,240,242,-1,-1,-1,-1,-1,-1,-1,-1,-1,-1,-1,-1,-1,-1,-1,-1,-1,-1,-1,-1,-1,-1,-1,-1,-1,-1,-1,-1,-1,-1,-1,-1,-1,-1,-1,-1,-1,-1,-1,-1,-1,-1,-1,-1,-1,-1,-1,-1,-1,-1,-1,-1,-1,-1,-1,-1,-1,-1,-1,-1,-1,-1,-1,-1,-1,-1,-1,-1,-1,-1,-1,-1,-1,-1,-1,-1,-1,-1,-1,-1,-1,-1,-1,-1,-1,-1,-1,-1,-1,-1,-1,-1,-1,-1,-1,-1,-1,-1,-1,-1,-1,-1,-1,-1,-1,-1,-1,-1,-1,-1,-1,-1,-1,-1,-1,-1],"split_conditions":[8.12E0,1.1633333E1,2.8333333E0,5E-1,1.62E2,1.831E1,5E-1,1E0,7.0710677E-1,-2.5881904E-1,1E0,1E0,2.5881904E-1,5E-1,1E0,2.28E2,1.9805084E1,8E0,1.2246469E-16,8.660254E-1,-1.8369701E-16,5.3908772E0,-5E-1,2.0857773E1,1.2246469E-16,8.660254E-1,1.2246469E-16,3.64E2,1.0898305E1,-2.4492937E-16,1.9361404E1,2.0801723E1,9.8E0,6.298923E0,3E0,1.2700001E1,2.0857773E1,8.660254E-1,8.133333E0,-7.0710677E-1,-8.660254E-1,2.2329166E1,2.5881904E-1,5E-1,-5E-1,1.5625E1,1.88E1,5E-1,3.5E0,2.28E2,6E0,0E0,1.87E0,5.1E-1,1E0,1.5131667E1,-8.660254E-1,-2.4492937E-16,1.62E2,8E0,8.660254E-1,5E-1,8.660254E-1,2.012185E1,-5E-1,2.1486666E1,8E0,-4.7422703E-3,-1.8369701E-16,9.502778E0,9.659258E-1,1.2246469E-16,2.28E2,2.5881904E-1,1E0,2.0775E1,1.62E2,1.1289999E1,8.03E0,2.1346666E1,-5E-1,6.7023234E-3,9.303418E0,1.3026667E1,3E0,1.2246469E-16,4E0,1.491E1,-5E-1,2.5881904E-1,1E0,-8.660254E-1,1.705E1,5E-1,7.137931E0,2.5881904E-1,7.0710677E-1,1.62E2,5E0,2.0649124E1,2.4166667E0,4.91756E-3,8.660254E-1,2.0265518E1,5.4444444E-1,1.62E2,2.1711668E1,1.556E1,1.9060194E1,2.079148E1,8E0,3E0,-1.8369701E-16,-1.4361511E-2,1.9655E1,4E0,2.5881904E-1,2.05E1,2.07E1,1E0,5.47E0,1.62E2,1.62E2,3.5588131E-3,6.912775E-3,7.0710677E-1,7.48E0,-4.2905337E-3,-6.890095E-4,-6.2023447E-4,-4.5432565E-3,-3.114647E-3,-6.1966386E-3,-7.656657E-3,-3.442287E-3,2.226741E-3,6.670626E-3,3.3672804E-3,-4.1877497E-3,-1.1103666E-2,1.3619739E-3,-1.662827E-3,7.740778E-5,2.2613513E-3,-2.244607E-3,4.283973E-3,1.347423E-3,-2.610023E-4,-5.9875567E-3,-3.4009232E-3,-1.2192783E-2,-6.222215E-4,-4.9631745E-3,4.2252988E-3,1.2428398E-3,-7.361967E-3,-1.6035589E-3,-5.240531E-3,-9.159592E-4,-3.0625209E-3,-6.3769785E-3,-6.372071E-4,4.887213E-3,-6.6852537E-3,-1.4172797E-2,-8.596508E-3,-5.258195E-3,-2.7605302E-3,6.429395E-3,-3.776836E-3,-9.418986E-3,4.1302647E-3,5.0926977E-4,-6.0946587E-3,4.816038E-3,9.956681E-4,-4.181124E-3,-4.6141455E-3,-2.3139808E-4,2.7763755E-3,-7.8377435E-3,8.716412E-3,-2.3340229E-4,-5.1780613E-3,-4.8808448E-4,-9.308187E-3,-5.0187437E-3,2.6972047E-3,-3.2748263E-3,4.6462878E-3,2.601592E-3,4.468569E-3,-0E0,-1.0732733E-2,6.643899E-4,2.6284156E-3,1.3170304E-2,4.3505556E-3,-1.4558614E-3,-2.9658295E-2,-1.3626379E-2,7.85856E-3,9.531709E-3,6.6826744E-3,-1.3486722E-3,8.026268E-3,5.2530514E-3,3.2028882E-3,-2.8267421E-3,-1.1950365E-2,9.3396683E-4,-1.2382054E-3,3.5201812E-3,3.5434975E-3,6.208977E-3,3.03692E-3,-4.9825916E-3,-5.2729517E-4,8.7382575E-4,3.5641014E-3,1.8225033E-3,3.3403588E-3,-2.609849E-3,1.9433049E-3,-5.177254E-3,1.1467346E-3,5.9899776E-3,7.2103385E-3,4.154315E-3,2.8814953E-3,4.7656335E-3,9.257389E-4,-9.367231E-3,-2.0342836E-2,-2.4858792E-4,-4.8403237E-3,2.224773E-4,2.6702627E-3,-1.6312746E-4,3.3976259E-3,-1.3051567E-3,4.494512E-3,3.675506E-4],"split_indices":[2,1,1,10,20,4,7,16,7,7,15,10,7,10,16,20,3,6,9,10,10,4,10,3,7,9,9,20,4,9,3,3,0,4,11,4,3,7,1,7,7,3,7,10,10,1,3,10,0,20,6,7,0,0,9,4,9,9,20,6,7,10,9,3,7,3,6,0,10,1,7,7,20,7,16,3,20,4,0,3,9,0,4,1,11,7,11,0,9,7,16,10,1,10,4,7,7,20,11,3,1,0,7,3,1,20,3,2,4,3,6,11,10,0,3,11,7,3,3,7,0,20,20,0,0,7,1,0,0,0,0,0,0,0,0,0,0,0,0,0,0,0,0,0,0,0,0,0,0,0,0,0,0,0,0,0,0,0,0,0,0,0,0,0,0,0,0,0,0,0,0,0,0,0,0,0,0,0,0,0,0,0,0,0,0,0,0,0,0,0,0,0,0,0,0,0,0,0,0,0,0,0,0,0,0,0,0,0,0,0,0,0,0,0,0,0,0,0,0,0,0,0,0,0,0,0,0,0,0,0,0,0,0,0,0,0,0,0,0,0,0,0,0],"split_type":[0,0,0,0,0,0,0,0,0,0,0,0,0,0,0,0,0,0,0,0,0,0,0,0,0,0,0,0,0,0,0,0,0,0,0,0,0,0,0,0,0,0,0,0,0,0,0,0,0,0,0,0,0,0,0,0,0,0,0,0,0,0,0,0,0,0,0,0,0,0,0,0,0,0,0,0,0,0,0,0,0,0,0,0,0,0,0,0,0,0,0,0,0,0,0,0,0,0,0,0,0,0,0,0,0,0,0,0,0,0,0,0,0,0,0,0,0,0,0,0,0,0,0,0,0,0,0,0,0,0,0,0,0,0,0,0,0,0,0,0,0,0,0,0,0,0,0,0,0,0,0,0,0,0,0,0,0,0,0,0,0,0,0,0,0,0,0,0,0,0,0,0,0,0,0,0,0,0,0,0,0,0,0,0,0,0,0,0,0,0,0,0,0,0,0,0,0,0,0,0,0,0,0,0,0,0,0,0,0,0,0,0,0,0,0,0,0,0,0,0,0,0,0,0,0,0,0,0,0,0,0,0,0,0,0,0,0,0,0,0,0,0,0],"sum_hessian":[2.3924E4,1.2471E4,1.1453E4,7.948E3,4.523E3,3.654E3,7.799E3,2.869E3,5.079E3,1.823E3,2.7E3,1.859E3,1.795E3,5.056E3,2.743E3,2.695E3,1.74E2,3.703E3,1.376E3,6.37E2,1.186E3,2.268E3,4.32E2,1.747E3,1.12E2,1.334E3,4.61E2,1.579E3,3.477E3,2.37E3,3.73E2,1.554E3,1.141E3,1.15E2,5.9E1,2.128E3,1.575E3,8.26E2,5.5E2,5.92E2,4.5E1,5.69E2,6.17E2,5.17E2,1.751E3,7.8E1,3.54E2,1.698E3,4.9E1,8E1,3.2E1,6.58E2,6.76E2,4.2E1,4.19E2,1.128E3,4.51E2,6.34E2,2.843E3,2.49E2,2.121E3,8.2E1,2.91E2,6.54E2,9E2,6.77E2,4.64E2,8E0,1.07E2,3.1E1,2.8E1,1.928E3,2E2,9.46E2,6.29E2,2.44E2,5.82E2,1.04E2,4.46E2,2.74E2,3.18E2,1.1E1,3.4E1,3.04E2,2.65E2,1.63E2,4.54E2,4.68E2,4.9E1,3.67E2,1.384E3,3E1,4.8E1,4.9E1,3.05E2,2.5E2,1.448E3,2.9E1,2E1,3.6E1,4.4E1,1.2E1,2E1,5.98E2,6E1,5.84E2,9.2E1,1.8E1,2.4E1,3.73E2,4.6E1,7.27E2,4.01E2,1.3E1,4.38E2,1.73E2,4.61E2,7.13E2,2.13E3,1.61E2,8.8E1,8.99E2,1.222E3,1.3E1,6.9E1,1.56E2,1.35E2,5.5E1,5.99E2,3.46E2,5.54E2,5.37E2,1.4E2,3.06E2,1.58E2,3E1,7.7E1,1.6E1,1.5E1,1.9E1,9E0,1.465E3,4.63E2,1.78E2,2.2E1,7.6E2,1.86E2,6.1E2,1.9E1,1.79E2,6.5E1,2.25E2,3.57E2,1.4E1,9E1,3.1E1,4.15E2,8.5E1,1.89E2,1.1E2,2.08E2,2.4E1,1E1,4.6E1,2.58E2,1.18E2,1.47E2,1.47E2,1.6E1,2.75E2,1.79E2,6E1,4.08E2,4E1,9E0,2.73E2,9.4E1,1.083E3,3.01E2,9E0,2.1E1,1E1,3.8E1,1.5E1,3.4E1,2.44E2,6.1E1,2.35E2,1.5E1,1.232E3,2.16E2,1.9E1,1E1,1.2E1,8E0,1.4E1,2.2E1,2.5E1,1.9E1,1E1,1E1,3.65E2,2.33E2,4E1,2E1,1.55E2,4.29E2,8.3E1,9E0,8E0,1E1,1.1E1,1.3E1,2.55E2,1.18E2,3.3E1,1.3E1,2.97E2,4.3E2,1.58E2,2.43E2,5.2E1,3.86E2,9.5E1,7.8E1,3.82E2,7.9E1,2.37E2,4.76E2,1.693E3,4.37E2,1.39E2,2.2E1,3.8E1,5E1,2.58E2,6.41E2,3.9E2,8.32E2,4.8E1,1.08E2,1.26E2,9E0],"tree_param":{"num_deleted":"0","num_feature":"21","num_nodes":"243","size_leaf_vector":"1"}},{"base_weights":[6.194605E-4,-1.5821418E-1,1.7373028E-1,-2.157819E-1,-2.2443414E-2,3.21623E-1,9.6505806E-2,-2.4250838E-1,3.2491457E-2,5.543279E-2,-2.0936371E-1,4.483155E-1,2.7103415E-1,1.40472E-1,-1.5381554E-2,-1.6705905E-1,-3.297611E-1,-1.1242666E-1,1.64881E-1,-5.1311255E-2,1.9576322E-1,-5.202561E-1,-1.7782195E-1,4.8118168E-1,2.4333745E-1,3.0833685E-1,1.5320851E-1,3.0989419E-3,2.0068698E-1,-4.1193417E-1,5.4097768E-2,-1.22307815E-1,-2.7545395E-1,7.85423E-2,-3.6014885E-1,9.6817784E-2,-2.1890481E-1,2.5653014E-1,-2.2601342E-1,9.4068035E-2,-8.297511E-2,-1.1025344E-1,2.3830047E-1,-1.6725425E-1,-8.3961964E-1,-1.3040775E-1,-4.1924417E-1,5.9275424E-1,4.0864265E-1,-4.6094042E-1,4.1459543E-1,1.602353E-1,3.4737167E-1,1.8160436E-1,-4.7568327E-1,5.8381528E-2,-1.7663942E-1,8.4133536E-2,2.3878089E-1,-2.2999239E-1,-1.4812394E0,-1.7082024E-1,7.91423E-2,-8.08344E-2,-2.1808597E-1,-3.2060114E-1,-1.501058E-1,2.910871E-1,1.3064272E-2,-3.9069042E-1,-5.4118015E-2,2.830972E-1,-1.561195E-1,-1.4215197E-1,-3.3596623E-1,-2.9233212E-2,2.8935102E-1,-5.914424E-1,1.1419955E-1,-9.318631E-3,1.9245003E-1,-1.04969494E-1,1.2155504E-1,2.3702994E-1,-5.203292E-1,3.8735044E-1,2.0415482E-1,1.7696111E-1,-8.0958134E-1,-1.0943177E0,-1.9244512E-3,-7.922657E-2,-2.3161037E-1,-8.602692E-1,6.926581E-2,6.553807E-1,4.3787542E-1,1.4664441E-1,4.3817732E-1,-9.069177E-1,1.0449085E-2,-0E0,4.6930707E-1,2.9003412E-1,8.712638E-2,2.077497E-1,3.7289158E-1,1.9833446E-2,2.5467142E-1,-2.3213105E-2,2.0129369E-1,-1.4529413E-1,7.0968375E-2,-3.1119624E-1,-1.03284776E-1,-5.986773E-2,2.0819166E-1,1.7092745E-1,3.3340088E-1,-8.3323675E-1,1.0359188E-1,-1.3108665E-2,-2.3764616E-2,-7.144895E-1,6.152827E-3,1.6800766E-1,2.6027013E-2,-4.6396983E-4,-2.4800855E-3,-5.1074075E-3,-2.8037718E-3,-5.8793696E-3,-3.1959543E-3,4.3195652E-4,-3.3018251E-3,-5.741853E-4,5.178226E-3,-4.8971846E-4,5.5633294E-3,-4.6154205E-3,-7.510677E-3,-6.624465E-3,1.7714712E-3,3.0082916E-3,6.6179396E-3,1.3881832E-3,-5.983611E-3,6.591528E-4,-3.4089715E-3,5.563865E-3,-6.144299E-3,3.1170775E-3,-6.6847517E-3,4.5551355E-3,-6.420806E-4,-3.7560042E-3,-1.4690716E-2,-0E0,2.9717067E-3,1.2223605E-3,-1.6953193E-3,1.386545E-3,6.8955813E-3,-1.9922024E-3,3.7792156E-4,1.127368E-3,2.9929392E-3,8.208559E-3,2.4425986E-3,2.0653845E-4,-1.3951489E-2,6.7469203E-3,2.5995246E-3,3.512788E-3,1.4659216E-3,5.5336175E-3,1.1474278E-3,-1.8100614E-2,-3.803286E-3,-1.1521479E-2,-2.1207644E-2,1.9963263E-3,-1.4499002E-3,-2.38593E-3,-5.349132E-3,-1.831255E-2,-3.987466E-3,-4.6896753E-3,2.4300779E-3,1.03029E-2,3.3732574E-3,7.593465E-3,3.573609E-3,4.8080066E-5,5.432478E-3,4.9946452E-3,7.152748E-3,-3.0136999E-2,2.199056E-3,7.5080036E-3,5.3677225E-4,5.3287675E-3,2.8450608E-3,8.235622E-3,8.7087316E-4,2.216941E-3,6.8142763E-3,6.629099E-3,4.8898715E-3,-1.1803133E-2,3.354022E-3,-8.744449E-5,4.391318E-3,-3.9562094E-4,5.5221454E-3,-2.3545029E-2,1.0395242E-3,1.316121E-3,-6.8138255E-4,-5.1545356E-3,-2.9459894E-3,-1.8829509E-3,4.9069556E-3,-1.0235459E-2,9.553418E-4,4.2463047E-3,1.4545224E-3,1.9662518E-3,4.4288975E-3,5.7714395E-3,4.3963967E-3,-2.644855E-2,-1.0350403E-2,3.299342E-3,-1.6742323E-4,-1.7270729E-2,3.1836394E-3,2.7908632E-3,-1.9470464E-3,-9.430803E-5,2.8898818E-3,-6.0392823E-4,1.756469E-3],"categories":[],"categories_nodes":[],"categories_segments":[],"categories_sizes":[],"default_left":[0,0,0,0,0,0,0,0,0,0,0,0,0,0,0,0,0,0,0,0,0,0,0,0,0,0,0,0,0,0,0,0,0,0,0,0,0,0,0,0,0,0,0,0,0,0,0,0,0,0,0,0,0,0,0,0,0,0,0,0,0,0,0,0,0,0,0,0,0,0,0,0,0,0,0,0,0,0,0,0,0,0,0,0,0,0,0,0,0,0,0,0,0,0,0,0,0,0,0,0,0,0,0,0,0,0,0,0,0,0,0,0,0,0,0,0,0,0,0,0,0,0,0,0,0,0,0,0,0,0,0,0,0,0,0,0,0,0,0,0,0,0,0,0,0,0,0,0,0,0,0,0,0,0,0,0,0,0,0,0,0,0,0,0,0,0,0,0,0,0,0,0,0,0,0,0,0,0,0,0,0,0,0,0,0,0,0,0,0,0,0,0,0,0,0,0,0,0,0,0,0,0,0,0,0,0,0,0,0,0,0,0,0,0,0,0,0,0,0,0,0,0,0,0,0,0,0,0,0,0,0,0,0,0,0,0,0,0,0,0,0,0,0],"id":5,"left_children":[1,3,5,7,9,11,13,15,17,19,21,23,25,27,29,31,33,35,37,39,41,43,45,47,49,51,53,55,57,59,61,63,65,67,69,71,73,75,77,79,81,83,85,87,89,91,93,95,97,99,101,103,105,107,109,111,113,115,117,119,121,123,125,127,129,131,133,135,137,139,141,143,145,147,149,151,153,155,157,159,161,163,165,167,169,171,173,175,177,179,-1,181,183,185,187,189,191,193,195,197,-1,-1,199,201,203,205,207,209,211,-1,213,215,217,219,221,223,225,227,229,231,233,-1,-1,235,237,239,241,-1,-1,-1,-1,-1,-1,-1,-1,-1,-1,-1,-1,-1,-1,-1,-1,-1,-1,-1,-1,-1,-1,-1,-1,-1,-1,-1,-1,-1,-1,-1,-1,-1,-1,-1,-1,-1,-1,-1,-1,-1,-1,-1,-1,-1,-1,-1,-1,-1,-1,-1,-1,-1,-1,-1,-1,-1,-1,-1,-1,-1,-1,-1,-1,-1,-1,-1,-1,-1,-1,-1,-1,-1,-1,-1,-1,-1,-1,-1,-1,-1,-1,-1,-1,-1,-1,-1,-1,-1,-1,-1,-1,-1,-1,-1,-1,-1,-1,-1,-1,-1,-1,-1,-1,-1,-1,-1,-1,-1,-1,-1,-1,-1,-1,-1,-1],"loss_changes":[6.5947784E2,9.772861E1,1.3097815E2,5.83132E1,5.428598E1,2.4934753E1,3.712139E1,5.205429E1,1.64385E1,3.945541E1,1.0518997E1,7.260727E0,1.2253632E1,4.4777542E1,5.8729034E1,2.0548477E1,4.567386E1,9.158407E0,1.6149914E1,6.8985095E0,1.4870964E1,1.0897583E1,1.1279724E1,7.2561493E0,1.949273E1,1.2207916E1,1.2301611E1,1.642962E1,1.6647156E1,6.104407E1,1.0226608E1,1.1921856E1,6.893799E0,3.5227118E0,3.1890503E1,6.6320934E0,2.3082905E0,3.4533195E0,1.0836273E1,2.7454383E0,5.553582E0,2.0159595E1,4.886898E0,1.13318615E1,9.009762E0,4.2754145E0,3.526082E1,3.0095062E0,4.38974E0,1.7574615E1,2.9249954E0,4.185153E0,5.8234863E0,7.6914577E0,2.2318893E1,3.2561755E0,3.7382956E0,1.666557E1,1.8053665E1,5.5325882E1,1.2890625E-1,1.7570602E1,7.679719E0,8.864065E0,3.303753E0,6.7782288E0,4.1992097E0,1.1205902E0,3.2910202E0,2.803836E1,2.1001244E1,8.3100986E-1,3.7073843E0,2.6941109E0,5.7858458E0,4.020303E0,1.6044102E0,4.9658785E0,4.545728E-1,1.2609143E0,3.5515823E0,4.046275E0,3.789487E-1,1.536089E0,1.4296656E1,2.2540722E0,2.539383E0,5.564668E-1,3.2337227E0,1.7671509E0,0E0,2.091547E0,2.3836794E0,1.7657112E1,2.8670585E0,3.1921768E0,1.2613964E0,1.9027792E0,1.7845764E0,2.835318E1,0E0,0E0,1.4546852E0,8.7672234E-1,3.7864923E0,3.7476435E0,4.2811737E0,3.409009E1,4.494093E0,0E0,8.037832E-1,2.2903898E1,2.3420353E0,3.3022785E-1,2.4933922E0,3.335151E1,4.0843086E0,8.090366E0,2.175888E0,1.0590149E1,2.3994973E0,0E0,0E0,1.8672508E1,3.4440222E0,2.6408653E0,6.2028785E0,0E0,0E0,0E0,0E0,0E0,0E0,0E0,0E0,0E0,0E0,0E0,0E0,0E0,0E0,0E0,0E0,0E0,0E0,0E0,0E0,0E0,0E0,0E0,0E0,0E0,0E0,0E0,0E0,0E0,0E0,0E0,0E0,0E0,0E0,0E0,0E0,0E0,0E0,0E0,0E0,0E0,0E0,0E0,0E0,0E0,0E0,0E0,0E0,0E0,0E0,0E0,0E0,0E0,0E0,0E0,0E0,0E0,0E0,0E0,0E0,0E0,0E0,0E0,0E0,0E0,0E0,0E0,0E0,0E0,0E0,0E0,0E0,0E0,0E0,0E0,0E0,0E0,0E0,0E0,0E0,0E0,0E0,0E0,0E0,0E0,0E0,0E0,0E0,0E0,0E0,0E0,0E0,0E0,0E0,0E0,0E0,0E0,0E0,0E0,0E0,0E0,0E0,0E0,0E0,0E0,0E0,0E0,0E0,0E0,0E0,0E0,0E0,0E0,0E0,0E0,0E0],"parents":[2147483647,0,0,1,1,2,2,3,3,4,4,5,5,6,6,7,7,8,8,9,9,10,10,11,11,12,12,13,13,14,14,15,15,16,16,17,17,18,18,19,19,20,20,21,21,22,22,23,23,24,24,25,25,26,26,27,27,28,28,29,29,30,30,31,31,32,32,33,33,34,34,35,35,36,36,37,37,38,38,39,39,40,40,41,41,42,42,43,43,44,44,45,45,46,46,47,47,48,48,49,49,50,50,51,51,52,52,53,53,54,54,55,55,56,56,57,57,58,58,59,59,60,60,61,61,62,62,63,63,64,64,65,65,66,66,67,67,68,68,69,69,70,70,71,71,72,72,73,73,74,74,75,75,76,76,77,77,78,78,79,79,80,80,81,81,82,82,83,83,84,84,85,85,86,86,87,87,88,88,89,89,91,91,92,92,93,93,94,94,95,95,96,96,97,97,98,98,99,99,102,102,103,103,104,104,105,105,106,106,107,107,108,108,110,110,111,111,112,112,113,113,114,114,115,115,116,116,117,117,118,118,119,119,120,120,123,123,124,124,125,125,126,126],"right_children":[2,4,6,8,10,12,14,16,18,20,22,24,26,28,30,32,34,36,38,40,42,44,46,48,50,52,54,56,58,60,62,64,66,68,70,72,74,76,78,80,82,84,86,88,90,92,94,96,98,100,102,104,106,108,110,112,114,116,118,120,122,124,126,128,130,132,134,136,138,140,142,144,146,148,150,152,154,156,158,160,162,164,166,168,170,172,174,176,178,180,-1,182,184,186,188,190,192,194,196,198,-1,-1,200,202,204,206,208,210,212,-1,214,216,218,220,222,224,226,228,230,232,234,-1,-1,236,238,240,242,-1,-1,-1,-1,-1,-1,-1,-1,-1,-1,-1,-1,-1,-1,-1,-1,-1,-1,-1,-1,-1,-1,-1,-1,-1,-1,-1,-1,-1,-1,-1,-1,-1,-1,-1,-1,-1,-1,-1,-1,-1,-1,-1,-1,-1,-1,-1,-1,-1,-1,-1,-1,-1,-1,-1,-1,-1,-1,-1,-1,-1,-1,-1,-1,-1,-1,-1,-1,-1,-1,-1,-1,-1,-1,-1,-1,-1,-1,-1,-1,-1,-1,-1,-1,-1,-1,-1,-1,-1,-1,-1,-1,-1,-1,-1,-1,-1,-1,-1,-1,-1,-1,-1,-1,-1,-1,-1,-1,-1,-1,-1,-1,-1,-1,-1,-1],"split_conditions":[8.12E0,8.660254E-1,3.04E0,1E0,7.0710677E-1,2.5666666E-1,7.0710677E-1,1.159E1,8.660254E-1,8E0,-5E-1,2.5881904E-1,5E-1,5E-1,-5E-1,3.51E2,-8.660254E-1,-2.5881904E-1,9.659258E-1,-7.0710677E-1,-7.0710677E-1,1.4875001E0,1E0,2.28E2,1.2246469E-16,5E-1,1E0,5.87E2,-7.0710677E-1,1E0,-2.4492937E-16,5E-1,5E-1,-8.660254E-1,1.934E1,6.123234E-17,6.123234E-17,-2.5881904E-1,1E0,1.5702084E0,2.09875E0,2.5881904E-1,-1.8369701E-16,1.09366665E1,1.83625E0,1.04E1,8E0,8.660254E-1,1.525E1,1.726E1,1.556E1,2.28E2,6E0,-5E-1,1.7133334E0,-8.660254E-1,1E0,1.2246469E-16,8E0,1.62E2,2.1733334E0,1.4583334E0,4.75E0,5E-1,8.660254E-1,8E0,-2.5881904E-1,6.405368E-1,1.5042672E0,1.2246469E-16,1.62E2,-7.0710677E-1,3E0,1.4166667E1,0E0,1E0,1.702E1,1E0,1.149E1,3E0,9.713333E0,1.2246469E-16,4E0,1.0666666E0,1E0,1.2246469E-16,1.4583334E0,8.28E0,1.62E2,1E0,-1.9244512E-3,6E0,1E0,2.28E2,1.2767017E0,1.2246469E-16,2.9866667E0,8E0,2.2283335E0,1.62E2,1.0449085E-2,-0E0,1E0,2.9527779E0,-9.659258E-1,1.2246469E-16,-7.0710677E-1,1.62E2,1.4583334E0,-2.3213105E-2,2.25E0,4.15E0,1E0,0E0,1E0,1.62E2,2.5881904E-1,2.5361583E0,3E0,-2.4492937E-16,2.1260452E0,-1.3108665E-2,-2.3764616E-2,5.9E0,5.58E0,1.8539582E0,8E0,-4.6396983E-4,-2.4800855E-3,-5.1074075E-3,-2.8037718E-3,-5.8793696E-3,-3.1959543E-3,4.3195652E-4,-3.3018251E-3,-5.741853E-4,5.178226E-3,-4.8971846E-4,5.5633294E-3,-4.6154205E-3,-7.510677E-3,-6.624465E-3,1.7714712E-3,3.0082916E-3,6.6179396E-3,1.3881832E-3,-5.983611E-3,6.591528E-4,-3.4089715E-3,5.563865E-3,-6.144299E-3,3.1170775E-3,-6.6847517E-3,4.5551355E-3,-6.420806E-4,-3.7560042E-3,-1.4690716E-2,-0E0,2.9717067E-3,1.2223605E-3,-1.6953193E-3,1.386545E-3,6.8955813E-3,-1.9922024E-3,3.7792156E-4,1.127368E-3,2.9929392E-3,8.208559E-3,2.4425986E-3,2.0653845E-4,-1.3951489E-2,6.7469203E-3,2.5995246E-3,3.512788E-3,1.4659216E-3,5.5336175E-3,1.1474278E-3,-1.8100614E-2,-3.803286E-3,-1.1521479E-2,-2.1207644E-2,1.9963263E-3,-1.4499002E-3,-2.38593E-3,-5.349132E-3,-1.831255E-2,-3.987466E-3,-4.6896753E-3,2.4300779E-3,1.03029E-2,3.3732574E-3,7.593465E-3,3.573609E-3,4.8080066E-5,5.432478E-3,4.9946452E-3,7.152748E-3,-3.0136999E-2,2.199056E-3,7.5080036E-3,5.3677225E-4,5.3287675E-3,2.8450608E-3,8.235622E-3,8.7087316E-4,2.216941E-3,6.8142763E-3,6.629099E-3,4.8898715E-3,-1.1803133E-2,3.354022E-3,-8.744449E-5,4.391318E-3,-3.9562094E-4,5.5221454E-3,-2.3545029E-2,1.0395242E-3,1.316121E-3,-6.8138255E-4,-5.1545356E-3,-2.9459894E-3,-1.8829509E-3,4.9069556E-3,-1.0235459E-2,9.553418E-4,4.2463047E-3,1.4545224E-3,1.9662518E-3,4.4288975E-3,5.7714395E-3,4.3963967E-3,-2.644855E-2,-1.0350403E-2,3.299342E-3,-1.6742323E-4,-1.7270729E-2,3.1836394E-3,2.7908632E-3,-1.9470464E-3,-9.430803E-5,2.8898818E-3,-6.0392823E-4,1.756469E-3],"split_indices":[2,10,1,16,7,1,7,0,9,6,8,7,7,10,8,20,8,7,7,8,8,5,7,20,9,10,10,20,8,15,9,7,10,9,0,8,10,8,9,5,5,7,8,1,5,0,6,9,2,2,2,20,6,8,1,9,9,9,6,20,5,5,0,8,9,6,8,5,5,7,20,7,11,1,7,9,0,7,0,11,1,9,11,5,10,9,5,1,20,10,0,6,10,20,5,7,5,6,5,20,0,0,15,5,8,7,7,20,5,0,0,0,15,7,8,20,7,5,11,9,5,0,0,0,0,5,6,0,0,0,0,0,0,0,0,0,0,0,0,0,0,0,0,0,0,0,0,0,0,0,0,0,0,0,0,0,0,0,0,0,0,0,0,0,0,0,0,0,0,0,0,0,0,0,0,0,0,0,0,0,0,0,0,0,0,0,0,0,0,0,0,0,0,0,0,0,0,0,0,0,0,0,0,0,0,0,0,0,0,0,0,0,0,0,0,0,0,0,0,0,0,0,0,0,0,0,0,0,0,0,0,0,0,0,0,0,0,0,0,0,0,0,0],"split_type":[0,0,0,0,0,0,0,0,0,0,0,0,0,0,0,0,0,0,0,0,0,0,0,0,0,0,0,0,0,0,0,0,0,0,0,0,0,0,0,0,0,0,0,0,0,0,0,0,0,0,0,0,0,0,0,0,0,0,0,0,0,0,0,0,0,0,0,0,0,0,0,0,0,0,0,0,0,0,0,0,0,0,0,0,0,0,0,0,0,0,0,0,0,0,0,0,0,0,0,0,0,0,0,0,0,0,0,0,0,0,0,0,0,0,0,0,0,0,0,0,0,0,0,0,0,0,0,0,0,0,0,0,0,0,0,0,0,0,0,0,0,0,0,0,0,0,0,0,0,0,0,0,0,0,0,0,0,0,0,0,0,0,0,0,0,0,0,0,0,0,0,0,0,0,0,0,0,0,0,0,0,0,0,0,0,0,0,0,0,0,0,0,0,0,0,0,0,0,0,0,0,0,0,0,0,0,0,0,0,0,0,0,0,0,0,0,0,0,0,0,0,0,0,0,0,0,0,0,0,0,0,0,0,0,0,0,0,0,0,0,0,0,0],"sum_hessian":[2.3981E4,1.2506E4,1.1475E4,8.781E3,3.725E3,3.934E3,7.541E3,7.928E3,8.53E2,2.63E3,1.095E3,1.118E3,2.816E3,5.414E3,2.127E3,4.255E3,3.673E3,4.07E2,4.46E2,1.494E3,1.136E3,9.8E1,9.97E2,9.61E2,1.57E2,2.136E3,6.8E2,1.651E3,3.763E3,3.16E2,1.811E3,3.015E3,1.24E3,2.54E2,3.419E3,1.37E2,2.7E2,3.62E2,8.4E1,2.66E2,1.228E3,1.38E2,9.98E2,4.8E1,5E1,8.36E2,1.61E2,3.73E2,5.88E2,3E1,1.27E2,4.48E2,1.688E3,6.52E2,2.8E1,1.264E3,3.87E2,9.29E2,2.834E3,2.72E2,4.4E1,1.8E2,1.631E3,2.107E3,9.08E2,9.09E2,3.31E2,5.8E1,1.96E2,3.108E3,3.11E2,7.9E1,5.8E1,1.66E2,1.04E2,3.7E1,3.25E2,4E1,4.4E1,1.3E2,1.36E2,1.11E3,1.18E2,7.5E1,6.3E1,1.82E2,8.16E2,3.2E1,1.6E1,3.6E1,1.4E1,5.58E2,2.78E2,8.4E1,7.7E1,2.61E2,1.12E2,6.1E1,5.27E2,2.2E1,8E0,1.5E1,1.12E2,1.59E2,2.89E2,2.64E2,1.424E3,2.04E2,4.48E2,1E1,1.8E1,7.2E1,1.192E3,1.34E2,2.53E2,4.3E2,4.99E2,1.654E3,1.18E3,9.6E1,1.76E2,9E0,3.5E1,4.3E1,1.37E2,6.08E2,1.023E3,1.327E3,7.8E2,1.8E2,7.28E2,5.43E2,3.66E2,9.3E1,2.38E2,8E0,5E1,1.75E2,2.1E1,1.776E3,1.332E3,9.5E1,2.16E2,5.5E1,2.4E1,2.9E1,2.9E1,5.2E1,1.14E2,9E0,9.5E1,2.4E1,1.3E1,3.12E2,1.3E1,2.3E1,1.7E1,1.9E1,2.5E1,6.9E1,6.1E1,1.01E2,3.5E1,9.15E2,1.95E2,7.7E1,4.1E1,1.2E1,6.3E1,2.8E1,3.5E1,1.39E2,4.3E1,6.34E2,1.82E2,9E0,2.3E1,8E0,8E0,2.1E1,1.5E1,4.1E1,5.17E2,1.79E2,9.9E1,5.1E1,3.3E1,1.4E1,6.3E1,2.42E2,1.9E1,8.1E1,3.1E1,3.8E1,2.3E1,1.47E2,3.8E2,1E1,1.2E1,1.04E2,8E0,9.3E1,6.6E1,1.5E1,2.74E2,2.15E2,4.9E1,5.69E2,8.55E2,4E1,1.64E2,5.7E1,3.91E2,8E0,1E1,8E0,6.4E1,1.043E3,1.49E2,1.01E2,3.3E1,2.42E2,1.1E1,7E1,3.6E2,2.96E2,2.03E2,1.256E3,3.98E2,5.11E2,6.69E2,1E1,8.6E1,8.7E1,8.9E1,2.9E1,1.4E1,5.9E1,7.8E1,7.5E1,5.33E2,5.92E2,4.31E2],"tree_param":{"num_deleted":"0","num_feature":"21","num_nodes":"243","size_leaf_vector":"1"}},{"base_weights":[-1.8201021E-3,1.6824889E-1,-1.5145692E-1,3.2563934E-1,1.08597085E-1,-8.1716344E-2,-2.681406E-1,3.900877E-1,1.9393861E-1,1.564149E-1,1.2006824E-2,-3.5076022E-2,-2.0693135E-1,-3.0470952E-1,-1.1035706E-2,4.9901575E-1,3.1295165E-1,-2.3143747E-1,2.8086928E-1,1.8138091E-1,-8.119817E-2,-2.332235E-1,3.920121E-2,-6.3472606E-2,2.3504868E-1,-1.4191355E-1,-2.7978718E-1,-2.1810424E-1,-4.2391443E-1,-1.18433475E-1,1.7341125E-1,-6.109281E-2,5.198704E-1,3.9734432E-1,2.092175E-1,8.41812E-2,-8.9206994E-1,1.9827272E-1,3.6320198E-1,1.2568355E-1,2.4728481E-1,7.02215E-2,-1.9266875E-1,-3.8005814E-2,-6.968341E-1,1.0158958E-2,2.1875721E-1,-1.5960086E-2,-2.154871E-1,-1.9280101E-1,2.7230567E-1,-3.7272236E-1,-1.1747838E-1,-2.2831008E-1,-5.387481E-1,-1.906572E-1,-4.5478833E-1,-4.918918E-1,-1.9962977E-1,-9.4234265E-2,-1.0332678E-2,2.132997E-1,-6.552292E-3,-3.5386056E-1,5.395313E-3,5.8409315E-1,4.036879E-1,3.2256854E-1,4.5209613E-1,3.4167793E-1,1.303106E-1,4.325138E-1,-1.6508085E-1,-2.8892009E-2,-4.6039674E-1,2.5527802E-1,-3.4426466E-1,4.0681565E-1,-4.319508E-2,1.021215E-1,2.69347E-1,-8.957529E-2,2.6024315E-1,1.0443492E-1,-1.337374E-1,-2.412915E-1,-5.1373273E-2,1.3500303E-1,-2.0426163E-1,-1.482881E0,-1.29122E-1,4.178947E-2,-1.21560045E-1,4.0247288E-1,1.7144078E-1,3.526523E-2,-9.2142195E-2,-1.8305339E-1,-4.9509642E-1,1.268542E-1,-4.8864543E-1,3.505964E-1,8.231904E-3,-4.809066E-1,-9.716585E-3,-2.2811392E-1,-6.9759905E-2,-4.5636754E-2,-2.627484E-1,-1.677987E-1,-8.637141E-1,-2.4506627E-1,-1.2448704E-1,1.1593202E-1,-4.981632E-1,-3.5572138E-1,-5.706924E-1,-3.1003293E-1,1.1983916E-1,1.3398115E-1,-1.5015012E-1,8.139426E-2,2.5404915E-1,-1.3018325E-3,-7.698189E-3,1.0613236E-2,8.197734E-3,3.8162782E-3,7.5488025E-3,5.3359237E-3,1.8254693E-3,7.7942694E-3,5.560505E-3,3.0468847E-3,5.3029754E-3,2.4727643E-3,6.41477E-4,3.5389503E-3,7.4210167E-3,1.0877816E-4,-1.2197178E-2,2.97825E-3,-1.4669669E-2,4.353464E-3,-3.8535395E-4,8.650931E-3,-1.0836304E-2,7.334569E-3,4.7139684E-3,-8.216053E-3,1.5365091E-3,-2.803916E-4,1.9383564E-3,6.210635E-3,1.2966961E-3,-1.9077715E-2,2.6838365E-3,4.276693E-3,1.792245E-3,-6.1224605E-4,2.5769202E-3,3.7275645E-4,-3.5574131E-3,-2.0560294E-3,-4.037422E-3,-2.7528191E-5,-3.879179E-3,4.0938924E-3,-2.1931157E-3,2.114612E-3,-4.819902E-3,-3.2589205E-2,-1.3775623E-3,-8.275809E-3,1.6738655E-3,1.053048E-3,-1.2611729E-3,-4.277322E-3,-1.098816E-4,6.3919243E-3,2.6461913E-3,-3.162255E-4,3.7997263E-3,-7.551739E-4,2.2873487E-3,-4.150506E-4,-3.23361E-3,-1.4068745E-3,-3.590941E-3,-9.115189E-3,-3.2426075E-3,-1.666354E-3,5.6113107E-3,-0E0,-1.1106732E-2,5.679507E-3,2.7420863E-3,-3.1080055E-3,4.525129E-3,-8.598793E-3,9.525698E-5,3.1951575E-3,-3.8184347E-3,2.4254597E-3,-4.2607747E-3,1.01711965E-4,-2.190299E-3,2.565517E-3,-1.0460797E-3,-5.0197905E-3,-2.7916387E-3,-4.3063E-3,-0E0,-1.7034154E-2,-3.938557E-3,-1.3719592E-3,-4.4054086E-3,5.5904617E-4,-5.345799E-3,-2.891037E-3,6.6751046E-3,-2.933603E-3,-8.627175E-3,-3.8415964E-3,-6.5154713E-3,-1.01052765E-2,-5.9560207E-3,-1.0362478E-3,-5.435937E-3,-5.375463E-4,8.438163E-3,2.8665753E-3,-3.1688178E-3,-1.4001677E-3,-4.627316E-3,2.9915608E-3,-1.6048009E-3,4.5284107E-3,5.8475125E-4],"categories":[],"categories_nodes":[],"categories_segments":[],"categories_sizes":[],"default_left":[0,0,0,0,0,0,0,0,0,0,0,0,0,0,0,0,0,0,0,0,0,0,0,0,0,0,0,0,0,0,0,0,0,0,0,0,0,0,0,0,0,0,0,0,0,0,0,0,0,0,0,0,0,0,0,0,0,0,0,0,0,0,0,0,0,0,0,0,0,0,0,0,0,0,0,0,0,0,0,0,0,0,0,0,0,0,0,0,0,0,0,0,0,0,0,0,0,0,0,0,0,0,0,0,0,0,0,0,0,0,0,0,0,0,0,0,0,0,0,0,0,0,0,0,0,0,0,0,0,0,0,0,0,0,0,0,0,0,0,0,0,0,0,0,0,0,0,0,0,0,0,0,0,0,0,0,0,0,0,0,0,0,0,0,0,0,0,0,0,0,0,0,0,0,0,0,0,0,0,0,0,0,0,0,0,0,0,0,0,0,0,0,0,0,0,0,0,0,0,0,0,0,0,0,0,0,0,0,0,0,0,0,0,0,0,0,0,0,0,0,0,0,0,0,0,0,0,0,0,0,0,0,0,0,0,0,0,0,0],"id":6,"left_children":[1,3,5,7,9,11,13,15,17,19,21,23,25,27,29,31,33,35,37,39,41,43,45,47,49,51,53,55,57,59,61,63,65,67,69,71,73,75,77,79,81,83,85,87,89,91,93,95,97,99,101,103,105,107,109,111,113,115,117,119,-1,121,-1,123,-1,125,127,129,131,133,135,137,139,-1,141,143,145,147,149,151,153,155,157,159,161,163,165,167,169,171,173,175,177,179,181,183,185,187,189,191,193,195,197,199,201,203,205,207,209,211,213,215,217,219,221,223,225,227,229,231,233,235,237,-1,-1,-1,-1,-1,-1,-1,-1,-1,-1,-1,-1,-1,-1,-1,-1,-1,-1,-1,-1,-1,-1,-1,-1,-1,-1,-1,-1,-1,-1,-1,-1,-1,-1,-1,-1,-1,-1,-1,-1,-1,-1,-1,-1,-1,-1,-1,-1,-1,-1,-1,-1,-1,-1,-1,-1,-1,-1,-1,-1,-1,-1,-1,-1,-1,-1,-1,-1,-1,-1,-1,-1,-1,-1,-1,-1,-1,-1,-1,-1,-1,-1,-1,-1,-1,-1,-1,-1,-1,-1,-1,-1,-1,-1,-1,-1,-1,-1,-1,-1,-1,-1,-1,-1,-1,-1,-1,-1,-1,-1,-1,-1,-1,-1,-1,-1],"loss_changes":[6.0462115E2,1.0429251E2,1.027749E2,2.5734222E1,3.723819E1,4.617986E1,4.4404022E1,1.6852325E1,3.7388615E1,3.203984E1,1.782833E1,4.425997E1,1.0055603E1,4.248706E1,1.173474E1,9.982727E0,1.0337013E1,3.603762E1,5.5116043E0,1.782991E1,8.708945E0,2.4025574E1,1.2534304E1,3.7685593E1,8.850536E0,6.2948265E0,1.3163086E1,1.53756485E1,2.6264343E1,4.978405E0,5.446865E0,4.145991E0,5.5639343E0,2.3695145E0,5.566931E0,1.0383377E1,2.307301E1,1.3225441E1,7.455551E0,8.886318E0,9.809906E0,1.5490255E0,1.9874868E0,5.5159173E0,3.4658524E1,8.649654E0,2.7287464E0,1.554642E1,1.1039707E1,4.3844113E0,1.0416107E1,4.175996E0,5.3940916E0,5.2684746E0,1.9622486E1,7.665962E0,6.276451E0,1.3843323E1,1.4469156E1,4.654707E0,0E0,1.0354233E0,0E0,7.0248246E-1,0E0,1.594635E0,4.1048317E0,1.7846546E0,1.6351318E0,1.4650536E-1,1.0091724E0,3.2596397E-1,7.886656E0,0E0,1.4683704E1,3.8090458E0,1.4974297E1,2.5081062E0,3.2168164E0,7.4835167E0,9.725161E0,2.7120163E1,7.430954E0,1.8729563E0,5.534137E-1,5.3141975E-1,7.8207767E-1,3.7225761E0,4.052169E0,3.0884293E1,5.0172887E0,6.002518E0,7.4759035E0,1.6164875E-1,4.2855973E0,2.3916845E1,1.2711927E1,5.5429306E0,3.6943226E0,1.4423763E0,2.9797487E0,1.6530457E0,7.5689435E0,3.7889442E0,1.5632643E0,6.850151E0,4.2463613E0,7.2573555E-1,3.7528114E0,1.6103165E0,1.3674271E1,8.725441E0,3.6696884E1,2.0892181E0,5.096691E0,3.5991707E0,1.4446655E1,3.7447758E0,7.380522E0,1.4866363E0,2.532568E0,1.1995329E0,1.5478802E0,0E0,0E0,0E0,0E0,0E0,0E0,0E0,0E0,0E0,0E0,0E0,0E0,0E0,0E0,0E0,0E0,0E0,0E0,0E0,0E0,0E0,0E0,0E0,0E0,0E0,0E0,0E0,0E0,0E0,0E0,0E0,0E0,0E0,0E0,0E0,0E0,0E0,0E0,0E0,0E0,0E0,0E0,0E0,0E0,0E0,0E0,0E0,0E0,0E0,0E0,0E0,0E0,0E0,0E0,0E0,0E0,0E0,0E0,0E0,0E0,0E0,0E0,0E0,0E0,0E0,0E0,0E0,0E0,0E0,0E0,0E0,0E0,0E0,0E0,0E0,0E0,0E0,0E0,0E0,0E0,0E0,0E0,0E0,0E0,0E0,0E0,0E0,0E0,0E0,0E0,0E0,0E0,0E0,0E0,0E0,0E0,0E0,0E0,0E0,0E0,0E0,0E0,0E0,0E0,0E0,0E0,0E0,0E0,0E0,0E0,0E0,0E0,0E0,0E0,0E0,0E0],"parents":[2147483647,0,0,1,1,2,2,3,3,4,4,5,5,6,6,7,7,8,8,9,9,10,10,11,11,12,12,13,13,14,14,15,15,16,16,17,17,18,18,19,19,20,20,21,21,22,22,23,23,24,24,25,25,26,26,27,27,28,28,29,29,30,30,31,31,32,32,33,33,34,34,35,35,36,36,37,37,38,38,39,39,40,40,41,41,42,42,43,43,44,44,45,45,46,46,47,47,48,48,49,49,50,50,51,51,52,52,53,53,54,54,55,55,56,56,57,57,58,58,59,59,61,61,63,63,65,65,66,66,67,67,68,68,69,69,70,70,71,71,72,72,74,74,75,75,76,76,77,77,78,78,79,79,80,80,81,81,82,82,83,83,84,84,85,85,86,86,87,87,88,88,89,89,90,90,91,91,92,92,93,93,94,94,95,95,96,96,97,97,98,98,99,99,100,100,101,101,102,102,103,103,104,104,105,105,106,106,107,107,108,108,109,109,110,110,111,111,112,112,113,113,114,114,115,115,116,116,117,117,118,118,119,119,120,120,121,121,122,122],"right_children":[2,4,6,8,10,12,14,16,18,20,22,24,26,28,30,32,34,36,38,40,42,44,46,48,50,52,54,56,58,60,62,64,66,68,70,72,74,76,78,80,82,84,86,88,90,92,94,96,98,100,102,104,106,108,110,112,114,116,118,120,-1,122,-1,124,-1,126,128,130,132,134,136,138,140,-1,142,144,146,148,150,152,154,156,158,160,162,164,166,168,170,172,174,176,178,180,182,184,186,188,190,192,194,196,198,200,202,204,206,208,210,212,214,216,218,220,222,224,226,228,230,232,234,236,238,-1,-1,-1,-1,-1,-1,-1,-1,-1,-1,-1,-1,-1,-1,-1,-1,-1,-1,-1,-1,-1,-1,-1,-1,-1,-1,-1,-1,-1,-1,-1,-1,-1,-1,-1,-1,-1,-1,-1,-1,-1,-1,-1,-1,-1,-1,-1,-1,-1,-1,-1,-1,-1,-1,-1,-1,-1,-1,-1,-1,-1,-1,-1,-1,-1,-1,-1,-1,-1,-1,-1,-1,-1,-1,-1,-1,-1,-1,-1,-1,-1,-1,-1,-1,-1,-1,-1,-1,-1,-1,-1,-1,-1,-1,-1,-1,-1,-1,-1,-1,-1,-1,-1,-1,-1,-1,-1,-1,-1,-1,-1,-1,-1,-1,-1,-1],"split_conditions":[7.233333E0,2.4E0,1.159E1,1.2246469E-16,5E-1,7.0710677E-1,1E0,2.28E2,1.2246469E-16,5.87E2,-2.4492937E-16,1E0,1.6014467E0,2.5881904E-1,8.660254E-1,1.8684483E1,1.9928814E1,1E0,2.0343332E1,1.4700001E1,4.483333E0,1E0,1E0,3.51E2,-9.659258E-1,-5E-1,1E0,1E0,1E0,1.1324999E0,1E0,2.6152778E0,8.660254E-1,1.810339E1,2E-1,7.0710677E-1,5E-1,1E0,1E0,1E0,-5E-1,2.1761667E1,0E0,5.17E0,9.844999E0,1E0,7.0710677E-1,8.660254E-1,2.1761667E1,-2.4492937E-16,2.0076668E1,9.844999E0,8.660254E-1,7.69E0,1E0,-2.5881904E-1,-9.659258E-1,1.31E1,2.182606E1,1.24E1,-1.0332678E-2,0E0,-6.552292E-3,-1.3E-1,5.395313E-3,-1.12E0,8E0,1.7775E1,1.9166101E1,-2.4492937E-16,1E0,2E0,3.2104802E0,-2.8892009E-2,4E0,1E0,-6.6E-1,7.0710677E-1,3.7E-1,4.516667E0,1.942034E1,1.9471666E1,1E0,2.259526E0,1E0,2.0628815E1,2.2055E1,9.659258E-1,1.6291667E0,5.47E0,8.660254E-1,1E0,8.660254E-1,1.9983334E1,8.660254E-1,8E0,1.011E1,8.660254E-1,0E0,1.0779999E1,1.928421E1,1.1676666E1,-2.5881904E-1,1E0,1.044E1,8.13E0,8.660254E-1,7.3E0,1E0,1E0,8.660254E-1,-8.660254E-1,1E0,1.93E1,1.88E1,5E-1,2.2141666E1,2.0545E1,1E0,2.0628815E1,5E-1,1.396E1,2.0573334E1,-1.3018325E-3,-7.698189E-3,1.0613236E-2,8.197734E-3,3.8162782E-3,7.5488025E-3,5.3359237E-3,1.8254693E-3,7.7942694E-3,5.560505E-3,3.0468847E-3,5.3029754E-3,2.4727643E-3,6.41477E-4,3.5389503E-3,7.4210167E-3,1.0877816E-4,-1.2197178E-2,2.97825E-3,-1.4669669E-2,4.353464E-3,-3.8535395E-4,8.650931E-3,-1.0836304E-2,7.334569E-3,4.7139684E-3,-8.216053E-3,1.5365091E-3,-2.803916E-4,1.9383564E-3,6.210635E-3,1.2966961E-3,-1.9077715E-2,2.6838365E-3,4.276693E-3,1.792245E-3,-6.1224605E-4,2.5769202E-3,3.7275645E-4,-3.5574131E-3,-2.0560294E-3,-4.037422E-3,-2.7528191E-5,-3.879179E-3,4.0938924E-3,-2.1931157E-3,2.114612E-3,-4.819902E-3,-3.2589205E-2,-1.3775623E-3,-8.275809E-3,1.6738655E-3,1.053048E-3,-1.2611729E-3,-4.277322E-3,-1.098816E-4,6.3919243E-3,2.6461913E-3,-3.162255E-4,3.7997263E-3,-7.551739E-4,2.2873487E-3,-4.150506E-4,-3.23361E-3,-1.4068745E-3,-3.590941E-3,-9.115189E-3,-3.2426075E-3,-1.666354E-3,5.6113107E-3,-0E0,-1.1106732E-2,5.679507E-3,2.7420863E-3,-3.1080055E-3,4.525129E-3,-8.598793E-3,9.525698E-5,3.1951575E-3,-3.8184347E-3,2.4254597E-3,-4.2607747E-3,1.01711965E-4,-2.190299E-3,2.565517E-3,-1.0460797E-3,-5.0197905E-3,-2.7916387E-3,-4.3063E-3,-0E0,-1.7034154E-2,-3.938557E-3,-1.3719592E-3,-4.4054086E-3,5.5904617E-4,-5.345799E-3,-2.891037E-3,6.6751046E-3,-2.933603E-3,-8.627175E-3,-3.8415964E-3,-6.5154713E-3,-1.01052765E-2,-5.9560207E-3,-1.0362478E-3,-5.435937E-3,-5.375463E-4,8.438163E-3,2.8665753E-3,-3.1688178E-3,-1.4001677E-3,-4.627316E-3,2.9915608E-3,-1.6048009E-3,4.5284107E-3,5.8475125E-4],"split_indices":[0,0,0,7,7,7,16,20,9,20,9,16,5,7,9,3,3,17,3,4,0,17,16,20,7,9,7,15,13,5,7,5,9,4,0,7,7,17,13,16,9,3,7,0,4,9,7,9,3,9,3,4,7,0,13,7,7,0,3,0,0,7,0,0,0,0,6,4,3,9,9,11,5,0,11,9,0,7,0,0,3,3,9,5,11,3,3,7,5,0,7,15,7,3,7,6,0,9,7,4,3,4,7,7,0,0,9,0,13,17,9,7,17,3,3,9,3,3,7,3,7,0,3,0,0,0,0,0,0,0,0,0,0,0,0,0,0,0,0,0,0,0,0,0,0,0,0,0,0,0,0,0,0,0,0,0,0,0,0,0,0,0,0,0,0,0,0,0,0,0,0,0,0,0,0,0,0,0,0,0,0,0,0,0,0,0,0,0,0,0,0,0,0,0,0,0,0,0,0,0,0,0,0,0,0,0,0,0,0,0,0,0,0,0,0,0,0,0,0,0,0,0,0,0,0,0,0,0,0,0,0,0,0,0,0,0,0,0,0],"split_type":[0,0,0,0,0,0,0,0,0,0,0,0,0,0,0,0,0,0,0,0,0,0,0,0,0,0,0,0,0,0,0,0,0,0,0,0,0,0,0,0,0,0,0,0,0,0,0,0,0,0,0,0,0,0,0,0,0,0,0,0,0,0,0,0,0,0,0,0,0,0,0,0,0,0,0,0,0,0,0,0,0,0,0,0,0,0,0,0,0,0,0,0,0,0,0,0,0,0,0,0,0,0,0,0,0,0,0,0,0,0,0,0,0,0,0,0,0,0,0,0,0,0,0,0,0,0,0,0,0,0,0,0,0,0,0,0,0,0,0,0,0,0,0,0,0,0,0,0,0,0,0,0,0,0,0,0,0,0,0,0,0,0,0,0,0,0,0,0,0,0,0,0,0,0,0,0,0,0,0,0,0,0,0,0,0,0,0,0,0,0,0,0,0,0,0,0,0,0,0,0,0,0,0,0,0,0,0,0,0,0,0,0,0,0,0,0,0,0,0,0,0,0,0,0,0,0,0,0,0,0,0,0,0,0,0,0,0,0,0],"sum_hessian":[2.3755E4,1.1118E4,1.2637E4,3.053E3,8.065E3,7.912E3,4.725E3,2.047E3,1.006E3,5.393E3,2.672E3,5.767E3,2.145E3,4.136E3,5.89E2,8.44E2,1.203E3,1.7E2,8.36E2,4.881E3,5.12E2,2.65E2,2.407E3,5.22E3,5.47E2,1.137E3,1.008E3,2.399E3,1.737E3,3.73E2,2.16E2,3E1,8.14E2,6.6E2,5.43E2,1.16E2,5.4E1,4.21E2,4.15E2,2.649E3,2.232E3,2.17E2,2.95E2,1.88E2,7.7E1,2.074E3,3.33E2,3.979E3,1.241E3,4.3E1,5.04E2,1.06E2,1.031E3,8.44E2,1.64E2,2.153E3,2.46E2,1.331E3,4.06E2,3.6E2,1.3E1,2.04E2,1.2E1,1.8E1,1.2E1,5.19E2,2.95E2,2.85E2,3.75E2,2E2,3.43E2,4.8E1,6.8E1,1.4E1,4E1,3.82E2,3.9E1,3.75E2,4E1,2.279E3,3.7E2,8.2E1,2.15E3,1.87E2,3E1,2.18E2,7.7E1,9.2E1,9.6E1,3.1E1,4.6E1,1.674E3,4E2,6.5E1,2.68E2,2.379E3,1.6E3,1.115E3,1.26E2,2.1E1,2.2E1,3.88E2,1.16E2,8.1E1,2.5E1,3.08E2,7.23E2,1.35E2,7.09E2,7.8E1,8.6E1,1.178E3,9.75E2,1.7E1,2.29E2,4.92E2,8.39E2,3.02E2,1.04E2,7E1,2.9E2,5E1,1.54E2,8E0,1E1,1.13E2,4.06E2,1.21E2,1.74E2,2.43E2,4.2E1,1.99E2,1.76E2,1.9E1,1.81E2,2.44E2,9.9E1,1.4E1,3.4E1,5.5E1,1.3E1,1.8E1,2.2E1,3.4E2,4.2E1,1.1E1,2.8E1,1.94E2,1.81E2,8E0,3.2E1,4.17E2,1.862E3,2.05E2,1.65E2,1.4E1,6.8E1,1.825E3,3.25E2,5.9E1,1.28E2,1.2E1,1.8E1,4.9E1,1.69E2,6.4E1,1.3E1,6.2E1,3E1,2.4E1,7.2E1,2E1,1.1E1,1.6E1,3E1,1.367E3,3.07E2,1.63E2,2.37E2,5.7E1,8E0,8E1,1.88E2,1.375E3,1.004E3,1.053E3,5.47E2,4.34E2,6.81E2,8.8E1,3.8E1,1.1E1,1E1,8E0,1.4E1,3.3E2,5.8E1,6.7E1,4.9E1,6.8E1,1.3E1,1.3E1,1.2E1,3.8E1,2.7E2,3.61E2,3.62E2,1.2E1,1.23E2,3.62E2,3.47E2,4.5E1,3.3E1,5.8E1,2.8E1,2.85E2,8.93E2,5.75E2,4E2,9E0,8E0,4.8E1,1.81E2,2.21E2,2.71E2,5.23E2,3.16E2,5.5E1,2.47E2,7.8E1,2.6E1,6.1E1,9E0,2.16E2,7.4E1,3.1E1,1.9E1,1.25E2,2.9E1],"tree_param":{"num_deleted":"0","num_feature":"21","num_nodes":"239","size_leaf_vector":"1"}},{"base_weights":[-9.95799E-4,-1.5928131E-1,1.6937456E-1,-9.183016E-2,-2.8301293E-1,3.3477023E-1,1.10278904E-1,-1.9611306E-1,-3.3215098E-2,-4.073039E-1,-1.9928725E-1,3.8320458E-1,2.1430624E-1,1.5212125E-1,-6.779033E-5,-2.1515444E-1,9.673282E-2,2.4132092E-2,-1.8552957E-1,-2.130465E-1,-5.073925E-1,-1.4933975E-1,-4.490957E-1,4.9014574E-1,3.059507E-1,2.6504332E-1,-6.8815464E-1,1.2720502E-2,2.0943187E-1,-1.28984E-1,5.2378364E-2,-1.6520964E-1,-3.1512427E-1,2.771687E-1,-2.4548447E-1,8.1969367E-4,1.9042756E-1,-2.579323E-1,-7.568691E-2,-2.4371839E-1,2.1548963E-1,-6.967923E-1,-3.3078617E-1,-1.03668235E-2,-2.2644018E-1,-8.00922E-2,-5.2554804E-1,-1.1894405E-1,5.1224047E-1,3.9385846E-1,2.1029377E-1,2.8890412E-2,3.0031392E-1,-1.010266E0,1.0550024E-2,6.833958E-2,-1.55764E-1,1.500651E-1,2.5842458E-1,-4.9494658E-2,-6.1331666E-1,-2.1170643E-1,9.378719E-2,-7.6997645E-2,-2.1377584E-1,-4.2695948E-1,-2.5707674E-1,-4.706544E-3,3.3267176E-1,-1.7824093E-2,-4.4274262E-1,1.1004471E-1,-5.771411E-2,-3.179445E-1,2.3672524E-1,-1.3102163E-1,-3.39037E-1,-2.0060062E-2,-2.0190682E-1,-2.2992957E-1,-1.449827E-2,9.018199E-2,3.351428E-1,-9.599752E-1,-4.8649374E-1,-1.131788E-1,-4.109281E-1,-1.3023509E-1,3.261755E-2,-4.215317E-2,-2.801799E-1,-0E0,-9.453408E-3,-2.1850109E-1,-6.2500644E-1,-1.355526E-2,2.4195054E-1,5.823076E-1,3.8957152E-1,3.2595277E-1,4.58882E-1,2.7691664E-2,2.8060034E-1,-5.3715426E-1,1.9965906E-1,4.837965E-1,2.6005432E-1,2.0705091E-3,-1.7486256E0,8.927571E-2,-3.6053542E-2,-2.1897252E-1,5.075581E-3,1.2707205E-1,2.8687313E-1,2.1038724E-2,2.6704636E-1,-4.3543872E-1,1.23712346E-1,-3.3662808E-1,-1.988904E-2,-7.7883446E-1,-5.7401117E-2,2.2691593E-2,1.8799856E-1,4.3763444E-3,-1.2834166E-3,-2.4670972E-3,-4.3357643E-3,-8.580835E-3,-3.3157053E-3,-3.1145522E-3,-6.081038E-3,5.686134E-3,-2.0703545E-3,1.9633833E-3,-5.561211E-3,-1.0919043E-2,1.4613875E-3,3.731274E-3,-1.3837499E-4,-1.8688441E-3,-1.1541573E-4,4.2047142E-4,-1.8432755E-2,4.341339E-3,-3.7672808E-3,-7.3859673E-3,-8.6234923E-4,-3.9490713E-3,-1.0501657E-2,1.563357E-3,-1.3897391E-3,-1.8706803E-3,-9.0686595E-3,-1.2472497E-3,-4.1937074E-3,-2.1239412E-4,3.620987E-3,1.5061854E-3,7.0573553E-3,-1.1778988E-2,-2.0906279E-2,-4.6547162E-3,-9.003784E-3,-2.5641683E-3,6.1210957E-3,-4.5350622E-3,-8.7120775E-3,-2.5338717E-3,7.896328E-3,1.8072154E-3,-1.0071355E-3,8.4346323E-4,-5.9400722E-3,-3.459426E-3,-9.801488E-3,1.893634E-3,-2.170798E-3,-2.1274923E-3,-1.0525178E-2,-1.0791543E-2,-4.9327896E-3,6.253018E-3,-4.3225277E-4,1.0231256E-2,7.78427E-3,7.288902E-3,3.756303E-3,2.5928258E-3,5.5514444E-3,7.737627E-3,5.4956013E-3,-1.8849814E-3,1.20348E-3,3.0053046E-3,5.1248586E-3,-1.7038902E-2,5.891392E-4,6.1567016E-3,-1.2736121E-3,5.1494115E-3,8.672304E-3,4.4550924E-3,1.7631273E-3,-3.9113753E-2,-1.515472E-2,9.028342E-4,2.4819362E-3,9.633433E-4,-8.614038E-3,-3.903191E-3,-1.5529057E-3,-6.350552E-4,2.2838707E-3,3.0171785E-3,1.3462658E-3,7.028543E-3,1.5124494E-3,3.400691E-3,-7.0382124E-3,3.3091127E-3,4.402231E-3,-1.3244666E-2,-5.1355944E-3,-1.7590936E-4,3.8286946E-3,3.608481E-3,-6.4396537E-3,-1.7018668E-2,-2.5135342E-3,4.1181385E-3,-1.9656613E-3,1.7296079E-3,-1.0265722E-3,4.9932995E-3,2.2945816E-3],"categories":[],"categories_nodes":[],"categories_segments":[],"categories_sizes":[],"default_left":[0,0,0,0,0,0,0,0,0,0,0,0,0,0,0,0,0,0,0,0,0,0,0,0,0,0,0,0,0,0,0,0,0,0,0,0,0,0,0,0,0,0,0,0,0,0,0,0,0,0,0,0,0,0,0,0,0,0,0,0,0,0,0,0,0,0,0,0,0,0,0,0,0,0,0,0,0,0,0,0,0,0,0,0,0,0,0,0,0,0,0,0,0,0,0,0,0,0,0,0,0,0,0,0,0,0,0,0,0,0,0,0,0,0,0,0,0,0,0,0,0,0,0,0,0,0,0,0,0,0,0,0,0,0,0,0,0,0,0,0,0,0,0,0,0,0,0,0,0,0,0,0,0,0,0,0,0,0,0,0,0,0,0,0,0,0,0,0,0,0,0,0,0,0,0,0,0,0,0,0,0,0,0,0,0,0,0,0,0,0,0,0,0,0,0,0,0,0,0,0,0,0,0,0,0,0,0,0,0,0,0,0,0,0,0,0,0,0,0,0,0,0,0,0,0,0,0,0,0,0,0,0,0,0,0,0,0],"id":7,"left_children":[1,3,5,7,9,11,13,15,17,19,21,23,25,27,29,31,33,35,37,39,41,43,45,47,49,51,53,55,57,59,61,63,65,67,69,71,73,75,77,79,81,83,85,87,89,91,93,95,97,99,101,103,105,107,-1,109,111,113,115,117,119,121,123,125,127,129,131,-1,133,135,137,139,141,143,145,147,149,151,153,155,-1,157,159,161,163,165,167,169,171,173,175,177,-1,179,181,-1,183,185,187,189,191,193,195,197,199,201,203,-1,205,207,209,211,213,215,217,219,221,223,225,227,-1,229,231,233,235,-1,-1,-1,-1,-1,-1,-1,-1,-1,-1,-1,-1,-1,-1,-1,-1,-1,-1,-1,-1,-1,-1,-1,-1,-1,-1,-1,-1,-1,-1,-1,-1,-1,-1,-1,-1,-1,-1,-1,-1,-1,-1,-1,-1,-1,-1,-1,-1,-1,-1,-1,-1,-1,-1,-1,-1,-1,-1,-1,-1,-1,-1,-1,-1,-1,-1,-1,-1,-1,-1,-1,-1,-1,-1,-1,-1,-1,-1,-1,-1,-1,-1,-1,-1,-1,-1,-1,-1,-1,-1,-1,-1,-1,-1,-1,-1,-1,-1,-1,-1,-1,-1,-1,-1,-1,-1,-1,-1,-1,-1,-1,-1],"loss_changes":[6.434786E2,1.0315216E2,1.1221179E2,4.8919518E1,4.5194E1,1.7435059E1,3.912169E1,1.6113174E1,4.4832016E1,3.3832428E1,3.2395195E1,1.7444336E1,4.0204178E1,4.9040726E1,1.5771972E1,1.3368248E1,1.1042736E1,1.4432329E1,1.1095791E1,7.9811344E0,3.8143005E1,2.3317657E1,1.2101677E1,1.2258209E1,1.0350517E1,6.838089E0,2.2286135E1,1.680129E1,1.2546692E1,2.5858395E1,1.8141788E1,7.6904144E0,5.568817E0,4.020687E0,2.715045E0,2.0934443E1,1.0902344E1,8.568607E0,3.9080105E0,5.0698204E0,